#ifndef MNIST_WEIGHTS_H
#define MNIST_WEIGHTS_H

const float conv1_weights[8][1][3][3] PROGMEM = {
  {
    {
      {0.304549f,-0.602750f,-0.357270f},
      {0.609425f,0.087874f,0.052147f},
      {0.056115f,0.066752f,0.039055f}
    }
  },
  {
    {
      {-0.232788f,0.678371f,0.067203f},
      {-0.742116f,0.364042f,0.331152f},
      {-0.641255f,0.228690f,0.254149f}
    }
  },
  {
    {
      {0.222973f,0.470826f,0.002091f},
      {0.290709f,0.115644f,-0.403423f},
      {0.360953f,0.387009f,-0.494307f}
    }
  },
  {
    {
      {-0.492320f,0.052833f,1.001763f},
      {-0.797877f,-0.492177f,-0.174873f},
      {-0.360260f,-0.651029f,-0.357173f}
    }
  },
  {
    {
      {-0.578329f,-0.290449f,0.520388f},
      {0.389794f,0.620558f,0.130543f},
      {0.031244f,0.251384f,-0.250031f}
    }
  },
  {
    {
      {0.278921f,0.079885f,-0.297422f},
      {0.092295f,0.346155f,0.319426f},
      {0.299613f,0.159937f,0.449990f}
    }
  },
  {
    {
      {0.248109f,0.159724f,0.308968f},
      {0.292410f,0.434973f,0.115820f},
      {-0.389866f,0.282907f,0.239925f}
    }
  },
  {
    {
      {0.569458f,0.587773f,0.317969f},
      {0.323778f,0.070075f,0.117677f},
      {-0.746764f,-0.836244f,-0.438211f}
    }
  }
};
const float conv1_bias[8] PROGMEM = {0.099860f,0.086040f,0.400719f,0.071827f,0.269355f,-0.310426f,0.048314f,0.131171f};
const float conv2_weights[16][8][3][3] PROGMEM = {
  {
    {
      {-0.109983f,-0.067910f,-0.042056f},
      {0.062026f,-0.202494f,-0.136445f},
      {-0.416568f,-0.054309f,0.151884f}
    },
    {
      {-0.147967f,0.063160f,-0.032928f},
      {-0.006476f,-0.259775f,-0.153326f},
      {-0.129569f,0.042684f,0.199695f}
    },
    {
      {-0.186963f,0.033582f,0.091137f},
      {-0.174984f,0.005810f,0.198406f},
      {0.003162f,-0.042470f,0.253537f}
    },
    {
      {-0.091386f,-0.073401f,-0.357941f},
      {-0.180857f,-0.218017f,-0.339699f},
      {-0.120135f,-0.134962f,-0.124265f}
    },
    {
      {-0.002757f,-0.014574f,0.208827f},
      {0.173394f,-0.104768f,0.152398f},
      {-0.109576f,-0.099154f,-0.104420f}
    },
    {
      {0.114831f,0.043689f,0.130175f},
      {0.158739f,-0.104399f,-0.035916f},
      {0.024423f,0.176536f,0.191229f}
    },
    {
      {-0.043102f,0.106794f,0.111832f},
      {0.068476f,0.117773f,0.091964f},
      {0.029564f,0.070354f,-0.010831f}
    },
    {
      {-0.318610f,-0.371254f,-0.061632f},
      {-0.014740f,-0.291786f,-0.264179f},
      {0.027883f,0.002065f,-0.113180f}
    }
  },
  {
    {
      {-0.152262f,0.028593f,0.236570f},
      {-0.269475f,-0.190049f,0.060321f},
      {-0.036423f,0.172543f,-0.051807f}
    },
    {
      {0.035959f,0.271855f,-0.018022f},
      {0.138915f,0.255157f,0.157301f},
      {0.052925f,0.000982f,0.044451f}
    },
    {
      {-0.223533f,0.179418f,0.183856f},
      {-0.276399f,0.096582f,0.091236f},
      {0.058946f,0.122930f,-0.063506f}
    },
    {
      {0.237913f,0.156445f,-0.115180f},
      {-0.172620f,-0.263804f,-0.033609f},
      {-0.547701f,-0.432793f,0.159756f}
    },
    {
      {-0.282066f,-0.061541f,-0.119263f},
      {-0.113162f,0.108243f,-0.058389f},
      {0.181223f,0.127634f,-0.132767f}
    },
    {
      {-0.102528f,0.031266f,-0.058179f},
      {-0.202596f,-0.128809f,-0.081589f},
      {-0.142628f,-0.176304f,0.038411f}
    },
    {
      {0.086660f,0.225567f,0.075902f},
      {-0.089299f,-0.016808f,-0.017339f},
      {-0.041586f,-0.006550f,-0.202734f}
    },
    {
      {0.250455f,-0.300582f,-0.189088f},
      {-0.056778f,-0.230651f,-0.053661f},
      {0.204608f,0.221076f,-0.031453f}
    }
  },
  {
    {
      {0.163393f,-0.034213f,-0.106088f},
      {0.049589f,0.091265f,0.053908f},
      {-0.289249f,-0.065316f,-0.304779f}
    },
    {
      {-0.234396f,-0.118099f,-0.246249f},
      {-0.078810f,0.124186f,-0.085731f},
      {-0.254585f,-0.115469f,0.053097f}
    },
    {
      {0.110557f,0.034371f,-0.023535f},
      {-0.013755f,0.156754f,-0.002187f},
      {-0.289712f,-0.209673f,-0.060757f}
    },
    {
      {-0.050316f,-0.041362f,-0.138918f},
      {0.090414f,-0.204088f,-0.194796f},
      {-0.042767f,0.041925f,0.194028f}
    },
    {
      {0.111801f,0.124476f,0.122384f},
      {-0.063654f,0.162752f,0.250721f},
      {-0.368652f,-0.260900f,-0.103510f}
    },
    {
      {0.211046f,0.049703f,0.160059f},
      {0.055806f,0.291796f,0.153225f},
      {-0.245729f,-0.268541f,-0.292078f}
    },
    {
      {0.064643f,-0.114371f,-0.041533f},
      {0.170977f,0.170001f,0.209609f},
      {-0.320036f,-0.013317f,-0.003707f}
    },
    {
      {-0.160387f,-0.414474f,-0.342479f},
      {0.187054f,0.204984f,0.121491f},
      {-0.128899f,0.269778f,0.515328f}
    }
  },
  {
    {
      {0.107152f,0.166186f,0.061545f},
      {-0.039729f,-0.111894f,0.086676f},
      {0.254563f,-0.082887f,-0.068450f}
    },
    {
      {-0.028326f,0.235844f,0.035266f},
      {-0.204433f,0.097698f,0.103853f},
      {0.114168f,0.027520f,-0.120236f}
    },
    {
      {-0.157806f,0.091065f,-0.064323f},
      {-0.211854f,-0.198733f,-0.131429f},
      {0.044879f,-0.008749f,0.081223f}
    },
    {
      {-0.066938f,-0.212520f,0.170144f},
      {-0.129460f,-0.077880f,-0.254672f},
      {-0.304788f,-0.191832f,-0.057043f}
    },
    {
      {0.211497f,0.168517f,-0.322854f},
      {-0.162554f,-0.177443f,0.202586f},
      {0.269194f,0.285555f,-0.044023f}
    },
    {
      {0.086846f,-0.101455f,-0.294771f},
      {-0.203897f,-0.058813f,0.141187f},
      {0.061156f,-0.004599f,-0.140219f}
    },
    {
      {0.001412f,0.034676f,-0.087074f},
      {0.005593f,-0.086651f,-0.161431f},
      {0.086593f,0.071299f,-0.177734f}
    },
    {
      {0.270526f,0.160552f,0.051404f},
      {0.206732f,-0.022719f,-0.176664f},
      {-0.278426f,0.170201f,0.304109f}
    }
  },
  {
    {
      {-0.091749f,-0.195253f,-0.233016f},
      {-0.184372f,-0.132615f,-0.008351f},
      {0.027358f,0.149200f,-0.182703f}
    },
    {
      {-0.133358f,0.079577f,0.202709f},
      {0.197588f,0.036713f,-0.233532f},
      {-0.110099f,-0.081937f,-0.233176f}
    },
    {
      {-0.109035f,-0.320703f,0.023996f},
      {-0.143244f,0.193797f,0.145982f},
      {0.230956f,0.171942f,0.000885f}
    },
    {
      {0.293409f,-0.025023f,-0.277834f},
      {-0.302566f,-0.380537f,-0.331507f},
      {-0.008710f,-0.197033f,-0.080557f}
    },
    {
      {-0.073560f,-0.215297f,0.247748f},
      {-0.046372f,0.391649f,0.233178f},
      {0.202802f,0.038722f,-0.153359f}
    },
    {
      {-0.308348f,-0.058125f,0.174151f},
      {0.039108f,0.032433f,-0.199381f},
      {-0.014692f,-0.071204f,-0.224393f}
    },
    {
      {-0.179289f,-0.162857f,0.113545f},
      {-0.136620f,0.113321f,0.051744f},
      {-0.036500f,0.060800f,-0.286936f}
    },
    {
      {0.319510f,0.125139f,-0.208811f},
      {-0.329219f,-0.045234f,0.435212f},
      {-0.150372f,0.284505f,0.100550f}
    }
  },
  {
    {
      {-0.007506f,-0.194997f,0.045884f},
      {0.048615f,-0.413941f,-0.126771f},
      {-0.059578f,-0.192071f,0.012748f}
    },
    {
      {-0.297196f,0.052546f,0.423072f},
      {-0.421753f,0.167932f,0.283378f},
      {-0.213428f,-0.029672f,0.174996f}
    },
    {
      {0.273085f,0.016637f,0.038012f},
      {0.007287f,-0.234140f,0.125841f},
      {-0.114519f,-0.305699f,0.214696f}
    },
    {
      {-0.105922f,-0.045166f,-0.262767f},
      {-0.066012f,-0.006447f,-0.129555f},
      {-0.187815f,-0.017320f,0.015769f}
    },
    {
      {0.028137f,-0.109530f,0.099805f},
      {-0.185920f,-0.098095f,0.030803f},
      {-0.193257f,-0.104416f,0.018762f}
    },
    {
      {0.032766f,-0.103420f,0.178653f},
      {-0.235760f,-0.222745f,0.222181f},
      {-0.231390f,-0.135047f,0.140851f}
    },
    {
      {0.112860f,-0.081665f,0.219939f},
      {-0.206258f,-0.209076f,0.228345f},
      {-0.108181f,-0.014925f,0.239887f}
    },
    {
      {0.127673f,0.105115f,-0.242351f},
      {0.179690f,-0.318607f,-0.444165f},
      {0.053513f,-0.196341f,-0.540784f}
    }
  },
  {
    {
      {-0.090129f,-0.179688f,0.121309f},
      {0.066661f,0.130444f,0.217727f},
      {-0.080066f,-0.032142f,-0.050922f}
    },
    {
      {0.015011f,0.025873f,-0.279533f},
      {-0.026534f,0.095460f,-0.030463f},
      {-0.069729f,-0.116004f,0.123004f}
    },
    {
      {0.086489f,0.075441f,-0.004164f},
      {-0.024123f,0.080862f,-0.120336f},
      {0.055728f,-0.097410f,0.000699f}
    },
    {
      {-0.341933f,-0.163636f,0.107440f},
      {0.075420f,-0.145548f,-0.434901f},
      {0.128130f,0.106303f,0.390304f}
    },
    {
      {-0.089124f,-0.082621f,-0.390621f},
      {0.084106f,0.179819f,0.189497f},
      {-0.070721f,-0.158748f,-0.104522f}
    },
    {
      {0.007351f,-0.068567f,-0.317733f},
      {0.182431f,0.207320f,0.199958f},
      {-0.088620f,-0.217853f,-0.102319f}
    },
    {
      {-0.034558f,-0.074820f,-0.337691f},
      {0.100740f,-0.045106f,0.217579f},
      {-0.001750f,0.009028f,0.124694f}
    },
    {
      {-0.309120f,0.006883f,0.027218f},
      {-0.060586f,-0.046514f,-0.348712f},
      {0.037778f,0.444334f,0.496019f}
    }
  },
  {
    {
      {0.045234f,0.192303f,0.181435f},
      {0.150410f,0.066949f,-0.451632f},
      {0.030309f,-0.011268f,-0.188704f}
    },
    {
      {0.320612f,0.086972f,0.057950f},
      {0.121931f,-0.305533f,0.267012f},
      {-0.268412f,0.163620f,0.245468f}
    },
    {
      {0.245877f,0.144144f,-0.213372f},
      {0.309966f,0.114552f,-0.341385f},
      {0.044441f,-0.242563f,0.074264f}
    },
    {
      {-0.025926f,0.013445f,-0.136807f},
      {-0.080751f,-0.024481f,-0.017518f},
      {-0.080534f,-0.141526f,-0.100446f}
    },
    {
      {0.154936f,0.003071f,-0.455287f},
      {0.116133f,-0.447218f,-0.010748f},
      {0.032277f,-0.290255f,0.019622f}
    },
    {
      {0.149356f,0.102246f,-0.086493f},
      {0.240246f,-0.331578f,-0.095479f},
      {-0.233060f,-0.320933f,0.037529f}
    },
    {
      {0.085424f,0.030319f,-0.234499f},
      {0.132314f,-0.195041f,0.053596f},
      {-0.049424f,-0.336387f,0.026683f}
    },
    {
      {-0.123475f,-0.017714f,-0.026886f},
      {0.020440f,0.033104f,-0.273952f},
      {0.332288f,0.002698f,-0.474864f}
    }
  },
  {
    {
      {-0.281611f,0.211502f,0.029617f},
      {-0.176877f,0.106812f,0.055943f},
      {-0.000514f,-0.017453f,-0.074898f}
    },
    {
      {0.295702f,0.109556f,-0.078179f},
      {0.194314f,-0.068202f,-0.262299f},
      {0.159020f,0.066283f,-0.408909f}
    },
    {
      {0.020021f,0.212704f,-0.132649f},
      {0.027739f,-0.002097f,0.072714f},
      {-0.080871f,0.083075f,0.168337f}
    },
    {
      {-0.114475f,-0.137394f,0.123336f},
      {-0.002802f,0.121860f,-0.187655f},
      {0.205318f,0.148062f,-0.133477f}
    },
    {
      {0.055670f,-0.047811f,-0.108746f},
      {-0.086230f,-0.084005f,0.041423f},
      {-0.102652f,0.000043f,-0.184512f}
    },
    {
      {-0.033032f,0.012798f,0.110516f},
      {-0.031909f,0.211301f,0.127733f},
      {-0.031547f,0.038799f,-0.360295f}
    },
    {
      {0.166016f,0.094891f,-0.179924f},
      {-0.005979f,0.010654f,0.088330f},
      {0.160444f,-0.045810f,-0.190183f}
    },
    {
      {-0.905352f,-0.290281f,-0.248830f},
      {-0.981749f,-0.338829f,-0.202600f},
      {-0.311878f,0.074486f,0.363312f}
    }
  },
  {
    {
      {-0.159468f,-0.021533f,-0.157969f},
      {-0.006843f,-0.133190f,-0.063692f},
      {0.281213f,0.098755f,0.332013f}
    },
    {
      {-0.076824f,-0.064279f,-0.166034f},
      {-0.175571f,-0.186345f,-0.457512f},
      {0.159435f,0.275283f,-0.000382f}
    },
    {
      {-0.176099f,-0.269902f,-0.080791f},
      {-0.120486f,-0.079243f,-0.020758f},
      {0.143855f,-0.060071f,0.037050f}
    },
    {
      {0.065478f,0.200008f,-0.076841f},
      {-0.187995f,-0.216787f,-0.010304f},
      {-0.253140f,-0.028001f,0.267307f}
    },
    {
      {-0.287205f,-0.001232f,-0.124288f},
      {-0.018862f,-0.112393f,-0.227407f},
      {0.208843f,0.115964f,0.083539f}
    },
    {
      {-0.390491f,-0.161972f,-0.265799f},
      {0.071683f,-0.014772f,0.035512f},
      {0.138906f,0.230735f,0.257060f}
    },
    {
      {-0.244831f,-0.123356f,-0.229663f},
      {-0.027381f,0.026576f,-0.239349f},
      {0.149543f,0.157935f,0.242712f}
    },
    {
      {0.320076f,0.291036f,0.300271f},
      {-0.291219f,-0.203073f,-0.359823f},
      {0.262949f,0.147098f,-0.061558f}
    }
  },
  {
    {
      {0.142470f,-0.112093f,0.241791f},
      {0.345175f,0.107105f,-0.298305f},
      {0.129306f,0.283969f,0.142255f}
    },
    {
      {-0.273207f,0.160122f,0.551413f},
      {0.127553f,-0.198349f,0.382323f},
      {0.491500f,0.231057f,-0.092134f}
    },
    {
      {0.084819f,-0.007509f,0.186606f},
      {0.153019f,-0.233949f,-0.235097f},
      {0.032574f,0.038103f,0.009399f}
    },
    {
      {-0.401161f,0.028043f,-0.100107f},
      {-0.168933f,-0.099300f,0.306428f},
      {0.028531f,-0.262032f,-0.055047f}
    },
    {
      {-0.055196f,-0.080474f,-0.063552f},
      {0.256881f,-0.327743f,-0.174643f},
      {0.031025f,0.101590f,-0.023946f}
    },
    {
      {-0.143938f,-0.188980f,0.082770f},
      {0.005040f,-0.314232f,-0.278116f},
      {0.211789f,0.134867f,-0.156314f}
    },
    {
      {-0.232972f,-0.192354f,0.193838f},
      {0.135471f,-0.169734f,-0.154370f},
      {0.236090f,0.118650f,-0.172370f}
    },
    {
      {-0.044723f,0.150241f,0.004157f},
      {-0.037646f,-0.236161f,0.067485f},
      {0.027569f,-0.223868f,-0.166368f}
    }
  },
  {
    {
      {0.171853f,0.258119f,-0.093756f},
      {0.029059f,-0.121466f,-0.026071f},
      {-0.108030f,-0.159383f,0.084689f}
    },
    {
      {-0.123703f,0.062898f,-0.245118f},
      {-0.071348f,0.074271f,-0.039967f},
      {-0.068544f,-0.014959f,0.018705f}
    },
    {
      {-0.160276f,0.063983f,0.056036f},
      {-0.061318f,0.064247f,-0.100008f},
      {-0.247236f,-0.346661f,0.017098f}
    },
    {
      {-0.250533f,-0.223765f,-0.035928f},
      {0.102554f,0.162827f,-0.191034f},
      {-0.038671f,-0.192422f,-0.252172f}
    },
    {
      {0.190973f,0.285121f,0.204250f},
      {-0.117296f,0.072556f,-0.054048f},
      {-0.210535f,0.032679f,0.107633f}
    },
    {
      {0.008500f,0.037812f,0.036510f},
      {-0.127802f,-0.189648f,-0.071990f},
      {-0.177846f,0.081183f,0.091591f}
    },
    {
      {-0.003860f,-0.051140f,0.120379f},
      {0.151561f,-0.079495f,-0.031466f},
      {-0.302326f,-0.211910f,0.057056f}
    },
    {
      {0.106663f,0.030478f,0.265474f},
      {0.292038f,0.341665f,0.258671f},
      {-0.168570f,-0.099225f,-0.119263f}
    }
  },
  {
    {
      {0.254173f,0.184003f,-0.114898f},
      {-0.100163f,0.268884f,0.340257f},
      {-0.541987f,-0.097896f,0.272156f}
    },
    {
      {0.108924f,-0.058783f,-0.310623f},
      {0.244855f,0.306680f,-0.416359f},
      {0.049819f,0.178154f,0.130907f}
    },
    {
      {0.197989f,0.037778f,0.105377f},
      {-0.204883f,0.100800f,0.134349f},
      {-0.297889f,-0.242803f,0.042369f}
    },
    {
      {-0.152800f,-0.355062f,-0.529659f},
      {0.175001f,0.090702f,-0.480935f},
      {0.082002f,0.456646f,0.036926f}
    },
    {
      {0.022535f,0.065127f,-0.025153f},
      {-0.043522f,-0.013284f,-0.164923f},
      {-0.257512f,-0.290639f,-0.168472f}
    },
    {
      {0.225685f,0.151820f,-0.173956f},
      {-0.035357f,0.302414f,0.050168f},
      {-0.319882f,0.141814f,0.222510f}
    },
    {
      {0.184767f,0.176018f,-0.341909f},
      {0.078027f,0.220081f,-0.047342f},
      {-0.188321f,0.053014f,0.149970f}
    },
    {
      {-0.128836f,-0.641691f,0.182914f},
      {-0.110722f,-0.477577f,-0.685943f},
      {-0.273883f,-0.118404f,-0.145251f}
    }
  },
  {
    {
      {-0.104991f,-0.255060f,0.079608f},
      {-0.176768f,-0.067898f,0.178246f},
      {0.164601f,0.266499f,0.265382f}
    },
    {
      {-0.017626f,-0.057744f,-0.035091f},
      {0.053987f,-0.015239f,0.094235f},
      {0.027217f,0.116340f,0.053921f}
    },
    {
      {-0.343880f,0.103219f,0.240804f},
      {0.087020f,0.086574f,-0.013357f},
      {0.131669f,0.000151f,0.052975f}
    },
    {
      {-0.409083f,-0.503769f,-0.517867f},
      {-0.545539f,-0.379659f,-0.140560f},
      {-0.039039f,0.324076f,0.152521f}
    },
    {
      {0.045149f,0.227308f,0.163625f},
      {0.128990f,0.220885f,-0.132306f},
      {0.054824f,0.066189f,0.034683f}
    },
    {
      {-0.062189f,-0.068306f,-0.096561f},
      {-0.144496f,-0.139185f,-0.310151f},
      {0.118386f,0.017956f,0.151462f}
    },
    {
      {-0.046561f,0.024942f,0.024491f},
      {-0.083462f,0.085872f,-0.227907f},
      {0.024724f,-0.064848f,0.011673f}
    },
    {
      {-0.208376f,-0.295186f,0.523214f},
      {-0.327745f,-0.003977f,0.123718f},
      {-0.310133f,0.051665f,0.183857f}
    }
  },
  {
    {
      {-0.136633f,0.017141f,-0.241209f},
      {-0.214670f,-0.210041f,-0.141400f},
      {-0.080833f,-0.067600f,-0.007445f}
    },
    {
      {-0.021712f,-0.225092f,-0.198771f},
      {-0.001570f,-0.120586f,-0.084744f},
      {0.111389f,0.057778f,-0.157813f}
    },
    {
      {-0.272538f,-0.031960f,-0.356298f},
      {-0.420164f,-0.065170f,0.177267f},
      {-0.030569f,0.165567f,0.160744f}
    },
    {
      {0.112054f,0.040391f,-0.065145f},
      {0.029580f,-0.195316f,0.099299f},
      {-0.031476f,-0.101079f,-0.236022f}
    },
    {
      {-0.172391f,-0.220502f,0.089567f},
      {-0.253233f,0.206383f,0.215516f},
      {0.132464f,0.143199f,-0.070095f}
    },
    {
      {-0.122139f,-0.029484f,0.252565f},
      {-0.003227f,0.097971f,0.225550f},
      {0.095354f,0.067036f,-0.182018f}
    },
    {
      {-0.328582f,-0.013337f,0.032368f},
      {-0.122844f,0.021513f,0.239558f},
      {0.093693f,0.106254f,0.087392f}
    },
    {
      {-0.109724f,0.012806f,-0.373266f},
      {-0.256999f,-0.296333f,0.092309f},
      {-0.405898f,-0.135565f,0.217637f}
    }
  },
  {
    {
      {-0.308225f,0.154637f,0.169032f},
      {-0.224347f,0.245344f,-0.042698f},
      {0.064111f,0.085491f,0.085459f}
    },
    {
      {0.344674f,0.219175f,-0.123630f},
      {0.305474f,-0.064808f,0.141235f},
      {0.073379f,-0.226883f,0.121818f}
    },
    {
      {-0.057945f,0.147318f,-0.219884f},
      {0.062262f,0.065443f,-0.310744f},
      {0.052765f,0.202132f,-0.198380f}
    },
    {
      {-0.243986f,-0.089446f,0.051682f},
      {-0.032519f,-0.274159f,-0.062223f},
      {0.094334f,-0.143203f,-0.099034f}
    },
    {
      {0.064799f,0.015172f,-0.316465f},
      {0.136524f,0.052442f,-0.254126f},
      {0.055391f,0.039763f,-0.065398f}
    },
    {
      {-0.036596f,-0.031811f,-0.495753f},
      {-0.047067f,0.043777f,-0.097443f},
      {0.051206f,-0.026238f,0.081927f}
    },
    {
      {-0.000784f,0.143030f,-0.176217f},
      {0.137791f,-0.202715f,-0.331262f},
      {0.088441f,-0.140952f,-0.091385f}
    },
    {
      {-0.223958f,0.081312f,-0.049754f},
      {-0.190729f,0.117567f,-0.137752f},
      {-0.279054f,0.116297f,0.004246f}
    }
  }
};
const float conv2_bias[16] PROGMEM = {-0.173418f,-0.043048f,-0.053397f,-0.148410f,-0.075319f,-0.119238f,-0.185860f,0.076428f,0.005143f,-0.102814f,-0.296879f,-0.232163f,-0.340391f,-0.037462f,0.011438f,-0.040507f};
const float fc1_weights[784][64] PROGMEM = {
  {-0.000698f,0.017147f,0.035638f,0.008109f,-0.007646f,-0.006909f,-0.021554f,0.020143f,-0.003323f,0.027018f,0.059958f,-0.040895f,0.050490f,0.021636f,0.013230f,0.086660f,0.030307f,-0.011368f,0.011437f,-0.011718f,0.026593f,0.028430f,-0.055839f,-0.023741f,0.021355f,-0.041023f,0.010641f,-0.025960f,-0.033568f,0.035591f,0.028492f,-0.007553f,-0.045335f,-0.001745f,-0.024150f,0.014866f,-0.004210f,0.004271f,-0.013261f,-0.025399f,-0.018223f,0.007705f,-0.020939f,0.046432f,-0.013464f,0.020218f,-0.027198f,0.038460f,-0.000334f,-0.005139f,-0.001081f,-0.002039f,0.034192f,0.004947f,0.017275f,0.018862f,-0.008130f,0.015449f,0.009676f,0.009125f,-0.052472f,0.017516f,-0.011180f,0.018163f},
  {-0.002839f,-0.005046f,0.001938f,-0.030084f,0.004104f,0.192681f,-0.043036f,-0.077830f,-0.047147f,0.014435f,0.050387f,0.017591f,0.038115f,0.021648f,-0.004483f,-0.021712f,-0.028085f,-0.024258f,0.003887f,-0.030697f,-0.097416f,-0.132790f,-0.115720f,-0.007969f,-0.012462f,0.009196f,0.004151f,0.017934f,0.032945f,0.007256f,-0.014292f,0.052241f,-0.026451f,0.097488f,0.033199f,0.018465f,-0.061477f,-0.028929f,0.016463f,-0.128942f,-0.078668f,-0.185405f,-0.030355f,0.010050f,-0.031791f,0.177527f,0.001592f,0.022442f,0.152503f,0.025347f,0.007456f,0.093601f,0.036691f,-0.034095f,0.020153f,0.017714f,-0.073043f,0.063729f,-0.009463f,-0.015876f,-0.044988f,-0.000352f,-0.007081f,-0.034662f},
  {0.008541f,-0.061468f,0.043423f,-0.041363f,-0.024349f,0.001416f,-0.006510f,0.017607f,0.115022f,-0.024265f,-0.052675f,-0.023887f,0.001977f,-0.013652f,-0.037458f,0.005343f,-0.005506f,0.023573f,0.063225f,0.012527f,-0.055699f,-0.050128f,-0.122448f,-0.019846f,0.001092f,-0.039590f,-0.087068f,0.005470f,-0.017574f,0.015314f,-0.024443f,0.010854f,0.004393f,0.030535f,-0.030917f,-0.035959f,-0.010469f,0.038359f,0.023721f,0.011170f,0.013148f,-0.240405f,-0.048395f,0.056646f,0.074461f,0.099670f,-0.011033f,0.061467f,0.127442f,0.032365f,-0.028262f,0.071870f,-0.055588f,-0.028672f,-0.004838f,0.015099f,0.106849f,0.002759f,-0.180988f,-0.015340f,-0.005807f,-0.002071f,-0.003413f,-0.023924f},
  {-0.041861f,0.021177f,0.063409f,-0.093316f,-0.037096f,-0.034316f,-0.024103f,-0.048068f,0.135678f,0.081684f,0.025043f,0.070672f,-0.108729f,-0.001355f,0.014031f,0.071928f,-0.042551f,0.005074f,-0.057578f,0.002003f,-0.089712f,-0.059734f,-0.090421f,0.033709f,-0.032724f,-0.090427f,-0.067674f,-0.013296f,0.056528f,-0.008815f,0.101064f,0.031237f,0.042875f,-0.090700f,-0.016340f,-0.024948f,-0.098995f,0.140621f,-0.099608f,-0.107741f,-0.027855f,-0.161480f,-0.142756f,0.170529f,0.016076f,-0.010873f,0.003397f,0.081058f,0.042835f,0.009917f,0.020776f,0.151778f,0.089201f,0.003772f,-0.023566f,-0.004349f,0.019784f,-0.132218f,-0.074477f,0.002506f,-0.021907f,-0.123219f,0.011515f,0.100611f},
  {0.136487f,-0.036960f,0.151877f,-0.011001f,-0.020902f,0.113658f,0.031670f,-0.157021f,0.041411f,0.147744f,0.068023f,-0.018878f,-0.044829f,0.022389f,-0.001303f,0.134303f,0.010762f,-0.041339f,-0.007039f,-0.037917f,-0.128173f,-0.003716f,-0.016393f,-0.029630f,0.018563f,-0.038246f,-0.026821f,0.000290f,-0.040559f,-0.009981f,-0.142356f,0.082805f,-0.080941f,-0.153076f,0.098255f,0.021604f,-0.072402f,0.119324f,-0.160105f,0.028797f,0.270536f,0.111382f,0.124552f,0.101733f,0.132550f,0.159151f,0.060783f,-0.062799f,0.018471f,-0.074128f,-0.010091f,0.013082f,0.060311f,-0.025730f,-0.031452f,-0.168766f,0.005646f,-0.041612f,0.021594f,-0.004068f,-0.046483f,-0.024589f,0.023535f,0.003444f},
  {0.034281f,-0.011840f,0.141338f,-0.011077f,-0.012555f,-0.106790f,0.016194f,0.066830f,0.050200f,0.024111f,-0.086788f,0.122247f,-0.033794f,-0.006381f,0.024446f,-0.015159f,0.030551f,-0.003497f,-0.040657f,-0.028677f,0.044625f,-0.017896f,0.004077f,0.005346f,-0.014891f,-0.052181f,-0.063746f,-0.038030f,-0.119526f,0.029985f,0.068244f,0.017934f,0.136437f,-0.026497f,-0.018358f,0.004784f,-0.017415f,0.061510f,0.001499f,0.089608f,0.024961f,0.015780f,0.079303f,-0.038826f,0.086438f,0.041500f,0.022956f,-0.110656f,-0.018108f,-0.052916f,-0.028850f,-0.109737f,0.010412f,-0.020642f,-0.020353f,-0.053496f,-0.037143f,-0.096078f,-0.000694f,-0.014835f,0.138088f,-0.150657f,0.026047f,0.017542f},
  {0.054391f,0.017933f,0.035931f,0.017754f,-0.039472f,-0.044879f,-0.021312f,0.015744f,-0.038560f,-0.027209f,-0.021907f,-0.044665f,0.047015f,-0.016861f,-0.030179f,-0.010385f,-0.011929f,-0.027894f,0.048847f,0.032410f,-0.033251f,-0.035029f,-0.019978f,-0.040275f,0.013648f,0.011426f,-0.001626f,-0.027712f,0.021057f,-0.033013f,-0.010322f,0.016347f,-0.068785f,-0.008724f,-0.005743f,-0.016062f,0.012023f,-0.064606f,0.004624f,0.035133f,0.025358f,-0.012389f,0.047293f,-0.009065f,-0.009863f,0.004749f,-0.016162f,-0.005540f,-0.024928f,0.006991f,-0.030096f,0.003143f,-0.016524f,0.003916f,0.028731f,0.027083f,-0.000841f,0.027157f,-0.004159f,-0.000666f,-0.018659f,0.009165f,-0.002613f,-0.007074f},
  {0.115669f,0.023677f,0.129954f,0.008689f,0.004941f,0.108738f,0.015708f,0.015506f,-0.030315f,0.048724f,0.082075f,0.036834f,0.197815f,0.004126f,-0.035560f,0.025370f,0.017916f,0.002443f,-0.000920f,0.028735f,0.064357f,0.007971f,-0.148567f,-0.004270f,-0.038785f,-0.090174f,0.030587f,-0.021189f,-0.101660f,-0.016667f,0.005326f,0.022000f,-0.132949f,0.089757f,0.020212f,-0.032116f,-0.083433f,-0.136460f,0.089763f,0.055705f,-0.020852f,0.037850f,0.108839f,-0.096068f,-0.035383f,0.050994f,-0.139850f,0.060053f,0.017844f,0.031257f,-0.027174f,-0.096969f,-0.060936f,0.025718f,0.007271f,-0.057402f,-0.100959f,0.081456f,-0.054153f,-0.024412f,-0.115533f,0.031695f,-0.004703f,-0.075245f},
  {0.046635f,-0.021401f,0.023401f,0.012793f,0.007646f,0.090176f,-0.041616f,-0.244806f,0.033933f,-0.169396f,0.010920f,-0.068748f,0.031995f,-0.025241f,0.004396f,0.126000f,0.009030f,0.018916f,0.095195f,-0.028357f,0.001947f,0.028282f,0.046714f,-0.070102f,-0.040455f,0.169187f,-0.104669f,0.018680f,-0.011842f,-0.026343f,-0.166789f,-0.084691f,-0.121180f,0.080699f,0.059832f,-0.037538f,0.113018f,-0.075069f,-0.052392f,-0.007114f,-0.011718f,0.044659f,0.083205f,-0.036850f,0.004288f,0.016497f,0.015089f,-0.035810f,-0.049590f,0.146419f,0.003811f,0.160693f,0.029181f,-0.033319f,-0.007308f,-0.018694f,-0.071763f,-0.187270f,0.071957f,-0.013767f,0.040523f,-0.147878f,-0.012526f,-0.044107f},
  {0.069464f,-0.016022f,-0.006889f,0.011065f,-0.033872f,0.068324f,-0.001447f,0.066247f,0.051454f,-0.086878f,-0.069422f,-0.027766f,0.050418f,-0.001119f,0.002034f,0.162341f,-0.034576f,-0.024778f,-0.004820f,-0.003289f,-0.083721f,-0.034664f,0.020273f,0.023653f,0.028698f,-0.146218f,-0.022957f,-0.021907f,-0.102969f,0.016743f,0.047265f,0.072144f,-0.139881f,0.062664f,0.197070f,0.010046f,0.072585f,0.009932f,0.086307f,-0.109106f,0.011040f,-0.093172f,-0.014709f,-0.047170f,0.141087f,0.027627f,-0.113714f,0.006849f,0.003673f,0.086910f,0.000916f,0.079632f,0.075002f,-0.021156f,-0.018946f,0.058460f,-0.102006f,-0.028711f,-0.052072f,-0.007294f,0.015928f,0.074703f,-0.013821f,0.006349f},
  {-0.003402f,-0.024467f,0.067182f,-0.039078f,0.020594f,-0.035545f,-0.023053f,0.052695f,0.068638f,0.050756f,-0.034166f,-0.001039f,-0.055676f,-0.041253f,-0.019055f,-0.003655f,-0.034014f,-0.005213f,-0.006204f,-0.005775f,-0.055269f,0.043387f,-0.000436f,-0.035652f,0.014050f,-0.144573f,-0.045478f,-0.012145f,-0.074452f,-0.011621f,0.059877f,-0.026545f,0.080799f,0.026472f,-0.042153f,0.004332f,-0.011405f,0.083215f,0.044810f,-0.102236f,-0.035810f,-0.029230f,-0.049419f,-0.002518f,0.092460f,0.003083f,0.070005f,0.043096f,-0.069170f,-0.068403f,-0.003359f,0.024322f,0.055265f,0.002387f,-0.006559f,0.064012f,0.091217f,-0.112136f,0.097258f,-0.037494f,0.132070f,0.084609f,0.004043f,-0.001579f},
  {0.057684f,-0.037657f,0.121491f,0.000429f,-0.017522f,-0.083843f,0.018575f,-0.141101f,-0.006214f,0.037287f,0.038562f,0.115687f,-0.152169f,0.019975f,-0.033877f,-0.116572f,-0.016594f,-0.018961f,0.024291f,0.014440f,-0.063066f,-0.000629f,0.027630f,0.020454f,0.022785f,-0.051611f,-0.018694f,-0.036352f,0.068175f,-0.041662f,0.060469f,0.053217f,0.110975f,0.028461f,0.049303f,0.027204f,0.053710f,-0.026811f,0.032536f,0.067995f,0.072518f,0.039755f,0.037707f,0.001660f,0.126358f,-0.022257f,0.091245f,-0.114708f,-0.041211f,-0.016608f,-0.015489f,0.063942f,-0.007919f,-0.020522f,0.026302f,-0.074169f,0.076719f,-0.136497f,0.083424f,-0.015677f,0.046101f,0.020970f,0.014569f,-0.015520f},
  {0.033882f,-0.019890f,0.018874f,-0.000810f,-0.019779f,-0.027267f,-0.006001f,-0.055416f,0.078761f,0.083599f,0.011969f,0.124287f,-0.054555f,0.000770f,-0.003685f,-0.047288f,0.028609f,0.001010f,0.053422f,0.014449f,0.059029f,0.037561f,-0.270976f,-0.000507f,-0.000519f,-0.140463f,-0.064460f,0.001917f,0.046614f,-0.032397f,0.267060f,0.009718f,0.003380f,-0.021236f,0.100544f,-0.006628f,-0.071811f,0.058880f,0.108482f,-0.071611f,-0.067106f,-0.118833f,-0.000671f,-0.247870f,0.037156f,0.034584f,-0.075502f,-0.067721f,-0.082542f,-0.039082f,-0.010264f,0.005952f,0.030498f,-0.005611f,0.014263f,0.009814f,0.037865f,-0.167108f,-0.106166f,-0.004508f,-0.047838f,-0.023154f,-0.006963f,0.022029f},
  {0.063029f,-0.037441f,0.044426f,-0.018537f,-0.028173f,-0.110988f,-0.034661f,0.083112f,0.111276f,-0.092370f,0.025381f,-0.053752f,0.010340f,0.006167f,0.009159f,-0.045865f,0.036200f,0.011015f,0.079411f,-0.016949f,0.016261f,0.138134f,0.037482f,0.029621f,0.018680f,0.016900f,-0.021910f,-0.036527f,-0.047314f,0.000140f,-0.000572f,-0.028468f,-0.086374f,-0.022983f,0.129304f,0.022750f,0.117831f,-0.110336f,-0.024449f,-0.019022f,0.099864f,-0.070673f,0.102340f,0.024326f,0.023774f,-0.064783f,-0.069425f,-0.144568f,0.018834f,0.038136f,-0.014526f,0.025154f,-0.061411f,-0.008985f,-0.031028f,-0.049196f,0.109280f,-0.087044f,-0.012168f,-0.010803f,0.001746f,0.029376f,0.014647f,0.054869f},
  {0.004792f,-0.016100f,-0.042472f,-0.044801f,-0.007243f,-0.033088f,-0.007680f,-0.083216f,-0.121721f,0.067385f,0.069543f,0.036721f,0.120250f,-0.013794f,-0.020056f,0.107352f,-0.032023f,-0.013006f,-0.075133f,-0.025492f,-0.015749f,0.035719f,-0.014517f,-0.019541f,-0.018497f,0.040805f,-0.032835f,-0.017334f,-0.057677f,0.004653f,0.162595f,-0.041175f,0.177922f,0.070482f,0.039788f,-0.027609f,-0.007018f,-0.005276f,0.041392f,0.009216f,-0.064623f,0.019556f,0.012338f,-0.199467f,-0.064268f,-0.038520f,-0.122417f,0.044979f,-0.025525f,0.083304f,0.019552f,-0.186672f,-0.115819f,-0.035838f,0.032084f,0.098943f,-0.007025f,-0.043478f,-0.096045f,0.017445f,-0.101539f,0.047774f,0.030827f,-0.039019f},
  {-0.056256f,-0.006609f,-0.131649f,-0.052897f,0.008363f,-0.025391f,0.019185f,-0.069660f,-0.064482f,-0.071589f,0.020796f,-0.075713f,0.083102f,-0.014917f,0.012371f,0.032569f,-0.029386f,-0.013081f,0.151423f,-0.001054f,0.168515f,0.074632f,-0.002913f,-0.052880f,-0.018903f,0.049014f,-0.057928f,0.013652f,0.052007f,0.003333f,0.012163f,-0.192285f,-0.066384f,0.081583f,-0.037341f,0.025726f,0.148403f,-0.117048f,-0.046036f,0.000205f,-0.067504f,0.099524f,0.046853f,-0.078349f,-0.029493f,-0.025242f,-0.058156f,0.002850f,-0.059391f,0.115178f,-0.013929f,0.095740f,-0.130829f,-0.018193f,0.038842f,0.023029f,-0.049795f,0.030069f,-0.024484f,-0.051182f,0.007826f,-0.093656f,-0.009312f,-0.036149f},
  {-0.040194f,-0.001520f,-0.077500f,0.012208f,-0.029691f,-0.012448f,0.020807f,0.046440f,-0.017735f,-0.153734f,-0.158067f,-0.084950f,0.009876f,-0.028090f,-0.014712f,0.034669f,-0.017572f,-0.027592f,0.184097f,-0.036050f,0.111704f,0.047983f,0.164310f,0.002944f,-0.023765f,0.069947f,-0.063903f,-0.039539f,-0.012873f,-0.011983f,-0.189942f,-0.065873f,-0.081673f,0.100850f,0.121373f,-0.038163f,0.171456f,-0.065955f,0.076791f,0.040820f,-0.090965f,0.104582f,-0.005249f,-0.141872f,-0.029281f,-0.082641f,-0.051762f,0.073472f,0.131989f,0.111669f,-0.028572f,0.056167f,-0.186421f,0.020435f,-0.014890f,-0.027734f,-0.022803f,0.106035f,-0.005771f,-0.014153f,0.138224f,0.049668f,-0.016758f,0.056110f},
  {-0.212548f,-0.053587f,0.043129f,-0.019905f,0.021613f,-0.077944f,-0.006186f,0.114968f,0.201735f,0.070396f,0.091631f,0.013335f,0.051675f,0.016095f,-0.008719f,0.083680f,-0.018805f,-0.026507f,-0.192366f,-0.035321f,0.040537f,-0.145394f,0.060760f,-0.064062f,-0.018140f,-0.029745f,-0.219975f,-0.043320f,-0.148199f,-0.026019f,0.106887f,0.034429f,0.099514f,-0.064464f,0.057471f,-0.035686f,-0.045524f,0.061618f,0.044246f,-0.148290f,-0.072906f,-0.079993f,-0.158004f,-0.039744f,-0.098054f,-0.110170f,0.047364f,0.088595f,-0.014007f,0.140249f,-0.031653f,0.004175f,0.087240f,-0.026841f,-0.026783f,0.108680f,0.009423f,-0.025917f,-0.030521f,-0.003853f,0.045379f,0.087334f,-0.016414f,0.199544f},
  {-0.156770f,-0.039638f,0.084505f,-0.009147f,-0.037899f,-0.106466f,0.002494f,0.103713f,0.028396f,0.120234f,0.125869f,-0.009627f,-0.070417f,-0.032688f,-0.028153f,0.009629f,-0.010180f,0.029364f,-0.115741f,0.013055f,0.146786f,-0.081396f,-0.000209f,-0.032328f,0.009393f,0.063951f,-0.076249f,-0.003053f,-0.192236f,-0.026136f,0.111980f,0.001273f,0.140057f,-0.139944f,-0.030528f,-0.011055f,-0.050768f,0.105447f,0.098338f,0.093195f,-0.025064f,0.043865f,-0.088445f,-0.111016f,-0.071288f,-0.154782f,0.191214f,-0.000680f,0.072839f,0.055977f,0.003612f,-0.002858f,0.152350f,-0.012152f,0.005700f,0.005608f,-0.036846f,-0.087106f,0.044508f,-0.031111f,-0.040272f,0.030368f,-0.036657f,0.131523f},
  {-0.033364f,0.000316f,0.115294f,-0.013537f,-0.031230f,-0.110072f,-0.031067f,-0.141399f,0.031498f,0.029809f,0.023474f,0.039688f,-0.076731f,-0.003360f,0.001226f,0.006929f,0.008030f,-0.007188f,0.096377f,-0.008300f,0.033784f,0.104721f,-0.010162f,0.017941f,-0.042695f,0.198485f,-0.244189f,-0.027288f,-0.043967f,0.009537f,-0.041651f,-0.038760f,-0.038071f,-0.060531f,0.020289f,0.011150f,-0.014096f,-0.015083f,-0.027569f,0.061511f,-0.022605f,-0.032036f,-0.117912f,-0.109664f,-0.113692f,-0.032596f,0.055061f,0.066064f,0.065249f,0.140076f,-0.026634f,-0.017776f,-0.003313f,0.018374f,0.006649f,-0.075084f,0.052582f,-0.164648f,-0.063702f,0.002642f,-0.055641f,0.016670f,0.021271f,0.163969f},
  {0.063121f,-0.022819f,-0.031941f,-0.039176f,-0.014644f,-0.004408f,-0.039499f,-0.025290f,-0.041183f,-0.027022f,-0.064906f,-0.041737f,-0.101236f,-0.001355f,-0.040786f,-0.091944f,0.023438f,0.028208f,0.142387f,0.002069f,-0.010985f,0.000871f,0.005428f,0.023365f,0.013563f,0.022069f,-0.031918f,0.022963f,0.008104f,0.029082f,-0.076167f,-0.060647f,-0.074953f,0.070814f,0.087505f,-0.015309f,0.063547f,-0.047242f,0.036739f,-0.024352f,0.043935f,-0.100573f,0.094085f,-0.014570f,0.050380f,-0.017305f,0.003631f,-0.011664f,-0.033153f,0.140181f,-0.020404f,-0.069249f,-0.017513f,0.015350f,-0.001442f,0.021598f,0.081847f,-0.081548f,0.008209f,-0.005275f,0.020012f,0.026516f,0.029091f,0.023782f},
  {-0.150416f,-0.017375f,-0.033138f,0.036850f,-0.032735f,-0.038193f,-0.032950f,0.005075f,-0.262255f,-0.041583f,-0.170286f,-0.094751f,0.010143f,0.008375f,-0.024471f,-0.155724f,-0.014483f,-0.021532f,-0.078630f,-0.028593f,-0.129878f,0.244965f,0.156259f,-0.038206f,0.008955f,0.025691f,-0.034740f,-0.000147f,0.077509f,-0.010190f,-0.106017f,-0.104654f,0.077219f,-0.132684f,-0.075364f,-0.022953f,0.046477f,0.088099f,-0.087933f,0.080075f,-0.113578f,0.218102f,-0.011104f,-0.206480f,0.070183f,-0.140028f,0.094864f,-0.142733f,0.077268f,0.023820f,-0.007899f,-0.122751f,-0.184821f,0.000783f,0.013720f,-0.005468f,0.073313f,0.099001f,0.202791f,-0.013863f,0.017712f,-0.180564f,0.021468f,-0.142303f},
  {-0.063205f,0.004117f,-0.054984f,-0.059376f,-0.023534f,0.059442f,0.005269f,-0.007583f,-0.202063f,0.082238f,-0.081897f,0.035178f,-0.004344f,-0.024414f,0.024745f,-0.115080f,-0.011847f,-0.026334f,-0.013928f,0.022278f,0.056325f,-0.071727f,0.006489f,-0.035994f,0.006222f,0.100146f,-0.131745f,-0.002097f,0.095029f,0.001009f,-0.112265f,-0.118210f,0.043777f,0.152598f,-0.037426f,0.023806f,-0.000347f,-0.063685f,0.189652f,0.055274f,-0.123252f,-0.052524f,0.003048f,-0.063696f,-0.132776f,-0.049101f,-0.188204f,0.005983f,-0.072120f,0.132052f,0.014502f,-0.008185f,-0.220520f,0.027079f,-0.013336f,-0.042012f,0.016229f,0.144581f,-0.007684f,-0.000360f,0.018209f,-0.056227f,0.040478f,-0.053174f},
  {-0.094014f,-0.049340f,0.096668f,-0.025750f,-0.029174f,-0.015759f,-0.000387f,0.137227f,-0.091288f,-0.028921f,-0.064001f,0.034663f,0.095366f,-0.031303f,-0.030239f,0.049331f,0.001384f,0.021221f,0.128913f,0.019000f,-0.040353f,0.074511f,0.005441f,-0.003703f,-0.001301f,-0.015397f,-0.105655f,0.026362f,-0.014718f,-0.017456f,-0.106340f,-0.000751f,-0.044759f,-0.038354f,-0.030410f,0.015353f,-0.032558f,-0.031129f,0.062484f,0.125339f,-0.067166f,0.048392f,0.008678f,-0.034866f,-0.153824f,-0.041403f,-0.058601f,0.085731f,0.156642f,-0.023633f,0.017186f,0.020719f,-0.260631f,0.012263f,-0.000352f,-0.027717f,-0.076617f,0.204863f,0.010881f,0.000003f,0.135350f,0.010653f,-0.024312f,0.006124f},
  {0.005349f,-0.054033f,-0.069828f,-0.016522f,-0.010268f,0.094262f,-0.025353f,0.032173f,-0.040898f,0.029546f,0.158376f,-0.045334f,0.078934f,0.016709f,0.004184f,-0.047354f,-0.042227f,-0.023629f,0.104441f,-0.014052f,0.009911f,0.015868f,-0.027072f,-0.058290f,-0.021685f,-0.132765f,0.117008f,-0.031048f,0.092978f,-0.035028f,0.042013f,-0.028778f,-0.007887f,-0.034548f,-0.238644f,-0.034984f,0.041833f,0.020533f,0.163252f,-0.094221f,-0.068162f,-0.030874f,0.084211f,-0.089559f,0.099808f,-0.058863f,0.240333f,0.143445f,0.147422f,-0.029636f,-0.040380f,-0.203440f,0.210076f,-0.022819f,-0.025060f,0.218944f,0.096457f,-0.001008f,0.145645f,-0.043608f,-0.100034f,-0.098687f,0.015893f,-0.076783f},
  {-0.089866f,-0.069433f,-0.017984f,-0.062638f,-0.017659f,-0.024731f,-0.016535f,0.093324f,-0.033833f,-0.022415f,0.096305f,-0.144002f,0.183040f,-0.018989f,-0.042021f,-0.038407f,-0.014296f,-0.014471f,-0.063297f,-0.039879f,0.138347f,0.033355f,0.079012f,-0.065791f,-0.008285f,-0.000063f,0.129785f,-0.037744f,0.152350f,-0.034355f,-0.064648f,-0.068262f,0.023616f,-0.150071f,-0.237275f,0.003771f,-0.035399f,0.138849f,-0.017435f,-0.052052f,0.025470f,0.176852f,0.041670f,0.046541f,0.061802f,0.082781f,0.204842f,0.050646f,-0.088749f,-0.100828f,-0.032837f,-0.161443f,0.149902f,0.004482f,0.016653f,-0.012725f,0.007097f,0.078597f,0.086515f,0.002821f,-0.015488f,0.079930f,0.022026f,-0.058913f},
  {-0.032624f,0.004081f,-0.008058f,0.060075f,0.012556f,0.087210f,0.013744f,-0.210789f,-0.107826f,0.015184f,0.090084f,0.023504f,0.127026f,-0.012776f,-0.036023f,0.144312f,0.001325f,-0.010538f,-0.018624f,0.019649f,0.086160f,0.006490f,-0.038313f,-0.032219f,-0.015280f,0.046847f,0.052653f,0.009138f,-0.006765f,-0.016904f,0.056438f,0.015178f,0.032925f,-0.084161f,-0.028721f,-0.036741f,-0.033367f,0.142474f,0.043236f,0.099049f,-0.024419f,0.016976f,-0.023989f,-0.018081f,-0.059953f,-0.057859f,0.071386f,-0.140914f,-0.141671f,0.015314f,-0.017214f,-0.153675f,0.132990f,-0.025844f,-0.002373f,-0.014030f,-0.111097f,-0.060222f,0.126706f,-0.010135f,-0.056624f,-0.110534f,-0.004702f,0.183168f},
  {-0.001938f,0.029087f,0.039937f,0.026251f,-0.038255f,0.076468f,-0.009386f,-0.050533f,-0.080376f,0.064927f,-0.026028f,0.004387f,0.054503f,-0.030629f,-0.041119f,-0.018185f,-0.030260f,-0.005107f,-0.006804f,-0.023944f,-0.087852f,-0.064375f,-0.124271f,-0.008386f,0.016311f,-0.054712f,-0.001219f,-0.028121f,0.030129f,0.006902f,-0.068318f,0.049369f,-0.012488f,0.063778f,-0.005610f,-0.020511f,-0.044930f,-0.042440f,0.046324f,0.002951f,0.044842f,-0.172984f,0.022128f,0.051921f,-0.055801f,0.073349f,-0.062117f,0.086223f,-0.057903f,0.036163f,0.009876f,-0.075688f,-0.000309f,-0.058736f,0.022972f,-0.075521f,-0.022432f,0.028992f,-0.113926f,0.012924f,0.016270f,-0.024006f,0.005128f,-0.100982f},
  {-0.176901f,0.018283f,0.066898f,0.018794f,-0.005045f,-0.186179f,-0.004949f,0.143304f,-0.020669f,0.128298f,-0.033104f,0.055091f,0.012120f,-0.023311f,0.024871f,-0.120019f,0.038652f,0.001919f,-0.103137f,-0.022004f,-0.093116f,-0.019744f,0.028063f,-0.029838f,-0.011088f,-0.024413f,-0.150265f,0.023541f,-0.086937f,0.013402f,-0.074110f,0.113707f,0.022946f,-0.059643f,0.019418f,0.007567f,-0.098214f,0.086174f,0.054944f,0.247274f,-0.007366f,0.092585f,-0.012358f,-0.010706f,0.088728f,-0.081392f,-0.086598f,-0.060554f,0.035467f,-0.018622f,-0.001675f,0.158967f,0.007109f,-0.009772f,-0.036463f,-0.110917f,-0.056869f,-0.044399f,-0.013497f,-0.044400f,0.222624f,-0.157587f,-0.011059f,0.114118f},
  {-0.042992f,-0.025650f,-0.013036f,0.036054f,0.006359f,0.062474f,-0.019541f,-0.026494f,-0.101681f,0.030530f,-0.096991f,0.057880f,-0.061144f,0.000396f,-0.007725f,-0.134673f,0.022825f,0.020151f,-0.148525f,0.021281f,-0.041543f,-0.133275f,0.024069f,-0.030165f,-0.031234f,0.051649f,0.080472f,-0.003214f,0.093696f,-0.061624f,-0.106821f,0.083521f,0.061734f,0.134837f,-0.085246f,0.021611f,-0.014838f,-0.042848f,0.127856f,0.155231f,-0.048149f,-0.001313f,-0.046686f,0.023020f,-0.089784f,0.009368f,-0.074543f,0.110820f,-0.049491f,-0.072591f,0.008105f,-0.076522f,-0.126816f,-0.036905f,-0.004837f,0.034458f,-0.180526f,0.153323f,-0.001870f,-0.006073f,0.035172f,0.004079f,0.014193f,-0.150932f},
  {0.112198f,-0.032705f,-0.029203f,-0.048162f,0.024152f,0.193487f,-0.043452f,0.014269f,-0.100634f,-0.072731f,-0.126327f,0.122309f,-0.065358f,-0.036639f,0.017032f,-0.097797f,0.012279f,-0.017979f,0.119426f,0.028022f,-0.070461f,0.024009f,-0.032746f,-0.040656f,-0.058271f,-0.134376f,0.117781f,-0.009148f,0.108322f,-0.008948f,-0.032257f,0.094058f,-0.069323f,0.143592f,0.099111f,-0.013923f,0.020820f,-0.152605f,0.041551f,0.007949f,0.005729f,-0.081142f,0.013560f,0.023393f,-0.054966f,0.153617f,-0.190514f,0.203550f,0.112287f,0.000734f,0.000158f,-0.162358f,-0.224822f,-0.014278f,0.012119f,0.142235f,0.063288f,0.069165f,-0.056305f,-0.047417f,-0.008557f,0.053589f,-0.016849f,-0.148704f},
  {0.038105f,-0.071003f,-0.039691f,-0.013407f,0.026566f,0.075135f,-0.046279f,-0.088173f,0.084492f,-0.081431f,0.018634f,-0.114247f,0.101868f,0.004532f,0.005951f,-0.025048f,0.005859f,-0.036971f,0.149624f,-0.033537f,-0.049001f,-0.007000f,0.043614f,-0.047804f,0.008967f,-0.066071f,-0.009107f,-0.035103f,0.059215f,-0.062686f,-0.010123f,-0.023314f,0.045053f,-0.009412f,-0.078211f,0.001318f,0.066828f,-0.029906f,0.022698f,-0.137102f,0.080521f,-0.074002f,-0.027743f,0.147562f,-0.024425f,0.001043f,0.031130f,0.151578f,-0.008821f,0.091877f,-0.009921f,-0.005062f,-0.096499f,-0.006249f,-0.004814f,0.010588f,0.114120f,0.004403f,-0.020686f,-0.034375f,-0.020395f,0.144999f,0.003581f,-0.016951f},
  {-0.008231f,-0.051880f,0.092458f,0.000522f,-0.021516f,-0.055681f,-0.008839f,0.053432f,0.061845f,-0.096362f,0.028184f,-0.041069f,0.103500f,0.026700f,-0.022825f,-0.055263f,-0.023970f,0.007228f,-0.113958f,0.009619f,0.036507f,-0.124277f,0.063456f,-0.057909f,0.015247f,0.008562f,-0.174506f,0.005731f,0.088407f,-0.008820f,0.023825f,0.106114f,-0.048951f,-0.124433f,0.053833f,-0.025721f,0.031449f,0.129874f,-0.096476f,0.090139f,0.081594f,0.130903f,0.024108f,-0.007414f,0.028627f,0.000203f,-0.047444f,-0.130609f,0.013740f,-0.010972f,-0.001545f,-0.022226f,-0.040504f,-0.006334f,-0.036442f,-0.069753f,-0.036409f,-0.020367f,-0.038929f,-0.018829f,-0.045286f,0.118983f,-0.015655f,0.041397f},
  {-0.005522f,0.025907f,0.114421f,0.011479f,0.026783f,-0.094189f,-0.016662f,-0.157894f,0.021112f,-0.034107f,-0.122805f,0.087244f,0.012005f,0.006905f,-0.033226f,0.152816f,-0.035565f,0.022773f,-0.086934f,0.025969f,0.061467f,0.000336f,0.134820f,0.002915f,0.019562f,-0.011365f,-0.209467f,0.015339f,-0.107888f,0.011966f,-0.045094f,0.111033f,0.049145f,-0.125256f,0.023185f,-0.025344f,0.015025f,0.074248f,0.006662f,0.053375f,0.127154f,0.068852f,-0.032965f,0.115857f,-0.024595f,0.092235f,-0.138766f,-0.120685f,0.040394f,0.072466f,0.005385f,-0.066299f,-0.014617f,0.014576f,-0.026086f,-0.239427f,-0.058326f,-0.039943f,-0.227637f,0.008311f,-0.009274f,-0.057861f,0.041264f,0.252227f},
  {0.044897f,-0.030300f,0.017352f,-0.011874f,-0.023913f,-0.022182f,-0.041683f,-0.006222f,0.017820f,0.029798f,-0.041354f,0.073957f,-0.009145f,-0.003014f,-0.039562f,0.003968f,0.016314f,-0.000558f,0.007355f,0.004126f,-0.013796f,-0.013178f,-0.053780f,0.002856f,0.028957f,0.052197f,0.013428f,-0.034693f,-0.022309f,-0.023819f,0.038794f,-0.009262f,0.010575f,0.014876f,0.047277f,-0.015507f,-0.045414f,0.007189f,-0.002035f,-0.044744f,0.019732f,-0.043843f,-0.034878f,0.067635f,0.013839f,0.053701f,-0.065135f,0.039728f,0.053241f,-0.004929f,0.015599f,0.042312f,0.014616f,0.010427f,-0.027855f,-0.009309f,-0.002803f,-0.006019f,-0.063395f,0.000965f,0.031993f,-0.020285f,-0.004927f,0.023822f},
  {0.101157f,0.005745f,0.014592f,0.004047f,-0.042504f,-0.092165f,0.036116f,0.001526f,0.053442f,0.017138f,0.011599f,0.081639f,-0.144854f,0.011026f,-0.025139f,-0.069440f,0.025393f,-0.005872f,-0.067960f,-0.020583f,0.054949f,-0.009480f,-0.130415f,-0.036450f,0.003670f,0.025646f,-0.067302f,-0.016801f,-0.128902f,-0.030316f,-0.033511f,-0.029057f,0.026305f,0.042265f,0.193664f,-0.017753f,-0.016287f,-0.085751f,0.084258f,0.098047f,0.024341f,-0.112365f,0.008655f,-0.072205f,0.095503f,0.100905f,-0.024589f,-0.008371f,0.039884f,0.029412f,-0.009487f,0.206157f,-0.010341f,0.024200f,-0.021229f,-0.099891f,0.015614f,-0.082750f,-0.039988f,-0.043839f,0.094574f,0.075206f,0.032010f,0.066340f},
  {0.043002f,0.021188f,0.024515f,0.003971f,-0.023249f,0.015229f,0.003647f,-0.031768f,0.006576f,0.042456f,-0.137972f,0.093433f,-0.241678f,0.008172f,-0.015737f,-0.081566f,0.015075f,-0.034638f,0.002025f,0.002383f,-0.031567f,0.057461f,-0.015701f,-0.019777f,-0.037096f,0.012867f,0.011288f,-0.005574f,0.126461f,-0.003650f,-0.008994f,0.017772f,0.061509f,0.124824f,0.021491f,0.001601f,0.021362f,-0.085292f,0.113261f,-0.109151f,-0.015617f,-0.171819f,0.043434f,-0.076843f,0.009851f,0.080750f,-0.013205f,0.087324f,-0.158077f,0.006186f,-0.006175f,-0.156449f,-0.069276f,-0.006902f,0.011539f,-0.030402f,0.075272f,-0.078162f,-0.039463f,-0.003863f,0.089529f,0.087727f,-0.022651f,-0.160607f},
  {0.132231f,-0.058602f,0.016424f,0.001903f,0.018550f,0.039562f,-0.035238f,0.009344f,0.018126f,0.048691f,-0.066909f,0.122843f,-0.144944f,-0.006411f,0.004197f,-0.025643f,-0.025653f,0.015890f,-0.054641f,-0.012697f,-0.063887f,-0.029724f,-0.073528f,0.017771f,0.001868f,-0.026937f,0.024699f,-0.046196f,0.114769f,-0.011035f,0.023642f,0.055398f,0.004134f,0.092181f,0.083090f,0.021210f,-0.009194f,-0.097197f,0.015851f,-0.033033f,0.036853f,-0.147258f,0.081050f,0.087049f,0.097097f,0.137158f,-0.162039f,0.142062f,-0.165921f,0.051564f,-0.036165f,-0.132663f,-0.108302f,-0.009966f,0.004237f,0.040114f,0.072875f,-0.148080f,-0.130673f,-0.037142f,-0.027550f,0.029549f,-0.022908f,-0.102381f},
  {-0.023630f,-0.013830f,0.080261f,0.042116f,0.013578f,-0.131660f,-0.005627f,0.028130f,0.132676f,-0.084743f,-0.007035f,-0.012841f,0.013957f,-0.040402f,-0.025991f,0.023993f,-0.021426f,-0.028056f,-0.007142f,-0.037180f,-0.029788f,-0.009318f,0.071063f,-0.000733f,0.005252f,0.034963f,-0.054995f,-0.028313f,0.068610f,0.004133f,0.018814f,0.025027f,0.054391f,-0.025370f,0.149325f,0.028665f,0.132938f,0.015304f,-0.104283f,-0.046364f,0.054115f,-0.094534f,-0.054834f,0.105168f,0.011630f,-0.046146f,-0.201928f,-0.028910f,-0.140357f,0.099912f,-0.042353f,0.003845f,-0.104639f,-0.040731f,-0.006029f,-0.003953f,0.014275f,0.046675f,-0.095631f,-0.009946f,0.030744f,0.084470f,0.003491f,0.085969f},
  {0.054764f,-0.009067f,0.064536f,-0.055664f,-0.010215f,-0.006988f,-0.037492f,0.028206f,-0.078237f,-0.031871f,0.006549f,0.112862f,0.060291f,-0.034752f,-0.031280f,-0.053893f,-0.018433f,-0.013278f,-0.097107f,0.018281f,-0.159083f,0.059412f,-0.125804f,-0.031331f,-0.039197f,-0.033399f,-0.101379f,-0.028493f,-0.122675f,-0.041662f,0.080840f,0.081605f,-0.044774f,0.007726f,0.041668f,-0.034448f,0.006140f,-0.015075f,0.068337f,0.000973f,0.001891f,-0.053896f,0.009273f,-0.108891f,0.076717f,0.054220f,-0.110606f,-0.026629f,-0.156339f,0.033196f,-0.005645f,0.020929f,0.021004f,-0.019096f,0.028050f,0.019084f,-0.092604f,0.072791f,-0.041284f,-0.003605f,0.175001f,0.102122f,-0.018472f,0.107236f},
  {-0.060598f,-0.006265f,-0.020625f,-0.039373f,-0.034244f,0.004428f,-0.014588f,-0.120636f,-0.055696f,0.052027f,0.033700f,0.056261f,-0.118176f,-0.013069f,0.005527f,0.044490f,-0.007700f,-0.010670f,-0.064966f,0.026554f,0.026152f,0.165952f,0.107235f,0.039527f,-0.042197f,-0.039428f,-0.032334f,0.023917f,0.061905f,-0.016406f,0.010711f,0.062073f,0.188356f,0.056141f,-0.056014f,0.001539f,-0.065644f,0.124035f,0.015338f,-0.044391f,-0.060808f,0.078883f,-0.105391f,0.037233f,-0.065932f,0.109298f,0.064767f,0.132498f,-0.141677f,-0.127421f,0.004851f,0.037354f,-0.039141f,-0.020438f,-0.028081f,0.028408f,0.062160f,0.097634f,-0.024570f,-0.000650f,0.146432f,-0.024517f,-0.008582f,-0.034605f},
  {0.051067f,-0.023066f,-0.027317f,0.032860f,0.000256f,-0.092887f,0.023839f,-0.034550f,0.041285f,-0.016643f,-0.046033f,-0.043579f,-0.073041f,-0.014400f,-0.000336f,-0.010239f,-0.037757f,0.010431f,0.020837f,0.028995f,-0.060950f,0.104824f,0.022531f,0.008075f,0.024225f,0.035523f,0.033564f,0.028590f,-0.047081f,0.007804f,-0.040305f,-0.027307f,0.055419f,0.016501f,-0.021439f,0.002610f,0.058723f,0.032140f,-0.021836f,-0.071147f,0.041328f,0.043138f,0.026132f,0.074106f,0.081710f,0.021983f,-0.048638f,0.011701f,-0.016633f,-0.052601f,-0.037669f,-0.032497f,-0.058545f,-0.009056f,0.024515f,0.031989f,0.103187f,-0.040434f,-0.022565f,0.042992f,0.086249f,-0.013107f,-0.008373f,-0.043205f},
  {-0.053163f,0.007784f,-0.018108f,-0.031335f,0.018316f,0.023105f,0.036647f,0.026722f,0.053016f,0.030665f,0.069232f,-0.027208f,0.020644f,-0.025087f,0.031407f,0.004705f,-0.006732f,-0.013578f,-0.012690f,0.012120f,0.005742f,-0.000334f,-0.002339f,0.014741f,-0.002847f,0.035587f,0.030191f,-0.039044f,0.000827f,0.009580f,0.057243f,0.018951f,0.043586f,0.011999f,0.047669f,-0.016163f,-0.002238f,0.031473f,0.004603f,0.013858f,-0.044980f,-0.011711f,-0.046900f,-0.029464f,-0.037182f,-0.020180f,0.022234f,-0.048898f,0.025707f,0.032007f,0.030805f,-0.022559f,0.035954f,-0.012493f,0.021236f,0.006349f,-0.025971f,-0.043146f,0.012629f,0.018115f,-0.021195f,0.027119f,-0.005251f,0.053953f},
  {-0.045946f,-0.016713f,0.019328f,-0.037065f,-0.008152f,0.015107f,0.008306f,-0.045493f,0.041541f,0.052793f,-0.036428f,0.049698f,-0.021966f,-0.032612f,-0.012858f,0.023646f,-0.024639f,0.019351f,-0.028927f,-0.032125f,0.136457f,-0.030605f,0.040865f,0.021239f,-0.017713f,0.077534f,-0.024038f,-0.019253f,0.030833f,-0.028914f,0.067730f,0.072983f,0.013593f,-0.068796f,0.080933f,0.021439f,0.047907f,0.083594f,-0.071581f,-0.017970f,0.033889f,0.065713f,-0.022660f,-0.067151f,-0.102115f,-0.060764f,-0.012335f,-0.008839f,0.042122f,0.030259f,-0.039582f,-0.042677f,-0.008970f,-0.016654f,0.006412f,0.004668f,0.031451f,-0.039421f,-0.000454f,-0.034616f,-0.033783f,-0.025187f,-0.024772f,0.038554f},
  {0.089346f,0.010653f,-0.047109f,-0.065535f,-0.022441f,0.126018f,-0.018143f,-0.033686f,0.036708f,0.134630f,0.027369f,0.020954f,-0.072085f,0.006829f,0.023248f,0.041713f,0.005407f,-0.009749f,0.006838f,0.014309f,-0.083079f,-0.058353f,-0.041803f,0.008062f,0.003886f,0.011676f,0.079503f,-0.047119f,0.061843f,0.009494f,-0.001097f,-0.027038f,0.027389f,-0.013685f,0.068470f,0.016557f,-0.006396f,0.029122f,-0.079028f,0.026740f,0.019277f,-0.098466f,0.000716f,0.005998f,0.078837f,0.117109f,0.080091f,-0.164975f,0.004539f,0.111123f,-0.016977f,-0.027748f,0.034765f,0.020699f,-0.007445f,0.032509f,0.096067f,-0.082073f,0.055125f,0.021883f,0.036706f,-0.063652f,-0.027910f,0.059289f},
  {0.027987f,0.020058f,-0.036038f,0.055965f,0.009673f,0.053408f,-0.031666f,-0.110078f,0.077159f,0.111002f,-0.057979f,-0.035124f,0.029663f,-0.012646f,-0.022968f,0.060560f,-0.009998f,0.017978f,0.014684f,-0.006857f,-0.036250f,0.009987f,0.085878f,0.028505f,0.007840f,-0.022294f,-0.048518f,-0.010330f,0.121212f,0.024869f,-0.021597f,0.009194f,0.051241f,-0.099949f,0.153481f,0.014453f,0.080995f,0.139510f,-0.030618f,-0.090617f,0.049037f,-0.038916f,-0.048773f,-0.065503f,0.099467f,0.027510f,0.090541f,-0.092945f,0.030276f,0.073395f,-0.028205f,0.000004f,0.056498f,0.025497f,-0.031433f,-0.011175f,0.097136f,-0.062150f,0.028639f,-0.002222f,0.063606f,-0.040583f,0.027469f,0.104016f},
  {0.071063f,-0.038096f,-0.024804f,-0.015018f,-0.017730f,0.029324f,0.001489f,-0.019492f,-0.096825f,0.033087f,0.032789f,-0.030790f,-0.077377f,0.001135f,0.005347f,-0.039358f,0.006013f,-0.009160f,0.056836f,0.011712f,-0.021937f,0.117814f,-0.010568f,-0.018841f,-0.019625f,-0.065868f,0.077564f,-0.034414f,-0.038551f,-0.037462f,-0.084546f,0.002445f,0.013015f,-0.073120f,-0.047106f,-0.000628f,-0.057558f,-0.005978f,-0.078058f,-0.059695f,0.047091f,0.028524f,0.047076f,-0.009180f,0.209812f,-0.042025f,0.038728f,-0.035702f,0.041533f,-0.019587f,0.014799f,0.123313f,0.117416f,-0.011481f,0.025796f,-0.060276f,0.076811f,-0.051680f,0.086652f,0.000692f,0.091713f,0.031300f,0.003144f,-0.061239f},
  {-0.025773f,-0.030279f,-0.017166f,0.001093f,0.027624f,-0.027512f,0.023186f,-0.037199f,0.020090f,-0.015573f,-0.093891f,-0.047447f,-0.037403f,0.012141f,-0.013545f,-0.018321f,0.018367f,-0.026133f,0.019848f,-0.003509f,0.003078f,0.103807f,0.042449f,-0.013404f,0.034631f,0.002645f,0.022411f,0.010212f,-0.009787f,0.016844f,-0.080498f,-0.043283f,0.048606f,-0.004102f,-0.039940f,0.000326f,0.035642f,0.044683f,-0.040373f,-0.035185f,0.004950f,0.046529f,0.019834f,-0.007138f,0.089156f,-0.005722f,0.005182f,0.029287f,-0.011064f,0.009762f,-0.031875f,-0.098977f,-0.021947f,0.006062f,0.020859f,0.024047f,0.084609f,0.021812f,0.049956f,0.028572f,0.054569f,-0.031341f,-0.008110f,-0.054507f},
  {-0.009902f,0.033133f,0.005584f,0.021708f,-0.009656f,-0.085084f,-0.034727f,0.032435f,-0.003971f,-0.044654f,-0.068190f,-0.021721f,-0.050496f,0.014167f,0.019484f,-0.007460f,-0.002595f,-0.000663f,0.052449f,0.006807f,-0.005984f,0.046126f,-0.001152f,-0.002076f,-0.009781f,0.056525f,0.029943f,-0.012951f,-0.008114f,-0.011448f,-0.008540f,-0.032353f,0.035802f,0.038844f,-0.029562f,-0.004622f,0.014113f,-0.018817f,-0.000248f,-0.027277f,-0.012069f,-0.022691f,0.045657f,0.025243f,0.036878f,-0.027197f,-0.017831f,0.016609f,0.022194f,-0.001814f,0.027877f,-0.051899f,0.020562f,-0.005817f,0.035672f,0.012566f,0.065683f,0.035695f,-0.014117f,-0.006613f,0.064239f,-0.024361f,-0.031231f,-0.009318f},
  {-0.043840f,0.005096f,0.051469f,0.001687f,-0.022708f,-0.039201f,-0.024249f,0.040549f,-0.023785f,-0.002932f,0.064164f,-0.032361f,-0.008245f,0.015602f,0.015516f,0.004193f,0.000352f,0.011272f,-0.043514f,0.003185f,0.005877f,-0.028192f,0.007860f,-0.013389f,0.023954f,-0.028312f,0.007068f,0.022340f,-0.017897f,0.026168f,0.054726f,-0.037366f,-0.035398f,-0.011590f,-0.038265f,-0.011592f,-0.024234f,0.025140f,-0.011490f,0.042439f,0.059196f,-0.011318f,0.033834f,-0.025999f,0.028257f,-0.034433f,-0.020874f,-0.035849f,-0.028534f,0.027934f,0.019167f,-0.048016f,0.024060f,-0.014818f,-0.004793f,-0.023125f,0.034380f,-0.022617f,0.040463f,-0.010939f,-0.037658f,-0.010181f,-0.010054f,0.029267f},
  {0.010036f,-0.014118f,0.041062f,-0.008387f,0.017313f,0.040397f,-0.025896f,-0.001579f,-0.017544f,0.085414f,0.096359f,0.024108f,0.118469f,0.019069f,0.025805f,0.060495f,0.032966f,-0.016398f,-0.117921f,0.019002f,-0.033478f,-0.118448f,-0.222194f,-0.034680f,-0.024644f,-0.065341f,0.023719f,0.000937f,-0.036179f,0.021808f,0.043103f,0.084685f,-0.089937f,0.008046f,0.052737f,0.023231f,-0.121346f,-0.055904f,-0.060666f,-0.078854f,0.024646f,-0.141624f,-0.109878f,0.141602f,0.079609f,0.114541f,0.004700f,0.095915f,0.138156f,0.065437f,-0.012386f,-0.008430f,0.016278f,-0.011408f,-0.000282f,0.010349f,0.011116f,0.037931f,-0.154282f,-0.027299f,-0.023490f,0.010009f,0.030539f,-0.135308f},
  {0.063250f,-0.015225f,0.050087f,0.045427f,0.024306f,0.161928f,-0.009704f,-0.040296f,-0.018471f,0.009717f,0.102747f,-0.047113f,0.031038f,-0.032520f,0.018729f,0.011650f,-0.008247f,-0.035405f,0.028009f,-0.019290f,-0.092346f,-0.185291f,-0.195685f,0.026064f,0.026170f,-0.045419f,-0.018780f,-0.015334f,0.186870f,-0.008400f,-0.027736f,-0.028520f,-0.088315f,0.034090f,0.164772f,-0.010955f,0.066480f,-0.079277f,-0.197774f,-0.093946f,0.026018f,-0.219016f,0.050561f,0.033133f,-0.008640f,0.155479f,-0.016415f,-0.017999f,-0.047037f,0.076993f,-0.015963f,0.039010f,0.093561f,0.017924f,-0.014782f,0.013796f,-0.160959f,-0.041602f,-0.117346f,-0.024788f,-0.120188f,-0.011932f,-0.008810f,-0.108274f},
  {0.048613f,-0.031985f,-0.085390f,-0.049126f,0.005326f,-0.057628f,-0.019453f,-0.139530f,0.039549f,0.142837f,-0.048448f,-0.206058f,-0.074022f,0.028670f,-0.029066f,0.070546f,-0.029937f,-0.005561f,0.237931f,0.016860f,-0.220154f,-0.115200f,0.058247f,0.009505f,-0.020634f,0.059632f,0.100246f,0.011898f,-0.040156f,-0.015896f,-0.037884f,-0.020454f,-0.106713f,-0.041437f,-0.068758f,0.032266f,0.118109f,-0.074681f,-0.089260f,0.015255f,0.040931f,-0.203706f,0.119659f,-0.117810f,0.101972f,-0.124002f,-0.037227f,-0.014457f,-0.094474f,-0.005009f,-0.028697f,-0.051879f,0.132272f,0.019764f,-0.004245f,-0.051036f,-0.085474f,0.081909f,0.031244f,-0.019721f,-0.080651f,0.043900f,-0.034660f,-0.178747f},
  {-0.058095f,-0.053793f,-0.092863f,0.011540f,-0.010856f,-0.119978f,0.015573f,0.001361f,0.114454f,-0.000884f,0.026557f,-0.050518f,0.010111f,0.031610f,-0.015439f,0.124290f,-0.050233f,-0.001407f,0.114458f,0.002917f,-0.186238f,0.085387f,-0.008511f,0.005242f,0.003657f,0.052834f,-0.075649f,0.042579f,-0.007999f,-0.041486f,0.094938f,-0.205379f,0.167487f,0.169390f,-0.139899f,0.006612f,0.072650f,-0.142413f,0.026877f,-0.218866f,-0.047131f,-0.024013f,-0.044978f,0.090861f,0.120181f,-0.068368f,-0.187231f,0.109001f,-0.137742f,0.076473f,0.038768f,0.006129f,0.145654f,-0.026424f,0.006088f,0.143719f,0.171064f,0.092148f,-0.045330f,-0.001469f,-0.049535f,0.073908f,-0.021568f,-0.216345f},
  {-0.064493f,0.017128f,-0.011717f,-0.068135f,-0.018495f,0.102447f,0.001378f,-0.148618f,-0.238694f,0.132135f,0.179159f,-0.137950f,0.009737f,0.001397f,-0.020854f,-0.065264f,0.025885f,0.036337f,0.000866f,-0.014269f,-0.127747f,-0.130152f,-0.080240f,0.034480f,-0.019181f,-0.007443f,0.047453f,0.005763f,-0.163855f,0.002363f,0.032870f,0.118248f,-0.146914f,-0.027978f,-0.448238f,-0.028773f,-0.171826f,-0.070179f,0.077943f,0.107714f,0.097984f,-0.045312f,-0.061606f,0.136318f,-0.147598f,0.039079f,-0.032012f,0.174324f,-0.040519f,0.040676f,-0.005544f,0.192076f,-0.088571f,-0.016086f,0.040979f,0.087830f,-0.101988f,0.219609f,-0.051933f,0.017953f,-0.238403f,-0.002605f,-0.025221f,-0.168184f},
  {0.034988f,-0.002223f,0.026523f,-0.048211f,-0.016028f,-0.136032f,-0.012164f,-0.000083f,0.091869f,-0.024261f,0.216879f,-0.133301f,0.041000f,-0.026638f,0.012749f,0.159868f,-0.021714f,0.014145f,0.034396f,-0.005478f,0.023081f,0.089118f,-0.131014f,-0.015113f,0.020741f,-0.019741f,0.013973f,-0.050838f,-0.161191f,-0.030831f,0.035892f,0.047375f,-0.175737f,-0.122983f,-0.231110f,-0.005955f,0.012004f,0.078909f,-0.020651f,0.027962f,0.130341f,0.123082f,0.056369f,0.249105f,0.310159f,-0.044281f,0.043928f,-0.075788f,0.009283f,-0.094271f,0.000475f,-0.000884f,0.140101f,0.007975f,-0.027614f,0.013045f,0.090143f,-0.076833f,0.095415f,0.012731f,0.034607f,-0.206701f,-0.018697f,-0.043186f},
  {0.076374f,0.021008f,0.016065f,-0.028225f,0.013747f,-0.003503f,0.003882f,-0.006885f,0.027877f,0.034509f,0.023704f,0.018865f,0.079488f,-0.021751f,-0.001679f,0.075891f,-0.030127f,0.003710f,-0.040971f,-0.030875f,0.026271f,-0.042034f,-0.059623f,0.015131f,0.001001f,-0.067789f,0.024824f,0.016424f,-0.025630f,0.009377f,0.060605f,0.038478f,-0.073955f,-0.057917f,0.038186f,0.002737f,-0.011806f,0.006766f,-0.035489f,-0.000597f,0.009069f,-0.007527f,0.025718f,0.033562f,0.025573f,0.016822f,0.000722f,-0.064320f,-0.025482f,-0.012536f,0.017254f,-0.001523f,-0.009236f,0.019467f,0.032964f,-0.026562f,-0.035002f,-0.003625f,-0.059340f,-0.021970f,-0.104012f,0.036636f,0.012095f,0.041204f},
  {-0.101062f,-0.041782f,0.085552f,-0.048073f,-0.015003f,0.061993f,-0.034183f,-0.242094f,0.075943f,0.070821f,0.048917f,-0.013651f,0.056526f,0.024472f,-0.010254f,0.030453f,-0.006388f,-0.019814f,-0.055863f,-0.011555f,-0.205399f,-0.072728f,-0.020987f,-0.019473f,-0.015380f,0.047350f,-0.065191f,-0.017641f,-0.001080f,-0.002445f,-0.134156f,0.010680f,-0.048826f,-0.044181f,0.074649f,-0.024586f,-0.094264f,-0.027015f,0.006934f,-0.126106f,-0.114805f,-0.014194f,0.035024f,-0.016845f,0.034261f,0.138899f,0.185619f,0.081733f,0.016631f,0.073726f,0.012235f,0.067003f,0.082590f,-0.019971f,-0.035529f,-0.086962f,-0.000906f,-0.010418f,-0.038894f,-0.017792f,0.086327f,-0.013418f,0.001107f,-0.076515f},
  {-0.023439f,-0.011809f,-0.028822f,0.015305f,-0.039970f,0.166410f,-0.012232f,-0.132255f,0.045557f,0.118192f,-0.003632f,-0.069439f,0.003538f,-0.039902f,0.013265f,-0.003003f,-0.027737f,-0.041474f,0.050381f,-0.020947f,0.087668f,-0.061264f,-0.071227f,-0.008161f,-0.024492f,-0.148507f,0.153335f,-0.005044f,0.022751f,-0.019679f,-0.003619f,0.082801f,0.018353f,0.158646f,0.122935f,-0.022114f,0.012361f,0.054750f,0.077988f,-0.124308f,-0.060601f,-0.128768f,-0.102790f,0.022733f,0.096568f,0.118101f,-0.108219f,0.064276f,-0.118612f,-0.021269f,0.023017f,0.088428f,0.015397f,-0.032510f,-0.025040f,0.155212f,0.135518f,0.054134f,-0.101625f,0.017389f,-0.093833f,-0.070560f,-0.018922f,-0.162017f},
  {-0.015201f,-0.035896f,0.044547f,-0.040696f,0.007687f,0.021590f,0.000164f,-0.051875f,0.054147f,0.061494f,0.025435f,0.023608f,-0.029762f,-0.023415f,0.007226f,0.043451f,-0.004238f,0.013497f,0.061565f,-0.027124f,-0.108950f,0.058082f,0.055606f,-0.012202f,-0.005355f,-0.011547f,-0.118941f,-0.019684f,-0.010728f,-0.004085f,-0.038732f,-0.016181f,0.119067f,0.024129f,0.044690f,0.019616f,0.018733f,-0.118745f,-0.058915f,0.072483f,-0.019252f,0.010101f,0.086913f,-0.005825f,-0.127886f,0.041803f,-0.071390f,0.101784f,-0.066543f,0.009804f,-0.043410f,0.108849f,-0.112208f,-0.010241f,-0.032255f,-0.048278f,-0.042536f,0.129138f,-0.035093f,-0.019493f,-0.007587f,0.001118f,-0.002262f,-0.079607f},
  {0.076508f,-0.054558f,-0.049496f,-0.074387f,-0.012939f,-0.032354f,0.005865f,-0.018633f,0.090477f,0.015922f,0.034129f,-0.031317f,-0.110784f,-0.029823f,-0.031608f,-0.191682f,-0.044720f,-0.022311f,0.165037f,-0.010283f,-0.169932f,0.158728f,0.009203f,-0.039186f,0.007967f,-0.032523f,-0.201497f,0.006877f,-0.032927f,-0.005323f,0.001629f,-0.063809f,0.036978f,0.050848f,0.010104f,0.007976f,0.140404f,-0.146801f,0.055409f,0.010120f,0.109653f,-0.054546f,0.019899f,0.057435f,0.015965f,0.031406f,-0.230040f,0.064218f,-0.219950f,0.230045f,-0.030836f,-0.093158f,0.000136f,-0.001207f,-0.034710f,-0.046492f,0.108208f,0.090889f,0.045146f,-0.026303f,-0.030316f,0.094517f,0.008022f,0.084747f},
  {0.064601f,0.013962f,0.016083f,0.042919f,0.003125f,-0.094826f,-0.043511f,0.050676f,0.124940f,-0.116652f,-0.019005f,-0.187134f,-0.038495f,0.005511f,0.012397f,-0.026704f,0.055632f,-0.040147f,0.249250f,0.024082f,0.082122f,0.054106f,-0.027137f,-0.009632f,-0.007297f,-0.126627f,-0.043952f,-0.012499f,-0.292459f,0.008007f,0.026186f,-0.039662f,-0.055704f,-0.145036f,0.014008f,0.026931f,0.106394f,-0.128969f,-0.057577f,0.113116f,0.138741f,-0.125473f,0.139729f,0.003064f,-0.180019f,-0.107557f,-0.171241f,-0.122001f,-0.030311f,0.143602f,0.021551f,-0.150960f,0.093135f,-0.025965f,-0.013218f,-0.038874f,-0.021174f,-0.050600f,0.022440f,-0.057257f,0.052715f,-0.015684f,-0.018913f,0.089304f},
  {0.314565f,-0.017317f,-0.118551f,-0.029383f,0.021221f,-0.078072f,-0.010876f,0.095995f,-0.064009f,-0.341961f,-0.242490f,0.195460f,-0.144933f,0.009502f,-0.006158f,-0.014832f,0.012696f,-0.015398f,0.034194f,-0.013014f,-0.205654f,0.005807f,0.000915f,0.025678f,-0.036981f,0.069863f,0.134885f,-0.030772f,-0.360611f,-0.014017f,0.171762f,0.053711f,-0.199696f,-0.015950f,0.025494f,-0.013195f,0.066855f,-0.194545f,-0.004044f,0.058491f,0.171064f,0.089981f,0.112877f,0.175938f,0.005050f,-0.372082f,-0.239342f,0.064460f,-0.014737f,0.012086f,-0.005003f,-0.020513f,-0.051356f,-0.020587f,-0.011673f,0.092716f,0.027940f,-0.020531f,-0.041529f,-0.035993f,-0.087960f,-0.006556f,0.018074f,0.198590f},
  {0.104602f,0.038669f,-0.010803f,-0.033520f,0.023765f,0.114775f,-0.038423f,-0.059645f,-0.070055f,-0.074476f,-0.006854f,0.144948f,0.005936f,-0.021961f,-0.006658f,-0.083625f,0.012177f,0.030449f,0.048214f,0.004584f,-0.044995f,-0.049394f,-0.042265f,-0.038555f,-0.003264f,0.029673f,0.006747f,-0.016816f,0.043896f,-0.000153f,-0.056966f,0.025075f,-0.006177f,0.156952f,0.051414f,0.022471f,-0.025379f,-0.054951f,0.031697f,0.060444f,-0.101239f,-0.001827f,-0.009615f,-0.054799f,0.002109f,0.162009f,-0.139938f,0.073062f,-0.001674f,0.048920f,-0.023264f,-0.121038f,-0.115862f,-0.036127f,0.019834f,0.030439f,-0.002361f,0.103203f,-0.084279f,0.005036f,0.002862f,-0.017556f,0.040943f,-0.055961f},
  {-0.029774f,-0.043128f,0.072302f,-0.122724f,-0.014784f,0.051565f,-0.036190f,-0.145547f,-0.087620f,-0.096492f,0.075297f,-0.121184f,0.138845f,-0.037496f,-0.043487f,0.089845f,-0.024735f,-0.005666f,0.119463f,0.006643f,0.025619f,0.009639f,-0.157770f,-0.020522f,-0.027602f,0.083690f,-0.096242f,0.003621f,-0.050507f,-0.010046f,-0.065031f,-0.128755f,-0.051907f,0.084408f,0.032388f,0.021872f,0.055324f,-0.184537f,0.124681f,-0.095826f,-0.012367f,-0.072475f,0.103938f,-0.021459f,-0.009799f,0.020822f,0.019565f,0.079023f,0.057000f,0.198635f,-0.008150f,0.181742f,-0.010227f,0.022440f,0.003361f,-0.069757f,-0.048758f,0.033471f,-0.103989f,-0.045988f,0.053860f,-0.130495f,0.000503f,-0.039585f},
  {0.046876f,-0.059735f,0.081372f,0.036722f,-0.038183f,0.008350f,-0.017077f,-0.045933f,0.020828f,-0.067318f,0.017268f,-0.014685f,0.017839f,0.029572f,-0.035645f,0.072086f,-0.027513f,-0.026306f,0.064071f,-0.004352f,0.046777f,-0.016258f,0.077136f,-0.035254f,-0.021777f,-0.110130f,-0.042137f,-0.033233f,-0.083942f,0.018060f,-0.011137f,0.011627f,-0.101687f,0.060199f,0.159146f,-0.026598f,0.140293f,-0.074699f,0.102994f,-0.011177f,-0.001399f,-0.020934f,0.125166f,0.015052f,-0.175149f,-0.019111f,-0.132899f,-0.142078f,-0.068136f,0.118702f,0.021271f,0.141135f,-0.101514f,-0.019044f,-0.020280f,-0.027951f,-0.013432f,0.018232f,0.143355f,-0.046913f,0.015922f,0.010675f,-0.008059f,0.056350f},
  {-0.103256f,-0.016309f,0.090601f,-0.044892f,0.027220f,-0.116341f,-0.026936f,0.183947f,0.055392f,-0.070115f,0.089256f,-0.208739f,0.077538f,-0.023689f,-0.028870f,0.083042f,-0.003519f,-0.004448f,0.113524f,-0.001657f,0.007263f,0.145991f,-0.008481f,0.027489f,-0.042608f,-0.147549f,0.044265f,-0.027789f,-0.169406f,-0.014846f,-0.007672f,-0.071205f,0.042853f,-0.110415f,-0.108173f,-0.015881f,-0.050279f,-0.033821f,0.115791f,0.009744f,0.016115f,0.029972f,0.026045f,-0.018995f,-0.001435f,0.013349f,-0.005640f,-0.022721f,0.049418f,0.060480f,0.006515f,-0.064364f,0.035579f,-0.044140f,0.004350f,-0.006477f,0.097157f,0.128091f,-0.013256f,0.009131f,0.065059f,0.026962f,-0.020005f,-0.033034f},
  {0.013581f,-0.014935f,-0.056851f,-0.092545f,-0.010832f,0.309749f,0.012435f,-0.034399f,0.027504f,0.207415f,0.030494f,0.155075f,-0.075686f,-0.023456f,0.000512f,-0.020665f,-0.042542f,-0.032056f,-0.227810f,0.012802f,0.004879f,-0.257484f,0.041623f,-0.024063f,-0.041805f,-0.160628f,0.130969f,-0.019139f,0.371173f,0.006630f,0.106086f,0.271040f,0.013620f,-0.053097f,0.088970f,-0.031551f,-0.044003f,0.267638f,-0.042837f,0.162291f,-0.034663f,-0.094567f,-0.005751f,-0.049548f,-0.192725f,0.120088f,-0.001774f,-0.056473f,-0.022220f,-0.068436f,0.003698f,-0.333627f,-0.010690f,-0.003913f,0.023417f,0.156942f,-0.196789f,-0.039139f,0.004245f,-0.012170f,-0.197408f,-0.096679f,-0.029852f,0.170548f},
  {0.219372f,0.013967f,-0.207834f,-0.009468f,-0.013980f,0.190993f,-0.011865f,-0.079140f,-0.180365f,0.009250f,-0.031141f,0.252862f,-0.025696f,-0.001883f,0.016771f,-0.082374f,0.061860f,-0.017539f,0.031746f,-0.025357f,-0.083609f,0.000623f,-0.136195f,-0.015773f,0.028083f,-0.157227f,0.112303f,-0.030904f,0.087398f,0.019987f,0.366902f,0.226233f,0.033069f,0.009596f,0.044491f,-0.024320f,-0.217019f,0.002939f,0.016698f,-0.032925f,0.026586f,-0.045638f,0.080910f,-0.082424f,-0.021421f,-0.087978f,-0.044585f,0.080661f,0.046144f,-0.142930f,0.004420f,-0.127573f,0.114923f,0.015481f,0.005127f,0.188635f,-0.008657f,-0.284060f,-0.010258f,0.009876f,-0.239291f,0.055863f,-0.030188f,0.029491f},
  {0.239947f,-0.008177f,-0.075389f,-0.060009f,-0.022348f,0.035223f,-0.038727f,-0.000299f,-0.333169f,0.045100f,-0.137215f,0.170589f,-0.132111f,-0.004489f,0.009379f,-0.041723f,0.031176f,0.013335f,0.058257f,-0.040077f,-0.036799f,0.020706f,-0.129193f,-0.006916f,0.034275f,-0.003316f,0.102052f,0.039196f,-0.003332f,0.012253f,0.205175f,-0.045741f,-0.025451f,0.126253f,0.154039f,-0.034157f,-0.082262f,-0.170767f,0.107030f,0.027926f,-0.194550f,0.117492f,0.214048f,-0.083217f,0.062094f,-0.055099f,-0.253829f,-0.135872f,-0.003584f,0.016791f,0.025005f,-0.188189f,-0.138390f,-0.028969f,-0.004433f,0.108661f,-0.070584f,0.046737f,0.034378f,-0.017525f,-0.056447f,0.016433f,0.034952f,-0.070808f},
  {0.008824f,-0.009037f,-0.127809f,-0.045214f,0.020873f,-0.007642f,-0.036212f,0.020250f,-0.183485f,-0.027604f,-0.103684f,-0.032495f,-0.033416f,-0.020350f,-0.027610f,-0.120055f,-0.001179f,-0.026295f,0.056301f,0.026516f,0.048631f,0.135659f,0.047604f,0.010780f,-0.019206f,0.043730f,0.058266f,0.027810f,0.011694f,-0.028543f,-0.077755f,-0.147789f,0.064458f,0.033649f,-0.095916f,0.018327f,0.082449f,-0.027573f,0.038275f,0.027744f,-0.069329f,0.139623f,0.083081f,-0.141154f,0.002310f,-0.096741f,0.047712f,0.111592f,-0.048055f,0.029328f,0.025672f,0.070414f,-0.152152f,-0.022054f,-0.007542f,0.038815f,0.070160f,0.004120f,0.156116f,0.011993f,0.076551f,-0.006904f,0.036822f,-0.133659f},
  {-0.038753f,-0.022763f,0.062449f,-0.126429f,0.013988f,-0.139446f,-0.009919f,-0.001293f,-0.100039f,-0.041523f,-0.086376f,-0.033474f,0.087699f,-0.039547f,-0.044035f,0.072293f,-0.028946f,-0.019211f,0.089409f,-0.041621f,0.109381f,-0.042518f,0.019344f,-0.025429f,0.027985f,0.145298f,-0.083450f,-0.000225f,0.046508f,0.008455f,-0.035117f,-0.149009f,0.084737f,0.122708f,-0.122956f,-0.039070f,0.107216f,-0.042767f,0.033722f,0.087963f,-0.122673f,0.051851f,0.028596f,0.081439f,-0.104995f,-0.085108f,-0.048323f,-0.030571f,-0.021833f,0.068902f,-0.007167f,0.041733f,-0.184874f,-0.039645f,0.038395f,-0.056819f,-0.089728f,0.005476f,0.001791f,-0.036852f,0.191431f,-0.017965f,-0.021053f,0.034987f},
  {0.013851f,-0.013377f,-0.069073f,-0.041574f,-0.004816f,-0.019532f,0.014279f,0.112445f,-0.037165f,-0.120020f,-0.132341f,0.037353f,0.122460f,0.000196f,-0.032058f,-0.075787f,0.051496f,0.012042f,0.055370f,-0.003939f,-0.003041f,-0.144867f,-0.008975f,-0.003320f,0.000206f,0.018753f,0.032811f,0.002671f,-0.089200f,-0.010108f,-0.140125f,-0.041792f,-0.072259f,0.086501f,-0.051731f,-0.011812f,0.006551f,-0.078433f,0.140810f,0.187929f,-0.057985f,0.037832f,-0.091964f,-0.052548f,-0.023336f,0.000736f,-0.198413f,0.158077f,0.119417f,0.059853f,-0.032131f,-0.094334f,-0.141731f,-0.042547f,-0.012587f,0.025453f,-0.062804f,0.154906f,-0.024087f,-0.043024f,0.071365f,0.051588f,-0.026118f,-0.090779f},
  {-0.030228f,-0.011336f,-0.184965f,-0.016325f,0.009978f,0.102572f,-0.035699f,0.060438f,-0.041531f,0.057266f,0.113333f,-0.001625f,-0.001132f,0.006563f,0.027035f,-0.031714f,-0.045342f,0.018296f,0.024746f,-0.026005f,0.006733f,-0.118944f,0.119789f,-0.060860f,-0.015571f,-0.121829f,0.113864f,0.018015f,0.065271f,-0.053503f,-0.040954f,0.012823f,0.068847f,0.260991f,-0.107013f,0.013977f,0.056654f,0.112891f,0.127212f,-0.067923f,-0.181742f,-0.116514f,-0.064243f,-0.047635f,0.173785f,0.067129f,0.092883f,0.122972f,0.103543f,0.051810f,-0.020307f,-0.175708f,0.036206f,-0.002819f,-0.025975f,0.290357f,0.166224f,-0.138484f,0.142194f,0.005351f,0.036475f,0.003924f,-0.027451f,-0.069882f},
  {-0.028000f,-0.037445f,-0.154719f,0.016249f,0.000294f,-0.032430f,0.027612f,0.073223f,-0.032928f,-0.083964f,-0.022032f,0.138780f,0.067666f,-0.039281f,0.026856f,0.036945f,-0.024060f,-0.039734f,-0.106226f,-0.020945f,0.096992f,-0.025659f,-0.088773f,-0.034901f,-0.025217f,-0.107328f,0.008722f,-0.017856f,-0.027988f,-0.002227f,0.120128f,0.053707f,0.123894f,0.016570f,0.067395f,0.009480f,-0.062620f,-0.122089f,0.027953f,0.405122f,-0.111812f,0.046044f,-0.043911f,-0.070809f,-0.048935f,0.026054f,-0.081624f,-0.138122f,-0.040666f,-0.037275f,0.020103f,0.056819f,-0.254636f,0.022064f,-0.017628f,0.034152f,-0.155632f,0.030821f,-0.077460f,-0.015311f,-0.039442f,0.072176f,0.031601f,-0.035381f},
  {0.037014f,-0.011294f,-0.043929f,0.007488f,0.006726f,0.038029f,-0.032234f,-0.178175f,-0.071489f,-0.020164f,-0.030478f,0.209910f,0.019532f,-0.030976f,-0.040858f,-0.075801f,-0.039947f,-0.018255f,-0.015688f,-0.021107f,0.156758f,-0.057465f,-0.051903f,-0.032467f,0.004454f,0.147855f,-0.135950f,-0.038792f,-0.098197f,0.020193f,0.218666f,0.033799f,0.097521f,-0.080303f,-0.000927f,-0.011471f,-0.126579f,-0.075267f,-0.014091f,0.016114f,-0.087166f,0.043731f,-0.161701f,-0.217649f,-0.056064f,0.046434f,-0.064416f,-0.041825f,0.063291f,-0.146024f,0.024849f,0.083189f,-0.255317f,-0.026513f,-0.019455f,0.026308f,-0.111260f,-0.099984f,-0.074389f,0.011197f,-0.074001f,0.029465f,-0.022812f,0.022139f},
  {-0.121998f,-0.011714f,0.081811f,-0.087539f,-0.005559f,0.012390f,-0.026482f,0.251913f,0.052198f,-0.073169f,0.093906f,-0.026335f,0.125715f,0.027270f,-0.017134f,0.091604f,-0.038600f,0.021792f,0.137158f,-0.036879f,-0.076204f,-0.065812f,-0.185363f,-0.012383f,0.010276f,0.128596f,-0.141157f,0.021908f,-0.140686f,-0.015378f,0.044214f,0.023104f,-0.164378f,0.079584f,0.121704f,0.008541f,0.002274f,-0.118061f,-0.089364f,-0.140570f,0.017683f,-0.044517f,-0.060426f,0.239949f,0.118120f,0.058572f,-0.130962f,0.147150f,0.068706f,0.142881f,0.006113f,-0.029451f,0.034921f,-0.036783f,-0.009528f,-0.024719f,0.110383f,0.128322f,-0.194774f,-0.011266f,-0.031966f,0.071125f,0.023719f,-0.065830f},
  {-0.062458f,0.011851f,0.011209f,0.038363f,0.017491f,0.055837f,-0.039658f,0.023327f,-0.129575f,0.094840f,-0.035206f,0.099205f,-0.081518f,-0.021132f,-0.028470f,-0.112565f,-0.022967f,0.016276f,-0.127672f,-0.024088f,-0.023160f,0.124213f,-0.030575f,-0.023492f,0.001044f,0.033596f,0.062239f,-0.040469f,0.145857f,-0.011565f,-0.021284f,0.096314f,0.018703f,-0.126355f,-0.009126f,-0.013616f,-0.112046f,0.089889f,-0.145354f,0.151455f,-0.027444f,0.070927f,-0.066256f,-0.049775f,0.016073f,0.015887f,0.000959f,-0.076850f,0.008069f,-0.071838f,-0.031018f,0.018524f,-0.030670f,-0.039747f,-0.026808f,-0.001151f,0.035768f,-0.067424f,0.063761f,0.014946f,0.045622f,-0.082005f,-0.007606f,0.056187f},
  {0.034529f,-0.021980f,-0.037368f,-0.007326f,0.014338f,0.138077f,-0.000340f,-0.008182f,-0.160537f,0.112555f,-0.044861f,-0.015193f,0.029344f,0.016242f,-0.002137f,-0.057846f,-0.000790f,0.017247f,-0.102329f,-0.025172f,0.008534f,-0.141822f,-0.054352f,-0.024746f,0.037846f,0.012375f,-0.003197f,-0.018064f,0.063749f,0.018183f,-0.052979f,-0.050756f,0.059442f,0.168012f,-0.022584f,-0.040152f,-0.035807f,-0.070868f,0.142833f,0.128977f,-0.098781f,-0.103563f,0.106746f,0.014998f,-0.097566f,0.006311f,-0.087440f,0.066471f,-0.047030f,0.020600f,-0.013392f,-0.108531f,-0.091041f,-0.048738f,0.020569f,-0.020213f,-0.046918f,0.162454f,0.140082f,-0.002798f,0.021426f,-0.006226f,-0.014248f,0.020507f},
  {0.108611f,-0.033248f,0.024110f,-0.110942f,0.024456f,0.200013f,-0.040040f,0.025314f,-0.056996f,-0.012041f,-0.032390f,0.088090f,0.070355f,0.018072f,0.013099f,-0.049399f,-0.026453f,-0.012760f,0.109995f,0.027722f,-0.045464f,0.015010f,-0.158647f,0.006919f,0.035948f,-0.200392f,-0.062910f,0.014068f,-0.028769f,0.018904f,0.027416f,0.026297f,-0.078846f,0.035319f,0.054238f,-0.027838f,-0.050329f,-0.002138f,-0.022971f,-0.044989f,0.043732f,-0.066589f,0.154583f,-0.015695f,-0.091044f,0.136872f,0.074094f,0.155629f,0.030538f,0.118322f,-0.035437f,-0.273832f,-0.149788f,-0.012927f,-0.020499f,0.054751f,0.085430f,-0.002704f,0.039606f,0.012583f,0.056818f,-0.121276f,-0.007036f,-0.210901f},
  {-0.001149f,-0.018196f,-0.050522f,-0.006289f,0.000856f,-0.081025f,-0.040931f,0.041167f,0.005760f,-0.002373f,-0.040454f,-0.142945f,-0.006105f,0.016065f,0.021305f,-0.060583f,-0.020114f,-0.027192f,0.092401f,0.016330f,0.092597f,0.054974f,0.051692f,-0.024474f,-0.067360f,0.095008f,-0.010775f,-0.022175f,0.105908f,0.024354f,-0.012262f,-0.045950f,0.051191f,0.100574f,-0.018989f,-0.014973f,0.099853f,-0.088639f,-0.013762f,-0.076272f,-0.073992f,-0.012835f,0.050077f,0.046407f,0.027416f,-0.105240f,0.000651f,0.080904f,-0.216367f,-0.039298f,0.002034f,0.019381f,0.021860f,-0.024402f,-0.023057f,0.084710f,0.047305f,-0.037654f,-0.038861f,-0.006297f,0.034173f,-0.150686f,0.014178f,-0.120196f},
  {0.032506f,-0.026671f,0.191992f,-0.047100f,0.001968f,-0.024700f,-0.006628f,-0.104188f,-0.057083f,0.061085f,-0.015439f,-0.106272f,-0.058499f,0.012273f,0.021791f,0.025148f,-0.017516f,0.007360f,-0.120973f,-0.010331f,-0.053265f,0.039997f,-0.003764f,-0.061003f,0.001836f,0.081313f,0.060616f,-0.046394f,-0.054762f,-0.036554f,-0.066012f,0.019608f,-0.046643f,-0.007195f,0.027891f,-0.026124f,-0.125236f,0.114294f,-0.088352f,0.057642f,0.166740f,0.195429f,0.144191f,-0.078096f,0.151243f,0.113381f,0.050612f,-0.229993f,-0.375069f,-0.007908f,0.028147f,0.011769f,0.042545f,-0.003899f,0.019939f,-0.159243f,-0.113784f,0.009373f,0.008448f,-0.015576f,0.051800f,-0.012855f,-0.015744f,0.052374f},
  {-0.119222f,-0.035678f,-0.038875f,-0.041603f,-0.017986f,0.028502f,-0.010911f,-0.136246f,-0.086087f,-0.023032f,-0.033821f,0.130500f,-0.051565f,-0.010540f,0.007362f,-0.119325f,-0.003091f,0.009042f,-0.059237f,0.007094f,0.278935f,-0.089499f,0.023522f,-0.010512f,-0.012883f,0.073106f,0.104761f,0.003060f,-0.102165f,0.034986f,0.111393f,-0.093997f,0.182321f,0.049702f,0.120417f,0.012160f,-0.007588f,0.010367f,0.042863f,0.239472f,-0.187795f,-0.064413f,0.097371f,-0.081101f,-0.147114f,-0.069792f,0.058400f,-0.084212f,-0.036380f,0.096343f,-0.019577f,0.144001f,0.066532f,0.010243f,0.036870f,0.035601f,-0.145088f,-0.195873f,0.223639f,-0.024362f,0.080941f,-0.119518f,-0.006232f,0.187956f},
  {-0.017494f,-0.048992f,-0.263899f,-0.051956f,-0.014312f,-0.085477f,0.004105f,0.075868f,0.099599f,-0.196191f,-0.156469f,-0.032089f,0.002522f,-0.040625f,-0.040975f,0.022482f,-0.027297f,-0.014715f,0.044493f,0.000166f,-0.043903f,0.152377f,0.021283f,-0.034177f,0.018682f,0.022075f,0.023710f,-0.011397f,0.203353f,0.007035f,0.001229f,0.031035f,0.220962f,0.148815f,0.089028f,-0.019384f,-0.046721f,0.075196f,-0.254080f,0.068240f,-0.049190f,0.133212f,-0.064699f,0.085676f,0.017087f,-0.046232f,-0.125060f,0.167518f,0.168644f,-0.095240f,-0.020775f,0.162774f,0.068446f,-0.024759f,-0.022166f,0.141037f,-0.146918f,0.011968f,0.096297f,-0.029194f,0.150817f,0.034636f,0.021422f,0.024000f},
  {-0.019791f,0.008950f,0.088886f,0.052583f,-0.026772f,-0.113860f,-0.011827f,0.064499f,-0.011857f,0.129959f,0.037074f,0.098873f,-0.013483f,0.015589f,0.017880f,-0.122064f,-0.040266f,-0.021615f,-0.081731f,-0.035399f,-0.102883f,-0.056749f,-0.034155f,0.014405f,-0.013974f,-0.013055f,-0.049443f,-0.015533f,-0.025744f,-0.009944f,0.063780f,0.072797f,-0.074421f,0.005740f,0.038427f,-0.018434f,-0.078403f,0.004948f,0.000289f,0.149421f,0.042987f,-0.068491f,0.021523f,-0.014850f,-0.001408f,0.020923f,-0.052081f,0.061454f,-0.017109f,-0.058686f,-0.004744f,0.043927f,0.120413f,0.011621f,0.021252f,0.000978f,-0.000880f,-0.120800f,-0.099478f,-0.003842f,0.088389f,-0.117002f,0.006066f,0.003270f},
  {0.056770f,-0.006020f,0.017656f,0.019314f,-0.037072f,-0.044095f,0.028772f,-0.085635f,0.065570f,0.056571f,-0.075361f,0.193528f,-0.197129f,-0.000127f,0.026536f,-0.130732f,-0.022352f,0.010265f,-0.088050f,-0.024105f,0.077708f,-0.008669f,-0.105305f,0.024715f,-0.013550f,-0.100647f,-0.012040f,-0.038640f,-0.040309f,-0.022180f,0.078431f,0.010970f,0.064691f,-0.088623f,-0.071958f,-0.031425f,-0.178134f,0.054299f,0.032695f,0.094071f,0.033928f,0.044259f,-0.120971f,0.017556f,0.104790f,0.085134f,0.024484f,-0.101492f,-0.128014f,0.007788f,-0.026155f,-0.222483f,0.042325f,0.035419f,-0.040895f,-0.024892f,-0.145478f,-0.085340f,0.036662f,0.009545f,0.005165f,0.006699f,-0.023607f,-0.012536f},
  {-0.041833f,-0.001785f,0.027898f,-0.045811f,-0.030535f,0.087852f,-0.012130f,0.040515f,-0.070334f,-0.045744f,-0.032238f,0.009064f,-0.087964f,0.002906f,-0.033771f,-0.024462f,-0.052779f,0.005732f,0.093247f,-0.002612f,0.123844f,-0.035551f,-0.007425f,-0.001283f,-0.029003f,0.013086f,-0.076429f,-0.000346f,0.023267f,-0.034478f,0.015816f,-0.000967f,0.070931f,0.054119f,-0.005830f,-0.053798f,0.047078f,-0.012537f,0.019616f,-0.023840f,-0.097010f,-0.098401f,-0.058596f,0.094062f,-0.180652f,0.115612f,-0.029999f,0.205436f,-0.173472f,-0.005561f,0.028351f,-0.011652f,-0.235000f,0.007027f,-0.023097f,0.072692f,-0.029280f,0.014789f,-0.075903f,0.000676f,0.000970f,-0.059664f,-0.017026f,-0.081951f},
  {-0.074153f,-0.009416f,-0.121746f,0.003798f,0.006442f,0.031833f,-0.038510f,0.012666f,0.113023f,-0.025070f,0.075975f,-0.105819f,0.085934f,-0.008811f,0.020459f,0.040912f,-0.005874f,0.004475f,0.030438f,-0.016540f,0.102752f,-0.002080f,0.092006f,-0.013162f,-0.028065f,0.013822f,0.082987f,-0.025535f,-0.013848f,-0.014310f,0.039825f,0.047908f,0.042230f,0.037416f,0.012218f,0.014711f,0.089387f,0.117481f,-0.087394f,-0.055941f,-0.002053f,0.042006f,-0.043523f,-0.030075f,-0.006847f,-0.134694f,0.078914f,-0.085785f,-0.409701f,-0.005276f,0.011811f,0.156370f,0.098583f,-0.027191f,-0.007800f,0.027124f,0.062922f,0.060453f,0.089824f,-0.018951f,-0.039027f,-0.020101f,-0.043705f,0.139655f},
  {-0.003516f,-0.048618f,0.052732f,-0.097423f,0.007890f,0.012240f,-0.038724f,-0.250356f,-0.004965f,0.017447f,-0.017817f,-0.183147f,-0.084436f,-0.000214f,-0.031524f,0.000298f,-0.001579f,-0.016581f,0.024548f,-0.022909f,-0.143473f,0.035698f,0.081269f,-0.046315f,-0.027000f,0.038579f,0.006296f,0.007426f,-0.180495f,-0.032551f,-0.163033f,-0.043282f,-0.061073f,-0.119248f,-0.086233f,0.006342f,-0.040711f,0.029225f,-0.033266f,-0.016667f,0.145493f,0.133530f,0.005291f,0.002678f,0.109476f,0.005726f,0.054369f,-0.192912f,-0.354303f,0.130198f,0.000365f,0.093016f,0.152000f,-0.002608f,0.009253f,-0.108769f,0.223486f,-0.042758f,0.071268f,-0.008905f,-0.016231f,0.107225f,-0.006762f,0.037053f},
  {0.072894f,-0.010790f,0.073485f,-0.045831f,0.002963f,0.115182f,-0.020327f,-0.101535f,-0.183850f,0.093338f,0.180556f,-0.164744f,-0.129653f,-0.011985f,-0.011165f,0.067864f,0.004872f,0.006465f,0.174840f,-0.006992f,-0.073811f,-0.044226f,-0.054434f,-0.017753f,0.013706f,0.007153f,0.126129f,-0.006276f,-0.200178f,-0.000659f,0.124669f,-0.123013f,-0.094221f,0.087237f,-0.287774f,0.029598f,0.028062f,-0.001069f,0.056235f,-0.024095f,0.142690f,0.093447f,0.219255f,-0.038760f,-0.044855f,-0.052650f,0.040653f,-0.042134f,-0.127473f,0.149170f,-0.030624f,0.025942f,0.165743f,0.005069f,-0.028311f,-0.050764f,0.054500f,-0.140416f,0.146115f,-0.026016f,0.014236f,-0.011307f,0.027194f,-0.030420f},
  {0.125516f,-0.010558f,-0.005103f,-0.027138f,-0.015370f,-0.284266f,0.022851f,0.217938f,0.156210f,-0.081480f,-0.185444f,-0.086249f,0.011539f,-0.029203f,-0.014274f,0.108515f,-0.005554f,-0.033449f,0.120276f,0.032289f,-0.070523f,0.192918f,0.170841f,-0.011198f,0.020868f,0.101322f,-0.024859f,0.009986f,-0.106759f,0.017611f,0.079027f,-0.117025f,0.229388f,-0.141068f,-0.067281f,-0.011643f,0.098585f,0.067499f,0.070494f,-0.244517f,0.232472f,0.129873f,0.021027f,0.272681f,0.125684f,-0.029244f,-0.110882f,-0.145514f,-0.037144f,0.141065f,-0.035731f,0.006834f,0.036185f,-0.029935f,-0.014165f,-0.054201f,-0.011234f,-0.090288f,-0.012441f,0.030195f,0.125091f,-0.093355f,0.024362f,0.002741f},
  {-0.017490f,-0.008100f,-0.007660f,-0.014846f,-0.024524f,0.062301f,0.003678f,-0.010156f,-0.049908f,0.094386f,0.073305f,-0.017349f,0.035490f,0.003607f,0.022232f,0.041354f,-0.030251f,-0.033704f,-0.103433f,-0.018852f,0.077440f,-0.021002f,-0.043891f,0.016358f,-0.030216f,-0.048471f,-0.043159f,0.044081f,-0.009425f,-0.029146f,0.032625f,-0.009193f,0.043836f,-0.015917f,-0.092739f,-0.025727f,-0.055487f,0.057092f,-0.010445f,0.040284f,0.079602f,0.004342f,0.026196f,-0.033285f,0.069972f,0.052689f,0.166390f,0.000393f,0.022724f,-0.041435f,-0.014902f,0.003624f,0.075460f,-0.006320f,-0.014516f,-0.044816f,-0.032323f,0.014729f,0.068996f,-0.030836f,-0.018424f,-0.005366f,-0.027968f,0.052309f},
  {0.021137f,-0.037119f,-0.137904f,-0.012673f,0.010027f,-0.038006f,0.018468f,-0.088132f,-0.078673f,0.032993f,-0.211390f,0.101011f,-0.197900f,-0.017222f,0.026768f,-0.055365f,-0.014290f,0.006540f,0.134661f,0.018588f,0.009805f,0.212854f,0.101445f,0.023494f,-0.002746f,-0.120561f,-0.099120f,-0.056661f,0.027505f,-0.014657f,-0.068719f,-0.047218f,0.075685f,0.103350f,0.069203f,0.033705f,-0.032630f,-0.020677f,0.004957f,0.042952f,-0.031047f,0.041069f,-0.029111f,-0.096659f,-0.084657f,0.009940f,0.072065f,0.085592f,-0.111237f,-0.059686f,-0.015618f,-0.148024f,-0.113180f,0.032281f,-0.014586f,0.094433f,0.054567f,-0.024063f,0.114867f,-0.025033f,0.187252f,0.054615f,0.013555f,-0.014993f},
  {0.069934f,-0.040405f,0.049485f,0.003446f,-0.032456f,0.092470f,-0.013395f,-0.079691f,-0.021313f,0.066308f,0.032487f,0.074375f,-0.149298f,0.029080f,0.021474f,-0.040990f,-0.041473f,0.023357f,0.002849f,0.024600f,-0.011731f,-0.056420f,-0.142287f,0.034641f,-0.029055f,0.044933f,0.044933f,-0.025902f,-0.056640f,-0.016724f,0.046543f,0.024647f,-0.065248f,-0.027280f,0.159294f,-0.017147f,0.011898f,-0.003130f,0.057361f,0.099386f,0.083193f,-0.185124f,0.079319f,0.099482f,0.096048f,0.041170f,0.082546f,-0.069912f,-0.155966f,0.087339f,-0.019982f,-0.068689f,0.162783f,0.001627f,-0.001512f,0.059867f,0.052447f,-0.139972f,-0.015980f,-0.028726f,-0.067682f,-0.062893f,-0.015864f,0.130351f},
  {-0.121184f,-0.018482f,-0.038645f,-0.031326f,0.000255f,-0.053113f,-0.026623f,-0.036810f,0.241597f,-0.127076f,0.055975f,-0.158694f,0.120621f,-0.016023f,-0.027945f,0.044413f,-0.040258f,0.022433f,-0.058266f,0.016197f,0.002591f,-0.152711f,0.113393f,-0.000450f,-0.004521f,0.102482f,-0.088915f,-0.032266f,0.114550f,-0.054420f,-0.036200f,0.011897f,0.043232f,-0.144416f,0.211890f,-0.030558f,0.121906f,0.147951f,-0.101436f,-0.121700f,-0.035119f,-0.026534f,-0.077780f,0.048599f,-0.135588f,-0.063367f,-0.041184f,0.020928f,-0.263527f,0.177495f,-0.020838f,-0.047658f,0.011445f,-0.031207f,0.010583f,-0.015345f,0.035018f,0.098996f,-0.041174f,0.003531f,0.001401f,0.011758f,-0.028609f,0.145051f},
  {-0.047670f,0.019191f,-0.078795f,-0.005029f,0.018131f,-0.051574f,0.012821f,0.114344f,0.084280f,0.112154f,-0.052954f,-0.175872f,0.158307f,-0.025598f,-0.028666f,0.098622f,-0.031982f,-0.027979f,-0.055580f,0.011204f,-0.320429f,0.082220f,0.222833f,0.005880f,0.011063f,0.132848f,0.107546f,0.021811f,0.163395f,-0.021873f,-0.080662f,0.162671f,0.074513f,-0.022160f,-0.054617f,0.010459f,0.072194f,0.075969f,-0.224793f,-0.094661f,0.085815f,0.263715f,-0.110394f,-0.082858f,-0.054973f,-0.013437f,0.147548f,-0.078948f,-0.252994f,-0.090347f,0.019825f,0.017924f,-0.017078f,0.026810f,0.000211f,-0.132831f,0.050237f,0.201974f,0.073337f,0.012934f,0.025214f,0.135060f,0.039773f,0.053362f},
  {-0.114608f,0.022178f,-0.400114f,-0.066542f,-0.027965f,-0.072417f,0.034679f,0.113123f,0.050851f,0.028127f,-0.092013f,-0.028514f,0.154708f,-0.017852f,0.000874f,-0.086785f,-0.020227f,0.021017f,-0.012855f,-0.034142f,0.004139f,0.250875f,0.205448f,0.026057f,0.025320f,0.057095f,0.195767f,0.019404f,0.075041f,-0.030849f,-0.048411f,-0.080637f,0.070557f,0.007096f,-0.160927f,0.020968f,-0.018995f,0.158459f,-0.206469f,0.069974f,-0.174925f,0.296215f,-0.181142f,-0.082140f,0.102756f,-0.087830f,-0.051683f,0.168978f,-0.106694f,-0.130657f,-0.018614f,-0.062216f,-0.087971f,-0.010150f,-0.039919f,0.179092f,0.084270f,0.279990f,-0.075915f,0.004884f,-0.046321f,0.055333f,-0.001063f,-0.117634f},
  {0.076073f,-0.032462f,0.006968f,0.012351f,0.016502f,-0.129620f,0.023673f,-0.016446f,0.111491f,-0.012381f,-0.041960f,-0.159531f,0.045173f,-0.023525f,0.015628f,-0.031173f,-0.035064f,-0.022658f,0.087431f,-0.031053f,0.035687f,0.076146f,0.186084f,0.005213f,0.015427f,0.077330f,0.176051f,0.002765f,-0.056090f,-0.023374f,0.071043f,-0.052507f,0.012580f,-0.136257f,0.097855f,-0.009538f,0.048158f,0.181432f,-0.056136f,-0.242994f,0.148630f,0.071591f,0.043591f,0.150653f,0.062837f,0.027088f,-0.024853f,-0.116746f,-0.088766f,0.014844f,0.028866f,-0.375180f,0.045019f,0.019102f,-0.025795f,-0.085253f,0.092260f,-0.059341f,0.092816f,-0.012777f,0.214798f,-0.084000f,-0.013423f,0.029109f},
  {0.002429f,-0.011771f,0.049166f,0.001749f,-0.019342f,-0.037872f,-0.036233f,0.045201f,-0.063819f,0.026918f,0.018382f,0.040699f,-0.024256f,0.000492f,-0.010454f,-0.053081f,-0.034112f,0.005153f,-0.011006f,0.013329f,-0.023218f,0.006025f,-0.033935f,-0.058950f,-0.036427f,-0.003222f,0.032584f,-0.047193f,-0.030650f,-0.039166f,0.038209f,-0.055196f,0.079906f,0.034590f,-0.060435f,0.003499f,-0.029817f,-0.035142f,0.088399f,-0.009569f,-0.027054f,-0.068660f,0.025640f,-0.042423f,0.043369f,0.006392f,0.051523f,0.034110f,0.018884f,0.010954f,0.000287f,0.036660f,0.024604f,0.000720f,0.022106f,0.002527f,0.051516f,-0.008709f,0.043146f,-0.048828f,0.036639f,-0.019979f,0.000019f,-0.040643f},
  {-0.001398f,-0.043171f,0.017219f,-0.050927f,0.022394f,-0.036303f,-0.016282f,0.085455f,-0.026175f,0.041883f,0.001099f,0.032721f,-0.045896f,-0.009711f,-0.007094f,-0.072951f,-0.028702f,-0.015118f,0.003439f,0.018018f,-0.020654f,0.016637f,-0.035908f,-0.031004f,-0.071156f,0.054166f,0.041327f,-0.027422f,-0.031024f,-0.003890f,-0.014472f,-0.037049f,0.037886f,0.099925f,-0.057293f,0.016106f,-0.002458f,-0.034226f,0.138064f,0.062327f,-0.085373f,-0.057170f,0.021949f,0.069001f,0.001042f,0.070193f,0.016729f,0.100500f,0.067333f,0.088596f,-0.014274f,-0.015605f,-0.067835f,-0.030440f,-0.001911f,0.005650f,0.096278f,0.024789f,0.022362f,-0.051023f,0.096182f,0.021645f,0.013839f,-0.043566f},
  {-0.020315f,-0.044294f,-0.048333f,-0.057516f,0.008014f,-0.048104f,-0.054576f,0.014181f,0.133566f,0.157920f,-0.021994f,0.077019f,-0.087494f,0.019370f,0.014284f,0.121019f,-0.002029f,-0.042356f,-0.064610f,-0.031396f,-0.008853f,0.004357f,-0.064767f,-0.041558f,-0.033316f,0.009356f,0.033897f,0.004381f,0.002867f,-0.002857f,0.042512f,0.104084f,0.087259f,-0.060868f,-0.000246f,0.009685f,-0.115529f,-0.002749f,-0.294211f,-0.060372f,0.057524f,-0.099956f,-0.110118f,0.049521f,-0.015190f,0.117735f,0.064873f,0.079704f,0.145951f,-0.088945f,0.010623f,-0.165280f,0.050502f,-0.028808f,-0.011267f,0.046453f,0.037379f,-0.133718f,-0.049569f,-0.007609f,0.022128f,-0.167098f,-0.010910f,0.124115f},
  {-0.011865f,-0.062472f,0.038068f,-0.043863f,-0.017292f,0.058757f,0.004825f,0.051348f,0.142325f,0.228464f,0.027281f,0.180284f,-0.101780f,-0.035599f,-0.037551f,0.081333f,-0.004352f,-0.007691f,-0.125864f,-0.023018f,-0.110196f,-0.037739f,-0.070107f,-0.021905f,-0.026056f,-0.112073f,0.018052f,-0.034628f,0.021388f,0.018206f,0.074445f,0.348796f,0.009807f,-0.270605f,0.004937f,-0.024046f,-0.279730f,0.191596f,-0.269195f,-0.077245f,0.112959f,-0.016128f,-0.129166f,0.086894f,0.070434f,0.261198f,0.012604f,-0.012703f,0.100401f,-0.223124f,-0.027752f,-0.370110f,0.147865f,-0.033393f,0.013587f,0.029865f,-0.101526f,-0.233876f,-0.062189f,0.031876f,-0.022752f,-0.174835f,-0.004247f,0.199951f},
  {-0.097958f,-0.058104f,0.220071f,-0.027991f,-0.027180f,0.215981f,-0.015494f,-0.019095f,-0.134759f,0.089269f,0.165010f,0.041249f,0.162876f,-0.015519f,-0.018375f,0.078564f,-0.050632f,0.004853f,-0.077740f,-0.030882f,-0.096275f,-0.098333f,-0.084218f,-0.061463f,-0.047980f,-0.070275f,0.012575f,-0.059694f,0.034700f,0.019287f,-0.049106f,0.141060f,-0.085701f,-0.061669f,-0.056512f,-0.027100f,-0.245092f,0.062509f,0.072813f,-0.135398f,-0.087101f,-0.064852f,-0.097265f,-0.038877f,-0.163509f,0.216032f,0.006416f,0.136767f,0.003419f,0.040182f,0.030443f,-0.156966f,-0.073039f,0.025449f,0.012862f,-0.067160f,-0.050439f,0.095037f,-0.106416f,-0.015634f,-0.019190f,-0.062232f,0.020519f,0.053258f},
  {-0.012592f,-0.040100f,0.038167f,-0.023065f,0.019077f,0.026273f,-0.047316f,0.030832f,-0.051281f,0.041427f,0.056051f,-0.037458f,0.091031f,-0.047669f,-0.029810f,0.083478f,-0.028999f,0.012075f,0.033471f,-0.029257f,-0.036624f,-0.013558f,-0.069322f,-0.032451f,-0.029378f,-0.015806f,0.013727f,-0.031136f,-0.040519f,-0.005520f,0.022278f,-0.052890f,-0.004373f,0.039360f,-0.069734f,0.009903f,-0.081331f,-0.036079f,0.079633f,-0.110848f,-0.050339f,-0.103113f,-0.016520f,-0.017238f,0.041885f,0.044624f,-0.017002f,0.160813f,-0.007448f,0.026480f,0.016645f,-0.057315f,-0.015440f,0.016255f,0.012774f,-0.000513f,0.083500f,0.082985f,-0.050808f,0.003423f,0.008060f,0.015710f,0.000977f,-0.042819f},
  {-0.057570f,-0.046429f,0.017016f,-0.052351f,-0.023785f,-0.032149f,-0.017898f,0.100823f,-0.109074f,0.006164f,0.035070f,-0.019776f,0.078065f,-0.042832f,-0.043110f,0.012106f,0.011573f,-0.010455f,-0.018955f,-0.018996f,-0.061411f,-0.048246f,-0.076968f,-0.034564f,-0.039088f,-0.015175f,0.076078f,0.003135f,-0.031825f,0.001667f,-0.010505f,-0.123699f,0.076546f,0.071523f,-0.096834f,-0.023075f,-0.035278f,-0.090156f,0.153402f,-0.039308f,-0.080081f,-0.095079f,-0.023762f,0.007144f,0.046450f,0.025555f,0.033110f,0.123158f,0.003102f,0.030328f,-0.033026f,0.010299f,0.099259f,-0.004630f,-0.004166f,0.015936f,0.068859f,0.073193f,-0.030256f,-0.037322f,0.063071f,0.009731f,0.007261f,-0.060956f},
  {-0.038920f,0.008313f,0.055680f,-0.070778f,-0.001641f,-0.145101f,-0.043648f,0.123336f,-0.076999f,-0.062010f,0.097210f,-0.009223f,-0.129994f,-0.030498f,-0.024014f,0.220198f,-0.002897f,-0.037755f,-0.241042f,-0.020043f,-0.055524f,0.010852f,-0.239141f,0.025363f,0.018873f,-0.069602f,0.086960f,-0.016588f,-0.054046f,0.029061f,0.233114f,0.118277f,0.130380f,-0.202351f,0.094650f,-0.017018f,-0.206078f,0.028186f,-0.091686f,0.053971f,0.079242f,0.063363f,0.139038f,-0.106272f,0.162254f,0.109817f,0.049875f,-0.329517f,-0.074015f,-0.185123f,-0.015832f,-0.181445f,0.115228f,-0.033877f,-0.035270f,-0.178082f,0.074245f,-0.134602f,-0.024526f,0.020981f,0.077062f,-0.028843f,-0.017091f,0.016110f},
  {-0.117900f,0.043734f,-0.157697f,-0.063381f,-0.032600f,0.140984f,-0.065302f,-0.045569f,0.084538f,0.012144f,0.108203f,0.047283f,-0.042878f,0.015979f,-0.020963f,0.142540f,-0.007113f,0.015717f,-0.157550f,-0.031009f,0.026901f,-0.304747f,0.069214f,-0.036179f,-0.038504f,0.080197f,-0.037188f,-0.000900f,0.280755f,-0.022357f,0.077201f,0.262265f,0.031328f,-0.049217f,0.247607f,-0.027111f,-0.004176f,0.126111f,-0.143418f,-0.122296f,-0.091225f,-0.049776f,-0.159502f,0.061163f,-0.037467f,0.101727f,-0.119679f,-0.246599f,0.063146f,-0.178246f,0.010633f,-0.281230f,-0.053272f,-0.016926f,-0.017488f,0.063090f,-0.285171f,0.014504f,0.025781f,0.007056f,-0.306021f,-0.151143f,-0.021032f,0.180622f},
  {-0.149396f,0.031470f,-0.032546f,-0.045989f,-0.028768f,0.063014f,-0.026900f,-0.231754f,0.195411f,0.057489f,0.185156f,0.031031f,-0.073458f,-0.031507f,-0.013783f,0.121494f,-0.025830f,-0.038699f,-0.013950f,-0.000050f,0.038735f,-0.154772f,0.065322f,0.005442f,-0.005475f,0.187056f,-0.035635f,-0.031873f,0.173756f,-0.039133f,-0.047189f,0.050932f,-0.020895f,-0.106513f,0.140976f,-0.025959f,-0.036067f,0.151615f,-0.157390f,-0.090834f,-0.143495f,-0.190080f,-0.107146f,0.143687f,0.058147f,0.053953f,0.037547f,-0.131877f,-0.071625f,-0.175856f,-0.008214f,-0.069065f,0.003106f,0.010409f,-0.005095f,-0.016394f,-0.073410f,-0.121208f,-0.054540f,0.010010f,-0.173531f,-0.041483f,0.000143f,0.157951f},
  {-0.073934f,0.009456f,0.137855f,-0.022248f,0.002638f,0.002562f,-0.010727f,-0.390147f,0.258952f,0.101714f,-0.052188f,0.004434f,-0.105249f,0.020005f,0.014961f,-0.021232f,0.006220f,-0.035720f,-0.000901f,-0.011710f,-0.015558f,-0.223346f,0.086733f,-0.040658f,-0.014684f,0.326737f,-0.163320f,0.009899f,0.255896f,-0.059266f,-0.064918f,0.047992f,0.082149f,-0.036476f,0.128525f,0.008701f,0.092311f,0.073596f,-0.009793f,-0.265780f,-0.018284f,-0.226340f,-0.092211f,0.133747f,-0.079026f,0.086635f,0.027904f,-0.082949f,0.017672f,0.036639f,-0.000463f,0.142900f,-0.040503f,-0.021217f,0.018804f,-0.057622f,0.102840f,-0.079183f,-0.129210f,-0.043885f,-0.006388f,-0.123977f,-0.025168f,0.075492f},
  {0.051099f,-0.011412f,0.194418f,0.046984f,0.016475f,-0.065144f,0.021194f,-0.052836f,0.159224f,0.002671f,-0.285768f,-0.051402f,-0.032307f,0.003897f,-0.015477f,-0.018479f,-0.008343f,-0.042216f,0.167472f,-0.034763f,-0.014854f,0.034625f,0.114129f,-0.025009f,0.004098f,0.233828f,-0.162889f,0.023204f,0.077707f,-0.016338f,-0.060071f,-0.142692f,0.009453f,0.014722f,0.174148f,-0.017579f,0.269860f,-0.133230f,0.141077f,-0.293471f,0.137342f,-0.121735f,0.078308f,0.128745f,0.014926f,-0.082244f,-0.104539f,-0.048204f,-0.009834f,0.198069f,0.018733f,0.236900f,-0.034726f,-0.015066f,-0.026788f,-0.138058f,0.070641f,-0.000320f,-0.055910f,-0.022159f,0.083940f,0.006513f,-0.011957f,0.036773f},
  {0.014726f,0.057230f,0.083063f,0.014442f,-0.036807f,0.022024f,0.037563f,0.034454f,-0.061906f,0.103543f,-0.147168f,-0.208297f,0.062308f,0.018034f,-0.020919f,-0.112412f,0.020188f,-0.019320f,0.130840f,-0.014878f,0.145328f,-0.020162f,0.021567f,0.022113f,-0.003351f,-0.014674f,-0.026735f,0.005822f,0.010475f,0.031697f,-0.272709f,-0.106253f,-0.048767f,-0.013978f,-0.097949f,-0.001190f,0.179852f,-0.090825f,0.115452f,-0.113155f,0.137210f,-0.011719f,0.117346f,0.116809f,0.081185f,-0.075672f,-0.100602f,0.116652f,0.034719f,0.214470f,0.026952f,-0.076862f,-0.039677f,-0.036349f,0.024175f,-0.100718f,0.110658f,0.163941f,-0.032543f,0.002405f,0.104028f,-0.044625f,-0.021670f,-0.143897f},
  {0.020140f,0.017566f,0.014919f,-0.058807f,0.027167f,0.052436f,0.013445f,0.065074f,-0.086285f,-0.032323f,0.018887f,-0.110472f,-0.079750f,-0.032484f,-0.019328f,-0.093111f,0.020789f,0.004572f,0.131563f,-0.030982f,0.168395f,-0.074028f,0.006722f,0.007703f,-0.038971f,0.041695f,0.055675f,-0.054321f,-0.053159f,-0.024192f,-0.044490f,-0.012368f,0.094184f,0.175139f,-0.171046f,-0.035950f,0.135597f,-0.124409f,0.225376f,0.134598f,-0.007947f,-0.032687f,0.132125f,0.037595f,0.070457f,-0.082819f,-0.036626f,0.076364f,-0.082978f,0.154509f,0.019258f,-0.204429f,0.031142f,0.009067f,-0.017089f,0.022257f,-0.033812f,0.051377f,0.150732f,-0.015112f,0.106767f,-0.077332f,0.008278f,-0.251553f},
  {0.145441f,-0.068936f,0.064691f,-0.120223f,0.005414f,0.228634f,0.015824f,-0.180649f,-0.076179f,-0.150673f,0.057374f,0.132428f,0.101973f,0.021120f,-0.017335f,0.012383f,-0.033264f,0.015954f,-0.066133f,-0.024791f,-0.022810f,-0.175497f,0.037099f,-0.035251f,0.010129f,-0.036013f,-0.171807f,-0.021122f,0.234200f,-0.013870f,0.264613f,0.158692f,-0.007515f,-0.049524f,0.068715f,-0.039348f,-0.005729f,0.201298f,-0.258684f,0.037654f,-0.016975f,0.149431f,0.001152f,-0.219297f,-0.014808f,0.050418f,-0.029845f,0.006795f,-0.052435f,-0.121887f,-0.007052f,-0.285454f,0.129479f,0.014462f,0.021553f,0.007670f,0.018190f,-0.190840f,0.035537f,-0.005911f,-0.046766f,0.018976f,0.014482f,0.051935f},
  {0.049259f,-0.064840f,0.000023f,0.042647f,-0.008693f,0.044361f,-0.029562f,-0.123107f,-0.003393f,-0.093154f,0.079982f,0.004010f,-0.028932f,0.020942f,0.000684f,0.190862f,-0.047758f,0.029830f,0.073288f,-0.037157f,0.036189f,-0.126134f,0.013403f,-0.045909f,-0.025204f,0.031492f,-0.146273f,0.010467f,-0.027192f,-0.022680f,0.230247f,-0.009798f,-0.118543f,0.016782f,0.093282f,-0.005137f,0.133868f,-0.076467f,-0.040112f,-0.290762f,0.081571f,-0.097676f,-0.103541f,-0.126699f,-0.067039f,-0.147672f,0.076110f,-0.108578f,-0.019256f,0.021703f,0.006983f,-0.003387f,0.196487f,-0.041448f,-0.023414f,0.037079f,-0.097143f,-0.350313f,0.146418f,0.021753f,-0.105512f,-0.093452f,0.032811f,0.141866f},
  {-0.068904f,-0.018563f,-0.093863f,0.049635f,-0.042158f,-0.011805f,-0.024158f,-0.030624f,0.113191f,0.073083f,-0.008110f,0.075417f,-0.003669f,-0.010904f,-0.000501f,-0.035677f,-0.038807f,-0.015893f,-0.112897f,0.011654f,-0.004863f,-0.139839f,0.216004f,-0.051294f,0.028000f,0.148426f,-0.098985f,0.005478f,0.039470f,-0.004228f,-0.016624f,0.191922f,-0.035245f,0.029842f,0.139708f,-0.035494f,0.086083f,0.092472f,-0.293958f,-0.131722f,-0.024730f,0.013060f,-0.252727f,0.010305f,0.019795f,0.017969f,-0.033495f,0.045495f,0.092640f,-0.026884f,-0.043742f,0.061386f,0.007467f,-0.035493f,0.001014f,-0.011338f,-0.207087f,-0.269097f,0.070485f,-0.034762f,-0.048653f,-0.066802f,-0.026406f,0.108204f},
  {-0.065860f,-0.030774f,-0.085516f,0.046660f,-0.026187f,-0.013605f,-0.047755f,-0.185334f,0.208018f,0.030621f,-0.063786f,0.052419f,0.071101f,-0.028642f,0.013693f,0.013765f,-0.020120f,-0.016782f,0.019772f,0.023077f,-0.015360f,-0.019696f,0.115932f,-0.062643f,-0.032150f,0.200627f,-0.146031f,-0.010257f,0.027579f,-0.027273f,-0.075501f,0.042748f,-0.107398f,0.006163f,0.234269f,-0.021140f,0.144610f,0.153950f,-0.181228f,-0.031639f,-0.042012f,-0.118363f,-0.212761f,0.009413f,0.146798f,0.101323f,-0.014274f,-0.116710f,0.028987f,0.127908f,-0.040920f,0.053416f,0.019659f,0.016439f,-0.042057f,-0.169534f,-0.028282f,-0.197440f,-0.021542f,-0.014329f,0.039475f,-0.020847f,-0.035457f,0.159380f},
  {0.065177f,0.020574f,-0.018611f,0.017788f,-0.031740f,-0.136824f,-0.017252f,-0.003503f,0.179151f,-0.197628f,-0.027221f,0.009297f,-0.035943f,-0.020489f,-0.033387f,-0.040888f,-0.002042f,0.027339f,0.204425f,0.021971f,0.082045f,0.177241f,-0.035831f,-0.060115f,-0.036846f,0.121479f,-0.162737f,-0.051085f,-0.105442f,0.006778f,0.017815f,-0.162130f,-0.201088f,-0.108204f,0.099241f,-0.035954f,0.087958f,-0.094299f,-0.021857f,0.022319f,0.230498f,0.001089f,0.002109f,-0.099274f,0.101122f,-0.046650f,-0.032249f,-0.101933f,0.162965f,0.060938f,0.024583f,0.057016f,-0.086230f,0.009816f,0.016710f,-0.245162f,0.117232f,-0.047482f,-0.007352f,-0.024420f,-0.055986f,-0.071853f,-0.041179f,0.065091f},
  {0.027272f,-0.058947f,-0.019041f,-0.007032f,-0.002650f,-0.095132f,-0.042179f,0.106195f,0.297015f,-0.030576f,-0.125094f,-0.140667f,0.035349f,-0.036713f,-0.006965f,-0.010617f,-0.030236f,0.020834f,0.188460f,-0.038784f,-0.018173f,0.116379f,0.099500f,-0.032680f,-0.053678f,0.064116f,-0.272324f,0.010486f,-0.117099f,-0.015126f,-0.104658f,-0.217135f,-0.100324f,0.136386f,0.147189f,-0.010074f,0.297282f,-0.179459f,0.142420f,-0.418435f,0.157055f,-0.213905f,0.081728f,-0.047337f,0.078934f,-0.200065f,-0.035521f,-0.002709f,-0.101290f,0.159211f,-0.001824f,-0.057516f,-0.154650f,-0.014396f,-0.040583f,-0.048629f,0.198124f,0.072380f,-0.016616f,0.007062f,0.133810f,0.014136f,0.016851f,0.070794f},
  {-0.007674f,0.017494f,0.072836f,-0.069648f,0.001183f,-0.090425f,-0.019217f,0.146260f,0.048493f,-0.082958f,-0.064438f,-0.085463f,0.005782f,-0.060392f,0.002910f,0.124281f,0.010310f,-0.010492f,0.114645f,0.008328f,0.030017f,0.108919f,-0.001554f,-0.037742f,-0.071047f,0.000596f,-0.089691f,0.004359f,-0.021980f,-0.028807f,0.012450f,-0.117468f,-0.202162f,0.064543f,0.168092f,-0.041443f,0.109830f,-0.044721f,0.093388f,-0.009265f,0.046764f,-0.193943f,0.058836f,0.017017f,-0.026136f,-0.208881f,-0.196493f,0.034041f,-0.176437f,0.046629f,-0.032611f,0.019110f,-0.104465f,-0.023951f,-0.034802f,0.036340f,0.078240f,0.176844f,-0.096617f,-0.033417f,0.017167f,0.026897f,0.011477f,0.159615f},
