#ifndef MNIST_WEIGHTS_H
#define MNIST_WEIGHTS_H

const float conv1_weights[8][1][3][3] PROGMEM = {
  {
    {
      {0.016976f,-0.874858f,-0.305102f},
      {-0.464576f,-0.272951f,0.423639f},
      {0.047472f,0.819570f,0.573528f}
    }
  },
  {
    {
      {0.658235f,0.191205f,0.363896f},
      {0.397351f,0.354472f,-0.087225f},
      {0.224645f,0.531561f,-0.167115f}
    }
  },
  {
    {
      {-0.229989f,-0.215546f,0.134674f},
      {-0.328157f,-0.576717f,0.048440f},
      {0.569242f,-0.249692f,-0.324614f}
    }
  },
  {
    {
      {-0.382504f,-0.438746f,-0.489793f},
      {-0.357749f,-0.211153f,-0.380567f},
      {-0.351669f,-0.220774f,0.646049f}
    }
  },
  {
    {
      {0.300231f,0.428161f,0.223241f},
      {-0.171729f,0.279535f,0.341102f},
      {-0.574496f,-0.588311f,-0.474157f}
    }
  },
  {
    {
      {0.564858f,0.055318f,0.492316f},
      {-0.521877f,-0.013867f,0.354443f},
      {-0.622791f,-0.654804f,0.417143f}
    }
  },
  {
    {
      {-0.511182f,-0.162225f,0.362744f},
      {-0.518998f,-0.420054f,-0.611488f},
      {-0.434659f,-0.244598f,-0.485341f}
    }
  },
  {
    {
      {0.157177f,0.226440f,0.431739f},
      {0.582008f,-0.160540f,0.000283f},
      {-0.180443f,-0.498418f,-0.169807f}
    }
  }
};
const float conv1_bias[8] PROGMEM = {-0.023596f,0.104092f,0.078220f,0.290566f,-0.082953f,-0.116877f,-0.053236f,0.318349f};
const float conv2_weights[16][8][3][3] PROGMEM = {
  {
    {
      {-0.215134f,0.023303f,0.093575f},
      {-0.392309f,-0.523013f,0.184837f},
      {-0.286295f,-0.431570f,-0.051592f}
    },
    {
      {0.114928f,-0.000098f,0.018553f},
      {-0.028001f,-0.056315f,0.010925f},
      {-0.080852f,-0.239988f,0.123351f}
    },
    {
      {-0.098490f,-0.103376f,0.177235f},
      {0.087481f,0.144876f,-0.000444f},
      {0.008221f,-0.102546f,-0.056798f}
    },
    {
      {-0.340828f,-0.278203f,0.121601f},
      {-0.057948f,-0.251659f,-0.101917f},
      {0.156818f,-0.136628f,-0.352508f}
    },
    {
      {0.129917f,0.038575f,-0.202751f},
      {-0.107672f,0.171239f,0.028046f},
      {0.002417f,0.160524f,0.309626f}
    },
    {
      {0.110270f,0.026927f,-0.404641f},
      {-0.056006f,0.183649f,-0.109509f},
      {0.158338f,0.269467f,0.400446f}
    },
    {
      {-0.040042f,-0.046324f,-0.191565f},
      {-0.072293f,-0.087644f,-0.315066f},
      {0.132877f,0.173654f,-0.051977f}
    },
    {
      {0.138745f,0.021975f,0.091883f},
      {0.020878f,0.118247f,-0.097934f},
      {-0.142649f,0.149424f,-0.010946f}
    }
  },
  {
    {
      {0.017764f,0.295289f,0.389392f},
      {0.294606f,0.220103f,-0.131880f},
      {0.004375f,-0.133259f,-0.171038f}
    },
    {
      {-0.079015f,-0.134743f,-0.070419f},
      {-0.036911f,0.010070f,0.074386f},
      {0.215109f,0.101591f,-0.143966f}
    },
    {
      {0.014188f,-0.161405f,-0.423618f},
      {-0.181530f,-0.496295f,-0.038816f},
      {-0.253660f,-0.093905f,0.075542f}
    },
    {
      {-0.113670f,0.137363f,0.338289f},
      {0.247885f,0.120348f,-0.235102f},
      {-0.193453f,-0.187370f,-0.096306f}
    },
    {
      {0.243377f,-0.208887f,-0.161150f},
      {-0.380073f,-0.138359f,0.325341f},
      {-0.041409f,0.211066f,-0.167453f}
    },
    {
      {0.114305f,0.074415f,-0.175507f},
      {-0.221974f,-0.564875f,0.116961f},
      {-0.248999f,0.062742f,0.055764f}
    },
    {
      {0.065232f,0.053584f,-0.248567f},
      {-0.032147f,-0.264427f,-0.052834f},
      {-0.376374f,-0.159592f,0.160787f}
    },
    {
      {0.018307f,-0.064299f,0.090316f},
      {-0.211275f,0.122845f,0.368375f},
      {0.044543f,0.103118f,-0.007406f}
    }
  },
  {
    {
      {-0.350804f,-0.168574f,-0.176959f},
      {0.320401f,0.190115f,0.147698f},
      {0.322098f,0.205580f,0.196331f}
    },
    {
      {0.211103f,-0.013450f,-0.266066f},
      {-0.711633f,-0.313447f,-0.220787f},
      {-0.103798f,0.046686f,0.076969f}
    },
    {
      {0.121035f,-0.003357f,-0.024084f},
      {0.052474f,0.074361f,0.122575f},
      {-0.177971f,-0.083092f,-0.146990f}
    },
    {
      {-0.152538f,0.025352f,-0.003005f},
      {0.247165f,0.020200f,0.110071f},
      {0.124734f,0.109279f,-0.059503f}
    },
    {
      {0.317837f,0.324438f,0.001759f},
      {0.087971f,-0.078905f,-0.471106f},
      {-0.330076f,0.131543f,0.307979f}
    },
    {
      {0.206206f,-0.237875f,-0.093946f},
      {-0.030702f,-0.049838f,-0.327801f},
      {-0.373127f,0.012679f,0.055431f}
    },
    {
      {0.090450f,-0.087688f,0.014905f},
      {-0.038160f,-0.111063f,0.049257f},
      {-0.164787f,-0.083828f,-0.087379f}
    },
    {
      {0.085120f,0.099973f,-0.059806f},
      {-0.254489f,-0.392343f,-0.448477f},
      {-0.177563f,-0.094668f,-0.005198f}
    }
  },
  {
    {
      {-0.169961f,0.108115f,-0.064148f},
      {-0.548440f,-0.159229f,-0.106859f},
      {0.364064f,0.190881f,0.292737f}
    },
    {
      {0.055693f,0.055806f,0.237744f},
      {-0.029170f,-0.068056f,-0.127895f},
      {-0.057800f,-0.098903f,-0.294421f}
    },
    {
      {0.034830f,-0.012572f,0.040403f},
      {0.154786f,0.012638f,-0.018798f},
      {0.079318f,-0.050588f,0.110289f}
    },
    {
      {-0.093337f,-0.006405f,0.034872f},
      {-0.096609f,-0.064267f,-0.071605f},
      {0.098168f,0.198902f,-0.049391f}
    },
    {
      {0.206562f,0.078815f,0.176233f},
      {0.424153f,0.249672f,0.072344f},
      {-0.287493f,-0.203508f,-0.439011f}
    },
    {
      {0.217413f,-0.074417f,-0.243491f},
      {0.118205f,0.073634f,-0.188342f},
      {-0.386694f,-0.215194f,-0.353991f}
    },
    {
      {-0.020097f,-0.117990f,0.045013f},
      {-0.013089f,-0.015567f,0.052936f},
      {-0.053056f,0.059467f,-0.032007f}
    },
    {
      {0.041041f,0.075052f,0.243864f},
      {-0.014861f,0.100528f,0.153315f},
      {-0.405449f,-0.465374f,-0.561972f}
    }
  },
  {
    {
      {-0.190026f,-0.188378f,0.046626f},
      {-0.152076f,0.072865f,0.514820f},
      {-0.423438f,-0.200107f,0.176905f}
    },
    {
      {0.073243f,0.296577f,-0.179800f},
      {0.103527f,0.036489f,-0.273579f},
      {0.143387f,0.156076f,-0.006402f}
    },
    {
      {-0.268284f,-0.016209f,0.020931f},
      {0.002639f,-0.097238f,-0.141903f},
      {-0.098924f,-0.286183f,0.076332f}
    },
    {
      {-0.236135f,-0.101311f,0.081928f},
      {-0.387008f,-0.401939f,-0.022852f},
      {-0.243751f,-0.405889f,-0.141743f}
    },
    {
      {-0.412282f,-0.345569f,-0.062272f},
      {-0.122875f,0.058235f,0.233510f},
      {0.121977f,0.113656f,0.335531f}
    },
    {
      {0.158677f,-0.365814f,-0.025915f},
      {-0.091020f,-0.463630f,-0.268337f},
      {-0.258143f,-0.041319f,0.090170f}
    },
    {
      {-0.335984f,-0.268655f,0.038002f},
      {-0.271225f,-0.563294f,-0.019685f},
      {0.170725f,-0.202166f,0.101191f}
    },
    {
      {0.032145f,0.185718f,-0.118371f},
      {-0.042794f,-0.005249f,-0.079044f},
      {-0.083556f,0.210934f,0.301755f}
    }
  },
  {
    {
      {0.279417f,-0.581381f,-0.414899f},
      {0.061397f,-0.220417f,-0.156188f},
      {-0.023956f,0.080743f,-0.164585f}
    },
    {
      {-0.489856f,-0.187166f,0.004746f},
      {0.208502f,-0.045055f,-0.176088f},
      {0.421994f,0.303333f,0.071592f}
    },
    {
      {0.398473f,0.035031f,0.150215f},
      {0.124583f,0.292762f,0.160451f},
      {-0.173380f,-0.035432f,0.335559f}
    },
    {
      {0.143857f,0.039217f,-0.193245f},
      {-0.001375f,-0.051403f,-0.127871f},
      {-0.022042f,-0.173938f,-0.134818f}
    },
    {
      {-0.004112f,-0.110222f,0.222141f},
      {-0.414507f,-0.267630f,0.045160f},
      {0.267965f,-0.253990f,-0.503464f}
    },
    {
      {-0.221229f,-0.110095f,0.325496f},
      {-0.205452f,-0.313454f,0.312834f},
      {0.186215f,-0.208591f,-0.426283f}
    },
    {
      {0.157386f,0.114667f,0.118083f},
      {-0.109750f,0.053918f,0.114641f},
      {-0.201691f,-0.250881f,-0.047746f}
    },
    {
      {-0.474177f,-0.230205f,0.052067f},
      {-0.186651f,-0.638374f,-0.102065f},
      {0.212156f,-0.177123f,-0.327855f}
    }
  },
  {
    {
      {0.131758f,0.163716f,-0.000051f},
      {-0.062347f,-0.041391f,-0.057165f},
      {-0.185367f,0.197451f,0.106466f}
    },
    {
      {-0.108458f,-0.198907f,0.134173f},
      {-0.110792f,-0.056236f,0.053551f},
      {-0.245247f,-0.085032f,-0.248953f}
    },
    {
      {-0.009563f,0.112191f,0.006579f},
      {-0.032137f,-0.053017f,-0.219386f},
      {0.218333f,-0.008291f,-0.079289f}
    },
    {
      {0.116496f,-0.039695f,0.054270f},
      {-0.137103f,0.069459f,-0.034906f},
      {0.072273f,-0.127591f,0.129833f}
    },
    {
      {-0.463415f,-0.121457f,-0.080426f},
      {0.508707f,0.426454f,0.310346f},
      {0.537070f,0.403527f,0.114905f}
    },
    {
      {-0.190210f,-0.239914f,-0.274810f},
      {-0.068798f,-0.180878f,-0.028068f},
      {0.029000f,-0.085091f,0.030410f}
    },
    {
      {0.038784f,-0.019724f,0.204862f},
      {-0.095419f,-0.046673f,-0.057770f},
      {0.086605f,-0.057186f,-0.091892f}
    },
    {
      {-0.189976f,-0.118919f,0.229887f},
      {-0.012276f,0.268659f,0.202108f},
      {-0.012764f,0.097123f,-0.165883f}
    }
  },
  {
    {
      {0.081847f,0.268518f,0.023355f},
      {-0.065171f,-0.016265f,-0.242561f},
      {-0.101055f,-0.195417f,-0.105040f}
    },
    {
      {-0.270516f,-0.237726f,0.061724f},
      {-0.306411f,-0.023609f,0.180497f},
      {-0.320330f,-0.121272f,0.089935f}
    },
    {
      {-0.090727f,-0.139493f,0.113242f},
      {0.163274f,0.061411f,0.107899f},
      {0.011337f,0.071718f,0.030417f}
    },
    {
      {0.198239f,0.205043f,0.001326f},
      {0.107454f,-0.166204f,0.125618f},
      {-0.057664f,-0.179846f,0.076943f}
    },
    {
      {-0.222706f,-0.281583f,-0.280032f},
      {-0.042015f,0.087775f,0.170197f},
      {0.225588f,-0.110657f,-0.025842f}
    },
    {
      {0.067205f,0.234603f,-0.256332f},
      {-0.065263f,0.229200f,0.111124f},
      {0.479732f,0.331966f,-0.012950f}
    },
    {
      {0.090129f,-0.141964f,0.018172f},
      {-0.207185f,0.038725f,-0.129961f},
      {-0.056831f,0.119709f,0.025552f}
    },
    {
      {-0.085405f,0.073286f,-0.226473f},
      {-0.105341f,0.004400f,-0.042374f},
      {0.033881f,0.045035f,0.041294f}
    }
  },
  {
    {
      {0.377416f,0.009951f,0.084790f},
      {0.109011f,0.314584f,-0.006300f},
      {-0.107182f,0.106085f,0.357824f}
    },
    {
      {-0.015091f,-0.129417f,-0.014466f},
      {-0.011076f,-0.211980f,-0.209094f},
      {0.012121f,0.015159f,-0.026271f}
    },
    {
      {-0.345657f,-0.152183f,-0.174314f},
      {-0.176733f,0.001854f,0.004450f},
      {0.047214f,-0.016993f,-0.088938f}
    },
    {
      {0.083985f,-0.205446f,-0.134461f},
      {-0.307871f,-0.097015f,-0.079623f},
      {-0.090496f,0.018996f,0.113128f}
    },
    {
      {-0.015977f,0.166599f,0.211229f},
      {-0.203956f,-0.040922f,0.096995f},
      {0.113567f,-0.089773f,-0.082875f}
    },
    {
      {0.030837f,0.186517f,0.176642f},
      {0.035632f,0.130898f,-0.105811f},
      {0.314251f,-0.012597f,0.063218f}
    },
    {
      {-0.270825f,-0.316815f,-0.112328f},
      {-0.415057f,-0.081193f,-0.144652f},
      {-0.101800f,-0.166948f,-0.156146f}
    },
    {
      {0.160678f,0.347268f,0.146752f},
      {0.142891f,-0.075426f,0.115084f},
      {0.038558f,-0.168462f,0.165123f}
    }
  },
  {
    {
      {-0.288080f,0.100664f,0.468201f},
      {-0.009078f,0.297986f,-0.042033f},
      {0.134587f,0.086222f,-0.259004f}
    },
    {
      {-0.084547f,-0.260539f,0.171764f},
      {-0.312928f,-0.099111f,0.310278f},
      {-0.242400f,0.044328f,0.101509f}
    },
    {
      {-0.127156f,0.021579f,-0.176707f},
      {-0.096703f,0.001922f,-0.085144f},
      {0.060939f,0.078960f,-0.166078f}
    },
    {
      {0.020257f,0.029978f,0.215866f},
      {0.082500f,0.004043f,-0.035593f},
      {0.265693f,0.134724f,-0.030929f}
    },
    {
      {-0.085814f,-0.561393f,-0.341179f},
      {-0.137891f,-0.674530f,-0.016596f},
      {-0.418263f,-0.460912f,-0.274649f}
    },
    {
      {-0.260663f,-0.007842f,0.211923f},
      {0.037900f,-0.098069f,0.064374f},
      {0.276649f,-0.032673f,-0.362847f}
    },
    {
      {0.084053f,0.091640f,-0.094264f},
      {-0.083365f,-0.022797f,-0.228700f},
      {-0.169457f,-0.256535f,0.123373f}
    },
    {
      {-0.126635f,-0.364583f,-0.046742f},
      {-0.028381f,-0.451497f,0.093592f},
      {-0.308303f,0.006341f,0.104544f}
    }
  },
  {
    {
      {0.066374f,-0.369240f,0.256997f},
      {-0.154766f,-0.210752f,0.149678f},
      {0.099076f,0.222838f,0.092705f}
    },
    {
      {0.351231f,0.039872f,-0.267889f},
      {0.381409f,-0.078613f,-0.594984f},
      {0.305792f,-0.010567f,-0.245892f}
    },
    {
      {-0.420379f,0.089005f,-0.012165f},
      {-0.207410f,-0.007264f,0.037455f},
      {-0.156204f,0.008314f,0.057980f}
    },
    {
      {0.019183f,-0.076132f,0.094318f},
      {-0.451760f,0.101504f,-0.107247f},
      {-0.245870f,0.004374f,-0.054227f}
    },
    {
      {-0.397830f,-0.086196f,0.169162f},
      {-0.311878f,-0.309878f,-0.293521f},
      {-0.150453f,-0.056906f,-0.011612f}
    },
    {
      {-0.151662f,0.036075f,0.365833f},
      {-0.019573f,0.107907f,0.215890f},
      {-0.070449f,0.086432f,0.090163f}
    },
    {
      {-0.497813f,-0.090684f,-0.007611f},
      {-0.514160f,-0.015217f,0.045970f},
      {-0.271314f,0.019978f,0.076452f}
    },
    {
      {0.046567f,0.125366f,-0.152009f},
      {0.113168f,-0.059782f,-0.242855f},
      {0.149531f,-0.026524f,0.010833f}
    }
  },
  {
    {
      {0.036676f,0.324811f,0.233208f},
      {-0.174221f,-0.116258f,-0.015024f},
      {-0.416657f,-0.279572f,0.019375f}
    },
    {
      {0.126636f,-0.058673f,-0.233693f},
      {0.148595f,0.030111f,0.163543f},
      {0.068505f,0.075535f,0.164905f}
    },
    {
      {-0.061385f,0.084549f,0.100037f},
      {-0.420351f,-0.256353f,-0.280903f},
      {-0.002692f,-0.153338f,-0.225180f}
    },
    {
      {-0.304577f,-0.208223f,-0.121761f},
      {-0.209354f,-0.327988f,-0.321030f},
      {-0.143907f,-0.147544f,0.038804f}
    },
    {
      {-0.047386f,0.053381f,-0.073099f},
      {0.179926f,0.105462f,0.157148f},
      {-0.177425f,0.004103f,0.115072f}
    },
    {
      {-0.199802f,-0.203587f,-0.242160f},
      {0.039300f,-0.045869f,0.072165f},
      {-0.093038f,-0.096914f,0.190446f}
    },
    {
      {-0.192956f,-0.066479f,-0.217165f},
      {-0.220646f,-0.035970f,-0.163375f},
      {-0.001891f,0.096107f,-0.088997f}
    },
    {
      {-0.032098f,-0.086734f,-0.279238f},
      {-0.004076f,0.151411f,0.136700f},
      {0.077506f,0.046109f,0.038992f}
    }
  },
  {
    {
      {-0.017090f,0.120920f,0.269798f},
      {-0.057089f,0.203878f,-0.085431f},
      {-0.009276f,0.227198f,-0.172552f}
    },
    {
      {0.389198f,0.039081f,-0.063513f},
      {0.005417f,-0.431476f,-0.005016f},
      {-0.252906f,-0.095319f,0.016382f}
    },
    {
      {-0.160313f,-0.067155f,-0.125324f},
      {0.065671f,0.037114f,0.184258f},
      {0.209325f,0.084960f,0.343126f}
    },
    {
      {-0.181918f,0.043878f,0.213477f},
      {-0.043578f,0.057127f,-0.114116f},
      {0.077845f,0.038911f,-0.116756f}
    },
    {
      {0.058149f,-0.124904f,-0.560373f},
      {-0.158011f,-0.598383f,-0.024337f},
      {-0.370674f,0.053528f,-0.042193f}
    },
    {
      {0.019694f,0.160166f,-0.190523f},
      {0.239617f,-0.071510f,0.083899f},
      {-0.144092f,0.270687f,0.242605f}
    },
    {
      {0.050315f,0.075219f,0.073615f},
      {-0.082066f,0.015480f,-0.063225f},
      {-0.152245f,-0.171250f,0.067283f}
    },
    {
      {0.397040f,0.143016f,-0.380932f},
      {0.192915f,-0.463584f,0.152404f},
      {-0.186230f,-0.387077f,-0.016454f}
    }
  },
  {
    {
      {0.025688f,-0.050751f,-0.124349f},
      {-0.174678f,-0.058416f,0.073395f},
      {-0.086619f,-0.385978f,-0.068333f}
    },
    {
      {-0.101206f,-0.116179f,-0.347983f},
      {-0.051178f,0.146458f,-0.144376f},
      {-0.118364f,0.028507f,0.153929f}
    },
    {
      {0.161746f,0.261418f,0.232705f},
      {-0.083932f,0.116885f,0.187446f},
      {0.161531f,0.027692f,-0.119916f}
    },
    {
      {-0.157625f,-0.076658f,0.102721f},
      {-0.344105f,-0.462937f,0.074462f},
      {0.132895f,-0.158128f,-0.270809f}
    },
    {
      {0.102527f,-0.256337f,0.049429f},
      {0.491312f,0.402223f,-0.287387f},
      {0.151759f,0.246073f,0.307151f}
    },
    {
      {0.059017f,-0.217531f,0.034989f},
      {0.349939f,0.093887f,-0.309737f},
      {-0.033697f,0.206395f,0.200246f}
    },
    {
      {-0.047554f,0.038612f,0.197209f},
      {0.049761f,-0.152878f,-0.158774f},
      {0.176774f,0.282273f,-0.086530f}
    },
    {
      {-0.059603f,-0.339321f,-0.240219f},
      {0.176464f,-0.056659f,-0.354822f},
      {-0.041289f,0.135149f,0.237377f}
    }
  },
  {
    {
      {-0.153539f,0.301700f,0.403819f},
      {-0.488209f,-0.298443f,-0.194787f},
      {0.230163f,0.280147f,0.182701f}
    },
    {
      {-0.148712f,0.034570f,0.057956f},
      {-0.236844f,0.080101f,0.085118f},
      {-0.390133f,-0.270214f,-0.355850f}
    },
    {
      {-0.039296f,0.187415f,-0.102856f},
      {0.048247f,0.050748f,-0.301545f},
      {-0.034959f,-0.107390f,-0.016300f}
    },
    {
      {-0.220041f,0.017365f,-0.002150f},
      {-0.351310f,-0.204153f,-0.050320f},
      {0.171256f,-0.049394f,0.004178f}
    },
    {
      {-0.191589f,-0.131893f,0.160082f},
      {0.364082f,0.405176f,0.371224f},
      {0.254024f,0.309584f,-0.028770f}
    },
    {
      {0.027466f,-0.185383f,-0.135201f},
      {0.201583f,-0.053655f,0.058337f},
      {-0.234596f,-0.024641f,-0.118325f}
    },
    {
      {-0.027218f,-0.090633f,-0.098480f},
      {0.028867f,0.003650f,-0.034882f},
      {0.134230f,-0.028667f,0.043757f}
    },
    {
      {0.045457f,-0.101156f,0.077910f},
      {0.045605f,0.269430f,0.167487f},
      {-0.293199f,-0.186796f,-0.184853f}
    }
  },
  {
    {
      {-0.159764f,-0.174046f,-0.403272f},
      {-0.257700f,-0.173555f,-0.016108f},
      {0.447851f,-0.076268f,-0.168030f}
    },
    {
      {0.032737f,0.086364f,0.073180f},
      {-0.203304f,0.048263f,-0.125618f},
      {-0.136728f,0.074941f,0.060652f}
    },
    {
      {-0.306490f,-0.080818f,0.046259f},
      {0.046868f,-0.242563f,-0.075343f},
      {-0.042757f,-0.242739f,0.133727f}
    },
    {
      {-0.178025f,-0.497952f,-0.131565f},
      {-0.067587f,-0.374451f,-0.015969f},
      {0.268093f,-0.153530f,-0.093056f}
    },
    {
      {0.100035f,0.083172f,0.274509f},
      {-0.004066f,-0.255258f,-0.144529f},
      {-0.045662f,-0.004384f,0.318230f}
    },
    {
      {0.190521f,0.165106f,-0.194194f},
      {0.335329f,0.070646f,-0.373868f},
      {0.118231f,-0.090038f,0.134326f}
    },
    {
      {-0.004943f,-0.425628f,-0.080979f},
      {-0.043327f,-0.075653f,-0.106897f},
      {-0.044433f,-0.122708f,0.132430f}
    },
    {
      {0.056841f,0.065337f,0.006438f},
      {0.180893f,-0.176936f,-0.045183f},
      {-0.000687f,0.267894f,0.232399f}
    }
  }
};
const float conv2_bias[16] PROGMEM = {0.021082f,0.084769f,0.006127f,-0.026661f,0.002326f,0.071353f,-0.076227f,-0.125730f,0.063506f,-0.008683f,-0.069587f,0.084558f,-0.051969f,-0.096411f,-0.079190f,-0.017587f};
const float fc1_weights[784][64] PROGMEM = {
  {0.083065f,-0.047480f,-0.146031f,-0.001061f,0.015717f,0.049635f,-0.027880f,-0.034328f,0.016361f,0.104590f,-0.009100f,-0.052446f,-0.034383f,-0.033473f,0.005322f,-0.183417f,-0.049346f,0.017890f,0.019465f,0.011359f,0.009571f,-0.141546f,-0.029575f,0.006095f,-0.074307f,-0.001362f,0.025072f,0.012240f,-0.038879f,0.185804f,0.110923f,-0.103302f,0.086179f,0.035341f,-0.019674f,0.020957f,0.026621f,0.000844f,0.013871f,0.017560f,0.135439f,-0.024545f,0.081168f,0.077435f,-0.027120f,0.008242f,0.020522f,0.068628f,0.185500f,-0.115717f,0.057251f,-0.065590f,0.016716f,-0.012515f,0.013555f,0.102966f,0.048220f,-0.029883f,-0.028270f,-0.024334f,-0.035834f,-0.013040f,0.025275f,-0.004708f},
  {-0.002798f,0.090471f,-0.157862f,-0.007209f,-0.121004f,-0.177166f,-0.007695f,0.125677f,0.143613f,-0.111799f,0.018211f,0.007401f,0.002763f,-0.001225f,0.006371f,0.024916f,0.407525f,0.014490f,0.012970f,0.157002f,-0.320720f,-0.173739f,0.142929f,-0.038563f,-0.023451f,-0.002643f,0.009086f,-0.136066f,0.014569f,0.208015f,-0.036745f,-0.070135f,0.137436f,-0.176865f,-0.003585f,0.045449f,0.140811f,-0.213701f,-0.032416f,-0.032564f,-0.098747f,-0.004399f,-0.153816f,0.270529f,-0.008868f,-0.021070f,0.022547f,-0.146875f,0.237222f,0.202380f,0.355210f,0.167400f,-0.028435f,0.019723f,-0.209639f,-0.059717f,0.006538f,0.021338f,0.206842f,0.012631f,-0.349077f,-0.033987f,-0.033231f,-0.010773f},
  {0.005766f,-0.124447f,-0.196706f,-0.027964f,-0.020644f,0.207584f,-0.010370f,-0.199667f,-0.086388f,-0.008549f,0.005098f,-0.158552f,-0.038142f,-0.019517f,0.026061f,-0.370399f,0.204054f,-0.029738f,0.141372f,0.100747f,-0.185422f,0.037733f,-0.061791f,0.000630f,0.002158f,0.009046f,0.035281f,0.153270f,0.032934f,0.201894f,-0.356278f,0.015584f,-0.169433f,-0.046807f,-0.024009f,0.027199f,-0.002971f,-0.059530f,-0.013127f,0.020413f,-0.132083f,-0.001719f,0.068233f,0.040370f,0.017824f,0.192057f,0.011666f,-0.114836f,0.038750f,-0.206499f,0.250326f,-0.017893f,-0.036965f,-0.009912f,-0.311600f,0.210143f,0.019425f,-0.129930f,0.024026f,-0.013475f,-0.173862f,-0.002684f,-0.024905f,-0.065050f},
  {0.329352f,0.190520f,0.097359f,-0.001958f,-0.063984f,0.026350f,0.043632f,-0.183494f,-0.225831f,0.094426f,0.023517f,-0.183035f,0.000231f,-0.022876f,0.016018f,-0.048861f,0.073211f,0.000238f,0.220475f,0.081323f,0.167216f,-0.061097f,-0.147434f,-0.040529f,-0.115175f,0.028233f,-0.008681f,-0.125741f,-0.010137f,0.116669f,-0.197175f,-0.347914f,0.001764f,-0.106911f,-0.035362f,0.012652f,0.148227f,0.162804f,-0.034480f,0.031824f,0.129952f,0.025147f,0.184872f,0.047392f,-0.020514f,0.047671f,-0.028878f,-0.031580f,-0.084706f,-0.275709f,0.024529f,-0.207495f,-0.000916f,-0.012060f,0.102298f,0.135664f,0.058592f,0.024703f,-0.174952f,0.018724f,0.223111f,0.012982f,0.030731f,-0.192562f},
  {0.296693f,0.332903f,-0.198201f,-0.012100f,-0.010464f,-0.295352f,-0.043714f,0.278294f,-0.341272f,0.227441f,-0.023271f,0.125853f,-0.013058f,-0.030232f,0.014116f,-0.169413f,-0.034894f,-0.024659f,-0.218767f,-0.219669f,-0.022335f,-0.155263f,-0.348554f,-0.029600f,-0.048644f,-0.010144f,-0.015651f,-0.006790f,-0.047201f,-0.025822f,0.386017f,-0.002862f,0.001053f,0.350242f,0.022251f,0.004499f,-0.069915f,-0.197489f,-0.003864f,-0.034734f,0.303777f,0.029805f,-0.274982f,-0.033204f,0.000440f,-0.025718f,0.012883f,0.192459f,0.179300f,0.133726f,-0.160009f,-0.060948f,-0.028279f,-0.015651f,0.110398f,0.022017f,0.097083f,-0.028624f,-0.311179f,0.005521f,0.117301f,0.015813f,0.005896f,-0.294527f},
  {0.022786f,0.034402f,0.019488f,0.009909f,0.013824f,-0.093027f,0.022917f,0.067918f,0.002243f,0.116377f,-0.008165f,-0.002947f,-0.040901f,0.000117f,0.020476f,-0.025661f,0.004364f,-0.028942f,-0.024326f,-0.033324f,-0.042919f,-0.074902f,-0.003110f,-0.005915f,0.003631f,0.015459f,-0.030376f,-0.054328f,-0.047986f,0.032627f,0.056330f,-0.055049f,-0.017432f,0.074342f,-0.030306f,-0.050528f,0.050037f,-0.019192f,0.021380f,-0.031726f,0.080269f,0.016438f,-0.091322f,0.010850f,-0.009065f,0.030103f,-0.003772f,0.025951f,-0.027127f,0.051332f,-0.034648f,-0.014908f,0.005884f,-0.033454f,0.060707f,0.010663f,0.000468f,-0.026016f,-0.045652f,-0.023814f,-0.048111f,-0.037769f,-0.030895f,-0.066757f},
  {-0.066089f,-0.081954f,-0.074590f,-0.027870f,0.013510f,0.166983f,-0.008575f,0.044621f,0.060138f,-0.086591f,0.003052f,-0.111110f,-0.034518f,0.019795f,-0.031801f,-0.019787f,0.037050f,-0.041509f,0.031872f,-0.051139f,-0.016724f,0.048224f,0.038126f,0.008391f,0.010685f,0.012402f,-0.016014f,-0.019747f,-0.023028f,0.043360f,0.151167f,0.060643f,0.000147f,0.051124f,-0.040576f,-0.031279f,-0.155846f,0.110492f,-0.037390f,-0.040049f,0.024226f,-0.027440f,-0.012378f,-0.101609f,-0.051387f,0.099332f,0.017767f,0.125711f,0.023547f,0.071327f,0.074196f,0.013355f,-0.007609f,0.005942f,-0.153204f,0.074527f,-0.026571f,-0.010066f,-0.083675f,-0.031034f,-0.058356f,0.000492f,-0.038513f,0.116261f},
  {-0.012316f,-0.157794f,-0.082759f,-0.038058f,-0.026506f,0.144867f,-0.008075f,-0.065220f,-0.161126f,-0.061952f,-0.035588f,-0.189002f,-0.034972f,0.021261f,-0.016567f,-0.006920f,-0.139874f,-0.022260f,-0.022359f,0.175440f,0.254640f,-0.081225f,-0.209710f,-0.012968f,0.032156f,-0.016945f,-0.021869f,-0.071823f,0.023023f,0.118809f,-0.006177f,0.072045f,0.071423f,0.026011f,-0.019806f,-0.021881f,-0.016956f,0.229421f,-0.038731f,-0.005457f,0.041237f,0.009549f,0.095615f,0.145968f,-0.010986f,-0.079579f,-0.009244f,0.075449f,0.324133f,0.086318f,0.136553f,0.025755f,-0.016261f,-0.001957f,-0.179630f,0.060617f,-0.159983f,-0.045482f,-0.142334f,0.016184f,-0.038772f,-0.008211f,-0.029502f,-0.093345f},
  {-0.042673f,-0.010177f,0.121971f,0.027131f,-0.104986f,0.129283f,-0.028037f,-0.005067f,-0.255822f,0.074918f,0.026302f,-0.119966f,0.005072f,0.015819f,0.016113f,-0.135450f,0.063167f,-0.008516f,-0.094884f,-0.019913f,-0.073657f,-0.025178f,-0.022393f,0.001155f,-0.029117f,0.008899f,-0.023782f,-0.002255f,-0.015756f,0.008862f,0.078847f,-0.047294f,-0.009331f,0.130526f,-0.013616f,0.000916f,0.035596f,0.189743f,0.002365f,0.005108f,-0.033567f,0.003622f,-0.020102f,-0.147855f,-0.023185f,-0.092311f,-0.041313f,0.243199f,-0.134925f,0.035477f,-0.124547f,-0.107541f,-0.004250f,-0.002249f,0.123791f,-0.079785f,-0.022645f,-0.173742f,-0.132446f,0.005329f,0.105178f,-0.016854f,-0.009621f,0.142831f},
  {0.075916f,-0.056058f,0.065104f,-0.026759f,0.018087f,0.117706f,-0.041174f,-0.063707f,-0.113016f,-0.111711f,-0.025216f,0.026298f,-0.047042f,0.014671f,0.014315f,-0.075845f,0.272517f,-0.001866f,0.093764f,0.068164f,-0.004257f,-0.033357f,-0.041781f,-0.011744f,0.172416f,-0.013488f,0.002244f,0.034341f,-0.039685f,-0.125470f,-0.041615f,-0.172270f,0.264810f,0.030151f,0.027301f,-0.001723f,-0.023111f,0.238152f,0.025895f,-0.027656f,-0.016615f,-0.011006f,0.137616f,-0.007704f,-0.011888f,-0.054038f,-0.019244f,0.022462f,-0.162212f,0.039362f,0.121130f,-0.091056f,-0.031021f,-0.004652f,0.080834f,0.114409f,-0.005881f,0.088363f,-0.119536f,-0.022921f,0.071952f,-0.028502f,0.018420f,0.023567f},
  {0.036979f,0.011723f,0.071337f,-0.029305f,0.021685f,0.010431f,-0.038484f,0.128547f,0.067440f,0.035607f,-0.017398f,-0.140393f,-0.074274f,0.011783f,-0.002757f,-0.111388f,0.242381f,-0.015189f,0.167801f,0.167709f,-0.085049f,0.007967f,-0.003735f,-0.018229f,-0.004777f,-0.033396f,-0.026596f,0.080528f,-0.046051f,-0.067417f,-0.163925f,0.049182f,-0.155817f,0.116953f,-0.038257f,-0.012183f,0.193287f,0.145464f,0.009652f,0.013268f,-0.073285f,-0.014589f,0.213604f,0.110832f,-0.059623f,-0.123853f,-0.018813f,-0.187395f,-0.145184f,0.117869f,0.110354f,-0.194473f,-0.032421f,-0.021404f,-0.189191f,-0.027931f,0.080941f,0.100358f,0.032458f,-0.004186f,-0.061067f,-0.018346f,-0.025155f,0.050560f},
  {-0.055504f,-0.018177f,0.155489f,0.030350f,0.008904f,-0.083433f,0.021447f,-0.032341f,0.309120f,0.054373f,0.025852f,-0.210684f,-0.007604f,-0.022710f,-0.011104f,0.095701f,-0.035872f,0.012737f,0.042141f,0.059623f,0.016822f,0.208506f,0.164198f,-0.017669f,-0.053430f,0.018012f,0.021854f,-0.248790f,-0.042603f,-0.111069f,-0.087073f,0.169577f,0.077134f,0.142609f,-0.034000f,-0.034744f,0.167685f,0.124575f,-0.014577f,-0.036619f,-0.083486f,0.020008f,0.009684f,0.046643f,-0.022897f,-0.142183f,-0.013840f,0.133696f,-0.077298f,0.044801f,0.063867f,-0.234348f,-0.041180f,-0.017581f,0.065601f,0.032270f,-0.042284f,0.093409f,0.075472f,0.034136f,0.103887f,-0.045496f,0.005207f,-0.019992f},
  {0.181412f,0.149039f,0.012804f,0.011698f,0.050714f,-0.168103f,-0.013091f,0.037178f,0.143116f,0.042437f,-0.034293f,0.055536f,-0.060527f,-0.013300f,-0.011767f,-0.104037f,-0.050323f,0.018606f,-0.003123f,-0.115413f,-0.029656f,0.074986f,-0.032412f,0.029016f,0.026627f,-0.003647f,-0.040156f,-0.007032f,-0.000225f,0.062140f,0.228306f,0.010797f,0.015562f,0.095154f,0.014051f,0.033363f,0.216742f,0.323619f,0.021833f,0.007075f,0.043579f,-0.031168f,-0.003291f,-0.304227f,-0.014775f,-0.175341f,-0.005360f,-0.105078f,-0.114540f,-0.075907f,-0.285495f,0.003550f,-0.008290f,-0.030089f,0.281212f,-0.318856f,-0.140973f,-0.047254f,0.222969f,-0.030011f,-0.191606f,0.004362f,0.031330f,-0.001267f},
  {0.038819f,0.087130f,0.039568f,-0.010387f,-0.124024f,-0.072684f,0.021259f,0.095266f,0.100336f,0.046260f,0.013687f,0.015492f,0.008213f,0.012813f,-0.011132f,0.068922f,-0.031829f,-0.025251f,-0.089295f,0.012071f,0.041640f,0.003787f,0.067048f,-0.015732f,0.008537f,0.022477f,0.025892f,-0.025827f,0.009695f,-0.002348f,0.031062f,0.016156f,0.019692f,0.025816f,0.001436f,0.019067f,-0.024417f,-0.033246f,-0.002161f,-0.002123f,0.087250f,0.015512f,-0.048870f,0.001882f,0.021764f,0.030970f,-0.007195f,-0.068229f,0.028145f,0.137033f,-0.066333f,0.012608f,0.028495f,-0.037887f,0.047850f,-0.045692f,0.001690f,0.001195f,-0.124877f,0.010232f,-0.165120f,-0.001289f,-0.031113f,0.016548f},
  {0.026385f,-0.041720f,-0.174040f,0.018025f,-0.098048f,0.117272f,-0.038421f,-0.030110f,-0.152882f,-0.016379f,-0.021325f,0.049709f,0.022102f,0.019456f,-0.023433f,0.017890f,-0.055330f,-0.027487f,0.000836f,0.092278f,0.005859f,0.150451f,-0.073899f,0.001734f,0.092703f,0.022665f,-0.013871f,0.112855f,-0.005208f,0.068669f,0.081555f,-0.024356f,-0.043356f,0.170808f,-0.027493f,-0.037860f,-0.086025f,-0.254642f,0.028292f,-0.014168f,0.050932f,0.027150f,0.062130f,0.149385f,0.024627f,0.041693f,0.025681f,-0.112256f,0.156310f,-0.046472f,-0.117802f,0.033552f,0.015905f,0.027382f,-0.112756f,0.069160f,0.113034f,-0.056889f,-0.038180f,-0.005753f,0.038205f,-0.036049f,-0.011907f,0.020329f},
  {0.037041f,0.096167f,0.101142f,0.026726f,-0.068258f,0.045894f,-0.024944f,-0.086083f,-0.140186f,0.038079f,-0.024844f,0.129038f,-0.018341f,-0.035394f,0.006390f,-0.044379f,-0.126265f,-0.013357f,0.032300f,-0.018992f,-0.048939f,0.042324f,0.008211f,-0.013392f,0.074477f,0.019994f,-0.033803f,-0.089572f,-0.006804f,0.051403f,0.025556f,-0.023224f,0.078979f,0.161330f,0.014427f,0.018381f,0.016002f,-0.195811f,0.000692f,-0.022160f,0.083085f,-0.035759f,-0.129893f,-0.058598f,-0.005499f,0.074665f,-0.024636f,0.109665f,0.022006f,-0.106930f,-0.137752f,-0.355072f,-0.069550f,-0.016715f,0.125639f,-0.018619f,-0.108303f,-0.031814f,-0.041710f,-0.013820f,0.010466f,-0.038080f,0.022507f,-0.010584f},
  {0.034068f,0.078752f,0.265343f,-0.027230f,-0.016572f,0.005531f,0.025891f,-0.226132f,-0.000355f,-0.005042f,-0.031786f,0.142703f,0.042737f,-0.034198f,0.003899f,0.081281f,-0.074072f,-0.047925f,0.196430f,0.049635f,-0.054218f,0.065531f,0.108954f,-0.028944f,0.142716f,-0.014375f,-0.035083f,0.051862f,-0.028038f,-0.198676f,-0.116874f,0.011452f,0.130729f,-0.033862f,0.019724f,-0.030218f,0.075146f,-0.098840f,0.009524f,-0.003075f,0.008614f,0.027113f,0.014200f,-0.018994f,-0.036162f,0.070629f,-0.041184f,-0.075170f,-0.278093f,-0.184118f,-0.112089f,-0.169468f,-0.027762f,-0.009146f,0.226880f,0.028880f,-0.120250f,0.024148f,-0.033958f,-0.031718f,0.124982f,-0.028091f,-0.024106f,-0.086266f},
  {0.040413f,-0.156431f,0.134874f,-0.025333f,-0.051147f,0.110514f,-0.004489f,0.028000f,0.134956f,-0.006183f,-0.017920f,-0.107144f,-0.024650f,0.007850f,-0.029358f,-0.005500f,-0.087479f,-0.015937f,0.049305f,0.041321f,-0.095527f,0.154288f,0.038112f,0.002372f,0.101589f,-0.024714f,-0.006420f,0.084512f,-0.008412f,-0.123893f,0.041430f,0.091666f,-0.082378f,0.095730f,0.015956f,-0.015637f,0.183170f,0.183280f,-0.011579f,-0.010906f,-0.109964f,-0.040339f,0.026274f,0.038405f,-0.060080f,-0.029968f,-0.028847f,-0.121458f,-0.166310f,-0.171645f,-0.049729f,-0.137740f,-0.041892f,-0.046488f,0.066541f,-0.038818f,0.140190f,0.005704f,0.250838f,0.006748f,0.008580f,0.034269f,0.023961f,-0.074299f},
  {-0.076084f,-0.101171f,0.082708f,-0.029088f,-0.014227f,0.017029f,-0.009069f,0.046484f,0.208647f,0.074258f,-0.037199f,-0.111974f,-0.032583f,0.022710f,-0.018606f,0.113818f,-0.221375f,-0.031800f,-0.134707f,-0.050988f,0.038496f,0.231739f,0.065961f,-0.038098f,0.102200f,0.002380f,-0.004327f,0.012778f,0.011874f,0.021497f,-0.014204f,0.251745f,-0.112177f,0.032292f,-0.015253f,0.004798f,0.027801f,0.181483f,-0.015594f,-0.028268f,-0.062949f,0.015414f,-0.032449f,-0.085109f,-0.030341f,-0.076616f,-0.036814f,-0.076943f,0.114276f,0.062725f,0.045373f,-0.096743f,-0.053929f,-0.044488f,0.063684f,-0.005436f,0.080815f,0.066097f,0.090813f,-0.020336f,-0.039737f,-0.024131f,-0.005868f,0.113969f},
  {0.004098f,-0.001456f,0.092886f,-0.018039f,-0.104298f,-0.053987f,0.044699f,-0.012169f,0.062637f,0.135427f,0.010347f,-0.123917f,-0.033972f,-0.027157f,-0.021006f,0.060264f,-0.054655f,0.024514f,-0.112879f,0.009428f,0.059011f,0.050884f,0.102089f,-0.024023f,0.009184f,0.021504f,0.009217f,0.325078f,-0.033149f,0.088346f,0.072783f,0.077540f,-0.055715f,-0.088138f,0.028415f,-0.032360f,0.105160f,0.104004f,-0.032430f,-0.018627f,-0.026658f,0.007662f,0.003039f,-0.085235f,-0.041563f,-0.037217f,-0.008169f,-0.031626f,-0.023062f,0.159206f,-0.170046f,-0.183075f,0.020822f,0.005843f,0.237441f,-0.023864f,0.031709f,0.014708f,0.129279f,0.017795f,0.082553f,-0.006681f,0.027354f,-0.051637f},
  {-0.062820f,-0.070415f,0.161398f,-0.020082f,0.063721f,-0.094117f,0.008289f,0.001481f,0.116635f,0.166994f,-0.038775f,-0.012897f,-0.004436f,-0.026562f,0.003189f,0.147608f,-0.086422f,0.004606f,-0.098708f,-0.021241f,0.114621f,0.152837f,0.032454f,0.004058f,-0.054061f,-0.014041f,0.009004f,0.103174f,-0.027090f,-0.081866f,-0.082974f,-0.010454f,-0.076995f,0.019531f,0.029151f,0.027379f,-0.050088f,-0.042306f,-0.009076f,-0.029773f,0.001071f,-0.009553f,-0.015684f,-0.060663f,0.025691f,-0.109002f,-0.023096f,0.003386f,-0.019804f,0.084049f,-0.007099f,0.044821f,0.023852f,-0.001968f,0.044272f,0.090046f,-0.033169f,0.011186f,-0.100406f,0.011954f,0.071038f,-0.012138f,0.023928f,0.010057f},
  {0.123301f,0.067010f,-0.162430f,-0.053143f,-0.075690f,0.132880f,-0.021861f,0.208209f,-0.034202f,-0.252530f,-0.015427f,-0.026895f,-0.004560f,-0.008878f,-0.016848f,0.082055f,0.126276f,-0.005178f,0.065688f,-0.026275f,0.038842f,0.100431f,0.017219f,-0.015444f,0.029142f,-0.027429f,0.025554f,0.014633f,0.034536f,-0.081155f,0.287056f,0.023184f,-0.065061f,0.156526f,-0.003753f,-0.043711f,-0.147381f,-0.028726f,0.007537f,0.010868f,0.019037f,-0.025808f,0.040081f,-0.141560f,-0.049746f,0.138976f,-0.018408f,-0.098172f,-0.060303f,-0.042695f,-0.146290f,-0.003196f,-0.024260f,-0.001735f,0.008037f,-0.079295f,-0.091231f,-0.024968f,-0.111004f,-0.038352f,-0.033988f,-0.037789f,-0.033029f,0.129250f},
  {-0.043933f,-0.095647f,0.132310f,-0.037210f,-0.028110f,-0.000493f,-0.034110f,-0.035892f,-0.063352f,0.121505f,-0.000086f,0.168640f,-0.008570f,0.021850f,-0.000243f,0.079215f,0.018076f,-0.012346f,-0.168740f,-0.048353f,0.188971f,0.187570f,-0.022813f,-0.046608f,0.212081f,-0.014346f,-0.042780f,-0.057690f,0.000765f,-0.160465f,-0.043648f,0.042062f,0.021351f,0.113410f,-0.003793f,0.025629f,-0.114805f,-0.037807f,-0.012411f,-0.001664f,0.061703f,-0.034026f,-0.025222f,-0.053142f,-0.062254f,-0.001539f,-0.026238f,0.066240f,0.045919f,-0.057449f,-0.129480f,-0.204543f,-0.042448f,0.011744f,-0.028744f,0.111270f,-0.003722f,-0.089462f,-0.130026f,0.007624f,0.115381f,-0.066574f,-0.010930f,-0.033240f},
  {0.069700f,-0.138210f,0.101072f,-0.027608f,0.069649f,-0.060222f,-0.013527f,-0.077169f,0.043740f,0.112419f,0.016089f,0.086743f,-0.023918f,-0.000772f,0.016302f,0.047385f,-0.095006f,-0.020751f,-0.020089f,-0.085580f,0.188625f,0.122831f,-0.132711f,-0.024680f,-0.071234f,-0.010825f,-0.026917f,0.008984f,-0.016556f,-0.065662f,-0.062619f,-0.028869f,0.145966f,0.112957f,-0.001426f,0.005950f,0.030472f,0.037740f,-0.003406f,-0.029158f,0.087163f,0.014855f,0.139427f,-0.013583f,-0.026721f,-0.049949f,0.008270f,0.220519f,-0.145744f,0.053985f,-0.167130f,-0.050326f,-0.065733f,0.001998f,0.210315f,-0.038787f,0.011860f,0.001512f,0.029358f,-0.028078f,0.179710f,-0.065043f,-0.000417f,-0.213067f},
  {0.098873f,-0.124017f,-0.011907f,-0.012267f,0.042701f,0.203291f,-0.042878f,-0.173425f,0.082059f,0.100806f,-0.029669f,-0.158859f,0.012727f,-0.020783f,-0.018085f,-0.032502f,-0.256273f,0.005558f,-0.014675f,-0.034209f,0.192394f,0.090508f,-0.208469f,-0.021407f,-0.054010f,0.000770f,-0.005118f,0.023172f,-0.041653f,0.070261f,0.108194f,-0.119642f,0.110174f,-0.066898f,0.005907f,-0.031728f,-0.032575f,-0.072316f,-0.041313f,-0.038665f,0.005835f,-0.013356f,0.132980f,-0.102956f,-0.036511f,-0.038526f,0.023901f,0.287359f,-0.220452f,-0.070780f,-0.147460f,-0.018006f,-0.058119f,-0.053163f,0.242442f,0.084052f,-0.026004f,0.005473f,0.080409f,-0.017709f,0.102987f,0.011936f,0.011976f,-0.363683f},
  {0.071517f,0.003072f,0.065690f,0.030525f,-0.003574f,0.220766f,-0.015189f,0.045436f,0.003143f,0.199992f,-0.022447f,-0.040338f,-0.009709f,-0.017841f,0.018104f,-0.100762f,-0.132836f,-0.056990f,-0.149026f,0.111571f,0.056483f,0.009644f,-0.134096f,-0.007101f,-0.006160f,-0.030206f,0.002928f,0.056015f,-0.039001f,0.174640f,0.124249f,-0.188218f,0.081718f,-0.121507f,0.004168f,-0.025071f,0.149512f,-0.215176f,0.029613f,0.002041f,0.040538f,-0.009915f,-0.010088f,-0.071430f,-0.055330f,-0.016153f,0.021238f,0.015108f,0.053823f,-0.094413f,-0.186350f,-0.252614f,-0.028105f,-0.012091f,0.170668f,0.072157f,-0.006282f,-0.109979f,-0.057148f,0.025005f,0.074075f,-0.014262f,0.024474f,-0.158921f},
  {0.140634f,0.145256f,0.127397f,-0.011845f,-0.090962f,0.030368f,0.016032f,0.156760f,-0.055059f,-0.062433f,-0.005129f,0.125101f,-0.010022f,0.003953f,-0.025962f,0.055174f,0.069665f,-0.007439f,-0.007807f,0.147696f,-0.085735f,0.062501f,0.151368f,-0.030734f,-0.052715f,-0.036562f,-0.039283f,0.067002f,0.014557f,0.162697f,0.103150f,-0.068030f,-0.073225f,-0.149054f,-0.022787f,-0.008621f,0.088166f,-0.277800f,0.002192f,-0.032747f,0.052296f,-0.022689f,-0.091628f,-0.148570f,-0.006638f,-0.036830f,-0.011116f,0.003882f,0.083640f,0.108557f,0.069031f,-0.061708f,-0.006293f,-0.008834f,0.070503f,0.021919f,-0.103993f,-0.051882f,-0.073884f,0.021751f,-0.116005f,-0.013840f,-0.030416f,0.038028f},
  {-0.006455f,-0.076451f,0.236453f,-0.030231f,0.001672f,0.016039f,0.019072f,-0.005097f,0.133875f,0.168624f,-0.005197f,0.079296f,-0.016595f,-0.043362f,-0.039667f,0.139886f,-0.229305f,-0.041248f,-0.038928f,0.024895f,0.023903f,0.028376f,0.159627f,-0.005959f,0.056715f,0.005372f,-0.014908f,0.070257f,0.018176f,0.042242f,-0.069286f,0.141357f,-0.031452f,0.034326f,-0.035489f,0.024259f,0.024099f,0.128661f,-0.013671f,0.008133f,0.125385f,-0.039436f,-0.025187f,-0.131043f,-0.009436f,-0.174015f,0.020937f,0.061761f,-0.131828f,0.079069f,-0.053948f,-0.097377f,0.019322f,-0.001055f,0.099673f,0.223480f,-0.168233f,0.007472f,0.014167f,-0.026547f,0.193180f,-0.014029f,-0.006280f,-0.214091f},
  {-0.106443f,0.060340f,0.128073f,-0.011488f,0.057317f,0.026271f,-0.021565f,0.103715f,-0.021372f,-0.019813f,0.023842f,-0.235214f,0.002576f,-0.014650f,0.006602f,0.122174f,0.007093f,0.009807f,0.047321f,0.075096f,0.079798f,0.053137f,0.086873f,0.014646f,-0.031923f,0.021735f,-0.043893f,-0.012843f,-0.028918f,-0.041108f,-0.043145f,-0.025813f,-0.054891f,-0.197048f,0.009181f,-0.006875f,-0.130942f,-0.030081f,0.027913f,-0.009910f,0.102453f,-0.000370f,0.016380f,0.032170f,0.000865f,-0.053945f,0.000500f,-0.039441f,0.153371f,0.057418f,0.123771f,-0.072452f,-0.027618f,-0.032746f,0.013197f,0.138391f,-0.121335f,-0.041913f,-0.129788f,-0.033164f,0.021358f,-0.065529f,0.009470f,-0.152726f},
  {-0.007869f,-0.002134f,0.035465f,-0.056813f,-0.094565f,0.047344f,0.009383f,0.021650f,-0.086451f,0.033858f,0.008739f,0.017683f,-0.003751f,0.012178f,-0.034020f,0.040255f,0.003967f,-0.003170f,0.007298f,0.088044f,-0.023371f,-0.016862f,-0.100841f,0.004146f,-0.140935f,-0.021395f,-0.030487f,0.114721f,-0.013639f,0.020687f,-0.053500f,0.081591f,-0.103225f,-0.044247f,-0.025124f,-0.018517f,-0.047228f,0.010324f,-0.014610f,0.020528f,0.088796f,-0.016042f,-0.068818f,-0.089463f,-0.087555f,-0.072983f,-0.018586f,-0.087867f,0.073624f,-0.062097f,0.108180f,0.038658f,-0.034921f,-0.040294f,-0.083726f,0.090500f,0.013094f,-0.097426f,-0.031136f,0.022971f,-0.023542f,-0.029067f,-0.027151f,0.009615f},
  {-0.030994f,-0.104502f,-0.044137f,-0.045080f,-0.068957f,-0.029096f,0.024935f,0.070732f,-0.004205f,0.139509f,0.002911f,0.129658f,0.016509f,-0.042517f,0.002534f,-0.037555f,0.117598f,0.012694f,-0.015660f,0.091768f,0.165153f,-0.086628f,-0.041862f,0.016138f,-0.221891f,0.038002f,-0.039841f,0.046903f,-0.008093f,-0.000176f,-0.138502f,-0.083766f,-0.055815f,-0.115765f,0.025054f,-0.042606f,0.023784f,0.028662f,-0.036008f,-0.008625f,-0.109957f,-0.036490f,0.115079f,0.170008f,-0.076497f,-0.167717f,0.014785f,-0.125850f,0.068156f,0.122641f,-0.105763f,0.051654f,-0.058979f,-0.040330f,-0.068443f,0.004055f,0.112582f,0.059935f,0.141003f,-0.010710f,-0.001877f,-0.071435f,-0.042276f,-0.187168f},
  {0.136082f,0.100816f,-0.142704f,-0.002980f,0.096857f,-0.042520f,-0.035551f,-0.054405f,-0.074422f,0.079502f,-0.025757f,-0.050375f,-0.016535f,-0.005173f,0.010895f,-0.057979f,0.137386f,-0.008747f,0.174114f,0.065168f,0.016932f,-0.171362f,-0.059542f,-0.040491f,-0.143279f,-0.038243f,-0.019540f,0.029686f,-0.003169f,0.126889f,0.053340f,-0.220239f,0.170015f,0.007720f,0.024114f,-0.003565f,0.123494f,-0.023567f,-0.001823f,-0.036646f,0.009824f,-0.014016f,0.115189f,0.157745f,-0.039315f,-0.011175f,-0.028565f,0.141781f,-0.078583f,-0.130310f,-0.075607f,0.029881f,-0.046122f,0.011735f,0.137380f,-0.017489f,0.010283f,0.253042f,0.040585f,0.002401f,0.055679f,-0.029546f,-0.014987f,-0.219494f},
  {0.060663f,0.070705f,-0.027996f,-0.003617f,-0.054766f,-0.001477f,-0.036457f,0.091255f,-0.141729f,-0.003508f,-0.041001f,-0.063122f,-0.009713f,-0.019331f,0.025541f,0.014792f,0.140664f,-0.032201f,0.063684f,0.109815f,-0.073331f,0.021477f,0.037372f,0.017371f,0.048246f,-0.021342f,-0.022483f,0.062098f,-0.033936f,-0.009590f,0.125344f,0.031389f,0.039999f,0.247434f,-0.036990f,0.008373f,-0.005283f,-0.290494f,-0.029620f,-0.000158f,-0.035048f,-0.015307f,0.019018f,0.063224f,0.007632f,0.006724f,-0.007129f,0.043969f,0.071839f,0.167095f,0.060092f,0.103472f,0.010751f,0.011288f,0.097938f,-0.033610f,0.070219f,-0.106045f,0.011574f,-0.002449f,-0.095381f,-0.014885f,0.013850f,-0.116269f},
  {0.051781f,0.173497f,0.058005f,0.008473f,-0.040905f,-0.004561f,-0.034196f,0.059084f,-0.169766f,-0.144177f,0.021817f,-0.069095f,0.016807f,-0.003708f,-0.029171f,0.111012f,0.179522f,-0.048762f,0.196094f,0.247632f,0.055680f,-0.041862f,0.091152f,0.017616f,0.064281f,0.001686f,-0.004549f,-0.142855f,0.025226f,-0.050291f,-0.179253f,-0.001561f,-0.206106f,0.017515f,-0.011096f,0.029237f,0.067269f,-0.249970f,0.014137f,-0.000777f,0.030854f,-0.025687f,-0.024337f,0.224176f,-0.012265f,-0.049743f,0.021188f,-0.170489f,0.131846f,0.006143f,0.049878f,0.168456f,0.003685f,0.024420f,-0.276634f,0.036023f,-0.097989f,-0.090107f,-0.062680f,0.025368f,-0.161460f,-0.059860f,-0.039924f,-0.173097f},
  {0.025603f,0.012108f,0.020619f,-0.022916f,-0.001885f,0.084576f,-0.028454f,-0.118163f,-0.196804f,-0.091510f,-0.005306f,-0.096287f,0.001092f,0.026584f,-0.036829f,-0.012884f,0.042352f,0.010162f,0.167380f,0.020604f,0.065337f,-0.041693f,0.074471f,0.021633f,-0.015069f,0.025043f,-0.039899f,-0.025744f,0.014359f,0.087009f,-0.022304f,-0.063179f,-0.048129f,-0.030695f,-0.019526f,0.025504f,0.000723f,-0.098803f,-0.030929f,-0.006770f,0.057608f,-0.006417f,-0.103568f,0.112911f,-0.039280f,0.041377f,0.013770f,-0.102807f,-0.007821f,-0.078305f,0.152467f,0.000855f,-0.032552f,-0.010279f,-0.089724f,0.100755f,0.009812f,0.080358f,-0.082461f,-0.026091f,-0.146869f,-0.010877f,-0.032484f,0.007679f},
  {-0.074044f,-0.063928f,0.118677f,-0.008265f,0.096925f,-0.085539f,-0.004079f,-0.071531f,0.200196f,0.097506f,0.014322f,-0.014079f,-0.064950f,-0.002583f,0.014741f,0.092052f,0.020077f,-0.036423f,-0.104414f,0.051522f,0.100001f,-0.030133f,-0.052233f,-0.019233f,0.095046f,-0.023463f,-0.034596f,0.078893f,0.011766f,-0.116160f,-0.110515f,-0.039364f,0.010486f,-0.007798f,-0.019474f,-0.020132f,0.029528f,0.070143f,-0.019981f,0.002063f,0.005231f,-0.005646f,-0.070714f,-0.068080f,-0.001844f,-0.122328f,0.013087f,0.118181f,-0.017818f,-0.096769f,-0.022753f,0.031933f,-0.031309f,0.007565f,-0.061440f,-0.088836f,0.141134f,-0.026871f,-0.038941f,-0.000765f,0.115848f,-0.005040f,0.026583f,0.036536f},
  {0.093514f,-0.063738f,0.071065f,0.001986f,-0.021539f,0.065628f,-0.001137f,-0.063612f,0.092117f,-0.004090f,-0.020644f,-0.090156f,-0.067336f,-0.023549f,0.006760f,0.123147f,-0.140923f,0.027133f,0.030081f,-0.014304f,-0.003509f,-0.017589f,0.029903f,0.024622f,-0.137644f,-0.025440f,0.010524f,0.007405f,-0.063141f,0.116839f,0.042243f,0.014609f,-0.107925f,-0.096473f,-0.024192f,-0.010854f,-0.037654f,0.095969f,-0.036692f,0.005232f,0.123780f,-0.016563f,-0.003018f,-0.017826f,-0.062433f,-0.131019f,-0.025375f,0.016203f,0.098349f,-0.080133f,0.129804f,-0.047574f,-0.054046f,0.011420f,-0.030866f,0.075077f,-0.118663f,0.002243f,-0.085820f,0.011148f,-0.072475f,-0.039192f,0.007772f,-0.078123f},
  {0.054444f,0.081182f,0.087183f,-0.043440f,0.033931f,-0.155305f,-0.018348f,0.054724f,0.163674f,-0.021068f,-0.032348f,-0.006761f,-0.078799f,-0.027244f,0.001136f,0.012265f,0.110768f,0.015715f,-0.021610f,0.073546f,0.001986f,-0.033291f,0.056192f,-0.017028f,-0.000336f,-0.010358f,-0.042575f,-0.162670f,-0.018712f,0.100358f,0.065339f,0.041448f,-0.261767f,-0.173059f,0.006575f,-0.002250f,0.104329f,-0.020725f,-0.032453f,-0.039212f,0.037855f,-0.027952f,-0.105354f,0.016580f,-0.045724f,-0.044971f,-0.015500f,-0.109791f,0.177954f,0.021515f,-0.036777f,-0.083115f,-0.001119f,-0.025232f,0.045048f,-0.006296f,-0.270511f,0.000348f,0.052200f,-0.002911f,-0.185516f,0.005751f,-0.014788f,-0.098071f},
  {0.052846f,0.111123f,-0.055725f,0.017446f,-0.022465f,0.007928f,0.009488f,0.029919f,0.089127f,0.048806f,-0.019560f,-0.039415f,0.008744f,-0.014182f,0.018832f,-0.045386f,-0.009928f,-0.053102f,-0.119487f,0.077027f,-0.204011f,-0.148600f,-0.046670f,-0.033188f,-0.077335f,-0.010169f,-0.008810f,0.025191f,-0.000441f,0.083130f,0.022619f,-0.004334f,-0.061159f,-0.014542f,0.015400f,0.013969f,0.083439f,-0.133755f,-0.039547f,-0.024719f,-0.003658f,-0.021118f,-0.044490f,0.026655f,-0.070667f,0.068210f,0.015028f,-0.082110f,0.144180f,0.017307f,-0.003319f,-0.008254f,-0.000217f,-0.022025f,-0.092547f,-0.027155f,-0.051537f,-0.051651f,0.013645f,0.001583f,-0.047555f,-0.052639f,-0.014102f,-0.024631f},
  {0.012289f,-0.069720f,-0.128409f,-0.038201f,-0.147217f,0.015865f,-0.001662f,0.144853f,-0.160144f,-0.182776f,0.028725f,0.038394f,-0.047477f,-0.001806f,-0.000419f,0.235474f,0.048620f,-0.025242f,0.079758f,0.102756f,-0.091177f,-0.085946f,0.157907f,-0.017243f,-0.004088f,-0.029825f,-0.008053f,-0.114562f,-0.039911f,-0.143878f,-0.050364f,0.070989f,0.112206f,-0.003970f,-0.037996f,0.007564f,-0.034734f,-0.186193f,0.015109f,0.024001f,0.017258f,-0.038099f,-0.144944f,0.029313f,-0.069835f,-0.015759f,-0.004571f,-0.029098f,-0.050456f,0.073651f,0.151455f,0.097407f,0.011931f,-0.021064f,-0.242429f,-0.064501f,-0.013161f,0.012807f,-0.022381f,0.009991f,-0.123140f,-0.041879f,0.017298f,0.015897f},
  {-0.044554f,-0.108152f,-0.158672f,0.008246f,-0.076065f,0.024053f,0.003460f,-0.048282f,-0.116373f,-0.285391f,0.013597f,0.146357f,-0.017321f,0.003906f,-0.026086f,0.274616f,0.076580f,-0.017757f,0.233607f,-0.037453f,0.072107f,0.035780f,0.226863f,-0.012157f,-0.032727f,-0.005163f,-0.042103f,-0.028955f,-0.013183f,-0.138728f,-0.011029f,0.014363f,0.029659f,-0.102258f,-0.017037f,0.023223f,-0.120680f,-0.303516f,-0.036040f,-0.022934f,-0.131253f,-0.030998f,0.046065f,0.085685f,-0.040644f,0.075213f,0.026648f,-0.143692f,-0.136402f,0.066437f,0.185916f,0.369673f,0.003865f,0.007542f,-0.208611f,-0.048903f,-0.073179f,-0.134240f,0.141990f,0.011572f,-0.073570f,-0.009415f,-0.031962f,-0.056365f},
  {-0.158123f,-0.048704f,0.025863f,0.010953f,-0.050425f,0.190277f,-0.027189f,0.009553f,-0.080173f,0.020971f,0.013389f,0.200051f,-0.000780f,-0.014561f,-0.026428f,0.070110f,-0.239223f,-0.048287f,0.022654f,-0.195855f,0.115947f,0.007006f,-0.080656f,0.019141f,-0.017211f,-0.036984f,-0.044171f,0.248428f,0.004628f,-0.184020f,-0.141084f,-0.073439f,-0.067904f,-0.049353f,0.012364f,0.034075f,-0.200224f,-0.080407f,-0.018884f,-0.041070f,0.019314f,-0.036028f,-0.066663f,-0.134222f,-0.026039f,0.053520f,0.024667f,0.263274f,-0.211305f,0.146067f,-0.017419f,0.101118f,0.026485f,-0.033011f,-0.038575f,0.185096f,0.112077f,0.048816f,-0.049009f,0.010002f,0.105217f,0.020778f,0.003952f,0.129824f},
  {0.061593f,-0.208037f,-0.382958f,-0.023645f,0.009320f,0.359989f,-0.018207f,-0.097743f,-0.287823f,-0.101140f,0.012663f,0.296746f,-0.066292f,-0.014147f,-0.016589f,-0.305972f,-0.022607f,0.012946f,-0.464610f,-0.208342f,0.162488f,0.274545f,-0.067679f,-0.015197f,-0.135227f,-0.017783f,-0.008370f,-0.059162f,-0.027410f,0.096304f,0.085801f,-0.126935f,-0.009363f,-0.040062f,0.022110f,0.003422f,-0.561793f,-0.229825f,-0.016373f,-0.020672f,-0.252880f,-0.024150f,0.478521f,-0.059189f,-0.010705f,-0.096133f,-0.017205f,0.517130f,0.446246f,-0.039410f,-0.179994f,-0.078028f,-0.016322f,-0.004006f,-0.418966f,-0.087071f,-0.060582f,-0.032472f,-0.194274f,-0.023251f,-0.135668f,0.022434f,-0.012286f,-0.013975f},
  {-0.094491f,-0.059774f,-0.162649f,0.018850f,-0.068478f,0.162174f,-0.021774f,-0.035143f,0.175368f,0.042576f,-0.011834f,-0.113843f,0.021680f,-0.025077f,0.008630f,-0.120759f,-0.138551f,-0.025404f,0.033666f,-0.060990f,-0.038588f,-0.069860f,-0.155258f,-0.040555f,-0.051938f,0.004805f,0.006544f,0.307688f,-0.016801f,0.023260f,0.124155f,-0.008730f,-0.022256f,0.082771f,0.010780f,-0.026262f,-0.046784f,0.088344f,-0.020944f,-0.001088f,-0.172635f,0.023749f,0.053702f,0.110156f,-0.025102f,0.061361f,0.007772f,0.074244f,-0.114827f,-0.144019f,-0.015579f,-0.111935f,-0.001918f,-0.010362f,0.095604f,0.049017f,0.128486f,-0.015707f,0.180423f,0.020460f,0.073082f,0.006316f,-0.030181f,0.135638f},
  {-0.042570f,0.175580f,0.126379f,0.027608f,-0.051951f,0.079945f,-0.001553f,-0.019397f,0.154426f,-0.026401f,-0.006838f,-0.111997f,-0.034320f,0.015411f,-0.018658f,0.056237f,0.063299f,-0.010449f,-0.062828f,0.070367f,0.016212f,-0.020607f,0.141543f,-0.019590f,0.010044f,-0.036594f,0.019647f,-0.027880f,-0.022900f,0.032078f,0.162549f,0.049764f,-0.081643f,0.112634f,-0.007952f,-0.028713f,0.073685f,0.028156f,-0.006420f,0.004105f,0.086472f,0.014552f,-0.144624f,-0.049932f,0.005935f,-0.095688f,-0.028618f,0.026391f,-0.081478f,0.175139f,0.025179f,-0.046635f,0.020845f,-0.027584f,0.107553f,0.050214f,-0.087781f,-0.108530f,-0.101197f,-0.027772f,-0.040192f,-0.059690f,-0.014549f,0.018318f},
  {-0.006475f,0.109363f,0.062142f,-0.038388f,-0.037175f,-0.034041f,-0.033942f,0.091269f,0.271737f,0.025310f,0.013104f,-0.129490f,0.020030f,-0.022858f,0.022728f,-0.158871f,0.169189f,-0.019473f,-0.017864f,-0.003210f,-0.002009f,-0.013806f,-0.010997f,-0.024295f,0.086947f,-0.010182f,-0.042364f,0.074990f,-0.039055f,-0.067272f,0.021344f,0.103515f,-0.112762f,0.154483f,-0.014829f,0.021586f,-0.007609f,0.054363f,0.004677f,0.032441f,-0.026198f,0.000295f,-0.050507f,0.008285f,0.009793f,0.185235f,-0.006258f,-0.199815f,0.134556f,0.117945f,0.006249f,0.120108f,0.032854f,-0.012281f,0.010000f,0.039061f,-0.029036f,0.091153f,0.007875f,-0.001259f,-0.140593f,-0.036817f,0.018368f,0.065154f},
  {-0.108527f,-0.123531f,0.071215f,-0.020250f,-0.070192f,-0.093364f,0.013304f,-0.001316f,0.051061f,0.127114f,-0.037992f,-0.119969f,-0.014565f,-0.020958f,0.018294f,0.041113f,-0.043133f,0.002362f,0.010666f,0.114249f,0.041599f,0.155123f,-0.053822f,-0.007679f,0.093766f,0.027627f,-0.000269f,0.124885f,-0.004672f,-0.169267f,-0.089604f,0.108100f,-0.092216f,0.011365f,0.018574f,0.023473f,0.121994f,-0.078364f,-0.017247f,0.024488f,-0.042690f,0.021171f,0.044753f,0.125804f,-0.025845f,-0.020825f,0.019123f,-0.065997f,-0.098127f,-0.010691f,-0.092676f,-0.016577f,-0.013350f,-0.028446f,-0.043445f,-0.239521f,0.218071f,-0.047930f,0.182473f,-0.001526f,0.128556f,-0.020868f,-0.038100f,-0.092160f},
  {-0.135800f,-0.001816f,-0.188039f,-0.015072f,-0.093885f,0.026391f,-0.023142f,-0.106903f,-0.107364f,0.012338f,0.021268f,0.010342f,-0.019459f,-0.012412f,-0.012201f,-0.054075f,-0.061363f,-0.007083f,-0.012428f,-0.137976f,0.046402f,0.037299f,-0.046527f,-0.022096f,-0.000819f,0.017202f,-0.015828f,0.124658f,-0.015520f,-0.080067f,0.132101f,0.066389f,0.217566f,0.026980f,0.028829f,-0.024929f,-0.096391f,-0.194909f,-0.022814f,-0.001292f,0.012885f,0.030297f,-0.038399f,-0.048037f,-0.035074f,0.088308f,0.026846f,0.039948f,-0.084735f,-0.065301f,0.049340f,-0.004529f,0.012387f,-0.020400f,-0.087359f,0.048010f,0.087479f,-0.008828f,0.089778f,0.009944f,0.059210f,0.024974f,-0.006466f,-0.059285f},
  {-0.140310f,0.049476f,0.117473f,-0.023412f,-0.034773f,-0.105341f,-0.036983f,-0.047824f,-0.004356f,0.181130f,-0.027413f,-0.013997f,-0.015264f,-0.044155f,-0.031053f,0.137373f,-0.191305f,0.001804f,-0.014630f,0.071826f,0.026576f,-0.014210f,0.040888f,-0.009226f,-0.050128f,-0.003016f,0.024554f,0.232256f,0.001581f,-0.157257f,-0.198093f,0.022342f,0.068892f,-0.166397f,0.022677f,-0.002717f,0.005063f,0.004743f,-0.013535f,0.020996f,0.009905f,-0.014837f,-0.048350f,0.250866f,0.000667f,-0.083520f,0.022284f,0.093597f,-0.079112f,0.154022f,0.118820f,-0.103848f,0.017876f,-0.022850f,-0.094937f,0.235253f,0.115454f,0.006265f,0.006400f,0.005625f,0.194882f,0.011920f,0.000653f,-0.057978f},
  {0.002431f,-0.022946f,-0.044173f,-0.032400f,-0.023232f,0.031716f,-0.024765f,0.038228f,0.015923f,0.005787f,0.014961f,0.030780f,0.027274f,-0.009160f,-0.017500f,-0.016723f,0.028335f,0.012880f,-0.017616f,-0.001785f,-0.023378f,0.001054f,0.026294f,0.018334f,0.003312f,-0.033204f,0.006257f,0.024597f,-0.030695f,0.006184f,-0.010717f,0.021546f,-0.009222f,0.021686f,-0.040962f,-0.034367f,-0.003528f,0.034576f,-0.033913f,-0.024093f,0.001790f,0.026621f,0.013311f,0.004044f,0.011136f,0.006693f,0.013405f,0.034651f,-0.019453f,0.028304f,0.036610f,0.036287f,-0.002715f,-0.031064f,0.034753f,-0.009189f,0.025186f,0.014995f,0.022848f,-0.028564f,-0.014585f,0.007113f,-0.041187f,0.052426f},
  {0.289517f,0.187519f,-0.288532f,-0.031179f,0.012609f,-0.263555f,0.038712f,0.144026f,-0.092883f,0.019155f,0.031324f,0.036033f,-0.008827f,0.029635f,0.029143f,-0.114522f,0.288531f,-0.025130f,0.073043f,0.083533f,-0.082394f,-0.274745f,-0.011257f,0.030768f,-0.112736f,-0.011450f,-0.028276f,-0.132768f,-0.016107f,0.114406f,0.128947f,-0.060714f,0.129606f,-0.010062f,-0.008640f,-0.029649f,0.103819f,-0.068097f,-0.028913f,0.013997f,0.251572f,0.012964f,0.000004f,0.195733f,0.054141f,0.037650f,0.002937f,-0.056924f,0.290937f,0.008573f,0.121084f,0.042772f,0.030339f,-0.030706f,0.019032f,0.022234f,-0.046379f,0.010413f,0.008168f,-0.017576f,-0.203871f,0.000361f,0.033493f,-0.193323f},
  {0.416374f,0.029750f,0.132892f,-0.032609f,-0.046516f,-0.203479f,0.034504f,0.009495f,0.209809f,0.152769f,0.023911f,0.129550f,-0.010424f,-0.010673f,0.000758f,-0.088379f,0.208796f,0.050873f,0.034753f,0.112502f,-0.268467f,-0.166619f,0.215181f,-0.021521f,0.024416f,0.015356f,-0.039911f,-0.225016f,-0.037787f,0.299111f,0.050400f,-0.127017f,-0.202309f,-0.150580f,0.025827f,-0.007110f,0.432503f,-0.459175f,0.001478f,-0.027218f,0.084736f,0.031865f,-0.193729f,-0.018645f,0.078155f,-0.135098f,-0.032108f,0.104261f,0.095329f,-0.145145f,-0.061340f,0.087620f,0.017367f,0.026816f,-0.171399f,-0.165144f,-0.129588f,-0.126958f,0.206982f,0.004534f,-0.090020f,0.017911f,0.015669f,-0.238234f},
  {-0.088227f,0.051641f,-0.030907f,0.030224f,0.048783f,-0.093208f,0.003392f,0.199192f,0.110238f,-0.043074f,-0.030102f,0.151976f,-0.022083f,-0.008217f,0.040482f,-0.002992f,0.098704f,-0.067242f,-0.058227f,-0.146368f,-0.117797f,-0.081283f,0.133129f,0.028735f,-0.202568f,-0.014372f,-0.015351f,0.028825f,-0.011395f,0.067528f,0.083056f,0.138123f,-0.044026f,-0.032770f,-0.032548f,-0.011573f,-0.062614f,-0.333745f,0.016033f,0.026876f,0.007928f,0.030249f,-0.078600f,-0.057891f,0.025950f,-0.024132f,0.041649f,0.229285f,-0.000624f,0.028782f,0.117516f,-0.012784f,-0.003384f,-0.017607f,-0.048772f,0.010343f,-0.017090f,-0.063766f,0.064817f,-0.026598f,-0.039282f,0.010831f,-0.032871f,0.040932f},
  {-0.064852f,0.169406f,-0.007775f,0.007161f,0.027085f,-0.148430f,-0.005039f,0.038187f,-0.161933f,0.219096f,-0.013217f,0.076747f,-0.064417f,-0.027647f,0.026608f,-0.130934f,-0.050873f,-0.031406f,-0.169720f,-0.003944f,-0.087389f,-0.215823f,-0.084275f,0.023689f,-0.152888f,0.035152f,-0.047421f,-0.044522f,-0.020337f,0.105597f,-0.147306f,-0.053956f,0.057024f,-0.276655f,0.005621f,0.000006f,0.037478f,-0.034126f,0.033308f,-0.022528f,0.090385f,0.035504f,-0.108341f,0.114497f,-0.000129f,-0.139782f,-0.032432f,0.095243f,0.111988f,-0.075820f,0.083998f,-0.119869f,-0.005397f,-0.002113f,0.007750f,0.258241f,0.040566f,0.075661f,-0.050283f,-0.012608f,-0.048776f,0.064598f,-0.013184f,-0.063962f},
  {-0.080670f,0.031998f,-0.137491f,0.022234f,0.062172f,-0.030214f,0.008275f,0.079506f,0.224576f,0.012041f,0.008752f,0.255262f,-0.020339f,0.011641f,-0.015317f,-0.220952f,-0.152026f,0.005330f,-0.175759f,-0.040878f,-0.081947f,-0.191487f,-0.087704f,0.006256f,0.113818f,0.007554f,-0.040934f,-0.204090f,-0.045023f,0.045808f,0.067532f,-0.011286f,-0.006806f,-0.225863f,0.025872f,-0.012300f,-0.069596f,0.099852f,-0.022245f,-0.027517f,0.048605f,-0.003078f,-0.118794f,0.017964f,-0.027410f,-0.070004f,-0.031216f,0.051914f,0.117356f,0.097581f,0.107196f,0.049269f,0.005105f,0.010601f,-0.096991f,0.123600f,0.050282f,0.052352f,-0.015688f,-0.026461f,-0.219155f,0.000965f,-0.013234f,-0.072721f},
  {0.073855f,0.089392f,-0.015148f,-0.010341f,-0.036461f,-0.108018f,-0.000235f,0.174371f,0.079456f,0.049855f,0.033421f,-0.202204f,0.020730f,0.015142f,-0.029807f,0.017907f,-0.104653f,-0.004832f,-0.215902f,-0.022245f,0.024243f,0.052595f,-0.115053f,-0.013399f,-0.110994f,0.021180f,0.009617f,-0.176817f,0.020060f,0.104919f,0.114666f,0.046790f,-0.031006f,0.114746f,0.029918f,0.016498f,0.116334f,-0.122625f,-0.014329f,-0.031597f,0.042486f,0.026081f,0.100752f,0.157611f,-0.033719f,-0.000806f,0.036025f,-0.017094f,0.185588f,0.126031f,-0.075791f,0.123932f,0.044667f,0.023903f,0.154768f,-0.192927f,0.062484f,0.042252f,-0.144008f,0.025083f,-0.136265f,0.015685f,-0.032189f,0.084765f},
  {0.117433f,-0.045078f,-0.205894f,0.021934f,0.003639f,0.090860f,0.009161f,-0.212160f,0.094893f,-0.147344f,0.024619f,-0.311148f,-0.050443f,0.009871f,0.012893f,0.017681f,-0.111678f,-0.018710f,0.154767f,0.247073f,0.052637f,-0.042247f,0.049812f,0.002081f,0.092229f,-0.040047f,-0.010596f,-0.128156f,0.039776f,0.192165f,0.094504f,0.024022f,0.136875f,0.094650f,0.004469f,0.018307f,0.009448f,0.060831f,-0.035866f,-0.017994f,-0.090080f,-0.026973f,0.149230f,0.113476f,-0.010306f,0.016891f,-0.034201f,0.064953f,0.094968f,-0.220770f,0.280415f,-0.098169f,-0.033845f,-0.038433f,-0.141384f,0.082229f,-0.065196f,-0.016112f,0.070317f,0.019562f,-0.168161f,-0.029312f,-0.014158f,-0.000393f},
  {0.021492f,-0.049226f,0.005117f,0.012991f,-0.090512f,-0.107130f,-0.004237f,-0.057006f,-0.281157f,0.069453f,-0.017010f,0.055198f,-0.022552f,-0.039821f,-0.020822f,0.049870f,-0.033396f,-0.003759f,0.035581f,0.014315f,0.112878f,0.040147f,-0.123071f,-0.026644f,0.138014f,0.036763f,-0.019938f,-0.093411f,-0.003058f,-0.038830f,-0.015238f,0.013413f,0.000130f,0.022060f,0.035291f,0.009134f,0.140761f,-0.151639f,-0.000506f,0.021437f,0.010697f,0.028106f,0.018114f,0.118837f,0.027751f,-0.015035f,0.017531f,-0.056348f,-0.038746f,-0.021575f,-0.052430f,-0.131327f,0.016355f,0.020475f,-0.059555f,-0.111837f,-0.073269f,-0.072723f,0.146540f,-0.026721f,0.084572f,-0.006547f,-0.020421f,0.011224f},
  {0.079972f,0.069970f,0.036841f,0.006862f,-0.052755f,0.005686f,0.016522f,-0.124932f,-0.086602f,0.112850f,-0.011340f,0.175954f,-0.052109f,-0.013525f,-0.012142f,-0.047522f,-0.023913f,-0.058510f,0.088138f,0.052389f,-0.011868f,-0.093210f,0.006820f,-0.036314f,0.037859f,0.007899f,0.001381f,-0.028136f,-0.007960f,0.067910f,-0.102654f,-0.094882f,-0.090146f,-0.008719f,0.000012f,-0.031107f,0.127662f,-0.204534f,0.024977f,-0.009206f,-0.033279f,-0.013673f,-0.019126f,0.096301f,0.013937f,-0.095076f,0.003229f,-0.024185f,-0.039108f,-0.153562f,-0.025822f,-0.163533f,0.007802f,-0.030682f,0.104368f,0.068079f,0.027545f,0.027404f,0.147367f,-0.021018f,0.049596f,-0.011998f,0.019515f,-0.005268f},
  {0.013294f,0.092991f,-0.009276f,-0.036742f,-0.011734f,-0.151434f,0.010500f,-0.152948f,0.112029f,0.052329f,-0.014579f,0.063141f,-0.041185f,-0.013420f,0.023253f,0.007533f,-0.157016f,0.000672f,0.068949f,-0.044329f,0.087293f,-0.073525f,-0.000484f,-0.005878f,0.065921f,-0.045335f,-0.015870f,0.042418f,-0.043483f,-0.010261f,-0.096136f,0.013374f,0.059535f,-0.081092f,-0.028455f,-0.028068f,0.033148f,0.052270f,-0.009803f,-0.024838f,-0.012606f,0.004378f,-0.013137f,0.057661f,-0.066007f,0.115298f,0.009665f,-0.039336f,-0.053746f,-0.130277f,0.003160f,-0.030849f,-0.031430f,-0.053509f,0.054811f,-0.041537f,0.111462f,-0.114667f,0.127869f,-0.029989f,0.053289f,-0.069452f,-0.036341f,-0.085674f},
  {-0.038389f,-0.025512f,0.039991f,0.000708f,-0.003688f,0.010792f,-0.027379f,0.068507f,0.044237f,0.032426f,-0.004042f,-0.063647f,-0.013489f,0.024951f,-0.005922f,0.085962f,-0.309471f,-0.026164f,-0.145635f,0.080895f,-0.007943f,0.037166f,-0.053396f,-0.036633f,0.071805f,-0.032152f,0.003624f,-0.010503f,-0.020806f,0.002800f,0.010904f,0.006678f,-0.073880f,-0.048848f,0.022151f,-0.026626f,0.033906f,0.089577f,-0.009201f,-0.025039f,-0.071067f,-0.031663f,-0.179571f,0.060721f,-0.078718f,0.067548f,-0.024772f,-0.029406f,-0.017569f,-0.007709f,0.035322f,0.086541f,-0.004103f,-0.003098f,0.031061f,0.078821f,0.024600f,-0.110754f,-0.015246f,0.022815f,0.123906f,-0.027725f,-0.016409f,0.071802f},
  {-0.098193f,-0.222667f,0.104341f,0.029901f,-0.043549f,0.077549f,0.016351f,-0.000883f,0.061273f,0.097712f,0.038725f,0.192938f,-0.046445f,-0.023936f,0.014521f,0.142416f,-0.151604f,-0.004961f,-0.125644f,-0.033119f,0.020232f,-0.040446f,0.085124f,0.013985f,0.119106f,-0.029939f,0.003118f,0.020703f,-0.035117f,-0.051848f,-0.063854f,-0.006460f,0.060063f,-0.063418f,-0.011347f,0.018544f,-0.199606f,-0.016426f,-0.003394f,-0.005093f,-0.010895f,-0.030252f,-0.127181f,-0.125001f,-0.065281f,-0.102231f,-0.028405f,0.079340f,0.007606f,0.081845f,0.103745f,0.148245f,-0.034585f,0.013168f,0.091137f,0.153516f,-0.076616f,-0.052383f,-0.268765f,0.028219f,0.006071f,-0.042141f,0.030956f,0.140489f},
  {-0.060859f,-0.243704f,0.143024f,0.030444f,-0.001050f,0.010218f,0.005737f,0.004132f,0.143402f,0.017164f,0.013666f,-0.158425f,0.024335f,-0.038582f,-0.012318f,0.256463f,-0.012233f,-0.018502f,-0.145038f,0.091519f,0.119793f,0.264444f,0.065265f,-0.001254f,0.127615f,0.016666f,-0.020049f,0.056963f,-0.055675f,-0.031215f,-0.127118f,0.013515f,-0.041725f,-0.030755f,-0.028092f,0.030203f,-0.166198f,-0.165119f,0.013687f,-0.016567f,-0.042624f,-0.020203f,0.002930f,-0.139532f,-0.069453f,0.020942f,-0.010789f,-0.150576f,-0.053902f,-0.044136f,0.053609f,0.077900f,-0.038835f,-0.011041f,0.019538f,0.109785f,-0.024780f,-0.037473f,-0.226359f,0.007116f,0.062377f,-0.010653f,-0.034663f,0.058438f},
  {-0.040896f,-0.061588f,0.001421f,-0.008400f,-0.057736f,0.089835f,-0.008973f,0.009553f,-0.246983f,-0.011114f,-0.004457f,0.016135f,0.012045f,0.002741f,-0.004604f,0.059146f,-0.126431f,-0.012906f,0.007634f,0.229373f,-0.016263f,0.110697f,-0.036351f,-0.036885f,0.102879f,-0.009969f,-0.019747f,0.092126f,0.025193f,0.071494f,0.018702f,0.186659f,-0.021515f,0.059014f,0.007611f,-0.037256f,-0.014283f,-0.033802f,0.022696f,-0.000023f,0.081949f,0.013862f,0.043333f,0.139953f,-0.030153f,-0.041343f,-0.002154f,-0.091431f,0.101795f,0.110504f,-0.026045f,-0.007561f,0.040432f,0.029256f,-0.168948f,0.047805f,0.039764f,-0.050892f,-0.016044f,0.026326f,0.077996f,-0.024959f,-0.011413f,-0.010842f},
  {0.012084f,-0.041486f,-0.114008f,-0.057563f,-0.103757f,0.010910f,-0.041822f,-0.082382f,0.049850f,-0.009401f,-0.021521f,0.180301f,0.006040f,0.018812f,-0.016607f,0.057162f,0.096394f,-0.043618f,0.022102f,-0.072813f,0.085032f,0.061176f,0.003657f,-0.070279f,0.013709f,-0.025698f,-0.002002f,0.035283f,0.033400f,0.050915f,-0.019960f,-0.089678f,-0.135619f,0.002195f,0.018113f,-0.004851f,-0.018264f,-0.092546f,-0.018551f,-0.040839f,0.012494f,-0.008654f,0.133326f,-0.034121f,0.005732f,0.053136f,0.017621f,-0.036293f,0.079178f,-0.021575f,-0.143985f,-0.065767f,0.053099f,0.010608f,0.006610f,-0.121720f,0.003030f,-0.183188f,0.018187f,-0.025866f,-0.043668f,0.004772f,-0.014728f,0.150788f},
  {0.108465f,-0.015467f,-0.125519f,-0.022592f,-0.005199f,-0.015228f,-0.038069f,-0.097373f,0.087747f,0.038519f,-0.001487f,0.185761f,-0.009083f,-0.042125f,-0.034550f,-0.153922f,-0.083089f,-0.036901f,-0.014661f,-0.154691f,0.030620f,0.024300f,-0.184683f,-0.012873f,0.048206f,-0.033385f,-0.016751f,0.164482f,0.008880f,0.196243f,-0.035534f,-0.079795f,-0.203939f,-0.031830f,0.013998f,-0.036855f,0.000057f,0.093222f,-0.031459f,0.013945f,0.041467f,-0.003284f,0.032912f,-0.078801f,-0.017243f,0.119723f,0.016276f,0.048041f,0.067726f,-0.182424f,-0.162561f,0.111508f,-0.019636f,-0.014473f,0.004132f,-0.058137f,0.070176f,-0.084697f,0.129016f,0.002962f,-0.056699f,-0.028678f,-0.007690f,0.025145f},
  {0.135437f,0.011698f,-0.174214f,-0.012313f,0.023063f,-0.005507f,-0.008135f,-0.024356f,0.073623f,0.035825f,0.000997f,0.000767f,0.034671f,-0.009617f,0.001953f,-0.202541f,-0.174674f,0.039461f,-0.036534f,0.019313f,0.014440f,-0.060770f,-0.115953f,-0.047671f,-0.054446f,-0.070409f,0.017452f,0.149113f,-0.020233f,0.106022f,0.126616f,-0.101629f,-0.023906f,-0.116319f,0.002466f,-0.037914f,-0.046811f,0.077012f,-0.001575f,-0.013550f,0.112478f,-0.025999f,0.043735f,-0.015098f,-0.036044f,0.066397f,-0.036670f,0.064195f,0.045973f,-0.080596f,-0.068352f,0.099582f,-0.012474f,-0.041990f,0.076304f,0.058183f,0.070028f,0.001854f,0.024336f,-0.013663f,-0.022482f,-0.023274f,-0.021097f,-0.040218f},
  {0.051124f,0.074535f,0.066209f,-0.038690f,-0.191400f,-0.088177f,0.022866f,0.044774f,-0.293015f,0.257719f,-0.032901f,-0.022476f,-0.017208f,-0.006203f,0.021102f,-0.236466f,-0.090231f,0.008004f,0.126317f,0.135614f,-0.013666f,-0.042403f,-0.089047f,-0.001230f,0.048329f,-0.037419f,-0.032605f,0.147486f,0.015795f,0.066745f,0.067743f,-0.288768f,-0.026328f,-0.000181f,0.001809f,-0.000069f,0.087907f,-0.051519f,0.007421f,-0.027623f,-0.018253f,-0.015419f,0.014713f,0.006459f,-0.025463f,-0.013355f,-0.038955f,0.061393f,-0.113402f,-0.110946f,-0.095954f,0.063921f,-0.059130f,0.001226f,0.025019f,0.051399f,0.200859f,-0.003437f,-0.030829f,-0.004919f,0.244351f,-0.003158f,0.023389f,-0.003480f},
  {-0.035151f,-0.048790f,0.113189f,-0.008072f,-0.150317f,-0.093157f,-0.019956f,0.138097f,-0.248588f,-0.098521f,0.036643f,-0.022822f,0.026898f,-0.021233f,0.009406f,-0.025636f,0.250107f,0.011205f,0.134362f,0.040142f,-0.036648f,-0.032103f,0.138327f,-0.056312f,0.223395f,-0.024484f,-0.027655f,-0.103694f,-0.047179f,-0.047068f,0.185486f,-0.040599f,-0.007824f,0.153796f,-0.018455f,-0.023632f,-0.099235f,-0.141366f,0.025894f,0.011241f,0.106698f,-0.000209f,-0.108702f,-0.121315f,0.006726f,0.171724f,-0.005384f,-0.109335f,-0.094554f,-0.034370f,-0.063071f,-0.046068f,-0.030636f,0.005550f,0.011581f,-0.029073f,-0.003586f,-0.081056f,-0.126987f,-0.039250f,0.085306f,-0.065197f,0.004069f,-0.023605f},
  {-0.052431f,0.025469f,0.312872f,-0.033748f,-0.017640f,-0.165411f,-0.043425f,0.103970f,0.078234f,0.246399f,-0.025949f,-0.133817f,-0.011737f,-0.002547f,0.005333f,0.127607f,-0.217843f,-0.019764f,-0.117728f,-0.045235f,0.103066f,0.134578f,0.186313f,-0.015711f,0.108199f,-0.029459f,0.027488f,-0.004519f,-0.016066f,-0.334083f,-0.192775f,0.276236f,-0.001541f,0.026278f,-0.005361f,-0.034812f,-0.087582f,0.062384f,0.022372f,-0.024413f,0.126365f,-0.025310f,-0.151209f,-0.040956f,0.035775f,-0.150020f,-0.007812f,0.014083f,0.027954f,-0.002821f,-0.141919f,-0.098700f,-0.024003f,-0.039005f,0.191972f,0.372997f,0.006906f,-0.027939f,-0.228698f,-0.023944f,0.388332f,-0.032993f,-0.017422f,-0.239183f},
  {0.168593f,0.086921f,-0.211697f,-0.015856f,-0.061909f,0.170829f,-0.002799f,0.055711f,0.046202f,-0.243170f,-0.001709f,-0.122283f,0.020157f,-0.003411f,-0.006016f,0.119429f,0.026563f,-0.035276f,0.164036f,0.171349f,0.021587f,0.048738f,-0.002808f,0.010382f,0.072030f,-0.011505f,-0.033430f,-0.134410f,0.009335f,-0.009332f,0.180707f,-0.101601f,-0.071565f,0.079343f,0.026825f,0.016341f,-0.077284f,-0.148962f,0.007048f,-0.034371f,-0.000470f,0.001084f,0.133026f,0.108167f,-0.051383f,0.118820f,-0.006183f,-0.145418f,0.040794f,-0.058891f,0.003291f,0.003249f,0.025871f,0.012715f,-0.112236f,0.041110f,0.054136f,-0.068631f,-0.139931f,-0.028432f,-0.082192f,0.019142f,0.019966f,0.066109f},
  {0.180005f,0.174240f,-0.009063f,-0.020915f,-0.047502f,0.026680f,0.003273f,0.115286f,-0.083618f,-0.191452f,-0.026848f,-0.081951f,-0.039557f,-0.011060f,-0.009452f,0.075747f,0.185178f,-0.032460f,0.039029f,0.024661f,-0.069209f,0.058027f,0.011216f,-0.037527f,-0.117139f,-0.020565f,-0.045858f,-0.010092f,0.024930f,0.032461f,0.143635f,-0.035205f,0.055262f,0.052782f,-0.003885f,0.000771f,0.050981f,0.053983f,0.019529f,0.021770f,-0.026550f,-0.033845f,-0.044675f,-0.084697f,-0.057475f,-0.123356f,0.021058f,-0.240553f,-0.154242f,0.001242f,0.079421f,0.136631f,-0.044376f,-0.044104f,-0.088090f,-0.183956f,-0.188748f,-0.107678f,-0.038168f,-0.039920f,-0.171041f,-0.046679f,-0.001442f,0.072055f},
  {0.099251f,0.144951f,-0.021872f,-0.009044f,0.004230f,0.148377f,-0.005496f,0.052852f,-0.178180f,-0.195439f,-0.033695f,-0.088992f,-0.022237f,-0.020975f,0.013340f,-0.039039f,0.095075f,-0.015811f,0.156336f,0.051347f,-0.055412f,0.142576f,0.101668f,-0.040853f,-0.084274f,-0.032512f,0.005572f,0.050623f,0.023963f,-0.034918f,0.168025f,-0.144449f,-0.051898f,-0.097566f,-0.010702f,-0.036045f,-0.022480f,0.097982f,0.003944f,-0.031853f,-0.002354f,0.025548f,-0.023002f,-0.076529f,-0.037924f,-0.093606f,-0.014454f,-0.122850f,-0.068489f,0.066930f,0.115414f,0.157450f,-0.043015f,0.014441f,-0.067233f,-0.013188f,-0.178015f,-0.079390f,-0.041987f,-0.011358f,-0.086835f,0.005436f,0.009542f,0.171166f},
  {0.154169f,0.295960f,-0.094220f,-0.010610f,-0.076044f,-0.224720f,-0.031672f,-0.016921f,-0.082063f,0.064240f,-0.003051f,0.019993f,-0.014551f,0.020695f,0.010143f,-0.207829f,0.180951f,0.035997f,0.190954f,0.067023f,-0.015581f,-0.151043f,-0.139113f,-0.011664f,-0.222340f,0.000339f,-0.047042f,-0.097730f,-0.036601f,0.106647f,-0.011813f,-0.236362f,0.067411f,-0.055967f,-0.040728f,-0.048825f,0.176005f,0.160056f,-0.028629f,-0.023878f,0.137482f,-0.026421f,0.101689f,0.158104f,-0.054761f,-0.094714f,-0.001874f,0.064568f,0.094028f,0.003491f,0.145949f,0.014601f,0.001765f,0.010371f,0.093109f,0.117662f,0.002066f,0.063018f,-0.017875f,0.016546f,-0.037254f,-0.036310f,0.022572f,-0.233244f},
  {0.191270f,-0.000564f,-0.034054f,-0.005845f,-0.012805f,-0.079391f,0.027727f,-0.065018f,-0.360850f,-0.031727f,0.012829f,0.154801f,-0.045658f,-0.003048f,0.023921f,-0.115716f,0.008487f,0.033305f,0.244452f,0.006424f,0.075981f,-0.042852f,-0.173425f,0.007634f,0.003313f,-0.045753f,-0.011648f,-0.218804f,-0.001051f,0.036230f,0.098782f,-0.422896f,-0.051277f,0.341900f,0.015605f,0.002701f,0.124386f,0.121561f,0.028567f,0.027346f,0.114170f,-0.014948f,0.259956f,0.003071f,-0.056029f,0.156517f,-0.033139f,-0.020380f,-0.089960f,-0.280912f,-0.076122f,0.071563f,-0.043738f,-0.043430f,0.050277f,-0.231148f,0.093291f,-0.183227f,0.088121f,0.022980f,0.073137f,-0.055010f,-0.009419f,-0.092396f},
  {0.022615f,0.015227f,-0.261827f,0.013958f,0.027856f,-0.119771f,-0.012306f,-0.033543f,-0.189658f,-0.140546f,-0.040756f,0.140100f,0.029894f,-0.028453f,0.023405f,-0.050568f,0.166629f,0.005900f,0.183919f,-0.037620f,0.118145f,0.149814f,-0.040141f,-0.001836f,0.015048f,0.005082f,-0.012435f,-0.159318f,0.004804f,0.014299f,0.021397f,-0.230201f,-0.145882f,0.004068f,-0.033404f,-0.021456f,0.003761f,-0.062660f,0.018431f,-0.035535f,-0.040417f,0.013104f,0.173841f,0.146232f,-0.008049f,0.264204f,-0.008338f,-0.086025f,0.045309f,-0.085342f,-0.081472f,0.147761f,0.017397f,0.025619f,-0.192633f,-0.142339f,-0.049123f,-0.029090f,0.204235f,-0.016585f,-0.078586f,-0.067476f,0.019593f,0.056394f},
  {0.088115f,0.058630f,0.035867f,-0.008427f,-0.022479f,-0.038569f,0.004807f,-0.096394f,-0.163000f,-0.198423f,-0.003884f,-0.450583f,-0.054639f,-0.038612f,-0.019035f,0.073134f,0.302103f,-0.038204f,0.237213f,0.248463f,0.065841f,-0.156798f,0.219851f,-0.017272f,0.132801f,-0.007201f,0.006099f,-0.088195f,0.042405f,0.025118f,-0.153902f,-0.067265f,-0.101347f,-0.100448f,-0.005078f,0.034501f,0.108774f,-0.176702f,-0.029013f,-0.004447f,-0.012847f,0.026006f,-0.116879f,0.249673f,-0.069960f,0.034593f,0.006079f,-0.316073f,0.226729f,-0.039294f,0.220931f,-0.068696f,0.028529f,0.010732f,-0.148253f,0.162893f,-0.040901f,0.019643f,-0.071546f,0.034669f,-0.188106f,0.007057f,-0.040325f,-0.240147f},
  {-0.056564f,-0.020242f,0.195454f,-0.019101f,0.047587f,0.116651f,-0.025459f,0.091476f,-0.111231f,-0.121525f,-0.002875f,-0.306801f,-0.014030f,0.022913f,0.022590f,0.235314f,-0.194019f,-0.041223f,0.074841f,0.098652f,0.055401f,0.061436f,0.200556f,-0.016276f,-0.021491f,0.021530f,-0.041962f,0.080485f,-0.036343f,0.011745f,0.007836f,-0.104114f,-0.067455f,-0.104490f,0.026323f,0.016414f,-0.000940f,0.008177f,-0.008127f,0.013534f,-0.020786f,0.006871f,0.082623f,0.039192f,-0.035727f,0.005015f,0.001862f,-0.119125f,0.046854f,0.133971f,0.139575f,0.051797f,-0.055546f,-0.027058f,-0.064009f,0.071192f,-0.076403f,-0.070009f,-0.030116f,-0.003793f,0.002362f,-0.062785f,-0.002552f,0.020260f},
  {0.027995f,0.147796f,0.297200f,0.005706f,-0.055592f,-0.031384f,-0.010531f,0.077738f,-0.160539f,-0.153310f,-0.004481f,-0.246114f,-0.049904f,-0.025287f,-0.028338f,0.216887f,-0.047365f,0.014229f,0.088938f,0.005771f,0.027909f,0.021267f,0.146877f,0.003108f,0.271625f,-0.006308f,-0.007816f,-0.024322f,-0.045804f,-0.297812f,0.109188f,0.038860f,-0.062270f,0.211155f,0.011391f,-0.014456f,-0.075238f,-0.026896f,-0.001640f,-0.011313f,0.109429f,-0.000738f,-0.108430f,-0.129529f,-0.003019f,0.160146f,-0.000779f,-0.033515f,-0.097057f,0.033977f,-0.038051f,-0.052613f,-0.027568f,0.034692f,0.131076f,-0.048511f,-0.042555f,-0.193511f,-0.193545f,0.023195f,0.143021f,-0.022990f,0.000546f,0.118074f},
  {0.172870f,0.195285f,0.148054f,-0.022560f,-0.121010f,-0.213944f,-0.040001f,0.024674f,-0.344964f,-0.217615f,-0.018710f,-0.130499f,-0.045385f,0.012602f,0.011610f,0.051668f,-0.019934f,-0.028393f,0.154469f,0.038172f,-0.017304f,-0.049844f,0.154110f,-0.043532f,0.196663f,-0.004321f,-0.000391f,-0.042725f,-0.000574f,-0.049356f,0.018932f,-0.133976f,-0.103937f,0.046884f,0.029308f,-0.003692f,0.121705f,-0.091553f,-0.019050f,0.003626f,0.144674f,0.003669f,0.021092f,0.009634f,-0.021692f,0.204600f,-0.035799f,-0.106911f,-0.041827f,-0.207212f,-0.088071f,0.070443f,-0.016499f,-0.014371f,0.080941f,-0.134088f,-0.134096f,0.037007f,0.098918f,0.010620f,-0.064275f,-0.074565f,-0.032636f,0.027198f},
  {0.123265f,-0.007924f,0.134084f,-0.034695f,-0.084904f,-0.248446f,-0.022595f,0.009042f,-0.248113f,-0.025640f,-0.035932f,0.033302f,-0.005803f,0.025341f,0.005455f,0.126764f,-0.091343f,-0.049371f,0.031365f,0.147830f,0.098753f,0.083912f,0.061626f,-0.002222f,-0.085815f,-0.014116f,-0.015977f,-0.103901f,0.000564f,0.062039f,-0.096711f,-0.007980f,-0.110041f,-0.000983f,-0.008044f,0.012754f,0.266092f,0.022880f,-0.036479f,-0.012776f,0.026070f,-0.027823f,0.156632f,0.133558f,-0.109880f,-0.096482f,0.023484f,-0.238885f,0.048935f,-0.059317f,-0.090469f,0.115040f,0.012930f,0.006630f,-0.109942f,-0.208477f,-0.017574f,-0.046063f,0.161823f,-0.005961f,0.017269f,-0.046467f,0.009199f,-0.038025f},
  {-0.002389f,-0.125114f,-0.078588f,-0.009149f,-0.082740f,0.108076f,0.007294f,0.092853f,-0.158339f,-0.158453f,0.001130f,0.107328f,-0.040119f,-0.036150f,-0.041187f,-0.094212f,0.032176f,-0.048604f,-0.150947f,0.051684f,0.083406f,0.034111f,0.018028f,-0.042115f,0.035111f,0.009137f,-0.040509f,-0.025310f,-0.009380f,0.132493f,0.047891f,-0.030778f,-0.154042f,0.130341f,-0.008609f,0.012512f,0.004627f,-0.032630f,0.026083f,-0.033577f,-0.019225f,0.024404f,0.185492f,-0.080041f,-0.044077f,0.009977f,-0.005306f,-0.143865f,0.222353f,-0.032045f,-0.088093f,0.040004f,-0.002978f,-0.000504f,-0.305573f,-0.090928f,-0.095116f,-0.144026f,0.053141f,0.035725f,-0.141310f,-0.002581f,-0.008169f,0.102134f},
  {-0.159584f,-0.071152f,-0.033562f,-0.041642f,0.014281f,0.071653f,0.023037f,-0.000002f,0.077800f,-0.098922f,-0.024824f,0.050277f,-0.028661f,0.017158f,-0.043177f,-0.110340f,0.056063f,-0.013759f,-0.043575f,-0.116991f,-0.129899f,0.019134f,0.022160f,0.013709f,0.054274f,-0.037507f,0.023247f,0.034940f,-0.022304f,-0.041398f,-0.070560f,0.159658f,-0.197114f,-0.164676f,-0.026010f,0.009891f,-0.064185f,-0.216745f,-0.021265f,-0.029771f,-0.132883f,0.001725f,-0.098203f,-0.153722f,-0.006456f,0.014176f,0.010193f,0.148266f,-0.112492f,-0.063411f,-0.012419f,0.160828f,0.008070f,0.007637f,-0.096322f,-0.056703f,-0.170634f,-0.110916f,-0.010322f,-0.030173f,-0.015811f,0.056937f,0.005992f,0.195274f},
  {-0.156944f,0.183606f,-0.026696f,0.013344f,-0.084556f,0.025111f,0.008721f,0.168847f,-0.074662f,-0.254863f,-0.038878f,0.112898f,-0.035358f,0.002124f,0.022783f,0.058215f,0.325730f,-0.042031f,0.070391f,-0.071901f,-0.123030f,-0.013224f,0.157675f,-0.018834f,0.223146f,-0.024808f,-0.009532f,0.030411f,0.036283f,-0.330454f,-0.163996f,0.114541f,-0.067961f,-0.101291f,-0.029811f,-0.010000f,-0.077470f,-0.035763f,0.014902f,-0.014226f,-0.164810f,-0.012166f,-0.235223f,-0.041329f,0.049855f,0.174469f,0.010999f,0.072652f,-0.162198f,0.229222f,0.141576f,0.373015f,0.060046f,0.009762f,-0.159989f,-0.084568f,-0.120638f,-0.003201f,0.075560f,-0.013212f,-0.057283f,0.016200f,-0.030353f,0.124595f},
  {0.060901f,-0.239993f,-0.122373f,-0.007874f,0.094012f,0.062553f,0.015480f,-0.009604f,0.004267f,-0.220598f,0.026499f,0.149794f,-0.055085f,0.016444f,-0.005016f,0.107683f,0.116271f,-0.017516f,0.168466f,0.005482f,0.071945f,-0.144050f,0.098407f,-0.025797f,0.185461f,-0.020663f,0.017441f,-0.042725f,-0.017312f,-0.040975f,-0.026889f,-0.058107f,-0.021260f,0.050361f,0.004833f,-0.009685f,0.039970f,-0.048760f,0.015623f,0.004626f,0.054693f,0.011553f,0.076150f,-0.051085f,-0.015315f,0.025706f,0.022716f,0.065897f,0.011952f,-0.014166f,0.170801f,-0.086873f,-0.031812f,-0.015910f,-0.049379f,0.029568f,0.094981f,-0.013343f,0.055200f,-0.018280f,-0.130301f,-0.020849f,-0.008669f,0.001464f},
  {-0.207986f,-0.271068f,0.113355f,-0.002734f,-0.037840f,0.033293f,0.011597f,-0.287399f,0.024924f,0.002354f,0.001996f,-0.017226f,-0.086111f,-0.010321f,-0.027411f,0.076173f,-0.327077f,-0.031312f,-0.077657f,-0.033368f,0.073586f,0.029972f,0.056654f,-0.016665f,0.188780f,-0.027650f,0.008076f,0.069964f,-0.030637f,-0.287314f,-0.169505f,0.194936f,-0.085919f,0.179084f,0.027157f,0.028464f,-0.158549f,-0.026790f,0.020664f,-0.001585f,-0.005953f,-0.028116f,-0.090769f,-0.028975f,0.027524f,0.024461f,-0.024069f,0.206493f,-0.135383f,0.115903f,0.058119f,-0.265276f,0.010556f,-0.001155f,-0.210780f,0.122300f,0.151032f,-0.093368f,-0.135488f,-0.023855f,0.243737f,-0.001431f,0.021001f,0.150993f},
  {-0.164948f,-0.202090f,-0.019281f,0.026939f,-0.046310f,0.053052f,-0.029112f,0.028320f,0.068569f,0.036589f,-0.018885f,-0.086179f,-0.016091f,-0.014315f,0.006208f,0.040445f,-0.075939f,-0.007027f,-0.053776f,-0.005714f,0.030368f,0.005396f,0.084177f,0.023519f,-0.118259f,-0.031190f,-0.028662f,0.038061f,0.024975f,0.000835f,-0.142820f,0.203316f,-0.139165f,-0.050915f,-0.015523f,0.005935f,-0.095958f,0.100268f,-0.013737f,-0.010004f,-0.054652f,0.017390f,0.058234f,0.128829f,-0.004361f,-0.171884f,-0.034371f,0.098313f,0.048671f,0.019316f,0.087660f,0.077729f,-0.038850f,-0.042100f,-0.148678f,0.135053f,0.077254f,0.056397f,-0.046541f,-0.003961f,0.054150f,-0.039116f,-0.004045f,0.020191f},
  {0.057427f,0.015439f,0.064529f,-0.008851f,0.078563f,0.018028f,-0.032696f,-0.006450f,0.043642f,-0.033763f,-0.002756f,-0.024609f,-0.012833f,-0.039655f,-0.022269f,0.075539f,-0.060983f,-0.016122f,0.065592f,0.142277f,0.103504f,0.000868f,0.085475f,-0.012603f,-0.141005f,-0.021824f,-0.036429f,-0.076298f,0.008022f,0.071660f,-0.118227f,0.122056f,-0.043508f,-0.174479f,-0.033558f,0.024562f,0.149276f,0.059029f,-0.014415f,-0.023789f,-0.021501f,0.028881f,0.110160f,0.109066f,-0.021983f,-0.206808f,0.024823f,-0.030071f,0.048705f,-0.018123f,0.018988f,-0.162588f,-0.084697f,0.000750f,0.019576f,-0.000669f,0.030313f,-0.036271f,0.003645f,-0.018057f,-0.091622f,0.003132f,-0.043087f,-0.049306f},
  {0.011120f,0.032016f,0.144982f,-0.033973f,0.168895f,-0.047799f,-0.032486f,-0.097006f,0.068204f,0.264833f,0.006486f,0.020123f,0.007922f,-0.026810f,-0.039942f,-0.093320f,-0.048254f,0.025632f,-0.098539f,-0.012638f,-0.050398f,-0.010788f,0.008620f,-0.026319f,-0.034689f,0.014918f,-0.039679f,-0.133423f,0.020181f,0.111397f,-0.177185f,0.189911f,-0.256531f,-0.436349f,-0.021868f,0.018627f,0.268052f,-0.105594f,0.004541f,0.021153f,-0.052301f,0.021511f,-0.069392f,0.109525f,-0.054885f,-0.136544f,0.012420f,0.071421f,-0.007645f,-0.156543f,-0.081269f,-0.248527f,-0.041157f,0.001358f,0.150412f,0.026020f,-0.096490f,-0.157828f,0.075427f,0.025717f,0.101580f,-0.051793f,-0.018918f,-0.032032f},
  {0.045996f,0.111333f,-0.102546f,-0.028661f,-0.062424f,-0.031063f,-0.005766f,-0.237871f,0.056144f,0.151217f,0.011774f,-0.094925f,-0.042655f,-0.018868f,0.019495f,-0.094417f,0.011792f,-0.059021f,-0.076814f,-0.034295f,0.169701f,-0.062120f,0.007286f,-0.034695f,-0.245672f,-0.024892f,-0.003849f,0.031544f,-0.015747f,0.119061f,-0.032267f,0.104596f,-0.162399f,-0.134150f,0.023876f,0.024194f,0.134749f,-0.286007f,-0.024328f,0.015146f,-0.050911f,0.017974f,0.151209f,0.102946f,-0.016225f,-0.212298f,-0.010959f,0.023809f,0.086468f,-0.154587f,0.096006f,0.133112f,0.021526f,0.019037f,-0.104504f,0.009228f,-0.041646f,-0.023668f,0.097772f,-0.024634f,-0.046445f,-0.051101f,-0.040061f,-0.070834f},
  {-0.095680f,0.096338f,0.182002f,-0.004846f,0.036001f,-0.038357f,-0.000479f,0.144443f,0.102887f,-0.162015f,-0.032765f,-0.252736f,0.002102f,-0.020518f,0.004141f,0.376395f,0.029338f,-0.009296f,-0.068268f,0.217581f,-0.143421f,0.042834f,0.404680f,0.012270f,-0.001525f,-0.015225f,0.023783f,-0.060022f,-0.005243f,-0.033986f,-0.079442f,0.170396f,0.035565f,-0.171600f,-0.001519f,0.034858f,0.091008f,-0.020634f,-0.032039f,0.022497f,-0.011897f,-0.036657f,-0.111908f,0.121695f,-0.032224f,0.095076f,0.023458f,-0.201631f,0.143028f,0.198102f,0.291400f,-0.069235f,-0.027347f,0.007516f,-0.244319f,0.111844f,-0.174129f,-0.001517f,0.060108f,0.004844f,-0.155684f,-0.038090f,0.023524f,-0.016779f},
  {0.004898f,-0.036020f,-0.219451f,-0.008022f,-0.098655f,0.159504f,-0.027922f,-0.181346f,-0.011866f,-0.001740f,-0.010067f,0.156426f,-0.026234f,0.008757f,-0.006107f,-0.211526f,-0.048818f,-0.022681f,-0.464380f,-0.137170f,0.073289f,0.264415f,-0.020369f,-0.029933f,-0.288971f,-0.018235f,0.022703f,-0.097680f,-0.024556f,0.052085f,-0.089752f,0.027292f,0.002798f,-0.136731f,0.012005f,-0.005493f,-0.384722f,-0.155863f,0.010849f,-0.011647f,-0.118108f,0.003012f,0.357068f,-0.024960f,-0.043266f,-0.291520f,0.019534f,0.423955f,0.441361f,0.009974f,-0.273787f,-0.013910f,-0.001724f,0.010036f,-0.325418f,-0.098551f,-0.020567f,-0.028583f,-0.286682f,-0.008044f,0.000725f,0.026869f,0.007880f,0.024460f},
  {-0.167238f,-0.334161f,-0.347134f,0.006382f,-0.077610f,0.297301f,-0.012808f,-0.067960f,-0.004147f,0.028932f,0.002033f,0.110796f,0.004178f,0.007498f,0.007271f,-0.083097f,-0.083350f,0.008905f,-0.144944f,-0.185268f,0.049046f,0.079076f,-0.011852f,-0.040931f,-0.103472f,-0.059439f,0.021661f,0.058125f,-0.013857f,-0.034089f,-0.042546f,0.128137f,-0.089211f,-0.031406f,-0.024311f,0.007937f,-0.562792f,-0.087108f,-0.019807f,-0.027551f,-0.158877f,-0.020004f,0.155242f,0.040362f,0.005621f,-0.026578f,-0.019624f,0.382632f,0.084677f,0.088284f,0.182096f,-0.017589f,0.004235f,0.002148f,-0.155321f,0.144769f,0.066273f,-0.037231f,-0.123482f,0.013205f,0.032637f,-0.059868f,-0.007612f,0.054720f},
  {-0.194816f,-0.332032f,-0.329238f,0.018149f,-0.017791f,0.215286f,0.003457f,0.010314f,-0.184074f,0.150001f,0.010635f,0.006327f,0.019588f,-0.015077f,-0.013626f,-0.029948f,-0.259335f,-0.023053f,-0.121696f,-0.010984f,0.184124f,-0.075765f,-0.151313f,-0.008229f,-0.045749f,-0.001649f,-0.016151f,0.088500f,-0.029971f,-0.107487f,-0.042639f,0.053450f,-0.145434f,0.064829f,0.026030f,0.019214f,-0.196173f,0.060931f,-0.000194f,0.029086f,0.113310f,-0.002356f,0.172868f,0.231525f,-0.025721f,-0.148058f,0.005907f,0.202711f,0.031895f,0.223757f,0.043938f,-0.173247f,-0.013385f,0.011242f,-0.139534f,0.177781f,0.344402f,0.168412f,-0.113802f,0.034387f,0.216027f,-0.038389f,0.007481f,-0.046476f},
  {0.284108f,-0.097323f,0.088079f,0.022140f,-0.079263f,0.065303f,-0.032749f,0.079261f,-0.176512f,0.147210f,-0.008065f,0.032275f,-0.002234f,0.003307f,0.017709f,0.041871f,-0.193238f,-0.030479f,-0.150639f,0.050462f,-0.032664f,-0.014473f,-0.004399f,0.006136f,-0.139744f,0.007887f,0.025817f,-0.143667f,-0.031060f,0.205402f,0.157599f,0.366791f,0.042506f,-0.073441f,0.002236f,0.016322f,-0.164513f,-0.179973f,-0.027019f,-0.024934f,0.343283f,0.024227f,0.020432f,0.085941f,-0.018157f,-0.267469f,0.010186f,0.199511f,-0.012721f,0.160456f,-0.198554f,-0.365566f,-0.037210f,-0.052713f,0.298798f,0.325029f,-0.013206f,-0.042786f,-0.327802f,-0.012105f,0.014729f,-0.021686f,0.020639f,-0.263324f},
  {-0.052758f,0.210541f,0.157586f,-0.008033f,-0.025548f,-0.020225f,0.005568f,-0.044625f,-0.189968f,0.279361f,-0.003711f,-0.111676f,0.013823f,-0.024402f,0.007146f,-0.109524f,-0.198586f,0.030757f,-0.158315f,0.109582f,-0.152715f,0.045296f,-0.025777f,0.000503f,0.051042f,-0.008193f,-0.007603f,0.000951f,-0.044374f,-0.113824f,0.043308f,0.386531f,-0.009396f,-0.296715f,0.028232f,0.001192f,-0.074411f,-0.251900f,0.027661f,0.002734f,0.310325f,-0.014331f,-0.157689f,0.138342f,-0.006438f,-0.277732f,0.001217f,0.098325f,0.031577f,0.059570f,0.093113f,-0.208526f,0.033973f,-0.021210f,0.017873f,0.323811f,0.157485f,0.036901f,-0.187039f,-0.041236f,0.159446f,-0.064044f,-0.019316f,-0.297965f},
  {0.096734f,0.141721f,0.174060f,-0.005923f,-0.033125f,-0.087080f,0.016392f,-0.004745f,-0.041286f,0.187626f,0.012113f,-0.115830f,-0.006791f,-0.003530f,0.006330f,0.089901f,-0.158497f,0.005362f,-0.110950f,0.073218f,0.036908f,-0.074019f,0.050678f,-0.018673f,-0.174474f,0.024217f,-0.020078f,-0.112540f,0.023719f,-0.030764f,-0.107018f,0.012254f,0.142718f,-0.182018f,0.034209f,0.018061f,-0.024166f,0.017563f,-0.007576f,0.004381f,0.202134f,0.013543f,-0.135112f,0.080175f,0.027562f,-0.236278f,0.026870f,0.155513f,0.178146f,0.179659f,-0.058967f,-0.035770f,-0.023985f,-0.011064f,0.047948f,0.188892f,-0.096812f,-0.062946f,-0.084567f,0.020717f,0.052322f,-0.010321f,-0.033693f,-0.113340f},
  {-0.050442f,-0.006369f,0.024709f,-0.033990f,-0.003950f,0.079731f,-0.001445f,0.051320f,0.054314f,-0.052617f,-0.000284f,-0.005971f,-0.020457f,-0.031276f,-0.021223f,0.094343f,-0.107355f,-0.009102f,0.031693f,0.014549f,-0.026536f,0.050391f,-0.039219f,-0.010356f,0.048244f,-0.031098f,-0.009712f,0.067059f,0.020800f,-0.086420f,0.012092f,0.071411f,0.135158f,0.076292f,0.014873f,-0.001289f,-0.098642f,-0.027425f,-0.019733f,-0.029169f,-0.045188f,0.012917f,-0.044410f,-0.065182f,0.021114f,0.067718f,0.002771f,0.105474f,-0.080929f,0.068368f,0.067277f,-0.056951f,0.016209f,0.007229f,0.050384f,0.109226f,-0.018540f,0.122694f,-0.022505f,0.019345f,0.039584f,0.034654f,0.004888f,0.027806f},
  {0.075639f,0.001577f,-0.010197f,-0.035750f,0.023554f,-0.058935f,-0.036430f,-0.063369f,0.088046f,0.063736f,-0.019406f,0.017452f,-0.000574f,-0.030267f,-0.010980f,-0.031002f,-0.022289f,-0.049734f,-0.011011f,-0.023977f,0.066322f,-0.019923f,-0.023895f,-0.040579f,0.007798f,-0.020203f,0.003848f,-0.083731f,-0.042509f,0.082236f,0.037071f,-0.069777f,-0.023179f,0.020864f,-0.003267f,-0.017275f,0.017646f,0.062181f,-0.008063f,0.018567f,0.090442f,-0.022810f,-0.003962f,-0.005418f,-0.034975f,-0.088875f,-0.014115f,0.025573f,0.021906f,-0.053051f,-0.034146f,-0.042183f,-0.009653f,0.012007f,0.021353f,0.016299f,0.028241f,0.061986f,0.038150f,-0.013744f,-0.014484f,-0.022800f,0.020815f,-0.086040f},
  {0.175989f,-0.058374f,-0.031127f,-0.010267f,-0.036016f,-0.026432f,-0.022327f,-0.001323f,-0.053554f,0.085783f,-0.003164f,-0.021547f,-0.013309f,0.022722f,-0.042161f,0.006222f,0.066532f,-0.021286f,-0.048559f,0.040484f,0.063824f,-0.061045f,-0.018272f,-0.055584f,-0.061679f,-0.011160f,0.017976f,-0.130405f,-0.034920f,0.076305f,0.044070f,-0.072420f,-0.013476f,-0.024281f,-0.013279f,-0.027723f,0.161364f,-0.072823f,-0.001708f,0.023231f,0.128284f,-0.039164f,0.109713f,0.107392f,-0.059918f,-0.103326f,0.018552f,0.034402f,0.109110f,-0.006862f,-0.027587f,-0.116530f,-0.038405f,-0.010090f,-0.033721f,-0.055651f,-0.047334f,-0.103287f,0.065032f,0.015118f,-0.031126f,-0.062370f,0.001764f,-0.057630f},
  {0.053927f,-0.049741f,0.037516f,-0.001892f,-0.020839f,-0.000617f,0.006152f,-0.053702f,-0.018833f,0.100735f,0.018645f,0.040697f,-0.044550f,-0.041846f,-0.041622f,0.055821f,-0.016947f,-0.029171f,0.010060f,-0.025582f,0.048151f,0.030223f,-0.000453f,0.002604f,-0.079572f,0.008561f,0.005655f,-0.069271f,-0.038406f,-0.018288f,0.058441f,-0.038774f,0.058332f,-0.009895f,-0.001221f,0.029664f,0.033622f,-0.079751f,0.000895f,-0.023156f,0.006699f,0.015361f,0.152072f,-0.008447f,-0.007553f,-0.099849f,0.001432f,0.086583f,-0.074064f,-0.035919f,0.026656f,-0.110238f,0.021101f,-0.053530f,0.025373f,-0.006089f,0.002624f,0.023923f,0.055223f,0.028877f,0.061653f,-0.064882f,0.020220f,-0.016722f},
  {0.051957f,-0.000523f,0.014409f,-0.014277f,0.063336f,0.003867f,0.021692f,0.002999f,0.045889f,0.037430f,0.006968f,-0.021445f,-0.047073f,0.013404f,0.034578f,0.043681f,-0.067444f,-0.034746f,0.004951f,-0.046710f,0.039262f,-0.069906f,-0.077275f,-0.059577f,-0.024306f,-0.026339f,0.017750f,-0.040968f,-0.044148f,0.040110f,0.107127f,-0.102059f,0.043241f,0.016478f,0.009359f,0.001794f,0.002355f,-0.009084f,0.017350f,-0.008139f,0.035141f,0.027309f,0.004972f,-0.060681f,-0.041770f,0.015628f,0.024949f,0.040708f,-0.052906f,-0.046177f,-0.015655f,-0.122809f,-0.020284f,-0.022312f,0.112659f,0.032108f,0.003920f,0.023071f,0.001549f,-0.025228f,0.025226f,-0.032264f,0.003799f,-0.002014f},
  {0.043068f,0.074237f,0.012721f,-0.018340f,0.024867f,-0.024906f,-0.006615f,0.010434f,0.047670f,-0.002921f,-0.013815f,-0.013470f,-0.050947f,-0.043330f,0.015432f,0.004887f,-0.185224f,0.009117f,-0.023707f,0.072041f,0.061801f,-0.136646f,-0.047213f,-0.003864f,0.093217f,-0.043531f,0.000386f,-0.126787f,0.013573f,0.009340f,0.045145f,-0.077907f,0.034910f,-0.015889f,-0.011963f,0.007777f,0.019888f,0.034850f,0.014636f,0.011764f,0.024290f,-0.008869f,-0.085704f,-0.059745f,-0.062515f,0.106130f,0.006301f,0.008154f,0.020484f,-0.053005f,-0.044825f,-0.000184f,-0.066349f,-0.010316f,0.059224f,0.007518f,0.010091f,-0.072216f,-0.099374f,0.006431f,-0.029253f,-0.068013f,-0.019727f,0.086480f},
  {0.084942f,0.033245f,0.053574f,-0.013060f,0.057985f,0.127963f,0.019965f,0.030015f,0.008620f,-0.029527f,-0.009561f,-0.070769f,0.004685f,-0.039232f,-0.010454f,0.046848f,-0.179751f,0.022328f,0.033490f,-0.062173f,0.103030f,-0.068684f,-0.059464f,-0.029591f,0.153576f,-0.030510f,-0.000859f,-0.049186f,-0.012150f,-0.051069f,0.029112f,-0.059204f,0.029371f,-0.054765f,0.008202f,0.015094f,-0.084076f,0.011697f,0.012471f,-0.006884f,0.150072f,0.011749f,0.005002f,-0.051165f,-0.040896f,0.036406f,0.034573f,-0.001884f,0.022114f,0.018345f,-0.022029f,0.166534f,-0.060466f,-0.018125f,0.127065f,0.108480f,0.007838f,0.053165f,-0.085301f,-0.003930f,-0.028207f,-0.029097f,-0.031231f,0.043859f},
  {0.048882f,0.008851f,0.091877f,-0.006527f,0.026828f,0.015877f,-0.040199f,0.009359f,0.124754f,0.116124f,0.014762f,0.006593f,-0.015122f,-0.004964f,-0.019887f,0.157968f,-0.107656f,0.013186f,-0.092992f,-0.021880f,0.101061f,0.047421f,0.011831f,-0.032393f,-0.043869f,0.029148f,-0.007167f,-0.052298f,-0.020154f,-0.038124f,0.023957f,-0.070019f,-0.029059f,0.014309f,-0.000031f,-0.001450f,-0.082446f,0.028099f,0.010423f,-0.020482f,0.088280f,0.014419f,0.032276f,-0.019247f,-0.038862f,-0.022476f,-0.013586f,-0.065794f,0.058797f,0.019016f,-0.063494f,0.003128f,-0.010396f,0.003026f,0.097739f,0.014594f,-0.017482f,0.056411f,-0.043582f,0.024812f,-0.060207f,-0.031792f,-0.013618f,-0.005766f},
  {-0.048865f,-0.048358f,-0.009429f,-0.033310f,0.005325f,0.131069f,-0.039118f,0.002186f,0.035237f,0.055868f,-0.018741f,-0.023107f,0.008168f,-0.012659f,0.003016f,0.009633f,-0.141402f,-0.023223f,-0.047353f,0.020623f,0.074200f,0.160988f,-0.033429f,0.014361f,0.120439f,0.027362f,-0.029867f,0.083381f,0.003050f,0.027622f,0.106655f,0.063072f,-0.026629f,0.134069f,0.002332f,0.009301f,-0.051054f,0.079396f,0.016609f,0.022679f,0.044391f,0.002001f,0.000709f,-0.040187f,-0.084950f,0.002368f,0.010041f,-0.081362f,-0.032766f,0.042221f,-0.080958f,-0.057482f,0.012869f,-0.002307f,0.108322f,0.032314f,-0.026606f,0.060098f,-0.024476f,-0.030090f,0.109102f,-0.034361f,0.007134f,0.011024f},
  {0.026628f,-0.015417f,0.086401f,-0.050044f,-0.077749f,0.004632f,-0.041905f,0.020224f,-0.060917f,0.030629f,-0.016474f,0.054587f,-0.021133f,-0.037551f,0.017533f,-0.016469f,-0.134184f,-0.023695f,-0.009164f,-0.037084f,0.073493f,0.079837f,-0.004149f,-0.021417f,0.076383f,-0.029776f,-0.042608f,-0.011967f,-0.045158f,0.001253f,-0.031963f,-0.015501f,-0.108696f,0.039008f,-0.028505f,-0.038175f,0.045273f,-0.070218f,-0.005115f,-0.024628f,-0.053162f,0.001937f,0.001331f,0.039478f,-0.024832f,-0.021243f,-0.038424f,-0.058185f,-0.003217f,-0.014141f,-0.153874f,-0.090017f,-0.000196f,-0.041631f,0.115676f,-0.108907f,-0.041859f,-0.203974f,0.085740f,-0.036612f,0.091473f,-0.046097f,-0.011467f,0.047301f},
  {0.071543f,0.034325f,0.094546f,-0.012954f,-0.048217f,-0.093587f,-0.030832f,-0.064243f,0.112364f,0.033005f,0.003970f,0.132799f,-0.030420f,-0.042293f,-0.023329f,0.104662f,-0.171137f,-0.036664f,0.079257f,-0.103100f,-0.007263f,0.015486f,-0.004786f,-0.036304f,0.078038f,-0.051011f,-0.033762f,0.050534f,-0.045163f,-0.029419f,-0.090904f,-0.041088f,-0.147148f,-0.073268f,0.020358f,-0.013674f,0.063458f,0.018778f,-0.026116f,-0.021554f,-0.023494f,-0.040138f,0.011743f,-0.031808f,-0.010511f,0.089980f,0.006346f,-0.065395f,-0.096976f,-0.077919f,-0.103947f,0.107621f,-0.041317f,-0.012060f,0.081490f,-0.104806f,0.016196f,-0.020220f,0.162241f,-0.042233f,0.087878f,-0.029057f,-0.012339f,0.025887f},
  {0.027809f,0.046702f,-0.038361f,-0.044147f,0.016804f,-0.027835f,-0.035676f,-0.012669f,0.110458f,0.087998f,-0.020109f,-0.048995f,0.022967f,-0.024904f,-0.028851f,0.008369f,-0.231724f,-0.035595f,-0.015940f,-0.002613f,0.050067f,-0.069389f,0.009473f,-0.005043f,0.107294f,-0.005221f,-0.019031f,0.112290f,0.008003f,0.096459f,-0.055706f,0.036713f,-0.091560f,-0.052069f,-0.015444f,0.023837f,0.000533f,0.116066f,0.010832f,0.029645f,0.021549f,-0.035841f,0.019783f,0.025360f,-0.043898f,0.134657f,0.023456f,0.007909f,0.107036f,0.013427f,-0.195451f,0.110995f,-0.050461f,-0.010267f,0.071131f,-0.094108f,0.049135f,0.008341f,0.041846f,0.006942f,0.009991f,-0.007342f,-0.039950f,-0.034525f},
  {-0.032875f,-0.168565f,0.156533f,-0.003362f,-0.137955f,0.046681f,-0.034876f,0.088388f,-0.038030f,0.078121f,-0.001173f,0.052813f,-0.004127f,0.017058f,-0.000699f,0.029142f,-0.302541f,0.022979f,-0.185371f,-0.058672f,-0.002970f,0.170181f,0.050118f,-0.011079f,0.115439f,-0.001728f,-0.014815f,0.067689f,-0.005617f,-0.082602f,0.162646f,0.073456f,-0.056305f,0.147631f,0.022763f,0.025256f,-0.118045f,-0.018955f,0.027899f,0.025795f,0.087786f,-0.024223f,-0.030004f,-0.202384f,-0.086434f,0.077454f,-0.000464f,0.244457f,-0.095386f,0.026645f,-0.272686f,-0.034928f,-0.022212f,-0.043181f,0.244786f,-0.045993f,-0.003815f,-0.137073f,-0.152116f,-0.043491f,0.189742f,-0.049687f,-0.003546f,0.146818f},
  {-0.237225f,-0.118061f,0.348933f,-0.036450f,-0.122962f,0.078715f,0.006920f,0.197448f,0.006529f,0.036337f,-0.028463f,-0.156870f,0.024102f,0.007264f,0.003449f,0.157159f,0.044535f,-0.024239f,-0.303287f,0.118562f,-0.203421f,0.201442f,0.359256f,-0.057079f,0.216389f,-0.013569f,-0.025535f,0.066156f,0.013837f,-0.134551f,0.035988f,0.255844f,0.038226f,0.111470f,0.014147f,-0.001908f,-0.074490f,-0.033179f,-0.000278f,-0.016199f,-0.127207f,0.006798f,-0.330330f,-0.299707f,-0.029217f,-0.011459f,-0.037672f,0.012145f,-0.147030f,0.139784f,0.098648f,-0.050098f,-0.007551f,-0.005764f,-0.078501f,0.104165f,-0.072719f,-0.069837f,-0.262956f,0.023540f,0.200043f,-0.082095f,-0.024461f,0.151891f},
  {-0.059548f,-0.032708f,0.077327f,0.025707f,-0.011349f,-0.020557f,0.011514f,0.151143f,0.055721f,-0.012259f,0.022612f,-0.096687f,-0.032696f,-0.019401f,-0.024880f,0.097313f,0.115026f,-0.012249f,0.031644f,0.088389f,0.033436f,0.159576f,0.226084f,-0.033244f,0.071289f,-0.008635f,-0.036584f,0.024216f,-0.039270f,-0.068852f,-0.023112f,0.075498f,-0.040075f,-0.050305f,0.014243f,-0.035024f,-0.149154f,-0.182396f,-0.019757f,-0.008427f,0.003806f,0.025137f,-0.048510f,-0.098804f,-0.024950f,0.076307f,0.000381f,-0.041875f,-0.030066f,-0.036501f,0.057990f,0.089226f,-0.008305f,-0.045066f,0.041254f,0.042634f,-0.067297f,0.036572f,-0.080471f,0.018331f,0.081829f,-0.067006f,-0.018035f,0.098107f},
  {0.144127f,0.021656f,-0.129363f,-0.020592f,-0.096954f,0.039594f,-0.009335f,-0.020948f,0.095195f,-0.073474f,0.029411f,0.039604f,-0.026149f,-0.031492f,0.025075f,0.083818f,0.113111f,-0.047588f,0.072721f,0.050356f,-0.002969f,0.131798f,0.040472f,0.016844f,-0.027614f,0.023610f,0.014936f,0.057536f,-0.012597f,0.012990f,0.150554f,0.044704f,-0.098137f,-0.032157f,-0.011498f,0.003513f,-0.018966f,-0.040069f,0.009077f,-0.037785f,0.013958f,-0.036017f,0.102534f,-0.007650f,-0.046654f,0.060593f,-0.013068f,-0.037972f,0.052122f,-0.025653f,-0.148024f,0.043758f,-0.058086f,-0.013741f,-0.050734f,-0.050997f,-0.006075f,0.052347f,-0.015865f,-0.025728f,-0.062054f,-0.026595f,-0.026129f,0.095851f},
  {0.097137f,0.033825f,-0.211095f,-0.031807f,-0.057992f,-0.046445f,-0.010065f,-0.070526f,-0.106886f,0.022213f,-0.012870f,0.092616f,-0.017257f,-0.011828f,0.003114f,0.052507f,0.025241f,-0.012338f,0.024095f,0.046519f,0.057270f,0.051602f,0.010735f,0.003494f,-0.068990f,-0.014220f,0.003831f,0.057554f,-0.009498f,0.099384f,-0.005755f,0.011473f,-0.004834f,0.000366f,-0.009582f,0.018907f,0.113449f,0.061547f,0.003710f,-0.033370f,-0.051424f,0.020509f,0.152399f,0.117512f,-0.027161f,-0.021423f,0.001420f,-0.112467f,-0.029604f,-0.061194f,-0.055338f,0.074687f,-0.070236f,-0.023903f,-0.144895f,-0.093241f,-0.009182f,-0.039935f,0.062311f,0.025451f,-0.164228f,-0.020477f,0.008586f,-0.035996f},
  {-0.013667f,-0.070130f,-0.243168f,0.027125f,0.030367f,0.120664f,-0.025941f,-0.025864f,-0.004664f,0.002557f,-0.026539f,0.030273f,0.009525f,-0.022038f,0.007363f,-0.232302f,0.090882f,0.011133f,0.046048f,0.070018f,-0.109007f,-0.079811f,-0.057863f,0.008476f,-0.118125f,-0.015579f,-0.032372f,0.215172f,0.006733f,0.150908f,-0.115789f,0.042142f,-0.038694f,-0.076389f,0.004688f,0.005650f,-0.022185f,0.135149f,-0.023197f,0.002547f,-0.084344f,0.031036f,0.061498f,0.059277f,-0.021277f,0.059039f,-0.008883f,0.011989f,-0.052515f,0.014274f,0.210557f,0.198678f,-0.012552f,0.016821f,-0.160476f,0.189256f,-0.016080f,-0.030210f,0.045772f,0.000774f,-0.154277f,-0.024385f,-0.034820f,0.070990f},
  {-0.279887f,0.051349f,-0.125388f,-0.005536f,0.035371f,0.016186f,-0.007480f,0.347432f,-0.008791f,0.068777f,-0.010739f,-0.036587f,-0.048497f,0.018552f,-0.017805f,-0.282133f,0.179107f,0.048579f,-0.117277f,0.223134f,-0.400074f,0.034298f,0.026150f,-0.029258f,0.031071f,-0.005577f,0.005310f,0.161769f,-0.038662f,0.058668f,0.247454f,0.134165f,0.113745f,0.085460f,0.013899f,0.010589f,-0.027777f,-0.095968f,-0.041140f,-0.002321f,-0.138756f,0.017000f,-0.263820f,-0.060606f,-0.004425f,-0.124090f,-0.028221f,0.015383f,0.174608f,0.140619f,0.139284f,-0.012393f,-0.046605f,-0.024630f,-0.370266f,0.196797f,0.030259f,0.010521f,-0.107895f,-0.014486f,-0.079756f,-0.067066f,0.007452f,0.155077f},
  {-0.121942f,0.159712f,-0.102481f,0.011257f,-0.027999f,-0.365346f,0.008090f,0.076300f,0.242205f,0.230602f,0.005879f,0.190143f,0.026689f,-0.028382f,-0.022227f,-0.130396f,0.124263f,0.030035f,-0.024506f,-0.272221f,-0.111347f,-0.152027f,-0.063581f,-0.039249f,-0.111592f,-0.021780f,-0.006195f,-0.197057f,0.003645f,-0.028339f,0.119840f,-0.078390f,0.131185f,-0.215824f,-0.006276f,0.010568f,-0.149520f,0.128004f,-0.013164f,-0.024628f,0.238860f,0.029796f,-0.383510f,-0.004809f,-0.051675f,0.138075f,-0.028280f,0.154623f,0.026164f,0.112243f,-0.072098f,0.201829f,-0.015024f,0.018025f,0.136811f,0.205509f,0.007835f,0.149192f,-0.061827f,-0.019353f,0.008774f,-0.026394f,0.014760f,-0.333505f},
  {-0.142414f,0.206430f,0.107166f,-0.008577f,0.016680f,0.073540f,0.002987f,0.335204f,-0.195074f,0.088342f,-0.032110f,-0.099757f,-0.005534f,0.018433f,-0.006328f,0.031261f,0.119810f,0.023723f,-0.326543f,-0.148571f,-0.006109f,-0.046803f,0.113632f,-0.034872f,0.081503f,-0.016338f,-0.038286f,-0.171095f,-0.024958f,-0.041116f,0.173070f,0.002352f,-0.132762f,0.085667f,-0.014557f,-0.027842f,-0.248413f,-0.086551f,-0.019863f,-0.009786f,0.162636f,-0.020759f,-0.368411f,-0.182094f,-0.022156f,0.108250f,-0.018520f,0.221940f,0.081621f,0.248231f,-0.046881f,-0.039498f,-0.046902f,-0.006507f,0.088544f,0.148996f,-0.080744f,0.034790f,-0.326182f,-0.011135f,0.117629f,-0.038560f,-0.020439f,0.019578f},
  {-0.024259f,0.007478f,-0.042833f,-0.000923f,-0.004440f,-0.236404f,-0.020705f,0.094925f,0.149680f,0.077292f,-0.036349f,0.099985f,0.022187f,0.006608f,-0.000346f,-0.019817f,0.052985f,0.002945f,0.075397f,-0.304206f,0.054296f,-0.047236f,0.138328f,-0.032314f,-0.037908f,0.020628f,-0.007127f,0.047701f,0.025576f,-0.062081f,-0.011428f,-0.035487f,-0.049927f,-0.151614f,-0.026848f,-0.038930f,-0.120827f,0.096364f,0.013599f,-0.035588f,0.011845f,-0.034846f,-0.108294f,-0.066089f,-0.021069f,0.037202f,-0.040984f,0.055945f,0.048201f,0.156579f,0.096983f,0.252220f,-0.045481f,-0.002026f,0.128022f,-0.017900f,0.052432f,0.035273f,0.060982f,0.019597f,-0.109680f,-0.059421f,-0.033836f,0.067144f},
