#ifndef MNIST_WEIGHTS_H
#define MNIST_WEIGHTS_H

const float conv1_weights[8][1][3][3] PROGMEM = {
  {
    {
      {0.243811f,0.194087f,0.456239f},
      {0.078474f,0.317845f,0.287168f},
      {-0.105219f,0.338922f,0.195428f}
    }
  },
  {
    {
      {-0.698385f,-0.255699f,0.097874f},
      {-0.080106f,-0.005725f,0.033641f},
      {0.666578f,0.251294f,-0.122555f}
    }
  },
  {
    {
      {0.054134f,0.522510f,-0.018175f},
      {0.307801f,0.385637f,0.617817f},
      {0.350993f,-0.265681f,0.380090f}
    }
  },
  {
    {
      {-0.522522f,-0.266796f,0.677005f},
      {-0.413532f,-0.674977f,-0.245094f},
      {-0.044537f,-0.121633f,-0.470728f}
    }
  },
  {
    {
      {-0.390352f,-0.808551f,-0.005042f},
      {-0.199456f,0.455222f,0.404488f},
      {0.535522f,0.327115f,0.021907f}
    }
  },
  {
    {
      {0.454884f,0.285941f,0.504836f},
      {0.069915f,0.227171f,0.481440f},
      {-0.626864f,-0.733457f,-0.601203f}
    }
  },
  {
    {
      {0.403637f,-0.479607f,-0.345516f},
      {-0.392527f,-0.559728f,0.072280f},
      {-0.559359f,-0.286291f,0.614731f}
    }
  },
  {
    {
      {-0.021558f,-0.145851f,0.486014f},
      {-0.010749f,0.125030f,0.365217f},
      {-0.538766f,-0.282903f,0.624855f}
    }
  }
};
const float conv1_bias[8] PROGMEM = {0.084072f,0.080447f,0.480326f,0.226314f,-0.009858f,0.007517f,0.244979f,0.160972f};
const float conv2_weights[16][8][3][3] PROGMEM = {
  {
    {
      {-0.240864f,0.265542f,-0.036314f},
      {-0.206317f,0.151259f,0.010055f},
      {-0.012622f,0.082248f,0.102623f}
    },
    {
      {-0.220710f,0.044808f,-0.163457f},
      {-0.085029f,0.016873f,-0.136239f},
      {-0.001629f,-0.027943f,-0.118835f}
    },
    {
      {-0.251156f,0.277727f,0.166953f},
      {-0.386579f,0.088535f,-0.007499f},
      {-0.140816f,0.141645f,0.001765f}
    },
    {
      {0.041047f,-0.209996f,0.139228f},
      {0.070930f,0.076997f,-0.099581f},
      {-0.199973f,-0.168540f,0.269474f}
    },
    {
      {-0.316160f,-0.048662f,-0.388576f},
      {-0.102014f,0.131024f,-0.370553f},
      {0.077589f,0.078671f,-0.129850f}
    },
    {
      {0.160760f,-0.034707f,-0.420695f},
      {-0.274269f,-0.091951f,-0.311486f},
      {0.000962f,-0.071341f,-0.225359f}
    },
    {
      {0.011290f,0.052191f,-0.219596f},
      {-0.028950f,-0.009371f,-0.096534f},
      {0.141536f,0.142672f,-0.022281f}
    },
    {
      {0.135304f,0.448270f,-0.086382f},
      {0.130283f,0.402183f,-0.139718f},
      {0.058481f,0.295355f,-0.223206f}
    }
  },
  {
    {
      {0.001718f,0.247219f,0.279572f},
      {-0.184880f,-0.066317f,-0.367770f},
      {-0.290283f,-0.201582f,0.039509f}
    },
    {
      {-0.266264f,0.054376f,0.192108f},
      {-0.399508f,-0.509839f,-0.197075f},
      {-0.200376f,0.120565f,0.067394f}
    },
    {
      {-0.009619f,0.107195f,0.085782f},
      {-0.199475f,-0.350923f,-0.389316f},
      {-0.361450f,-0.094128f,0.155864f}
    },
    {
      {0.049982f,0.022822f,-0.162933f},
      {0.102632f,0.078915f,-0.009142f},
      {0.074814f,-0.154323f,-0.117591f}
    },
    {
      {-0.440598f,0.347745f,0.196376f},
      {-0.321258f,-0.509826f,0.011353f},
      {-0.100199f,0.285511f,0.297008f}
    },
    {
      {0.034924f,0.219277f,0.181305f},
      {0.004446f,0.196615f,0.049279f},
      {-0.212942f,-0.138155f,0.026459f}
    },
    {
      {-0.044292f,-0.030000f,0.097407f},
      {-0.118649f,-0.152426f,0.088590f},
      {0.023882f,0.113417f,-0.041671f}
    },
    {
      {0.183475f,0.169184f,-0.020715f},
      {0.042057f,-0.234563f,-0.307411f},
      {-0.004415f,-0.035919f,0.139260f}
    }
  },
  {
    {
      {-0.083558f,0.048625f,0.079515f},
      {-0.324867f,-0.289438f,-0.249531f},
      {0.011296f,0.144775f,0.075507f}
    },
    {
      {0.018939f,-0.206613f,-0.208626f},
      {0.091360f,0.334030f,-0.032963f},
      {0.118172f,-0.093307f,0.010902f}
    },
    {
      {-0.100504f,0.102486f,-0.090529f},
      {-0.069699f,-0.184990f,-0.289349f},
      {0.166007f,0.195637f,0.111293f}
    },
    {
      {0.055065f,-0.024090f,0.070331f},
      {0.119851f,0.008413f,-0.002077f},
      {-0.050873f,-0.135872f,0.144069f}
    },
    {
      {-0.187516f,-0.136954f,-0.243565f},
      {0.114624f,0.098403f,0.076372f},
      {-0.054763f,-0.021461f,0.110115f}
    },
    {
      {0.568669f,0.463638f,0.355617f},
      {-0.271293f,0.112994f,-0.151660f},
      {-0.175402f,0.106137f,-0.041168f}
    },
    {
      {-0.381574f,0.017588f,0.029035f},
      {0.000006f,-0.015883f,-0.159512f},
      {-0.022487f,0.071653f,-0.276045f}
    },
    {
      {0.007320f,-0.003590f,-0.140407f},
      {-0.207880f,-0.313673f,-0.128327f},
      {-0.002695f,0.252118f,0.129680f}
    }
  },
  {
    {
      {-0.754676f,-0.118736f,0.112968f},
      {-0.083722f,-0.200106f,-0.371444f},
      {0.296124f,0.070725f,0.001578f}
    },
    {
      {0.423535f,0.079272f,-0.502344f},
      {0.415048f,-0.071240f,0.034269f},
      {-0.011733f,-0.051433f,0.257878f}
    },
    {
      {-0.821248f,-0.152378f,0.046688f},
      {0.198666f,-0.175059f,-0.235783f},
      {0.171221f,0.086776f,0.190436f}
    },
    {
      {0.184482f,0.280318f,-0.013935f},
      {-0.157319f,-0.014247f,0.183416f},
      {-0.082398f,0.025806f,0.051662f}
    },
    {
      {0.118089f,-0.500077f,-0.216346f},
      {0.324631f,-0.070075f,-0.243537f},
      {-0.137804f,-0.026155f,0.196515f}
    },
    {
      {0.028516f,0.302076f,0.337187f},
      {-0.017135f,-0.810115f,-0.171369f},
      {0.212858f,-0.087070f,-0.144144f}
    },
    {
      {0.075345f,-0.159734f,0.004835f},
      {-0.019094f,-0.137966f,-0.303339f},
      {-0.021151f,-0.061638f,-0.234215f}
    },
    {
      {-0.486934f,-0.181472f,0.162051f},
      {0.115340f,-0.217008f,-0.309315f},
      {0.229483f,0.183617f,0.035226f}
    }
  },
  {
    {
      {-0.071068f,-0.290114f,-0.123691f},
      {-0.341526f,0.025925f,0.229666f},
      {-0.159379f,0.154617f,0.007396f}
    },
    {
      {-0.225690f,-0.159700f,0.087684f},
      {-0.225083f,0.011964f,0.311702f},
      {0.181787f,0.032906f,-0.071091f}
    },
    {
      {-0.257810f,-0.282083f,-0.107138f},
      {-0.172622f,-0.045317f,0.061698f},
      {0.132238f,-0.026269f,0.031770f}
    },
    {
      {0.058873f,0.075490f,-0.127324f},
      {-0.043230f,-0.056303f,-0.088623f},
      {-0.082644f,0.236176f,-0.014582f}
    },
    {
      {-0.070223f,-0.411676f,0.331605f},
      {0.005187f,0.165168f,0.496327f},
      {0.044817f,0.028988f,-0.119060f}
    },
    {
      {0.183028f,0.139325f,-0.034308f},
      {-0.020760f,-0.140653f,0.303666f},
      {-0.391327f,-0.156876f,0.148118f}
    },
    {
      {0.039379f,-0.056567f,0.188495f},
      {0.000722f,-0.024588f,-0.171083f},
      {-0.026945f,-0.072041f,-0.099738f}
    },
    {
      {-0.008919f,-0.175793f,-0.188014f},
      {-0.188003f,-0.027068f,-0.034109f},
      {0.015078f,-0.090948f,-0.275631f}
    }
  },
  {
    {
      {-0.031847f,0.180174f,-0.242416f},
      {0.120095f,0.086498f,-0.161696f},
      {-0.120782f,-0.068437f,0.099352f}
    },
    {
      {0.156190f,-0.041352f,-0.165623f},
      {-0.010511f,-0.130427f,0.113368f},
      {-0.142069f,-0.101367f,-0.018860f}
    },
    {
      {-0.140852f,0.225960f,-0.023906f},
      {0.034091f,0.123225f,-0.214568f},
      {-0.108412f,0.172394f,0.114924f}
    },
    {
      {0.037389f,-0.132539f,-0.189337f},
      {0.239406f,-0.001697f,-0.088641f},
      {0.330719f,0.161798f,-0.137403f}
    },
    {
      {-0.068714f,-0.026269f,-0.132232f},
      {0.026953f,-0.135077f,0.133497f},
      {-0.012433f,-0.173750f,0.053933f}
    },
    {
      {-0.210194f,-0.286677f,0.155914f},
      {-0.090311f,0.100159f,-0.376411f},
      {0.085619f,0.077765f,0.233560f}
    },
    {
      {0.062080f,0.087864f,-0.138686f},
      {-0.028977f,-0.368452f,-0.155241f},
      {-0.216518f,-0.358190f,-0.211002f}
    },
    {
      {0.174874f,0.085889f,-0.379803f},
      {0.110924f,0.195804f,-0.337153f},
      {-0.061650f,-0.049206f,-0.124916f}
    }
  },
  {
    {
      {0.128387f,0.006496f,-0.077075f},
      {-0.102657f,0.082815f,0.029250f},
      {-0.090589f,-0.071956f,0.245009f}
    },
    {
      {-0.025185f,-0.212444f,0.158617f},
      {-0.085735f,-0.271291f,-0.212888f},
      {-0.043156f,0.239092f,-0.007281f}
    },
    {
      {0.127386f,0.025251f,0.041035f},
      {-0.094310f,0.106441f,0.156849f},
      {-0.249366f,-0.188766f,0.280882f}
    },
    {
      {0.152309f,-0.042746f,-0.045673f},
      {0.114074f,0.205558f,0.181705f},
      {0.093760f,0.149941f,0.097516f}
    },
    {
      {-0.056970f,-0.079864f,-0.078064f},
      {-0.291399f,-0.560955f,-0.160953f},
      {0.078273f,0.010593f,-0.267558f}
    },
    {
      {0.171670f,0.125249f,-0.171933f},
      {0.032269f,0.192701f,0.007091f},
      {-0.255197f,-0.059759f,0.207659f}
    },
    {
      {-0.266508f,-0.524640f,-0.397381f},
      {-0.083325f,-0.507792f,-0.367156f},
      {0.096576f,-0.123420f,-0.241635f}
    },
    {
      {0.155649f,0.090460f,-0.108214f},
      {-0.121498f,0.173287f,0.228461f},
      {-0.066140f,-0.105815f,0.169657f}
    }
  },
  {
    {
      {0.161966f,0.158775f,-0.075411f},
      {0.077997f,-0.044327f,0.099831f},
      {-0.027831f,-0.007054f,0.072263f}
    },
    {
      {-0.103151f,-0.013755f,-0.111718f},
      {-0.201395f,-0.359548f,0.021005f},
      {-0.229805f,0.138807f,-0.177477f}
    },
    {
      {0.150239f,-0.023969f,-0.149240f},
      {0.059326f,0.169345f,0.068751f},
      {-0.038686f,-0.018129f,-0.018349f}
    },
    {
      {-0.253607f,-0.224500f,-0.169669f},
      {0.211059f,-0.010646f,-0.371969f},
      {0.117700f,0.036812f,0.110305f}
    },
    {
      {-0.102001f,0.014983f,-0.061261f},
      {-0.319186f,-0.350177f,0.212570f},
      {-0.451407f,-0.522114f,-0.129726f}
    },
    {
      {-0.331956f,-0.625781f,-0.334718f},
      {-0.134311f,-0.019178f,-0.067432f},
      {0.047823f,0.263227f,0.294709f}
    },
    {
      {0.099278f,-0.090508f,0.120508f},
      {-0.106587f,-0.259432f,-0.033706f},
      {-0.198448f,-0.181224f,-0.009963f}
    },
    {
      {0.093528f,0.130662f,-0.050095f},
      {-0.119240f,0.127440f,0.060003f},
      {-0.077476f,-0.210369f,-0.058602f}
    }
  },
  {
    {
      {-0.002693f,0.191605f,0.110798f},
      {0.157451f,0.108066f,-0.022658f},
      {0.212668f,0.251442f,-0.257854f}
    },
    {
      {0.129936f,-0.222687f,-0.125541f},
      {-0.152796f,-0.504515f,-0.390477f},
      {-0.320457f,-0.581820f,-0.068885f}
    },
    {
      {0.108429f,0.176490f,0.071104f},
      {0.122745f,0.071840f,-0.138861f},
      {0.068141f,0.132007f,-0.051809f}
    },
    {
      {-0.018115f,-0.262832f,-0.100134f},
      {0.068984f,-0.169776f,-0.035651f},
      {0.181419f,-0.106806f,-0.003074f}
    },
    {
      {0.060387f,-0.089802f,0.050976f},
      {-0.155298f,-0.179981f,-0.586188f},
      {-0.386743f,-0.410794f,-0.341443f}
    },
    {
      {-0.343233f,-0.201758f,0.138504f},
      {-0.271756f,-0.263641f,0.163746f},
      {-0.172560f,-0.128398f,-0.162956f}
    },
    {
      {-0.002018f,-0.057672f,-0.266909f},
      {0.213107f,-0.186505f,-0.076239f},
      {0.102491f,-0.231417f,-0.067077f}
    },
    {
      {0.150416f,-0.095166f,0.042750f},
      {0.118067f,-0.079210f,-0.129945f},
      {0.068083f,0.242548f,-0.073596f}
    }
  },
  {
    {
      {-0.019742f,0.042662f,-0.332722f},
      {0.081157f,0.127102f,-0.056824f},
      {-0.049342f,-0.058875f,0.002250f}
    },
    {
      {0.101481f,0.349590f,0.089393f},
      {-0.073722f,0.032546f,0.338779f},
      {0.299911f,0.053958f,-0.007344f}
    },
    {
      {0.116280f,-0.128494f,-0.371062f},
      {-0.090345f,0.168877f,0.042280f},
      {-0.178306f,0.027188f,0.053732f}
    },
    {
      {-0.079376f,-0.159306f,0.269000f},
      {0.125556f,-0.216118f,-0.179836f},
      {-0.051405f,0.147347f,0.372121f}
    },
    {
      {-0.053888f,-0.068135f,-0.201006f},
      {-0.275286f,0.057177f,0.226649f},
      {0.248475f,-0.120249f,-0.341904f}
    },
    {
      {0.033102f,-0.480941f,-0.211664f},
      {0.217112f,0.252663f,-0.150783f},
      {-0.151952f,0.099214f,0.190096f}
    },
    {
      {-0.122389f,-0.165890f,-0.083264f},
      {-0.003638f,-0.265866f,-0.120105f},
      {-0.033417f,-0.183911f,-0.142594f}
    },
    {
      {0.215112f,0.045729f,-0.017818f},
      {0.131112f,0.259006f,0.217775f},
      {-0.044115f,0.140686f,0.165777f}
    }
  },
  {
    {
      {-0.160286f,-0.032909f,0.069689f},
      {0.090621f,0.010720f,0.043192f},
      {0.008890f,-0.175519f,-0.117341f}
    },
    {
      {0.188639f,0.347686f,0.194883f},
      {0.060845f,-0.064611f,-0.181972f},
      {-0.318232f,-0.244628f,-0.053802f}
    },
    {
      {-0.066210f,-0.064401f,0.158971f},
      {0.114842f,0.050272f,-0.099608f},
      {-0.129583f,-0.208344f,-0.187625f}
    },
    {
      {-0.153930f,-0.289566f,-0.268833f},
      {-0.121642f,-0.065675f,-0.033172f},
      {0.072807f,-0.088714f,-0.181151f}
    },
    {
      {0.012458f,0.458392f,0.429731f},
      {0.032845f,0.027729f,-0.081758f},
      {-0.226066f,-0.147405f,0.095832f}
    },
    {
      {0.022998f,-0.105941f,-0.063394f},
      {0.292191f,0.365330f,0.256257f},
      {0.064752f,0.177594f,-0.154952f}
    },
    {
      {-0.162689f,0.164992f,-0.073541f},
      {-0.138997f,0.079966f,0.108495f},
      {-0.221958f,-0.097898f,0.233834f}
    },
    {
      {-0.175379f,-0.014796f,0.105626f},
      {0.004054f,-0.086810f,0.009495f},
      {-0.048244f,-0.232917f,-0.165199f}
    }
  },
  {
    {
      {0.000431f,0.027940f,-0.210412f},
      {0.008167f,0.070685f,0.086945f},
      {-0.067322f,0.093512f,0.128247f}
    },
    {
      {0.272518f,0.008525f,-0.040744f},
      {0.263532f,0.078270f,0.081227f},
      {0.006549f,-0.036018f,-0.168452f}
    },
    {
      {-0.166878f,-0.141932f,-0.175337f},
      {0.149577f,0.150384f,-0.008215f},
      {0.050461f,-0.162239f,0.114745f}
    },
    {
      {-0.063349f,-0.080642f,-0.100656f},
      {-0.291453f,-0.181605f,-0.230822f},
      {-0.191850f,-0.085522f,-0.007201f}
    },
    {
      {0.054764f,0.047560f,-0.172334f},
      {0.138028f,0.071525f,0.184959f},
      {-0.041533f,-0.068081f,-0.144725f}
    },
    {
      {-0.219964f,-0.067403f,-0.081791f},
      {0.169385f,0.285863f,-0.173456f},
      {0.004294f,0.108342f,0.042568f}
    },
    {
      {-0.026942f,-0.227911f,-0.081361f},
      {-0.034033f,-0.446351f,-0.265863f},
      {0.156482f,0.009507f,-0.169006f}
    },
    {
      {-0.080775f,-0.051718f,0.006109f},
      {-0.035973f,0.071031f,0.245553f},
      {-0.069275f,0.035282f,-0.057819f}
    }
  },
  {
    {
      {0.175809f,0.169437f,-0.099665f},
      {0.042489f,0.016960f,0.002100f},
      {-0.057726f,-0.269183f,-0.156760f}
    },
    {
      {0.064583f,-0.150836f,-0.417442f},
      {0.154593f,-0.629481f,-0.484183f},
      {-0.321074f,-0.066970f,0.084246f}
    },
    {
      {0.193120f,0.224665f,-0.141797f},
      {0.197370f,0.002230f,-0.134976f},
      {-0.025757f,-0.262361f,-0.077071f}
    },
    {
      {-0.112047f,-0.449632f,0.136537f},
      {-0.049294f,-0.167702f,-0.177186f},
      {0.069485f,-0.096902f,-0.104358f}
    },
    {
      {0.140531f,-0.138022f,-0.202855f},
      {0.187096f,-0.489520f,-0.155587f},
      {-0.323789f,0.032056f,-0.060111f}
    },
    {
      {-0.081202f,0.204685f,0.051166f},
      {0.136652f,0.167256f,-0.133360f},
      {0.171400f,0.082689f,0.001051f}
    },
    {
      {0.104642f,0.045224f,0.167625f},
      {-0.058690f,0.221629f,0.080290f},
      {-0.034638f,0.096988f,-0.085753f}
    },
    {
      {0.064884f,0.055448f,0.016233f},
      {0.115318f,-0.058009f,-0.205063f},
      {-0.177147f,-0.217512f,-0.136139f}
    }
  },
  {
    {
      {0.046257f,-0.086224f,-0.000334f},
      {0.018770f,-0.110161f,-0.044807f},
      {-0.094621f,0.075541f,0.053982f}
    },
    {
      {0.063799f,-0.196113f,-0.032060f},
      {0.037429f,0.177420f,0.166585f},
      {0.215121f,0.057903f,0.206480f}
    },
    {
      {0.032534f,-0.108892f,-0.105936f},
      {0.040476f,-0.117001f,0.043110f},
      {0.121103f,0.108755f,-0.068660f}
    },
    {
      {-0.202016f,-0.266059f,-0.022879f},
      {-0.075466f,-0.057761f,-0.281795f},
      {-0.053669f,-0.232304f,-0.088985f}
    },
    {
      {0.199276f,-0.002924f,-0.159587f},
      {-0.194203f,0.131962f,0.254118f},
      {0.217023f,0.122786f,-0.101007f}
    },
    {
      {-0.330159f,0.221299f,-0.158097f},
      {0.018623f,0.161204f,-0.031662f},
      {0.391470f,0.376474f,0.058369f}
    },
    {
      {0.006540f,-0.133830f,-0.058110f},
      {-0.242873f,-0.201697f,-0.277505f},
      {-0.279407f,-0.191505f,0.032480f}
    },
    {
      {0.073386f,0.035810f,0.066556f},
      {-0.044696f,-0.053483f,-0.067896f},
      {-0.223880f,-0.099377f,0.059268f}
    }
  },
  {
    {
      {0.015532f,-0.148425f,0.043961f},
      {0.008129f,-0.144348f,-0.091427f},
      {-0.041281f,0.008296f,-0.101153f}
    },
    {
      {-0.006930f,0.163955f,-0.013480f},
      {0.106536f,0.091231f,-0.116228f},
      {-0.436163f,0.123355f,0.397320f}
    },
    {
      {0.067877f,-0.110682f,0.116899f},
      {0.116009f,-0.165526f,-0.037105f},
      {0.002870f,0.029043f,-0.059890f}
    },
    {
      {-0.304820f,-0.499953f,-0.296334f},
      {-0.412961f,-0.161550f,-0.120335f},
      {0.183404f,-0.230665f,0.068259f}
    },
    {
      {0.107656f,0.277485f,0.006572f},
      {0.037411f,0.123216f,-0.219661f},
      {-0.370423f,0.074784f,0.384973f}
    },
    {
      {-0.033412f,0.201978f,0.273467f},
      {-0.126365f,-0.018657f,0.278402f},
      {0.276606f,-0.253575f,-0.142133f}
    },
    {
      {0.066378f,0.189106f,-0.162084f},
      {-0.049063f,0.042337f,-0.117339f},
      {-0.001218f,-0.459951f,-0.232523f}
    },
    {
      {0.028205f,0.146725f,0.010678f},
      {0.057039f,-0.201548f,0.112119f},
      {0.254773f,-0.033834f,-0.055919f}
    }
  },
  {
    {
      {-0.223540f,0.046323f,0.116674f},
      {-0.165078f,0.036782f,0.064406f},
      {0.055149f,0.053620f,-0.270020f}
    },
    {
      {-0.163845f,0.035846f,0.152808f},
      {-0.219900f,0.270062f,0.042943f},
      {0.004770f,0.033609f,-0.142634f}
    },
    {
      {-0.287689f,-0.065006f,0.068846f},
      {-0.104460f,0.166237f,-0.028474f},
      {-0.107291f,0.090415f,-0.236439f}
    },
    {
      {-0.078717f,-0.060405f,-0.331305f},
      {-0.138245f,-0.360071f,-0.379106f},
      {-0.177002f,-0.203233f,-0.131487f}
    },
    {
      {-0.329705f,0.108075f,0.438131f},
      {-0.155177f,0.321855f,0.026753f},
      {0.101880f,0.096121f,-0.143454f}
    },
    {
      {-0.126234f,-0.671188f,-0.146246f},
      {-0.397302f,-0.418442f,-0.016810f},
      {-0.274482f,-0.341342f,-0.179632f}
    },
    {
      {-0.056430f,0.262001f,0.233497f},
      {0.296607f,0.134916f,0.333915f},
      {0.311681f,0.125713f,0.078665f}
    },
    {
      {-0.264342f,0.022253f,0.211390f},
      {0.263098f,0.141452f,-0.036603f},
      {0.259532f,-0.022630f,0.048223f}
    }
  }
};
const float conv2_bias[16] PROGMEM = {0.037364f,-0.172253f,-0.175775f,-0.079195f,-0.065294f,-0.060556f,-0.097792f,0.065539f,0.076559f,-0.106286f,-0.022114f,-0.031375f,-0.089755f,-0.001149f,-0.007238f,0.058733f};
const float fc1_weights[784][64] PROGMEM = {
  {0.023572f,0.000827f,0.008728f,-0.008837f,0.028324f,-0.005032f,0.004167f,0.026833f,0.006476f,-0.037660f,0.008836f,0.081457f,-0.030061f,-0.030836f,-0.008035f,-0.014543f,-0.005325f,-0.021571f,-0.042995f,-0.001037f,0.039466f,-0.024515f,-0.019630f,-0.037556f,-0.006488f,0.013372f,0.005762f,-0.025071f,0.017945f,-0.018337f,-0.016065f,0.053633f,0.046361f,-0.010683f,0.025618f,0.002827f,-0.046283f,0.033444f,-0.005807f,0.022217f,0.004673f,-0.025652f,0.019632f,0.038947f,-0.031547f,0.006117f,0.051243f,0.030117f,-0.012261f,0.029702f,-0.034470f,0.003751f,-0.004021f,0.018929f,-0.011086f,-0.060385f,0.014659f,0.026803f,-0.036905f,0.021276f,0.058051f,-0.013046f,-0.002296f,0.042752f},
  {0.007896f,0.118945f,-0.040119f,0.009446f,-0.157358f,-0.299891f,-0.032894f,0.021296f,-0.175295f,-0.093073f,0.284215f,0.019541f,-0.177040f,-0.135601f,0.481067f,0.191966f,0.040661f,0.097380f,0.073755f,0.051461f,0.033800f,0.220356f,0.393331f,0.038968f,0.179110f,0.054209f,0.017640f,-0.076862f,-0.001109f,0.003542f,0.096094f,-0.075712f,0.128654f,-0.054646f,0.018085f,-0.357690f,0.275704f,0.024232f,0.077087f,-0.081012f,0.051907f,-0.016059f,0.224675f,0.204108f,0.083923f,0.047279f,0.062804f,-0.015563f,-0.464660f,-0.038325f,0.103629f,0.016808f,-0.000914f,-0.035223f,-0.211219f,-0.051635f,-0.176408f,-0.208047f,0.006857f,-0.490710f,0.136681f,-0.061884f,0.022339f,-0.043589f},
  {-0.013323f,-0.000740f,-0.272166f,0.028275f,-0.108239f,-0.199594f,-0.006141f,0.020022f,0.005174f,-0.009372f,-0.146005f,-0.002031f,-0.091720f,-0.134725f,-0.156097f,-0.010081f,-0.081958f,0.129484f,-0.055707f,0.097644f,0.075669f,0.055176f,0.099051f,0.123409f,0.249852f,-0.179233f,0.010787f,-0.213740f,-0.065120f,0.031771f,-0.000136f,0.000616f,0.136351f,0.004206f,0.018730f,-0.044262f,0.055796f,0.019116f,0.092266f,0.073853f,-0.043501f,-0.041293f,-0.018027f,-0.073089f,-0.111866f,0.312800f,0.120103f,0.024884f,-0.235333f,-0.063046f,0.365446f,0.080657f,0.021843f,0.006161f,0.227361f,0.183729f,-0.133490f,0.078964f,-0.008639f,0.008101f,0.129576f,-0.047294f,-0.021726f,0.045680f},
  {-0.020361f,0.014397f,-0.014118f,-0.045299f,-0.071528f,-0.126491f,0.015130f,-0.016572f,-0.042736f,0.034584f,0.173528f,0.108433f,-0.120015f,-0.058293f,0.223705f,0.007612f,0.005894f,0.190270f,0.054140f,0.063831f,0.186214f,0.130038f,0.145236f,0.061328f,0.100564f,-0.018723f,-0.005375f,-0.059384f,-0.059985f,0.027964f,-0.065590f,-0.040648f,-0.031340f,-0.022725f,-0.030239f,-0.279946f,0.129100f,-0.158595f,-0.014715f,0.060995f,-0.115404f,-0.022514f,0.176418f,0.077907f,-0.082330f,-0.001260f,0.129079f,0.001710f,-0.182952f,0.044388f,0.080030f,0.145495f,-0.030471f,-0.012603f,0.053802f,-0.101277f,-0.002477f,-0.083585f,0.007293f,-0.231143f,0.167649f,-0.017555f,0.010465f,-0.143379f},
  {0.036028f,-0.011737f,-0.277845f,-0.012166f,-0.077750f,0.045966f,0.045764f,0.020249f,0.047526f,-0.296946f,0.223533f,0.027073f,-0.204087f,-0.000280f,0.144121f,-0.200250f,-0.158396f,0.101015f,-0.004938f,0.112520f,-0.153752f,-0.019560f,-0.098157f,0.123155f,0.051318f,-0.037960f,-0.002592f,0.027727f,0.036430f,-0.014523f,-0.030489f,0.031311f,-0.038587f,-0.026014f,-0.042812f,-0.026793f,0.034630f,0.042194f,0.071008f,-0.070969f,-0.043072f,-0.039007f,0.007090f,-0.085181f,-0.221907f,-0.093475f,0.132100f,0.003115f,-0.223785f,0.167492f,0.034145f,0.105753f,0.012483f,-0.043160f,-0.128274f,0.048157f,0.173379f,0.099518f,-0.033686f,-0.063078f,-0.027917f,0.020700f,-0.010331f,-0.003324f},
  {0.011846f,0.212103f,0.026286f,0.006297f,0.063393f,-0.149775f,-0.011727f,0.012822f,0.037869f,-0.144837f,0.007677f,0.103074f,-0.073132f,0.051682f,0.168382f,0.039473f,0.082529f,0.020693f,-0.045675f,-0.181666f,0.107341f,-0.002292f,0.029904f,-0.218796f,0.080636f,0.253999f,0.004578f,-0.020292f,0.031588f,-0.015547f,-0.015756f,0.184446f,-0.254552f,0.070322f,0.020269f,-0.196444f,0.044736f,-0.164807f,0.017026f,-0.072416f,0.003517f,0.020879f,0.155853f,-0.056940f,0.144401f,-0.037105f,0.239310f,0.028054f,-0.255073f,0.074751f,-0.082164f,-0.021111f,0.027436f,0.014238f,0.060244f,-0.130495f,0.141444f,-0.089456f,-0.022348f,-0.033284f,0.229789f,-0.015026f,-0.048293f,0.119063f},
  {0.012196f,0.027702f,-0.009405f,-0.006879f,0.013346f,-0.005580f,-0.010374f,0.016018f,0.019961f,-0.034133f,0.032933f,0.046763f,-0.017908f,0.050408f,0.104089f,-0.033433f,0.015810f,0.008960f,-0.005093f,0.062295f,0.041509f,0.040832f,0.012161f,0.050902f,0.000100f,0.063676f,0.025816f,0.076644f,-0.070962f,-0.030227f,-0.056285f,0.006391f,-0.045632f,-0.054046f,-0.017109f,-0.046281f,0.063844f,0.055071f,0.057500f,-0.090590f,0.060152f,0.030340f,0.007605f,-0.070417f,-0.043010f,-0.023164f,0.054475f,0.000868f,0.032168f,0.070919f,0.001241f,0.025921f,-0.011459f,-0.047663f,-0.007862f,0.118584f,-0.020654f,0.007688f,0.021240f,0.006235f,0.070587f,-0.029347f,-0.006799f,0.036870f},
  {-0.016595f,-0.014926f,0.096754f,-0.000636f,0.140401f,0.005300f,-0.069322f,0.016066f,-0.069024f,0.092507f,-0.180567f,0.042713f,0.211783f,-0.058766f,-0.013675f,-0.127685f,0.014980f,0.068377f,-0.147499f,-0.173495f,0.013626f,-0.115719f,-0.082709f,-0.294914f,0.114615f,0.107866f,-0.016559f,0.100456f,-0.029330f,0.017403f,0.121345f,-0.096061f,0.193442f,-0.010924f,-0.005174f,-0.053167f,-0.269055f,0.081021f,0.095989f,0.000693f,0.167731f,0.013052f,0.054624f,0.122698f,-0.166965f,0.086466f,0.211339f,0.012952f,-0.008016f,0.041982f,-0.009593f,-0.000665f,0.011041f,0.025153f,0.073856f,-0.020732f,-0.153103f,0.014557f,-0.026702f,0.029447f,0.243042f,0.023569f,0.020790f,0.082691f},
  {-0.011861f,0.102249f,-0.015911f,0.016611f,0.162535f,0.040363f,-0.027391f,-0.006876f,0.019552f,0.027229f,-0.163245f,0.120480f,0.181710f,0.022478f,-0.157104f,0.113760f,-0.261439f,0.093682f,-0.219956f,-0.200897f,-0.173554f,-0.083186f,0.074389f,0.001524f,0.236824f,-0.099965f,-0.037005f,-0.194411f,-0.048491f,-0.021788f,0.135615f,-0.269269f,0.095452f,-0.004539f,-0.021178f,0.058027f,-0.276466f,-0.079240f,0.360484f,-0.050698f,-0.055581f,-0.013237f,-0.129780f,0.066667f,-0.035035f,-0.143558f,0.479017f,0.027344f,-0.021679f,-0.157922f,0.114110f,0.132522f,0.034955f,-0.030154f,-0.051515f,0.113311f,-0.171299f,-0.140406f,0.016074f,-0.107922f,0.077799f,-0.005790f,0.008892f,0.043059f},
  {-0.019463f,0.043074f,0.134288f,-0.034057f,0.112075f,0.288965f,-0.009953f,-0.031391f,-0.010270f,0.101913f,-0.003634f,0.292053f,-0.005612f,0.118283f,-0.123448f,0.118096f,-0.177125f,-0.029667f,-0.110996f,0.032033f,-0.221134f,-0.123063f,-0.188546f,-0.024465f,-0.141804f,-0.115447f,-0.046332f,-0.054478f,0.029096f,-0.013568f,-0.108174f,-0.073427f,-0.251804f,-0.027103f,-0.017791f,0.108514f,-0.084300f,-0.104908f,0.269043f,0.078358f,-0.271237f,0.031047f,-0.212164f,0.011114f,0.116153f,0.017630f,0.300908f,-0.034668f,-0.027935f,-0.098200f,0.049648f,0.205335f,0.022240f,0.031349f,0.145865f,-0.010457f,-0.131564f,0.148560f,-0.019623f,0.027679f,0.026424f,-0.048121f,-0.029156f,-0.027828f},
  {-0.026425f,0.170632f,0.171026f,0.004815f,0.180076f,0.167260f,-0.001852f,0.018028f,-0.027609f,0.103531f,0.023587f,0.165392f,0.052558f,0.303956f,0.024949f,0.005722f,-0.115667f,0.250204f,-0.119421f,-0.101011f,-0.147043f,0.031359f,-0.084782f,-0.032708f,-0.046710f,-0.195867f,-0.050805f,0.072662f,-0.071294f,-0.047913f,-0.037600f,-0.051461f,-0.309517f,-0.044957f,-0.024846f,0.120704f,0.013741f,-0.271647f,0.146989f,-0.058094f,0.007752f,-0.001050f,0.171205f,-0.004495f,0.170160f,-0.189916f,0.221579f,-0.027914f,-0.127646f,0.003495f,-0.017741f,0.172967f,-0.025134f,-0.021192f,0.072546f,-0.008951f,0.133044f,-0.072697f,-0.028793f,0.165622f,-0.132918f,0.020494f,-0.025294f,-0.241261f},
  {-0.006258f,0.064461f,-0.030172f,-0.000674f,0.009474f,0.074515f,-0.058415f,-0.032361f,0.110319f,-0.252759f,0.150371f,0.106720f,-0.042573f,-0.001468f,0.233051f,0.089962f,-0.204134f,-0.025118f,0.000288f,0.052005f,-0.064432f,-0.046683f,-0.018917f,-0.163841f,-0.268033f,-0.290107f,-0.002787f,-0.226951f,-0.056108f,-0.007108f,0.075460f,-0.086347f,-0.133508f,-0.008557f,-0.013050f,0.102249f,-0.114926f,-0.079033f,0.247356f,-0.027547f,0.011814f,0.012657f,0.042585f,-0.066029f,-0.058396f,0.047610f,0.283831f,-0.040524f,-0.301534f,0.124703f,0.017209f,0.150091f,0.020325f,0.006944f,-0.071733f,-0.063666f,-0.060703f,0.143647f,0.012763f,-0.005865f,-0.077879f,0.055520f,-0.005411f,-0.137184f},
  {0.002721f,-0.054330f,0.118978f,-0.064798f,-0.056786f,0.066466f,-0.011181f,-0.030618f,0.140513f,0.151094f,0.005276f,-0.060634f,-0.099265f,-0.016899f,-0.326308f,0.123129f,0.024906f,-0.047006f,0.028851f,-0.093679f,0.041778f,-0.102392f,-0.079564f,-0.260323f,0.030060f,-0.159367f,-0.003314f,0.238689f,-0.059644f,-0.042596f,-0.058481f,-0.107413f,-0.129102f,-0.024414f,0.017647f,0.184451f,-0.134158f,0.002356f,0.145236f,-0.058144f,0.042126f,-0.035801f,-0.205842f,-0.197748f,-0.020060f,-0.202587f,0.155016f,-0.042240f,0.083552f,0.254512f,0.098680f,-0.166562f,-0.003691f,0.047153f,-0.070184f,0.079562f,-0.064264f,-0.090586f,-0.022416f,-0.034932f,-0.071943f,0.052386f,-0.025374f,0.027359f},
  {0.003214f,0.000841f,-0.063469f,-0.035188f,-0.015886f,0.017052f,-0.019991f,-0.061924f,0.022911f,-0.045800f,0.059638f,-0.006062f,-0.012749f,0.002660f,0.057519f,-0.008949f,0.049437f,-0.063245f,-0.066582f,0.095444f,0.033777f,-0.028397f,0.040271f,-0.018574f,-0.001840f,0.031517f,-0.041124f,0.038520f,-0.009485f,-0.027857f,-0.031085f,-0.007599f,-0.019917f,-0.040283f,0.012808f,-0.046404f,0.041745f,0.082478f,0.014657f,-0.052853f,0.096757f,-0.004365f,-0.000129f,-0.023472f,-0.029664f,-0.012520f,0.064354f,0.006013f,0.090490f,0.034158f,0.051981f,0.037085f,0.021587f,-0.056969f,0.016902f,0.102350f,0.020601f,0.000238f,-0.005178f,0.051043f,0.090203f,-0.073267f,0.006356f,0.050673f},
  {-0.014887f,0.201365f,-0.084382f,0.000184f,-0.006653f,0.209198f,-0.047822f,0.004211f,-0.014249f,-0.059965f,0.147115f,-0.006454f,0.040330f,-0.100558f,-0.005110f,0.052244f,-0.115089f,0.130301f,-0.131069f,0.001808f,0.082569f,-0.082536f,-0.181758f,-0.088592f,0.166682f,0.064515f,0.013367f,0.092385f,0.022427f,0.034754f,0.106920f,-0.112682f,-0.096911f,0.013188f,0.016891f,-0.101435f,-0.295616f,0.063427f,0.216492f,-0.024254f,-0.075963f,-0.012790f,0.082862f,0.098082f,-0.198662f,0.115454f,0.194138f,-0.004913f,-0.047532f,0.193471f,0.116616f,0.075674f,-0.017835f,0.001795f,-0.187602f,0.096253f,-0.105426f,-0.091796f,-0.020801f,-0.210245f,0.350069f,0.048473f,0.032188f,0.051639f},
  {0.001140f,-0.061708f,0.085514f,-0.009852f,-0.000415f,0.003198f,0.000176f,-0.015465f,-0.011606f,-0.122926f,-0.058431f,0.172429f,0.100896f,-0.014151f,-0.397262f,0.050800f,-0.148636f,0.042923f,-0.035322f,-0.048909f,-0.046253f,-0.106951f,-0.035002f,0.051642f,-0.146480f,-0.106301f,-0.021703f,0.046154f,0.042230f,-0.065153f,0.075633f,-0.157228f,0.107643f,-0.017486f,0.013165f,0.223018f,-0.146548f,0.038626f,0.233394f,0.056533f,-0.185742f,-0.022594f,-0.234595f,0.042321f,0.088360f,0.059581f,0.236364f,-0.046948f,0.199369f,-0.207339f,0.112605f,0.111560f,-0.007409f,-0.017078f,-0.091908f,0.062371f,0.072979f,0.064400f,0.020663f,0.060988f,-0.111479f,0.030129f,-0.045583f,-0.042193f},
  {-0.036312f,0.048968f,0.205667f,-0.043881f,0.022529f,0.269015f,-0.050303f,-0.030515f,0.117400f,0.062046f,-0.073499f,0.007304f,0.102069f,0.047105f,-0.235503f,0.141102f,-0.113656f,0.026254f,-0.027762f,0.016680f,-0.189735f,-0.181644f,-0.166397f,-0.160947f,-0.097167f,-0.195401f,0.012341f,0.094558f,0.060538f,-0.008817f,-0.104388f,-0.138002f,-0.131844f,-0.055075f,0.025612f,0.326267f,-0.161273f,-0.100405f,0.310209f,0.013208f,-0.040576f,-0.043509f,-0.208545f,0.042375f,0.186404f,0.002429f,0.278542f,-0.011573f,0.140673f,-0.088419f,0.016567f,0.112116f,-0.004229f,0.069913f,0.049826f,-0.008436f,-0.059871f,0.052131f,-0.002911f,0.081540f,-0.140239f,-0.058050f,0.017005f,-0.017260f},
  {-0.007499f,-0.047115f,0.339650f,-0.040048f,0.202871f,0.165690f,-0.004343f,-0.061550f,-0.029050f,0.028425f,-0.037298f,0.171061f,0.022824f,0.110956f,-0.023603f,0.021235f,-0.100143f,0.131787f,0.013894f,-0.009132f,-0.078689f,-0.057561f,0.052847f,0.031861f,-0.162016f,-0.081996f,0.012787f,0.009260f,-0.040097f,-0.027678f,-0.093517f,0.013867f,-0.249808f,0.038911f,-0.020746f,0.093469f,0.038062f,-0.190536f,0.221675f,-0.043466f,-0.009442f,-0.009787f,0.005802f,0.055465f,0.312761f,-0.054843f,0.292229f,-0.021422f,-0.122023f,-0.033424f,0.037889f,0.180611f,-0.007760f,-0.016810f,0.070393f,-0.151145f,0.092470f,0.008267f,0.000936f,0.193106f,-0.037457f,-0.037449f,-0.040697f,-0.143764f},
  {-0.032466f,0.224122f,0.195741f,-0.004486f,0.035381f,-0.070252f,-0.008711f,-0.031885f,0.107494f,-0.090821f,0.182365f,0.128308f,0.015069f,0.014033f,-0.119614f,0.316273f,0.225133f,-0.337790f,0.137776f,-0.267074f,0.227067f,0.200464f,0.110827f,-0.311316f,-0.039971f,0.057028f,0.014789f,0.082217f,-0.034487f,-0.012168f,0.047678f,0.162726f,-0.014260f,0.013921f,-0.048831f,0.000235f,0.018641f,-0.014282f,-0.058021f,0.039341f,0.146739f,-0.002968f,0.024465f,-0.074377f,0.201416f,-0.269154f,-0.067752f,-0.031292f,-0.273454f,0.109431f,-0.142571f,-0.096977f,0.019471f,0.054735f,-0.033433f,-0.144631f,-0.169714f,-0.243980f,-0.006143f,-0.051511f,-0.006572f,-0.000365f,-0.017426f,-0.063849f},
  {-0.037358f,0.199569f,0.150344f,-0.002901f,0.024977f,-0.126229f,0.028653f,0.031867f,0.117212f,0.000951f,0.076549f,-0.069752f,-0.079525f,-0.098929f,0.081758f,0.280209f,0.312101f,0.018775f,0.131938f,-0.118916f,0.106503f,0.261302f,-0.058707f,-0.265990f,-0.103872f,0.049733f,-0.031688f,0.083456f,0.014748f,0.029593f,-0.104501f,0.160163f,-0.111619f,0.008945f,-0.014547f,0.079393f,-0.015353f,0.048429f,0.124526f,-0.037830f,0.208156f,0.000284f,0.150397f,0.108751f,0.080635f,-0.109513f,-0.107977f,0.015020f,-0.266923f,0.150435f,-0.104830f,-0.161355f,0.006866f,-0.003710f,-0.109228f,-0.105828f,-0.038517f,-0.272929f,-0.028620f,-0.397976f,0.071956f,-0.006722f,-0.040538f,0.024467f},
  {0.007502f,0.021901f,-0.067523f,-0.030262f,0.036010f,0.030871f,-0.054469f,-0.019843f,0.037369f,0.037687f,-0.013394f,0.035267f,0.006471f,0.025356f,0.043098f,-0.011841f,-0.118974f,-0.072538f,0.016888f,0.138861f,0.027092f,-0.034591f,0.034057f,0.027774f,-0.015605f,0.000597f,0.022483f,0.029264f,-0.073032f,-0.003760f,-0.033660f,-0.027874f,0.020408f,-0.045674f,-0.021303f,-0.048913f,0.062049f,0.011697f,0.015523f,-0.068885f,-0.010959f,0.014306f,-0.080371f,-0.031069f,-0.037755f,0.046906f,0.101473f,0.029894f,0.070474f,0.112199f,0.023317f,0.060834f,-0.031511f,-0.032735f,0.066932f,-0.007424f,0.008088f,0.092855f,-0.021556f,0.056169f,0.069863f,-0.049738f,0.016207f,-0.021832f},
  {0.005944f,0.015515f,-0.109336f,0.064377f,0.075109f,-0.078013f,-0.024631f,0.012490f,0.057877f,0.148056f,-0.005819f,-0.034058f,0.028485f,-0.163368f,0.010985f,0.011592f,-0.096627f,-0.126806f,0.265442f,0.147765f,0.158515f,-0.044675f,-0.091038f,-0.125237f,-0.050137f,-0.062293f,-0.018988f,-0.053377f,0.071057f,0.016182f,0.015338f,0.064290f,0.234673f,-0.016587f,0.008170f,-0.000347f,0.219881f,0.044470f,-0.023804f,-0.023870f,-0.216638f,0.011509f,-0.086958f,0.089510f,-0.100063f,-0.003235f,0.137556f,0.010521f,0.104618f,0.201846f,-0.035598f,-0.046931f,0.008221f,-0.025856f,-0.077913f,-0.227559f,-0.054931f,-0.075217f,0.005512f,-0.050114f,0.133879f,0.007512f,-0.020716f,0.052822f},
  {-0.056631f,-0.198150f,-0.056880f,-0.003300f,-0.034620f,-0.060278f,-0.015573f,-0.029021f,0.034199f,-0.179259f,-0.088535f,0.044440f,-0.021601f,-0.030947f,-0.253035f,0.075679f,-0.235108f,0.056712f,0.118277f,-0.070423f,-0.056574f,0.021654f,-0.012231f,-0.047827f,0.040150f,0.039760f,-0.052072f,0.181999f,0.048579f,0.006920f,0.111768f,-0.040013f,0.096173f,-0.022140f,0.026898f,0.126923f,-0.106427f,0.039980f,0.088285f,0.077706f,-0.228294f,0.009006f,-0.461268f,-0.037863f,0.018253f,0.039269f,0.096851f,0.019284f,0.127114f,-0.116338f,0.069314f,0.050495f,0.022569f,-0.001571f,0.022160f,-0.037559f,0.110082f,0.004762f,0.008419f,0.036088f,-0.043279f,0.041740f,0.022528f,-0.030184f},
  {-0.010502f,-0.075638f,-0.064913f,0.010667f,-0.218265f,0.057316f,-0.009043f,0.005571f,-0.018437f,-0.113294f,-0.056148f,-0.106301f,0.095428f,0.026706f,-0.058141f,0.021386f,-0.004915f,0.074404f,0.067866f,0.033158f,-0.043397f,-0.038146f,-0.013720f,-0.059109f,0.086373f,-0.057294f,-0.042683f,0.173272f,0.000889f,-0.002562f,-0.193329f,-0.103178f,-0.089215f,0.017369f,-0.022702f,0.099223f,-0.095935f,0.022041f,0.124472f,-0.010453f,-0.036068f,-0.011334f,-0.163841f,0.111240f,0.022543f,0.063438f,0.107730f,-0.007119f,0.123571f,-0.092904f,0.097917f,0.013679f,-0.007293f,0.019398f,0.113623f,0.118697f,0.128706f,0.004531f,-0.037464f,-0.009344f,-0.014797f,-0.055462f,-0.012860f,0.135692f},
  {0.009423f,-0.072831f,-0.014640f,-0.010470f,-0.067120f,-0.034688f,0.016355f,-0.041150f,0.139014f,0.000079f,0.030246f,0.103569f,0.038578f,-0.218489f,-0.026364f,-0.099467f,0.037194f,-0.136878f,0.125790f,0.153986f,0.137679f,-0.118030f,-0.058355f,0.036641f,0.045517f,0.091440f,0.031008f,0.078455f,-0.024811f,-0.021069f,-0.043049f,0.086215f,0.032058f,-0.026156f,-0.050916f,0.018365f,0.065774f,0.108990f,0.023614f,-0.052082f,-0.003242f,-0.013662f,-0.188241f,0.043122f,-0.011534f,-0.004493f,0.116122f,-0.028523f,0.059136f,0.213687f,-0.079868f,0.065248f,-0.034491f,-0.043746f,0.035637f,-0.094969f,0.220806f,0.175641f,-0.019791f,0.148588f,0.185383f,-0.009842f,-0.026717f,-0.043304f},
  {0.001041f,-0.021298f,0.129388f,0.007977f,-0.089445f,0.161848f,0.011948f,0.011267f,-0.080857f,-0.038643f,0.021632f,0.013356f,0.064281f,0.215807f,-0.185082f,0.209475f,-0.110334f,-0.013534f,-0.153280f,-0.146103f,-0.236256f,-0.021487f,-0.299947f,-0.245005f,0.044726f,0.008055f,-0.030922f,0.184674f,-0.064054f,-0.034815f,0.026244f,0.054707f,-0.071650f,-0.006465f,-0.001573f,0.134591f,-0.025498f,-0.067856f,0.016617f,-0.020944f,-0.063052f,-0.002763f,-0.124421f,-0.021809f,0.229539f,-0.371708f,-0.099289f,0.025435f,-0.093263f,0.019758f,-0.177797f,-0.184234f,-0.016976f,0.038422f,0.080743f,-0.254470f,0.132790f,-0.236804f,-0.031760f,0.074030f,-0.218612f,-0.053138f,0.016225f,-0.207624f},
  {-0.012049f,0.072571f,0.110682f,0.033860f,-0.029638f,0.128994f,-0.041632f,-0.011095f,0.093227f,0.018247f,-0.001515f,0.103859f,0.212909f,0.145910f,-0.207131f,0.220297f,0.071878f,0.066950f,-0.102082f,-0.204651f,-0.096555f,0.004072f,-0.210812f,-0.365194f,-0.094694f,0.217517f,0.000004f,0.249695f,0.015686f,-0.010627f,-0.099697f,0.264210f,0.035325f,0.006315f,0.029469f,0.063111f,-0.000364f,0.184763f,0.030887f,0.036764f,-0.100525f,0.024838f,-0.111876f,0.204356f,-0.026358f,-0.109792f,-0.138030f,-0.051940f,0.098940f,0.142214f,-0.169440f,-0.111404f,-0.028351f,0.008652f,0.142537f,-0.155603f,0.164458f,-0.114930f,-0.025479f,-0.146134f,0.106784f,-0.024711f,0.009384f,0.212581f},
  {-0.014914f,0.018010f,0.001813f,-0.033456f,-0.000767f,0.025601f,-0.059703f,-0.053201f,-0.037204f,-0.034699f,0.051534f,-0.015294f,-0.026093f,0.007985f,0.130624f,-0.002990f,0.053843f,0.009871f,-0.025806f,0.134401f,0.061978f,-0.011504f,0.020199f,0.028710f,-0.060810f,0.008292f,0.020883f,0.045116f,-0.067997f,0.000053f,-0.002629f,0.057943f,0.012267f,-0.058080f,-0.016584f,-0.071704f,0.036663f,0.071043f,-0.049563f,-0.065895f,0.044399f,-0.020916f,0.045738f,-0.032606f,-0.020095f,0.059329f,-0.012056f,0.018257f,-0.042007f,0.027524f,0.003666f,-0.023140f,0.003320f,-0.017714f,0.028831f,0.020172f,0.014821f,-0.009998f,-0.002463f,0.007940f,0.026090f,-0.055655f,-0.008764f,0.039794f},
  {0.023736f,-0.081716f,-0.107129f,0.023798f,0.129288f,-0.159759f,-0.042558f,-0.033430f,-0.139169f,0.033487f,0.041944f,-0.118002f,0.119380f,0.140549f,0.075576f,-0.120605f,0.041922f,0.123492f,0.156405f,0.135095f,0.110220f,0.104066f,0.196445f,-0.140293f,-0.119066f,-0.073487f,-0.006238f,-0.128167f,-0.028436f,-0.024679f,-0.098075f,0.000452f,0.076041f,0.016638f,0.003830f,0.001604f,0.043488f,-0.040620f,0.011408f,-0.093218f,-0.083304f,0.008688f,-0.044100f,0.190122f,0.212197f,-0.054199f,-0.010460f,-0.012960f,-0.210425f,-0.009929f,0.115438f,0.165609f,0.029841f,-0.028045f,0.087399f,-0.157746f,-0.035782f,-0.008847f,-0.017562f,-0.014934f,-0.115879f,-0.018289f,0.008213f,-0.143617f},
  {-0.030195f,-0.125480f,-0.067508f,0.003676f,-0.042104f,-0.132049f,-0.045437f,0.002744f,-0.009854f,-0.239038f,-0.082105f,0.008824f,0.066376f,-0.046064f,-0.017752f,0.050521f,0.048547f,0.094170f,0.134364f,-0.099511f,0.059433f,0.098402f,0.164973f,-0.087866f,0.112249f,0.099235f,-0.034770f,0.262058f,-0.068101f,0.001088f,0.114772f,-0.103539f,0.043336f,-0.047538f,-0.006846f,0.016876f,-0.024442f,0.034789f,0.144543f,0.034222f,-0.166187f,-0.014781f,-0.213338f,-0.040952f,-0.060838f,-0.013502f,0.012666f,-0.000820f,0.031688f,-0.149141f,0.030148f,0.043852f,-0.011582f,0.003915f,0.026939f,0.036584f,-0.044205f,-0.003228f,-0.007411f,-0.043188f,-0.018556f,0.016047f,0.033682f,-0.007179f},
  {-0.034945f,0.067887f,0.007196f,-0.055159f,0.096114f,-0.133816f,0.011086f,-0.020827f,-0.096924f,0.028034f,0.000290f,-0.084651f,-0.082285f,-0.012025f,0.014689f,0.124576f,0.018939f,0.107871f,0.038506f,-0.073169f,-0.074637f,0.011594f,0.059920f,-0.095861f,0.074137f,-0.052619f,-0.009458f,0.035009f,0.000794f,0.007234f,-0.082117f,-0.054167f,-0.320541f,0.052123f,-0.032642f,0.078645f,0.035197f,0.031851f,0.088240f,-0.066617f,0.048321f,-0.022081f,0.019180f,-0.027289f,0.090117f,0.091093f,0.107848f,-0.030502f,-0.098810f,0.020577f,0.103248f,-0.067276f,0.007145f,-0.008946f,-0.062139f,0.164836f,0.026188f,-0.044230f,0.016041f,-0.080691f,0.001587f,-0.059696f,-0.020002f,0.006073f},
  {0.018748f,0.175890f,0.016131f,-0.026691f,-0.044401f,0.174623f,0.019127f,0.005585f,0.191467f,-0.108414f,0.103307f,0.104741f,-0.003683f,0.140082f,-0.019915f,-0.021177f,-0.065210f,0.060005f,0.132284f,0.092439f,-0.138754f,-0.001189f,-0.054944f,0.043594f,-0.109714f,-0.088620f,0.023135f,-0.075881f,-0.031664f,-0.035293f,0.003168f,-0.063239f,-0.016918f,-0.009998f,0.000873f,-0.037251f,0.001554f,0.043610f,0.048644f,-0.054526f,-0.005578f,-0.003795f,0.024224f,-0.055372f,-0.022713f,-0.144988f,0.177101f,-0.008161f,-0.023268f,0.117633f,0.049393f,0.139691f,0.000593f,-0.014090f,0.048086f,0.084844f,0.097537f,0.110517f,-0.024387f,0.036760f,0.095665f,-0.037892f,-0.009643f,-0.300397f},
  {-0.019147f,-0.147232f,0.099557f,-0.051052f,-0.040169f,-0.021979f,-0.068793f,-0.019584f,0.011699f,-0.417748f,0.060864f,-0.224605f,0.133851f,0.203244f,0.005908f,0.044777f,-0.115491f,0.043942f,-0.109398f,0.005517f,-0.295783f,0.062121f,0.013459f,0.202752f,0.015164f,-0.072549f,0.029809f,0.029006f,-0.126367f,-0.024248f,0.115311f,0.078300f,0.020031f,0.001479f,0.003682f,0.029742f,0.048692f,0.050570f,-0.055585f,0.049098f,-0.074036f,-0.025223f,-0.114407f,0.003961f,0.060729f,-0.150665f,-0.072696f,-0.004512f,-0.116285f,-0.000451f,0.056834f,-0.158543f,0.021205f,0.003500f,0.024304f,0.055762f,0.223067f,0.063624f,0.018916f,0.023655f,-0.031706f,0.021114f,-0.005193f,-0.181326f},
  {-0.015999f,0.155145f,-0.067913f,0.000989f,-0.185319f,-0.109273f,-0.058161f,-0.018375f,0.229881f,-0.121151f,0.271201f,0.121496f,0.078929f,0.090292f,-0.038883f,0.164862f,-0.033048f,0.216271f,0.144457f,-0.134648f,-0.120866f,0.349247f,0.054433f,0.035312f,0.037467f,0.056675f,-0.022844f,0.241049f,0.014725f,0.006833f,-0.014914f,0.060235f,-0.056594f,-0.022311f,-0.030729f,0.082104f,0.121739f,0.114617f,0.265686f,0.011099f,-0.218848f,0.034577f,-0.154767f,0.006989f,0.130191f,-0.305337f,-0.074159f,-0.031525f,0.004535f,-0.103259f,0.106506f,-0.000595f,0.017847f,-0.023725f,0.015503f,0.039752f,0.006264f,-0.089446f,-0.032271f,-0.114440f,-0.058804f,-0.032055f,0.013317f,0.008042f},
  {0.019997f,-0.015353f,-0.012331f,-0.054082f,-0.008224f,0.055996f,-0.047013f,-0.042437f,0.030365f,-0.048361f,0.044166f,0.028399f,-0.011757f,0.049151f,0.106765f,-0.051049f,0.058158f,-0.000700f,-0.088821f,0.114225f,0.126108f,0.030757f,0.071083f,-0.003314f,-0.057172f,0.065993f,-0.007437f,0.069050f,-0.091921f,-0.048101f,-0.002116f,0.084146f,0.068678f,-0.034245f,-0.029305f,-0.070044f,0.022888f,0.068907f,-0.042256f,-0.117662f,0.108369f,0.023734f,0.006576f,-0.064057f,-0.015447f,0.078375f,-0.053146f,0.015818f,0.024862f,0.064868f,-0.013168f,-0.023513f,-0.033650f,-0.050712f,0.005435f,0.085764f,0.042319f,0.042232f,0.018591f,0.029579f,0.114134f,-0.071158f,-0.000241f,0.050870f},
  {0.006423f,-0.113939f,-0.146265f,-0.001989f,-0.003107f,-0.094571f,-0.038670f,0.018838f,-0.118144f,-0.010763f,0.049145f,-0.102708f,0.098333f,0.180860f,-0.067282f,-0.086314f,-0.111989f,0.264421f,-0.111974f,-0.034491f,-0.000183f,0.115623f,0.037299f,0.128186f,0.051335f,-0.038957f,0.022387f,0.078568f,-0.009197f,-0.003569f,0.032605f,-0.104559f,-0.211083f,0.013991f,-0.027122f,-0.039233f,-0.153953f,0.002804f,0.172558f,-0.044804f,-0.084079f,0.021286f,-0.089530f,0.119056f,0.045846f,-0.141146f,0.092494f,0.013044f,-0.046127f,0.036493f,0.186407f,0.101750f,-0.001437f,-0.019986f,0.148428f,0.112275f,0.099163f,0.104574f,-0.023938f,-0.050193f,0.023535f,0.013084f,-0.019714f,-0.099555f},
  {0.031383f,0.074730f,-0.055635f,0.040688f,0.126211f,0.004275f,0.026360f,-0.012738f,0.011813f,-0.064307f,-0.010032f,-0.239498f,-0.056706f,0.070759f,0.224531f,-0.000681f,0.222660f,0.078414f,0.021894f,-0.001519f,0.168787f,0.163580f,0.146744f,-0.051809f,-0.190707f,0.085604f,-0.021175f,-0.085309f,-0.077675f,-0.013170f,0.102750f,0.084900f,0.015958f,-0.051990f,-0.009326f,-0.181699f,0.066755f,0.019518f,-0.154274f,-0.042348f,0.062264f,-0.026314f,0.110756f,0.000100f,0.080094f,0.114249f,-0.231320f,-0.046310f,-0.082666f,-0.208724f,-0.066981f,-0.188756f,-0.007521f,-0.008719f,-0.040012f,0.030618f,-0.069272f,0.028788f,-0.035763f,-0.034232f,0.016646f,-0.006494f,0.020819f,0.041588f},
  {-0.022429f,-0.022974f,0.059955f,-0.009346f,0.166317f,-0.089270f,-0.012941f,-0.006951f,-0.036033f,0.130292f,-0.037845f,0.105365f,-0.159965f,-0.073518f,-0.114210f,0.108116f,0.040486f,0.000219f,-0.081579f,-0.174393f,0.080561f,0.023766f,0.002403f,-0.087123f,0.111001f,0.116242f,-0.026501f,0.097561f,0.009595f,0.020658f,-0.000918f,0.251047f,0.141899f,0.021398f,-0.014817f,-0.022052f,-0.042746f,0.265644f,0.098807f,-0.076271f,0.014242f,-0.032980f,-0.075915f,0.018368f,-0.063179f,0.042102f,-0.027974f,0.010050f,0.045173f,0.233033f,-0.118570f,-0.031155f,-0.018162f,0.022553f,0.015281f,-0.034532f,0.009396f,-0.119846f,0.015499f,-0.068743f,-0.028177f,-0.007963f,-0.022803f,0.056885f},
  {-0.051774f,0.005838f,0.061673f,-0.033410f,-0.029329f,0.054151f,0.034193f,-0.023324f,0.097256f,-0.151931f,0.047689f,0.281617f,0.025096f,-0.283381f,-0.098067f,0.068685f,-0.102854f,-0.272290f,0.319752f,0.156801f,0.042229f,-0.111420f,0.050470f,-0.001830f,-0.015170f,-0.160302f,-0.007458f,-0.004296f,-0.026672f,-0.044690f,0.004256f,0.048053f,0.103106f,-0.007009f,-0.011171f,0.103935f,0.161938f,0.162689f,0.065287f,-0.029284f,-0.003291f,-0.050255f,-0.034090f,0.035843f,-0.060430f,-0.050499f,0.006969f,-0.026774f,0.050893f,0.132616f,-0.102990f,0.083089f,-0.019229f,-0.038432f,0.134394f,-0.139892f,0.013413f,0.033478f,-0.033788f,0.099309f,-0.000701f,0.012366f,0.000207f,-0.235107f},
  {-0.015942f,0.125517f,-0.043795f,-0.004326f,0.048406f,-0.106727f,0.003693f,0.032344f,0.104363f,-0.276435f,-0.024047f,-0.078453f,0.208606f,-0.105480f,0.003651f,0.090665f,-0.113957f,-0.294989f,0.181070f,0.203515f,0.044376f,-0.027371f,0.017615f,0.031970f,-0.077572f,-0.218072f,-0.005892f,0.045787f,-0.044861f,-0.054766f,0.094030f,0.055864f,0.099257f,-0.011086f,-0.005309f,-0.088451f,0.109831f,0.012693f,0.019303f,0.013730f,-0.066241f,-0.023582f,-0.146996f,-0.113280f,-0.173530f,0.078788f,-0.004988f,0.009048f,0.010331f,0.306689f,-0.003939f,-0.020507f,-0.030742f,-0.029946f,0.129442f,-0.071686f,0.069229f,0.121979f,0.025889f,0.149927f,-0.066960f,-0.021300f,0.012849f,-0.225675f},
  {0.024626f,0.110804f,-0.189620f,-0.030953f,-0.017241f,-0.044829f,-0.002157f,0.025186f,0.182722f,-0.017304f,-0.044365f,-0.280334f,0.076367f,0.038667f,-0.132882f,0.180592f,-0.161423f,-0.400628f,0.159042f,0.139172f,-0.220790f,0.131216f,0.039455f,-0.007028f,0.127140f,-0.075587f,-0.022268f,0.075688f,-0.128422f,0.027605f,0.004348f,0.069023f,-0.126650f,0.044521f,-0.024221f,0.391451f,-0.172451f,0.169548f,0.114219f,0.078105f,-0.177163f,-0.024095f,-0.070502f,-0.066342f,-0.128650f,-0.086546f,0.180740f,0.025139f,0.054702f,0.203874f,0.169885f,0.098087f,-0.003682f,0.031893f,0.104518f,0.135183f,0.097493f,-0.010468f,-0.032499f,0.003654f,-0.082915f,-0.053871f,-0.030438f,0.112058f},
  {0.021749f,0.000266f,-0.018466f,-0.020835f,-0.048600f,-0.010316f,-0.011372f,-0.039477f,0.033470f,-0.062333f,0.003708f,0.020343f,-0.001832f,0.002466f,0.066519f,-0.003623f,-0.000109f,-0.011244f,-0.011513f,0.064292f,0.030485f,0.006090f,0.004691f,0.000574f,0.023454f,0.005340f,0.023801f,0.064543f,-0.008233f,-0.038070f,-0.054165f,-0.009130f,-0.011574f,-0.000334f,0.001734f,-0.050276f,0.107460f,0.061657f,0.034885f,-0.064016f,0.022231f,0.015598f,0.000576f,-0.104692f,-0.057847f,-0.005629f,0.046103f,-0.019961f,0.028209f,0.045557f,0.016163f,0.038005f,-0.033496f,0.006613f,0.050114f,0.045194f,-0.025812f,0.063485f,-0.009736f,-0.025307f,0.092383f,-0.019675f,-0.018854f,0.027591f},
  {0.017845f,0.137738f,-0.163431f,-0.056454f,-0.055904f,-0.013056f,-0.038790f,-0.018310f,-0.059968f,-0.078543f,-0.055165f,-0.176136f,-0.006965f,0.067957f,-0.032441f,-0.053919f,0.154505f,-0.136208f,-0.137491f,-0.155858f,0.035902f,0.199534f,0.196003f,0.093466f,0.019860f,0.128611f,0.012054f,-0.057356f,0.003431f,-0.004708f,0.007013f,0.112069f,-0.173899f,-0.025299f,0.005878f,-0.114693f,-0.052448f,0.246847f,-0.028093f,0.007480f,0.189057f,-0.031803f,-0.045374f,0.124921f,0.011829f,0.158962f,0.111831f,-0.005529f,-0.085540f,-0.036826f,0.032442f,-0.108134f,-0.030575f,-0.016395f,0.089412f,0.111162f,0.009188f,0.133050f,0.015269f,-0.020954f,0.194790f,0.033885f,0.021288f,0.172705f},
  {-0.005562f,-0.119928f,-0.087743f,0.037068f,0.025490f,-0.039421f,-0.009901f,0.003912f,0.008705f,0.210881f,0.002827f,-0.005077f,0.096919f,0.066420f,0.014638f,-0.047734f,-0.005223f,-0.008168f,0.011048f,-0.022579f,-0.055016f,0.077071f,-0.122406f,0.057832f,-0.215560f,0.110716f,0.003498f,0.094741f,-0.086964f,-0.022356f,-0.056548f,0.062393f,0.115298f,0.008557f,-0.011275f,-0.204011f,0.032922f,0.179317f,-0.166851f,-0.004828f,-0.061999f,-0.018401f,0.064443f,0.241679f,-0.075537f,0.060386f,0.035621f,-0.028116f,-0.042726f,0.010531f,-0.170737f,0.031877f,-0.014695f,0.034345f,-0.093230f,-0.030005f,0.066960f,0.021482f,-0.031534f,0.114749f,-0.095776f,-0.028046f,-0.019783f,0.034771f},
  {0.024325f,-0.071765f,0.053270f,0.014536f,-0.176327f,-0.005399f,-0.036030f,-0.027074f,0.050149f,0.083304f,0.048969f,0.205885f,0.013446f,-0.082750f,-0.007963f,0.099763f,0.002595f,-0.071563f,0.076157f,0.008335f,0.026325f,-0.014089f,-0.150615f,-0.109618f,0.038438f,0.004347f,0.016792f,-0.052570f,0.002212f,-0.003742f,-0.088503f,0.141352f,0.210441f,-0.004147f,-0.028584f,-0.013956f,0.024155f,0.154418f,0.079725f,-0.048428f,-0.052870f,-0.019262f,0.004622f,0.045887f,-0.171722f,-0.116497f,0.130620f,-0.005021f,0.037581f,0.195516f,-0.187910f,0.002698f,-0.015956f,-0.044865f,0.022213f,-0.153451f,-0.040542f,-0.008785f,-0.018918f,-0.037679f,-0.242224f,-0.008027f,-0.013299f,-0.014055f},
  {-0.038083f,0.035518f,0.208330f,0.016505f,-0.005020f,-0.107059f,-0.036741f,-0.011508f,0.163351f,-0.034803f,0.119073f,0.396588f,0.041560f,-0.330469f,0.005134f,0.202693f,-0.115253f,-0.235618f,0.455456f,-0.004532f,-0.085620f,-0.187713f,-0.138556f,-0.070360f,0.062360f,-0.468261f,-0.018962f,0.001807f,-0.044933f,0.025452f,0.068547f,0.036471f,0.242324f,-0.024721f,0.000231f,0.151714f,0.195102f,0.066810f,-0.059784f,0.010071f,-0.083601f,0.012634f,0.031955f,-0.270719f,0.014906f,-0.195679f,-0.070567f,-0.017000f,0.026588f,0.196459f,-0.271125f,0.018174f,0.012579f,0.041965f,0.332218f,-0.291507f,0.057822f,-0.089522f,0.006447f,0.211181f,-0.019817f,0.057151f,-0.027005f,-0.364137f},
  {-0.012277f,0.093271f,-0.038087f,-0.032439f,0.048359f,0.015074f,0.069461f,-0.027555f,0.095281f,-0.152979f,-0.139559f,0.024375f,0.115647f,-0.062364f,-0.042379f,0.040466f,-0.121504f,-0.229459f,0.348896f,0.238472f,0.110657f,0.109265f,-0.057612f,-0.189464f,-0.209798f,-0.518487f,-0.028714f,-0.189648f,0.003926f,-0.004378f,0.092231f,0.165465f,0.065560f,-0.015465f,0.028755f,-0.043796f,0.290906f,-0.236818f,0.090473f,-0.016262f,-0.105636f,-0.041593f,0.052236f,-0.180615f,0.044091f,0.067932f,0.057219f,-0.021140f,-0.064154f,0.108413f,-0.008051f,0.182974f,0.007269f,-0.031765f,0.317493f,-0.223461f,-0.060260f,0.147823f,-0.038957f,0.229271f,-0.562293f,-0.046603f,-0.012116f,-0.285034f},
  {-0.017556f,-0.137295f,-0.064674f,-0.016592f,-0.072702f,-0.191591f,0.009154f,0.000777f,0.053029f,0.025510f,-0.223360f,0.108997f,0.000734f,0.192571f,-0.102551f,-0.095988f,-0.327000f,-0.435898f,0.227944f,0.309097f,-0.246014f,-0.080306f,-0.424980f,-0.312369f,-0.080836f,-0.022598f,0.028196f,-0.039303f,0.031541f,-0.000033f,0.109854f,0.319948f,0.216365f,0.056228f,0.005729f,0.285874f,0.125212f,0.059091f,-0.080525f,0.008658f,-0.068780f,-0.040904f,0.011305f,-0.062199f,0.142116f,-0.149193f,0.041256f,-0.029049f,0.127230f,-0.140373f,-0.165607f,-0.016967f,0.021743f,0.026753f,0.493057f,-0.442546f,0.281011f,0.170851f,0.027742f,0.535879f,-0.388885f,-0.011900f,-0.007647f,-0.254399f},
  {0.006075f,0.029631f,-0.047468f,-0.042603f,-0.004098f,0.011676f,-0.001048f,-0.001972f,0.038531f,-0.070123f,0.048257f,0.019503f,0.004132f,0.023053f,0.080743f,-0.002851f,0.038352f,0.036406f,-0.054073f,0.073357f,0.008276f,0.027844f,-0.003414f,0.032463f,-0.017779f,0.069045f,-0.033715f,0.111477f,-0.036528f,-0.022849f,-0.056078f,0.042353f,0.021737f,0.003971f,0.005320f,-0.028697f,0.038370f,0.099177f,0.018402f,-0.071794f,0.044089f,0.002517f,-0.054487f,-0.040722f,-0.072589f,0.032763f,0.007336f,-0.009753f,0.057887f,0.093374f,0.024286f,-0.002878f,0.024132f,-0.046832f,0.046101f,0.085757f,0.011896f,0.031465f,0.022113f,-0.040056f,0.083143f,-0.062382f,-0.036116f,0.024597f},
  {-0.003427f,0.045295f,-0.017196f,0.016530f,-0.043944f,-0.029370f,-0.037709f,0.001018f,-0.016644f,-0.073141f,0.059492f,0.081421f,0.119453f,-0.013588f,-0.025092f,0.082866f,-0.046879f,-0.054415f,-0.017242f,-0.013422f,-0.019659f,0.025504f,0.003003f,-0.028594f,0.066590f,0.085584f,-0.054844f,0.133379f,-0.118984f,-0.020568f,-0.081602f,-0.047329f,0.092759f,-0.045358f,0.007501f,-0.013680f,-0.012734f,0.079869f,0.092935f,-0.052922f,0.033177f,0.010100f,-0.107156f,0.028917f,-0.061913f,-0.108152f,0.013891f,-0.023387f,0.113095f,0.112387f,-0.007891f,0.064527f,-0.020341f,-0.022909f,-0.090185f,0.003055f,-0.045805f,-0.067260f,-0.018529f,-0.130365f,0.059466f,-0.005147f,-0.060153f,0.010250f},
  {-0.047111f,0.057065f,0.071993f,-0.048835f,0.096314f,0.023804f,-0.007529f,-0.024548f,0.089355f,-0.082897f,-0.076684f,-0.032410f,0.044820f,0.046899f,-0.174427f,0.191818f,-0.082776f,0.044364f,-0.051308f,-0.069144f,-0.122265f,0.030050f,0.035145f,0.001997f,0.110342f,-0.043864f,-0.005079f,0.078164f,-0.064991f,-0.006172f,-0.043363f,0.018552f,0.024781f,0.003721f,0.024524f,0.157202f,-0.081282f,0.042879f,0.108661f,-0.057533f,-0.060482f,0.025991f,-0.137407f,0.015347f,0.150736f,0.044156f,0.079840f,-0.038105f,0.036059f,-0.035020f,0.097276f,0.012940f,-0.011537f,-0.025363f,0.091614f,0.043567f,-0.060391f,0.058828f,-0.025436f,0.056481f,-0.088033f,-0.040780f,0.030850f,-0.003168f},
  {-0.027592f,0.055054f,0.024910f,-0.046686f,0.024299f,0.067518f,-0.021639f,-0.024060f,0.138844f,-0.034963f,0.047182f,-0.040603f,-0.046336f,-0.041301f,-0.140390f,0.126182f,0.050002f,0.083859f,0.125006f,0.051644f,0.072472f,0.059843f,0.111967f,0.039951f,-0.071663f,-0.029626f,-0.017812f,0.086594f,-0.040480f,-0.010603f,-0.173231f,0.021174f,-0.100166f,-0.046050f,-0.000808f,0.037062f,0.057573f,0.021018f,0.006041f,-0.015522f,-0.002760f,-0.015635f,-0.123110f,0.043959f,0.009975f,-0.005867f,0.017370f,-0.046414f,0.008295f,0.011065f,0.046136f,-0.023272f,-0.036396f,-0.048450f,0.104851f,0.033050f,-0.068369f,0.098988f,0.002587f,-0.011600f,0.040848f,-0.067278f,-0.018631f,0.037283f},
  {-0.040489f,0.048218f,-0.007368f,0.012223f,0.047571f,0.075704f,-0.045605f,0.005772f,0.036808f,-0.011016f,-0.046225f,0.017783f,-0.025039f,0.065167f,0.098972f,0.027440f,-0.168473f,0.043319f,-0.043137f,-0.023023f,-0.045196f,0.035096f,0.012046f,0.144573f,0.164019f,0.016747f,-0.003808f,-0.072830f,-0.009008f,-0.003492f,-0.044375f,0.109980f,-0.165675f,-0.041102f,-0.010112f,-0.010450f,-0.052792f,0.001769f,0.051177f,-0.053125f,0.012127f,0.006023f,0.003548f,0.092784f,0.027423f,-0.065631f,0.142733f,-0.026860f,-0.192986f,0.079380f,-0.038103f,-0.029240f,-0.018187f,-0.006118f,-0.003374f,-0.033440f,-0.020926f,0.011239f,-0.003017f,0.083159f,0.081041f,-0.011507f,-0.009774f,-0.103530f},
  {-0.020455f,0.119580f,0.021590f,-0.024694f,-0.094071f,-0.078813f,0.005662f,-0.026586f,-0.029959f,-0.082056f,0.053078f,0.069303f,0.007696f,-0.018191f,0.090003f,0.096797f,-0.116646f,-0.034789f,-0.055971f,-0.053599f,-0.133267f,0.123844f,-0.074784f,-0.162017f,0.027183f,0.153611f,-0.041005f,0.011982f,0.066882f,-0.003628f,0.048610f,0.170537f,-0.059518f,0.005008f,-0.025769f,-0.050543f,-0.027217f,0.136981f,0.045844f,-0.068688f,0.096635f,0.021349f,-0.048333f,-0.012777f,0.077528f,-0.151277f,0.047070f,0.011682f,-0.048513f,0.102640f,-0.145402f,-0.139969f,-0.001286f,-0.003425f,0.053953f,-0.049842f,0.057482f,-0.017316f,-0.030677f,0.110449f,0.050536f,-0.053373f,0.003029f,0.193141f},
  {-0.052701f,-0.039626f,0.049649f,-0.034217f,-0.046876f,0.122183f,0.004787f,-0.038457f,-0.111552f,0.021413f,-0.101414f,0.129387f,0.007407f,0.047491f,-0.144144f,0.000530f,-0.047483f,0.017074f,-0.064153f,0.012400f,-0.071874f,-0.103736f,-0.079888f,-0.201784f,-0.032465f,0.113978f,-0.003433f,0.104918f,-0.110827f,-0.023977f,-0.117929f,0.003425f,0.064515f,0.003743f,0.023514f,0.081745f,-0.020182f,0.074454f,0.018991f,-0.085915f,-0.069892f,-0.006679f,-0.011357f,-0.090149f,0.028686f,-0.119610f,0.027869f,0.006632f,0.234674f,0.048926f,0.020747f,0.026340f,0.023873f,-0.018295f,0.110093f,0.012051f,0.190091f,-0.022122f,-0.006734f,0.118282f,0.017820f,-0.072067f,-0.061800f,0.032504f},
  {-0.014502f,0.071048f,-0.049651f,-0.023474f,-0.009199f,0.047019f,-0.015502f,-0.000131f,-0.020204f,-0.210925f,0.006099f,0.048199f,-0.028449f,0.023871f,-0.045650f,0.007187f,0.087738f,0.018361f,0.018315f,0.031415f,-0.052675f,0.014541f,0.029738f,0.005498f,-0.062673f,0.074529f,-0.037590f,0.118218f,-0.108511f,-0.022004f,-0.118520f,0.038127f,0.000337f,-0.053148f,-0.028582f,0.067126f,0.020582f,0.051341f,0.073609f,-0.074625f,0.089381f,-0.027409f,-0.121607f,-0.033040f,-0.019815f,-0.075925f,0.033530f,-0.015576f,0.084768f,0.053758f,0.008699f,-0.040793f,0.006625f,-0.025649f,0.002127f,0.103322f,-0.015837f,0.020046f,0.019716f,-0.054567f,0.020325f,-0.040134f,0.017163f,0.052053f},
  {-0.007847f,0.104727f,0.158537f,-0.067123f,0.030427f,0.096844f,-0.009029f,-0.024142f,0.039557f,-0.177360f,-0.011328f,0.086407f,0.055260f,0.122233f,-0.101423f,0.044020f,0.060016f,0.042941f,-0.022731f,-0.065525f,-0.044246f,0.010643f,-0.029316f,-0.034739f,0.007861f,0.041156f,-0.032488f,0.106873f,0.037338f,-0.020567f,0.135232f,0.120004f,-0.029616f,-0.016969f,0.018465f,0.041108f,-0.064476f,0.006680f,-0.005425f,-0.078321f,0.111253f,-0.010232f,-0.035125f,-0.026997f,0.197543f,-0.005110f,-0.030527f,-0.009119f,0.018262f,0.028944f,-0.048820f,-0.046647f,-0.003090f,-0.039598f,0.103477f,-0.083759f,0.031349f,0.010421f,-0.022798f,0.148607f,-0.025887f,-0.060833f,-0.003451f,-0.069729f},
  {0.007281f,-0.121681f,-0.076081f,-0.015318f,-0.024972f,-0.169700f,0.009566f,0.000161f,-0.037767f,0.052758f,0.116026f,0.036481f,-0.049507f,0.003207f,0.056477f,-0.067832f,0.153620f,0.074606f,0.082684f,0.022071f,0.096587f,0.169802f,0.010161f,0.004447f,0.049309f,0.141488f,-0.032047f,-0.108080f,0.026164f,-0.025840f,0.005921f,0.143291f,0.039597f,-0.044300f,0.023284f,-0.069175f,0.163101f,0.139035f,-0.039323f,-0.018811f,0.009158f,0.031091f,-0.091484f,0.003826f,-0.062162f,0.099671f,-0.103316f,0.026135f,0.028848f,0.002136f,-0.052073f,-0.087393f,-0.029789f,-0.056999f,0.053360f,0.041941f,0.003643f,-0.119147f,-0.000428f,-0.114232f,0.019543f,-0.038292f,-0.034119f,0.089116f},
  {-0.008101f,0.019823f,-0.082276f,-0.027539f,0.094867f,-0.167841f,0.013708f,-0.021069f,0.061228f,0.014798f,0.084774f,-0.001358f,-0.024738f,0.138707f,0.355579f,-0.135220f,0.098464f,0.068819f,-0.004253f,0.076838f,0.111860f,0.221701f,0.183629f,0.002471f,0.015743f,0.115818f,0.014446f,-0.231026f,0.033094f,-0.037402f,-0.080881f,0.289005f,0.043960f,-0.022519f,-0.021965f,-0.159444f,0.140335f,0.058825f,-0.083782f,-0.117548f,0.150024f,-0.020476f,0.240883f,0.000282f,0.084762f,0.069475f,-0.265125f,0.004697f,-0.044344f,0.034078f,-0.082334f,-0.204574f,0.005192f,-0.017625f,0.117561f,-0.065719f,0.121575f,-0.095693f,0.009746f,-0.035530f,0.045301f,-0.036723f,0.011182f,-0.014379f},
  {-0.008997f,0.095788f,-0.055696f,-0.040476f,-0.094535f,-0.074243f,-0.012272f,-0.039765f,0.031873f,-0.174839f,0.210559f,-0.033798f,-0.010503f,0.153585f,0.311329f,0.014906f,0.034557f,-0.025591f,0.066321f,0.088540f,-0.137661f,0.182977f,0.019942f,0.042264f,0.173682f,-0.095289f,-0.037337f,-0.012349f,-0.133340f,0.004055f,-0.018447f,0.020476f,-0.058837f,0.011749f,-0.022668f,-0.154955f,0.201440f,0.060632f,-0.094264f,-0.124580f,0.016582f,-0.007102f,0.086276f,-0.111094f,-0.064657f,-0.120618f,0.034911f,-0.033505f,-0.149231f,-0.103924f,0.123765f,-0.170712f,0.029665f,-0.006183f,0.037573f,0.106605f,0.197186f,0.072079f,-0.013837f,-0.261120f,0.199571f,0.000657f,0.019042f,0.000301f},
  {-0.001667f,0.001156f,-0.050914f,0.007836f,0.028441f,0.262997f,-0.033563f,-0.041993f,0.156371f,-0.074080f,0.012991f,0.263541f,-0.007844f,0.032349f,-0.154175f,0.093602f,-0.223199f,0.246932f,-0.407151f,-0.264501f,-0.143233f,-0.276543f,-0.241092f,-0.207510f,-0.169440f,0.157064f,-0.047328f,0.322068f,-0.021805f,-0.024717f,-0.016472f,-0.334129f,-0.032079f,-0.012560f,-0.007260f,-0.078855f,-0.356692f,-0.118399f,0.275370f,-0.013142f,0.084646f,0.022369f,0.036799f,-0.122318f,-0.166657f,-0.174087f,0.391328f,-0.030287f,0.055212f,0.130542f,0.006274f,0.103918f,0.005783f,0.059649f,-0.147619f,0.143550f,-0.248050f,0.056601f,-0.017353f,-0.227030f,0.304468f,-0.036655f,-0.019410f,0.245351f},
  {-0.019656f,0.246145f,0.163318f,-0.058759f,0.090283f,0.347300f,-0.042539f,-0.017664f,0.136970f,0.065843f,0.156926f,0.188251f,0.033522f,0.166120f,-0.373160f,0.108379f,-0.127797f,0.116254f,-0.271245f,-0.088877f,-0.234382f,-0.260713f,-0.118221f,-0.006885f,-0.005761f,-0.104841f,-0.032939f,0.052043f,0.018932f,-0.010581f,0.027202f,-0.182571f,-0.087022f,-0.056226f,-0.030187f,0.247869f,-0.118270f,-0.015667f,0.252750f,-0.055112f,0.106853f,0.014036f,-0.172834f,-0.107280f,0.000119f,-0.116376f,0.210784f,0.016166f,0.266045f,-0.128283f,0.007074f,0.006595f,-0.028620f,-0.010146f,-0.125518f,0.116570f,0.043116f,0.107826f,0.012936f,-0.003546f,-0.005073f,-0.013866f,0.011630f,-0.065986f},
  {0.002847f,0.005129f,-0.000146f,-0.005460f,0.014160f,0.039451f,-0.029818f,-0.042647f,0.096326f,0.103287f,0.039087f,0.010580f,0.056773f,-0.014745f,-0.027862f,0.002620f,-0.032595f,-0.046871f,0.028060f,-0.013017f,0.017869f,0.008346f,0.026913f,-0.001922f,-0.035385f,-0.004853f,0.004588f,0.063668f,-0.034306f,-0.014892f,-0.070916f,0.052578f,0.012128f,-0.038428f,-0.016312f,0.012994f,0.070299f,0.030722f,0.029330f,-0.073919f,-0.017742f,-0.008990f,-0.031722f,-0.023392f,-0.013669f,-0.059029f,0.014600f,-0.021883f,0.088487f,0.057376f,-0.037422f,0.040907f,-0.003326f,-0.009896f,-0.068862f,-0.045192f,0.060920f,0.029018f,-0.042904f,0.069486f,0.015981f,-0.029310f,-0.045061f,0.004272f},
  {-0.009359f,0.081257f,-0.068213f,-0.040285f,-0.027341f,-0.152809f,-0.034689f,-0.005630f,0.074748f,-0.196416f,-0.004775f,0.021245f,0.017473f,0.143787f,0.028642f,0.022016f,0.113336f,-0.007153f,-0.051187f,-0.028350f,-0.021808f,0.201926f,0.128648f,0.125108f,-0.086504f,0.080432f,-0.008481f,0.110514f,0.030776f,-0.042389f,-0.031316f,-0.036597f,-0.012439f,-0.027650f,0.015612f,-0.223875f,0.063188f,-0.074981f,-0.148045f,-0.078605f,0.109813f,-0.015739f,0.066338f,-0.059712f,-0.050766f,-0.013987f,-0.080355f,0.013462f,-0.124447f,0.057198f,0.118537f,-0.003184f,-0.019192f,-0.058681f,-0.014147f,0.082060f,-0.069508f,0.019384f,0.015364f,-0.080902f,0.086179f,-0.017985f,-0.017950f,-0.011859f},
  {-0.017427f,0.083211f,-0.076126f,-0.000105f,0.223871f,-0.113224f,0.013486f,-0.043457f,-0.077397f,-0.078304f,-0.014278f,0.086171f,-0.012628f,0.025933f,0.053316f,-0.040138f,0.057671f,0.050499f,0.066412f,-0.039451f,-0.145665f,-0.056915f,0.208788f,0.011369f,0.031076f,-0.015414f,-0.013738f,0.028590f,-0.101596f,-0.027988f,-0.193666f,-0.096091f,0.004625f,-0.061782f,-0.038867f,-0.112590f,0.053688f,-0.093396f,-0.318162f,-0.104235f,0.053111f,0.026347f,-0.053623f,-0.079600f,0.015097f,-0.029891f,0.020377f,0.007800f,-0.038563f,0.060089f,0.032449f,0.173032f,-0.015072f,-0.034437f,0.033328f,-0.064318f,-0.194363f,-0.180305f,-0.013530f,-0.022262f,-0.126149f,-0.026230f,-0.009532f,-0.305287f},
  {0.006658f,-0.160184f,0.056333f,-0.047722f,0.318549f,0.047658f,-0.040824f,-0.007862f,-0.378252f,0.067385f,0.279720f,0.189666f,0.212431f,-0.043048f,0.261131f,-0.240389f,0.247949f,0.248282f,-0.060727f,0.128611f,-0.021460f,-0.264665f,0.087740f,-0.088374f,-0.203896f,0.053966f,-0.031543f,-0.128842f,-0.050933f,0.023427f,0.012609f,-0.155286f,-0.020190f,0.004396f,0.019219f,-0.192840f,-0.031552f,-0.105051f,-0.012375f,0.032296f,0.201520f,-0.009506f,0.514077f,-0.188430f,0.212150f,0.099396f,-0.238176f,-0.025783f,-0.007954f,0.011621f,-0.093809f,0.247536f,-0.023237f,-0.054366f,0.059829f,-0.130571f,-0.244742f,-0.183664f,-0.041410f,0.089348f,-0.003876f,-0.010425f,0.002856f,-0.229042f},
  {-0.032191f,-0.294085f,0.029640f,-0.038039f,0.078266f,0.136473f,0.057278f,-0.020766f,-0.053810f,0.106608f,0.228614f,0.217546f,0.052626f,-0.111151f,0.331104f,-0.158789f,-0.032924f,0.012511f,0.014005f,0.180105f,0.002756f,-0.296465f,-0.278449f,-0.102500f,0.053502f,-0.103112f,0.022414f,-0.174143f,-0.158118f,-0.050564f,0.009171f,-0.136480f,0.066901f,0.020189f,-0.025918f,-0.103509f,-0.080719f,-0.220862f,0.013188f,0.090809f,0.048428f,0.034589f,0.368057f,0.008077f,-0.025687f,0.027106f,-0.129252f,-0.050153f,-0.004612f,-0.057188f,-0.099624f,0.300095f,-0.027738f,-0.006674f,0.148665f,-0.163472f,-0.190048f,0.029105f,-0.043312f,0.063743f,-0.035789f,-0.026302f,-0.021387f,-0.204255f},
  {-0.033850f,-0.315071f,-0.150603f,-0.055300f,-0.133246f,0.279350f,0.099972f,0.003714f,0.127379f,-0.058506f,-0.254215f,-0.107009f,0.116316f,-0.079053f,-0.382324f,-0.183270f,-0.257704f,-0.142975f,-0.060863f,0.176280f,-0.160500f,-0.203109f,-0.336179f,0.229180f,0.188437f,-0.123434f,-0.038943f,-0.059888f,-0.040690f,-0.016957f,0.013082f,-0.071857f,0.074122f,0.017541f,0.027841f,0.247372f,-0.278494f,-0.032116f,0.003985f,0.035258f,-0.110776f,0.010565f,-0.032400f,0.008994f,-0.240354f,0.177255f,0.202540f,0.012645f,0.238219f,-0.026140f,0.115313f,0.172829f,0.025682f,0.009045f,0.109399f,0.083175f,0.176265f,0.210524f,0.020086f,0.101938f,-0.020971f,-0.003487f,0.010387f,0.222461f},
  {-0.018860f,-0.193908f,0.039598f,-0.003520f,0.081863f,0.122769f,0.021548f,-0.026800f,0.020914f,-0.175657f,-0.053297f,0.090889f,0.210079f,0.010909f,-0.293750f,0.068824f,-0.135485f,0.059970f,-0.118020f,-0.116294f,-0.146706f,-0.110557f,-0.064237f,0.126788f,0.081381f,0.113578f,-0.020989f,-0.024459f,-0.039964f,-0.003901f,-0.012608f,-0.220069f,0.073154f,-0.024117f,-0.019087f,0.179589f,-0.080916f,0.089090f,0.227817f,0.047886f,-0.023579f,-0.040832f,-0.282055f,-0.103543f,-0.116741f,0.133122f,0.269395f,0.017498f,0.108689f,0.026738f,0.126485f,0.056886f,0.000792f,0.019603f,0.098731f,0.131051f,-0.011055f,0.065234f,-0.008502f,0.039546f,0.115953f,-0.003961f,0.015729f,0.188753f},
  {-0.025934f,-0.111299f,0.117003f,-0.028909f,0.187656f,-0.148521f,0.017630f,-0.036593f,-0.011882f,0.057743f,-0.054051f,0.090219f,0.056573f,0.053622f,-0.005858f,0.104084f,-0.136527f,-0.046292f,0.071899f,-0.161546f,0.099825f,0.040054f,0.082000f,0.022485f,0.188253f,0.108814f,-0.027076f,-0.059667f,-0.071771f,-0.034900f,-0.085021f,0.122762f,0.248113f,-0.043878f,0.012407f,-0.018492f,0.029292f,0.064918f,0.003504f,-0.050808f,-0.109162f,0.024597f,-0.084619f,-0.024380f,0.055677f,-0.019503f,0.047921f,0.024138f,-0.094427f,0.040152f,-0.001886f,0.001817f,0.003559f,0.000510f,0.280103f,-0.141500f,0.084066f,-0.077414f,-0.032858f,0.005873f,0.072428f,-0.036869f,-0.032235f,0.105817f},
  {-0.004584f,0.099529f,0.125034f,-0.006126f,-0.031758f,0.031277f,-0.042480f,-0.014752f,0.078329f,-0.380440f,-0.025737f,-0.044956f,0.197921f,-0.099394f,-0.051204f,0.105480f,0.032807f,-0.042354f,0.050613f,0.119508f,0.006356f,0.002022f,-0.050644f,-0.000200f,-0.004527f,-0.134062f,-0.053441f,-0.006428f,-0.003734f,-0.046405f,0.024285f,0.010854f,0.131075f,-0.009972f,-0.025253f,-0.104831f,-0.052514f,0.015725f,-0.031124f,-0.080750f,-0.046282f,-0.015501f,-0.056787f,-0.065466f,0.040130f,0.221583f,-0.008254f,-0.002056f,0.127520f,0.079972f,-0.051630f,-0.103453f,0.003407f,-0.010342f,0.016142f,0.081114f,0.161799f,0.009010f,-0.016492f,-0.009699f,0.121003f,-0.057955f,0.014816f,-0.043554f},
  {0.007777f,0.246002f,0.197536f,0.007381f,0.134428f,0.136028f,-0.037349f,-0.013974f,-0.070709f,-0.051602f,0.121914f,0.137613f,0.026096f,-0.089956f,0.123810f,0.017902f,0.191581f,-0.239247f,0.076855f,0.237809f,0.094834f,-0.124729f,0.094003f,0.173014f,-0.202155f,-0.114852f,-0.001121f,-0.186737f,-0.087820f,0.015827f,0.053704f,-0.175961f,-0.025150f,-0.031017f,0.029359f,-0.084768f,0.010745f,-0.123605f,0.076911f,-0.029790f,0.147801f,-0.043233f,0.192717f,-0.065918f,0.083299f,0.222576f,-0.209928f,0.007572f,0.079249f,0.192810f,0.023455f,0.079345f,-0.037258f,-0.003577f,-0.081316f,0.073728f,-0.027423f,0.036637f,0.015349f,-0.118283f,0.014135f,-0.025841f,-0.018571f,-0.128147f},
  {0.018856f,0.035408f,0.191369f,-0.008467f,0.182751f,0.083589f,-0.039231f,-0.032566f,-0.132788f,0.186890f,0.134844f,0.081605f,0.030425f,-0.081053f,0.237451f,-0.182654f,-0.104207f,-0.195773f,-0.115690f,0.293636f,0.111650f,-0.252326f,-0.034007f,0.037559f,-0.356277f,-0.074783f,-0.050619f,-0.203780f,-0.076945f,-0.033977f,-0.027799f,-0.002363f,-0.135477f,-0.004334f,0.012855f,-0.189855f,0.074972f,-0.235690f,0.009356f,-0.078550f,0.147804f,0.019682f,0.247456f,0.023795f,0.152060f,-0.031081f,-0.208858f,0.040491f,-0.030516f,0.012170f,-0.129906f,0.038541f,-0.033709f,-0.021798f,-0.372549f,-0.199441f,0.086904f,0.052663f,-0.010063f,0.171028f,-0.092584f,-0.064026f,-0.020752f,-0.184457f},
  {-0.024328f,-0.517725f,-0.103159f,-0.014531f,-0.300796f,-0.032811f,0.017922f,-0.041481f,-0.059148f,0.173096f,-0.172355f,-0.257483f,0.113041f,0.049938f,-0.000515f,-0.119298f,-0.041772f,0.011938f,-0.109336f,0.105365f,-0.062283f,0.134739f,-0.332114f,0.093398f,-0.224033f,-0.160344f,-0.028762f,-0.118690f,-0.014204f,0.029996f,0.056401f,0.127452f,-0.168250f,-0.025100f,-0.031572f,-0.201604f,0.194338f,-0.250689f,-0.020510f,0.066740f,-0.133786f,-0.012175f,-0.075698f,-0.160400f,-0.211607f,0.084168f,-0.003868f,-0.004702f,-0.144234f,-0.554953f,0.022202f,-0.113772f,0.029385f,0.011800f,-0.144213f,-0.093075f,0.053535f,0.086601f,-0.026243f,0.112253f,-0.231023f,-0.050217f,0.008491f,0.041167f},
  {-0.023302f,-0.308970f,-0.182726f,0.000191f,-0.272393f,0.199430f,0.009570f,-0.017027f,0.103116f,-0.093006f,-0.115206f,-0.195809f,0.126225f,0.029346f,0.071470f,-0.169399f,-0.192825f,0.126373f,-0.072867f,0.114479f,-0.108690f,-0.057352f,-0.313744f,0.148089f,0.254975f,0.022069f,-0.045597f,0.055275f,0.023225f,0.021283f,0.005301f,0.062132f,-0.105449f,-0.007993f,0.024017f,0.016392f,-0.113112f,-0.063194f,-0.018013f,0.070646f,-0.249139f,-0.034162f,-0.107689f,-0.079548f,-0.185450f,0.137250f,0.319702f,-0.022936f,0.090485f,-0.013791f,0.049898f,0.084338f,-0.033606f,0.042248f,-0.121628f,0.049979f,0.045924f,0.117818f,0.012375f,0.140807f,0.073019f,-0.022703f,-0.041292f,0.172329f},
  {-0.034218f,-0.128450f,-0.121246f,-0.026824f,0.023150f,0.320606f,0.050334f,-0.051256f,0.026145f,-0.030545f,0.019421f,0.050526f,0.303088f,0.178172f,-0.076030f,-0.207472f,-0.116960f,0.027195f,-0.236558f,0.040066f,-0.071847f,-0.170622f,-0.222670f,0.160689f,-0.100527f,0.141232f,-0.018092f,0.054164f,0.077063f,0.028699f,-0.090062f,0.042343f,-0.137507f,0.014670f,0.017982f,0.026072f,-0.063760f,-0.031243f,-0.017186f,-0.081860f,-0.063565f,-0.019979f,-0.053536f,0.048038f,-0.027831f,-0.074620f,0.210842f,-0.031162f,0.241638f,-0.108169f,0.022135f,0.095805f,-0.016446f,-0.034309f,-0.051814f,0.110292f,0.223930f,0.118111f,0.026503f,0.233823f,-0.013007f,-0.055468f,0.022369f,0.024021f},
  {-0.008498f,-0.102168f,-0.081605f,-0.038096f,-0.090383f,0.220012f,-0.048996f,-0.018610f,0.062070f,-0.161711f,0.059352f,0.032678f,-0.009181f,0.076909f,-0.151850f,0.055857f,-0.048123f,0.025738f,0.027148f,0.179293f,-0.061710f,-0.071143f,-0.156897f,0.143373f,-0.178404f,-0.186277f,-0.018447f,-0.039559f,-0.081056f,-0.009004f,-0.067156f,-0.034615f,-0.079311f,-0.049718f,-0.000141f,0.245158f,-0.089683f,0.037212f,0.142439f,-0.083951f,0.014040f,0.000708f,-0.113635f,0.042935f,-0.134209f,-0.015188f,0.223036f,-0.038160f,0.224297f,0.043541f,0.111440f,0.173796f,0.019473f,-0.002907f,-0.054770f,0.194542f,0.000199f,0.177638f,-0.039820f,0.143079f,-0.241875f,-0.063246f,0.009128f,-0.078143f},
  {-0.010972f,0.082331f,0.020567f,-0.022030f,-0.034710f,-0.041707f,-0.003037f,0.001007f,0.066990f,0.061733f,0.074751f,0.126134f,0.133472f,-0.177237f,-0.023291f,0.223285f,-0.049578f,-0.133158f,0.103824f,-0.001011f,-0.086124f,-0.097686f,-0.020353f,-0.080419f,-0.117996f,0.001808f,-0.002839f,0.304649f,-0.070869f,-0.044076f,-0.004733f,-0.088597f,0.104086f,-0.010864f,0.006124f,-0.104340f,0.102030f,-0.011080f,0.009154f,-0.034923f,-0.050791f,-0.036464f,-0.018523f,-0.048882f,0.019222f,-0.071188f,-0.106588f,0.022677f,0.099879f,0.175286f,-0.029882f,0.083389f,0.002203f,-0.033707f,-0.148855f,-0.121472f,-0.058603f,-0.056487f,0.003845f,0.043806f,-0.015785f,-0.032368f,0.023591f,-0.013652f},
  {-0.025288f,0.048233f,0.068603f,-0.015509f,-0.041067f,0.057763f,-0.012379f,-0.024431f,0.199329f,-0.024264f,0.119387f,-0.073362f,0.021930f,0.003691f,-0.006138f,0.064931f,-0.121968f,-0.049524f,0.135383f,0.184440f,-0.160850f,-0.104356f,-0.056974f,0.207946f,-0.292842f,-0.425467f,-0.058417f,-0.095193f,-0.029295f,-0.020503f,-0.017898f,-0.061169f,0.010091f,-0.019388f,-0.005099f,0.139828f,0.067304f,-0.106024f,-0.062764f,0.000309f,-0.007331f,0.019448f,-0.057165f,-0.193302f,0.031161f,-0.056434f,0.149176f,-0.018296f,0.023533f,0.214939f,0.038246f,0.309135f,0.024088f,-0.044843f,-0.237881f,-0.088542f,-0.079171f,0.082254f,-0.007765f,0.103689f,-0.057392f,-0.004979f,0.018525f,-0.225204f},
  {0.003209f,-0.138869f,-0.000543f,-0.010328f,-0.162379f,0.057387f,0.002792f,-0.002378f,-0.090922f,-0.077557f,0.235857f,-0.096737f,-0.145590f,0.109706f,0.122648f,-0.234170f,-0.103542f,0.026994f,0.111054f,0.371803f,-0.093908f,-0.164038f,-0.169963f,0.222183f,-0.064432f,-0.427724f,-0.003943f,-0.078710f,0.015696f,-0.001120f,-0.032410f,-0.104146f,0.155507f,-0.060135f,-0.008617f,0.055866f,0.194583f,-0.025194f,0.050537f,0.074915f,0.082664f,0.018802f,-0.011348f,-0.075621f,0.133692f,-0.009103f,-0.028978f,-0.013368f,0.216716f,0.028711f,0.165167f,0.319425f,0.010667f,0.051298f,-0.022935f,-0.054441f,0.119437f,0.097593f,0.018402f,0.202081f,-0.332721f,-0.038975f,-0.016653f,-0.184727f},
  {0.025844f,-0.047533f,-0.028732f,0.002897f,0.079829f,-0.001831f,-0.053360f,-0.032680f,0.003509f,-0.293305f,0.023796f,-0.327152f,0.101596f,0.215427f,0.129732f,-0.080410f,0.084592f,-0.135408f,-0.037809f,0.131611f,0.195083f,0.120807f,-0.039818f,0.109931f,-0.163107f,-0.080232f,0.000530f,-0.048510f,-0.028634f,-0.013375f,0.015251f,0.186917f,-0.019532f,-0.037643f,-0.011719f,-0.077083f,0.160942f,-0.159594f,-0.137848f,-0.024044f,-0.476008f,-0.032830f,0.116544f,0.034461f,0.079930f,-0.065968f,0.011455f,-0.027534f,-0.043135f,-0.468939f,0.007812f,0.038816f,0.000873f,0.003953f,0.139938f,-0.109701f,0.061122f,0.118694f,-0.014333f,0.243026f,-0.120567f,-0.040872f,-0.007266f,0.046590f},
  {0.037262f,0.137477f,-0.064645f,0.056369f,0.115339f,0.283528f,-0.026972f,-0.010160f,0.003301f,0.116517f,0.122419f,-0.051678f,0.074025f,0.054334f,0.003039f,-0.006418f,0.001114f,-0.146086f,-0.057050f,-0.015772f,0.153790f,-0.124143f,0.000885f,-0.075822f,-0.080597f,0.011951f,-0.014800f,0.141462f,-0.014914f,-0.012300f,-0.070267f,-0.208671f,-0.243560f,0.033957f,0.015987f,0.148980f,-0.201375f,-0.078042f,0.149090f,-0.037132f,-0.188143f,0.024627f,-0.022533f,0.095556f,0.040679f,-0.004297f,-0.019432f,0.003399f,0.222935f,-0.015105f,-0.134440f,0.234053f,0.016648f,-0.047001f,0.023616f,-0.012875f,-0.172547f,-0.015787f,0.023473f,0.236223f,0.040374f,-0.001078f,-0.011984f,-0.014228f},
  {-0.012044f,-0.136641f,-0.104026f,-0.025043f,0.099278f,0.383514f,-0.037745f,-0.042919f,0.015645f,-0.171582f,-0.129624f,0.066531f,0.280525f,0.190301f,0.151819f,-0.214129f,0.126191f,-0.140545f,-0.192507f,-0.064251f,0.136161f,-0.021324f,-0.148366f,-0.307096f,0.067993f,0.240686f,-0.008500f,-0.302698f,0.038396f,-0.065184f,-0.040007f,0.141510f,0.010331f,-0.022115f,-0.009524f,0.022030f,-0.326518f,0.024670f,-0.084770f,-0.047155f,0.094827f,0.027795f,0.157396f,0.120738f,-0.000514f,-0.001565f,0.209906f,-0.004918f,0.047216f,-0.068844f,-0.266780f,-0.112346f,-0.034650f,-0.051395f,0.107140f,-0.132496f,0.114200f,-0.103839f,-0.042433f,0.379920f,0.179573f,-0.011292f,0.018373f,-0.003906f},
  {0.015470f,0.144002f,0.028318f,-0.064961f,0.160178f,0.178392f,-0.036620f,-0.017717f,-0.037287f,-0.230302f,-0.067116f,0.090500f,-0.041129f,0.149989f,0.079165f,0.084107f,0.101407f,-0.043728f,-0.104356f,-0.072604f,0.016938f,0.006487f,-0.094328f,-0.168705f,-0.094286f,0.209249f,-0.032003f,-0.088883f,0.032375f,-0.012311f,-0.021705f,0.130202f,-0.119643f,-0.039181f,-0.025733f,-0.080687f,-0.233236f,0.078384f,-0.088353f,-0.021211f,0.125694f,0.009285f,0.010028f,-0.081021f,0.018525f,0.076945f,0.171373f,-0.023194f,-0.107304f,0.024252f,-0.049927f,-0.083795f,0.012723f,-0.055130f,0.113705f,0.019653f,-0.043218f,0.007810f,-0.026340f,-0.022761f,0.205209f,-0.032291f,-0.033972f,0.087893f},
  {-0.016420f,-0.045272f,-0.054992f,-0.060021f,0.057044f,0.071174f,-0.015873f,-0.023610f,-0.006087f,0.140382f,-0.095846f,0.063250f,-0.096604f,-0.006049f,0.038406f,0.064082f,-0.032137f,0.111071f,-0.089703f,-0.094372f,0.140873f,0.098541f,0.021417f,-0.066019f,0.148260f,-0.117612f,-0.004513f,-0.037295f,-0.079048f,-0.000029f,-0.027741f,0.080471f,-0.073275f,-0.041996f,0.013929f,-0.082597f,-0.065004f,-0.118820f,0.085119f,-0.045017f,-0.105368f,0.022811f,0.017804f,-0.003811f,0.015793f,-0.019596f,-0.012753f,-0.029024f,-0.153919f,-0.070184f,-0.048416f,-0.018973f,0.025303f,-0.057294f,0.190288f,-0.015473f,0.051303f,-0.060478f,-0.017410f,0.050272f,0.043976f,-0.054988f,-0.000818f,0.019103f},
  {-0.055805f,-0.156133f,0.016799f,-0.070411f,-0.091835f,-0.016298f,-0.042229f,-0.019560f,0.168284f,-0.163672f,-0.134637f,0.189034f,-0.033790f,-0.063217f,-0.009487f,-0.018951f,-0.124633f,-0.046333f,0.139522f,0.132665f,0.037585f,-0.010967f,-0.025425f,0.022323f,0.020095f,-0.179882f,-0.007084f,-0.009626f,-0.079046f,-0.056262f,-0.038698f,-0.032033f,-0.011938f,-0.015791f,-0.036908f,0.121263f,0.004684f,-0.273801f,0.059676f,-0.021453f,-0.035546f,0.015422f,-0.128194f,0.017994f,0.035554f,-0.041591f,0.067439f,-0.005920f,0.100562f,-0.107626f,0.002954f,-0.021996f,-0.011006f,0.009469f,0.107196f,0.003703f,0.022752f,0.014721f,-0.002783f,0.068370f,-0.103164f,-0.004654f,-0.025603f,-0.089108f},
  {-0.012784f,-0.053840f,-0.129062f,-0.064767f,-0.075486f,-0.122239f,-0.019003f,-0.033255f,-0.373577f,-0.310956f,-0.044686f,0.128710f,-0.152068f,0.020076f,0.057572f,-0.303803f,0.028559f,-0.101877f,0.020085f,0.239137f,0.059053f,-0.029742f,0.052246f,0.119037f,0.102682f,0.055739f,-0.048020f,-0.162308f,-0.031235f,-0.050245f,-0.098518f,0.015703f,0.000281f,-0.005954f,0.005728f,-0.041802f,0.063780f,-0.261413f,-0.172585f,0.005113f,0.091792f,-0.014016f,-0.009181f,0.049963f,0.075624f,0.056181f,-0.070998f,-0.045379f,0.007080f,-0.442846f,0.127463f,-0.032754f,-0.023363f,0.020958f,0.204126f,0.042601f,0.213267f,0.061058f,0.004338f,0.105736f,0.021639f,-0.038141f,0.024546f,0.003642f},
  {0.002146f,0.252676f,-0.210964f,-0.024629f,-0.034345f,0.051194f,-0.023201f,-0.053818f,-0.226530f,-0.089915f,-0.089646f,0.066115f,-0.163724f,0.074554f,0.078545f,-0.050261f,0.127612f,0.154871f,-0.169871f,-0.066662f,0.008962f,0.134590f,0.190874f,0.006789f,-0.029361f,0.178202f,-0.062619f,-0.116008f,0.037929f,-0.039609f,-0.043019f,-0.030305f,-0.176901f,-0.056206f,0.010079f,-0.090922f,-0.098996f,-0.190058f,0.075631f,-0.043559f,0.025457f,0.018711f,0.160176f,0.061366f,-0.005769f,0.015307f,0.090709f,-0.028474f,-0.050098f,-0.094688f,0.171453f,0.066981f,0.018721f,0.027645f,0.033763f,0.145748f,0.044725f,-0.093619f,-0.044184f,-0.170321f,0.225788f,-0.073420f,0.003411f,0.015711f},
  {-0.020506f,-0.008638f,0.008112f,-0.044625f,0.045794f,0.053159f,0.010852f,-0.000749f,-0.012182f,0.029873f,-0.008589f,0.281978f,-0.215038f,-0.062569f,-0.014287f,-0.159230f,0.135192f,0.066407f,-0.105960f,-0.073353f,-0.119245f,0.042123f,0.036392f,0.054744f,-0.088016f,0.230403f,-0.021715f,0.035026f,-0.008153f,0.003975f,-0.038197f,0.062267f,-0.119890f,-0.033394f,0.016895f,-0.064385f,-0.151943f,-0.176102f,0.098285f,-0.036724f,0.032763f,-0.032912f,0.133972f,-0.070637f,0.069479f,-0.013519f,0.000132f,-0.004075f,-0.121505f,-0.143556f,0.009379f,0.060580f,0.016983f,-0.061220f,0.053341f,0.039281f,-0.066534f,-0.065191f,-0.004574f,-0.090097f,0.072655f,-0.042232f,-0.036448f,0.061552f},
  {-0.023214f,-0.058711f,0.116357f,-0.054496f,0.214131f,0.040318f,-0.013214f,-0.002738f,-0.026401f,-0.015261f,-0.204149f,0.226672f,0.017668f,-0.072420f,0.015910f,-0.177618f,0.107664f,0.101029f,-0.111184f,-0.102480f,0.013186f,0.030417f,-0.093200f,0.003929f,0.015899f,0.218887f,-0.005621f,-0.051495f,0.018594f,-0.036145f,-0.007893f,0.097017f,-0.093226f,-0.054165f,0.005768f,-0.126561f,-0.003269f,-0.143336f,0.013339f,-0.076434f,-0.149701f,-0.008198f,0.022040f,0.006260f,0.073984f,-0.027159f,0.125885f,-0.018863f,-0.083145f,-0.085663f,-0.146694f,-0.063353f,0.000535f,0.004172f,0.258968f,-0.198033f,-0.058468f,0.127767f,0.025564f,-0.025150f,0.104451f,-0.007016f,-0.018814f,0.159126f},
  {0.006866f,-0.049070f,0.023155f,-0.039988f,0.114766f,0.005292f,-0.036293f,-0.038402f,0.011892f,0.071921f,-0.035023f,0.114064f,0.017972f,-0.027225f,0.039626f,0.042697f,0.031671f,0.111451f,-0.007725f,0.048611f,0.054564f,0.010117f,-0.041970f,0.006959f,0.074451f,0.011826f,0.017275f,0.081425f,0.063466f,-0.005337f,-0.017585f,-0.070742f,0.111698f,-0.055954f,0.003213f,-0.049563f,0.035571f,-0.054575f,0.023222f,-0.071962f,-0.097104f,0.003790f,-0.061174f,-0.019173f,-0.065130f,0.129804f,0.110824f,0.004720f,0.031553f,0.217658f,-0.030201f,0.076709f,-0.025099f,-0.028809f,0.017601f,0.024248f,-0.006692f,0.024537f,-0.002039f,0.003572f,0.090360f,-0.047249f,-0.042372f,0.153536f},
  {-0.014684f,0.080999f,-0.032169f,-0.025324f,-0.092686f,0.045490f,-0.024478f,-0.060832f,-0.058689f,0.141356f,0.023813f,-0.016624f,0.099411f,0.004357f,-0.124016f,-0.026048f,0.033302f,-0.137066f,-0.027384f,0.039483f,0.091787f,-0.083438f,0.076937f,0.031765f,-0.133711f,0.068774f,-0.003771f,0.169576f,-0.072719f,-0.012593f,-0.057582f,0.058032f,-0.016420f,-0.020415f,0.019664f,-0.096462f,-0.044152f,0.152160f,-0.049059f,-0.015791f,0.168858f,-0.019631f,-0.043877f,0.075217f,0.019941f,0.028302f,0.088795f,0.031227f,0.145675f,0.043636f,-0.067146f,-0.015275f,0.003542f,-0.016922f,0.094883f,-0.038061f,0.063470f,0.036719f,0.004342f,0.032108f,0.118482f,-0.054354f,-0.049287f,0.070811f},
  {0.002540f,0.021871f,-0.082375f,-0.060857f,-0.033441f,0.020043f,-0.023241f,-0.021268f,0.014146f,-0.029937f,0.077166f,-0.050651f,0.086940f,0.021814f,0.019615f,-0.055532f,0.073229f,0.084994f,-0.029167f,0.049870f,0.129170f,-0.020686f,0.085384f,0.088272f,-0.052635f,0.006340f,0.015748f,0.068144f,-0.077194f,-0.041189f,-0.056273f,-0.037925f,-0.002083f,-0.031253f,0.005855f,-0.114904f,-0.018165f,0.091326f,0.071682f,-0.034611f,0.034591f,-0.030655f,0.000381f,0.032621f,-0.103083f,0.069637f,0.143696f,-0.038625f,0.075767f,-0.048354f,0.051945f,0.010136f,0.007846f,-0.004869f,-0.034968f,0.139939f,0.015855f,0.156617f,-0.021757f,0.023843f,-0.007656f,-0.032259f,-0.034184f,-0.002346f},
  {-0.030780f,0.034783f,0.024736f,-0.023311f,0.011290f,-0.018584f,-0.033298f,-0.058584f,0.078770f,0.037863f,0.076607f,-0.041738f,-0.062701f,0.037383f,0.062412f,0.018226f,0.019085f,0.074514f,-0.004141f,0.025341f,-0.071425f,-0.007475f,0.062010f,0.098049f,0.051024f,-0.021616f,-0.037783f,0.023940f,-0.050081f,0.003907f,-0.114995f,-0.015329f,-0.135587f,-0.017116f,-0.000705f,0.091538f,-0.038991f,0.053976f,0.137916f,-0.078749f,0.063712f,0.006687f,-0.077557f,0.084891f,-0.028363f,0.054377f,0.072586f,-0.005035f,0.006053f,0.011446f,0.107046f,0.067330f,-0.006008f,-0.033618f,-0.177616f,0.127614f,0.010535f,0.117698f,0.013398f,-0.092255f,-0.062305f,-0.049931f,0.010797f,-0.025486f},
  {-0.039811f,0.006872f,0.061137f,-0.043558f,0.055939f,0.002324f,-0.043419f,0.005376f,0.043015f,-0.169584f,-0.046556f,-0.022960f,-0.065775f,-0.042383f,0.016945f,0.079771f,-0.082985f,-0.006629f,0.033031f,-0.015482f,-0.072204f,-0.047976f,0.057958f,0.096553f,0.084255f,0.019050f,-0.028195f,-0.074803f,0.030170f,-0.023179f,-0.013227f,0.047831f,-0.126989f,-0.027500f,-0.001896f,0.045148f,0.034227f,0.114676f,0.063605f,-0.018963f,0.045677f,0.003620f,-0.030626f,0.123533f,-0.002556f,-0.011907f,-0.027543f,-0.009733f,-0.100084f,0.067871f,-0.023065f,-0.035820f,0.009697f,-0.001839f,-0.087519f,0.008142f,-0.035772f,0.072502f,0.022368f,-0.054707f,0.022759f,-0.055088f,0.032973f,-0.015209f},
  {-0.046002f,0.037514f,0.040085f,-0.075530f,-0.020793f,-0.007780f,-0.021225f,-0.053739f,0.001793f,-0.256801f,0.061207f,0.067065f,0.032173f,0.077042f,-0.023219f,0.070988f,-0.035869f,-0.065629f,0.063399f,-0.054348f,0.005383f,-0.004221f,-0.021125f,-0.097512f,-0.041653f,0.023957f,-0.007109f,-0.167154f,0.052614f,-0.010866f,0.027152f,0.089888f,-0.070830f,-0.049103f,0.005448f,-0.058108f,0.018149f,0.067961f,0.031972f,-0.026761f,0.033624f,-0.037644f,0.021129f,0.176170f,0.099028f,0.001695f,0.077678f,-0.009811f,-0.072013f,-0.076054f,-0.085118f,-0.060000f,0.012998f,-0.023089f,0.185244f,-0.125972f,-0.037013f,-0.018636f,0.007826f,0.053303f,-0.050907f,0.009053f,-0.021596f,0.064899f},
  {0.012819f,-0.033359f,-0.155880f,-0.043738f,0.019381f,0.014604f,-0.048365f,-0.032207f,0.115726f,-0.061385f,-0.038399f,0.137688f,-0.311560f,-0.024766f,0.004415f,0.129519f,-0.088897f,-0.109649f,0.026186f,0.029157f,0.044059f,0.089226f,0.012670f,-0.118736f,-0.004775f,0.080942f,0.007542f,-0.062225f,0.032929f,-0.047886f,0.086638f,0.161581f,-0.054063f,-0.011173f,0.011830f,0.082263f,-0.088110f,0.204927f,0.051601f,-0.014250f,0.058408f,-0.028791f,0.006946f,-0.018978f,-0.111766f,-0.084382f,0.182680f,-0.039509f,-0.102069f,0.167912f,-0.069606f,-0.123087f,-0.012820f,0.001982f,0.218083f,-0.154094f,-0.003482f,-0.005125f,-0.038958f,0.115885f,0.211925f,-0.031087f,-0.023412f,0.110181f},
  {0.015486f,-0.008744f,-0.078539f,-0.055594f,-0.035253f,0.087161f,-0.039001f,-0.034283f,0.061179f,-0.053172f,0.014382f,-0.128060f,-0.010620f,0.016236f,-0.045808f,-0.087692f,-0.017682f,-0.025884f,-0.015786f,0.128671f,0.035967f,-0.045491f,-0.069684f,0.058685f,-0.024864f,-0.110843f,-0.019669f,0.117581f,-0.088704f,-0.055579f,-0.002945f,0.014373f,0.018244f,-0.032804f,0.015608f,0.010097f,-0.039318f,-0.007483f,0.025166f,-0.046710f,0.004328f,0.011503f,-0.032698f,-0.028789f,-0.050943f,0.049716f,0.009883f,-0.016455f,0.179680f,0.099642f,0.101473f,0.143600f,0.027351f,-0.047491f,-0.012079f,0.085584f,0.105986f,-0.001690f,0.008248f,0.056458f,-0.113970f,-0.048675f,-0.029835f,-0.003307f},
  {-0.047573f,-0.016595f,-0.040011f,-0.047707f,-0.146687f,-0.039905f,-0.043245f,-0.002961f,0.012007f,0.021678f,0.081569f,0.182043f,0.033931f,-0.047959f,-0.058888f,0.027482f,-0.070755f,0.007433f,0.016804f,0.002107f,-0.102533f,0.016523f,-0.068481f,-0.008216f,0.131865f,0.094559f,-0.047532f,0.281854f,-0.071250f,-0.017585f,0.049932f,-0.061449f,0.120350f,0.003850f,-0.026206f,-0.074471f,0.051049f,0.028153f,0.069009f,-0.022562f,-0.099216f,-0.007154f,-0.078046f,0.023426f,-0.102713f,-0.119410f,0.114704f,-0.007578f,0.040217f,0.184214f,-0.039692f,0.073003f,-0.002708f,0.020339f,0.045098f,-0.054177f,0.090292f,-0.025988f,0.020880f,-0.023967f,0.242524f,-0.064466f,-0.061662f,0.103429f},
  {-0.020215f,0.108923f,0.104552f,-0.013361f,-0.003594f,-0.020090f,-0.052565f,-0.029416f,0.065422f,-0.051183f,-0.037530f,-0.027823f,0.034595f,-0.032608f,0.002656f,0.243846f,-0.084416f,-0.043126f,-0.000447f,-0.111612f,-0.149380f,0.070988f,0.147677f,0.017747f,0.237950f,0.019653f,-0.062037f,0.091687f,-0.012175f,-0.003163f,0.046556f,-0.032244f,0.101995f,-0.035259f,0.016986f,0.028057f,-0.038418f,0.045974f,0.038558f,-0.101184f,-0.007532f,0.013652f,0.094664f,0.104141f,0.167483f,-0.188249f,0.151053f,0.006671f,-0.047082f,-0.019227f,0.025199f,-0.010498f,0.029483f,-0.032597f,-0.012127f,-0.087466f,-0.132082f,-0.037153f,-0.042584f,-0.068469f,0.044324f,0.008280f,0.008467f,-0.054119f},
  {-0.008038f,0.094801f,0.118498f,-0.042876f,0.073694f,0.014058f,-0.053788f,0.011460f,0.058215f,-0.087599f,0.077368f,-0.044739f,-0.081906f,-0.035147f,0.044441f,0.216685f,0.057595f,-0.050554f,0.062437f,0.055995f,-0.090749f,0.047511f,0.080934f,-0.014100f,-0.168404f,0.036569f,-0.040754f,0.028450f,-0.075685f,-0.017394f,-0.072784f,0.080377f,0.035671f,-0.038159f,-0.024215f,-0.002679f,0.039546f,0.043510f,-0.065328f,0.043428f,-0.027193f,-0.030456f,0.041176f,0.064705f,0.132950f,-0.060168f,-0.002372f,-0.018693f,-0.084384f,0.063549f,-0.032614f,-0.035672f,0.013448f,-0.013461f,0.087468f,-0.113408f,-0.040594f,0.079416f,-0.031267f,-0.014846f,-0.026837f,-0.050341f,-0.026939f,-0.059335f},
  {-0.009179f,0.070407f,-0.000310f,-0.034660f,0.055097f,-0.018310f,-0.043674f,0.030352f,0.009701f,-0.110957f,0.015981f,-0.012757f,-0.073250f,-0.019995f,0.074044f,0.136579f,0.046522f,-0.023729f,0.094150f,0.042222f,0.064159f,0.049852f,0.102635f,-0.033432f,0.050159f,0.082833f,-0.037104f,0.115302f,-0.087273f,-0.040493f,-0.043606f,0.136694f,-0.087194f,-0.018631f,0.001632f,-0.144968f,0.100642f,0.031832f,-0.097955f,0.026193f,0.007257f,-0.029411f,0.061048f,0.087967f,0.041894f,0.003036f,0.032363f,-0.007804f,-0.184710f,0.107510f,-0.073273f,-0.074032f,0.014967f,-0.024373f,0.042584f,-0.070342f,-0.095169f,0.041495f,-0.005280f,-0.089626f,0.011075f,-0.036121f,-0.042287f,-0.013838f},
  {-0.008803f,0.146465f,-0.049167f,-0.046280f,0.011757f,-0.021698f,-0.039093f,-0.020247f,-0.004714f,-0.234687f,0.025940f,-0.058394f,-0.118366f,0.072750f,0.049561f,0.065192f,0.122447f,-0.016442f,0.018767f,0.098652f,0.089488f,0.060065f,0.062280f,0.079011f,0.005689f,-0.061879f,-0.034254f,0.074712f,-0.023285f,-0.029711f,-0.010947f,0.119319f,-0.164678f,-0.005025f,-0.018000f,-0.071060f,-0.013090f,0.014301f,-0.139414f,-0.067956f,0.022276f,-0.030006f,0.049887f,0.035988f,0.030971f,0.000309f,0.004071f,0.023806f,-0.139172f,0.068606f,-0.000101f,-0.077402f,0.000880f,-0.003923f,-0.033905f,0.027554f,-0.062751f,0.022581f,-0.021267f,-0.078229f,-0.044958f,-0.025498f,0.012135f,-0.022144f},
  {-0.009002f,0.104344f,0.068026f,-0.033893f,-0.040913f,-0.105015f,0.008393f,0.004194f,0.026292f,-0.200425f,0.002859f,0.055065f,-0.107106f,0.066642f,0.122197f,0.069749f,0.105839f,0.082297f,-0.040906f,-0.017781f,0.119563f,0.103117f,0.021854f,0.066001f,-0.015121f,0.054622f,0.000866f,-0.085170f,-0.036680f,-0.008999f,0.079871f,0.165424f,-0.074082f,-0.001025f,0.026201f,-0.021943f,-0.082541f,0.027604f,-0.039263f,-0.089629f,0.005540f,-0.022087f,0.156074f,0.005498f,0.029161f,0.042677f,0.046180f,-0.034264f,-0.076844f,0.107737f,-0.002696f,-0.139557f,0.003181f,-0.004001f,0.075027f,-0.034998f,0.008425f,0.031573f,-0.015884f,-0.046224f,0.014285f,0.001486f,-0.032635f,0.007673f},
  {-0.051918f,0.060100f,0.099277f,-0.034089f,-0.027705f,0.006979f,-0.005810f,0.001695f,-0.048083f,-0.119327f,-0.120831f,0.086769f,-0.068018f,0.046709f,0.073609f,0.056134f,0.020396f,0.105416f,-0.019491f,-0.059056f,-0.012627f,0.105890f,0.031102f,-0.008226f,-0.041051f,0.037536f,-0.056752f,-0.021522f,-0.060655f,-0.061263f,0.025316f,0.082338f,-0.097261f,-0.063588f,-0.007873f,0.064518f,-0.068294f,0.004408f,0.033322f,-0.083714f,-0.026249f,-0.002845f,0.020344f,-0.049380f,0.042857f,-0.066630f,-0.011776f,0.016632f,0.016558f,-0.057921f,0.061054f,-0.143339f,0.015282f,-0.027826f,0.048949f,0.061936f,0.125188f,-0.030935f,-0.031400f,-0.194190f,-0.030254f,-0.002797f,0.018050f,-0.038536f},
  {0.008475f,0.075410f,0.248034f,0.032993f,-0.143644f,0.039667f,-0.040133f,-0.001974f,0.028491f,-0.140627f,-0.024360f,0.032592f,0.258154f,-0.127881f,-0.148514f,0.192120f,-0.003589f,-0.091978f,0.169968f,-0.077717f,-0.084470f,-0.092640f,0.013592f,-0.142560f,-0.064646f,-0.135529f,0.027207f,0.103035f,-0.003642f,0.017190f,0.067327f,-0.102700f,0.147957f,0.023440f,-0.006648f,0.170028f,-0.078996f,-0.118537f,0.240220f,0.066627f,0.074739f,-0.016832f,-0.099721f,-0.010393f,0.189439f,-0.077209f,0.162906f,-0.034883f,0.134309f,0.179214f,-0.080998f,0.080691f,-0.025351f,0.014113f,0.111698f,-0.200985f,0.026711f,-0.131323f,0.004036f,0.248544f,-0.042713f,0.011173f,-0.024787f,-0.013648f},
  {-0.010611f,-0.019554f,0.148161f,-0.047856f,-0.144271f,-0.020382f,-0.033892f,-0.030439f,0.045746f,-0.063164f,0.133005f,0.111955f,0.095956f,0.051726f,0.038830f,0.085109f,0.059031f,-0.047518f,0.065390f,-0.025506f,-0.222401f,-0.035126f,-0.160522f,0.059031f,-0.333144f,-0.002763f,-0.026668f,0.038118f,0.022427f,-0.051407f,0.098257f,0.036608f,-0.000660f,0.001566f,0.016163f,0.017362f,0.082327f,-0.079988f,-0.045199f,-0.059761f,-0.016522f,-0.025787f,-0.079691f,0.078187f,0.110716f,-0.151109f,0.058055f,0.013977f,0.019070f,-0.014426f,-0.068141f,-0.107375f,-0.004026f,-0.003149f,0.098480f,-0.086021f,0.050611f,0.070458f,-0.028655f,-0.063129f,-0.019205f,0.003833f,-0.017706f,-0.222704f},
  {-0.016069f,-0.069106f,0.154509f,0.000650f,-0.110094f,-0.042143f,0.023617f,0.003044f,0.026122f,0.144245f,0.155777f,0.082921f,0.085450f,-0.095289f,-0.110650f,0.033935f,0.147195f,-0.039803f,0.089790f,-0.060097f,-0.167490f,-0.036219f,-0.118797f,-0.008950f,-0.271425f,0.033375f,-0.021517f,-0.017849f,0.040844f,-0.054368f,0.058801f,0.021759f,-0.070443f,-0.015177f,-0.028082f,0.199783f,0.023770f,0.040964f,0.147721f,-0.083863f,0.056168f,-0.033856f,-0.012006f,-0.080101f,0.089368f,-0.119978f,-0.255539f,-0.036562f,0.162295f,-0.034895f,-0.183342f,-0.017024f,0.008535f,-0.000556f,-0.075367f,-0.056031f,-0.035148f,-0.044100f,0.009981f,0.025158f,-0.009496f,-0.049618f,0.027144f,-0.043976f},
  {-0.045418f,-0.123249f,-0.069767f,-0.056649f,-0.132447f,0.011621f,-0.027628f,-0.028267f,0.059894f,0.088340f,0.125686f,-0.101712f,-0.045775f,0.030941f,-0.067742f,-0.133450f,0.078242f,0.002329f,0.005363f,0.112904f,0.003974f,0.091085f,-0.019375f,0.193694f,-0.065348f,0.005987f,-0.050291f,0.001233f,-0.037428f,0.008338f,-0.010810f,0.059332f,0.051484f,-0.039333f,-0.003207f,0.012697f,0.057326f,0.059148f,-0.106152f,-0.101256f,0.113478f,0.018841f,-0.011754f,-0.086241f,-0.068480f,0.045685f,-0.213836f,-0.050057f,0.098566f,-0.022576f,0.066538f,-0.069346f,0.014395f,-0.006736f,-0.136393f,0.115479f,0.155297f,0.118725f,-0.034519f,0.001774f,0.013784f,-0.057317f,-0.028172f,-0.021453f},
  {-0.020407f,-0.056904f,-0.060404f,-0.047842f,-0.166557f,-0.030668f,0.002072f,-0.015053f,0.007527f,0.101355f,0.021253f,-0.080252f,-0.164200f,-0.087858f,-0.078361f,-0.007986f,0.095000f,-0.121454f,0.099721f,0.118151f,0.036365f,0.040413f,-0.062576f,0.088821f,-0.040448f,-0.120203f,-0.025781f,0.080450f,-0.002432f,0.003707f,0.035825f,-0.053541f,0.115113f,-0.003274f,-0.009875f,0.010873f,0.074049f,0.065007f,-0.040848f,-0.087253f,0.138203f,0.025710f,-0.021540f,-0.046797f,-0.009831f,-0.025428f,-0.035403f,-0.016083f,0.093686f,0.016335f,-0.000401f,0.059665f,-0.027978f,-0.024247f,-0.111354f,0.073250f,-0.063426f,0.036645f,0.024227f,0.032134f,-0.106400f,-0.018658f,0.030863f,-0.025134f},
  {-0.007372f,-0.029064f,-0.016240f,-0.060848f,-0.208468f,-0.032617f,-0.028112f,-0.042564f,-0.056492f,0.133111f,0.074499f,-0.055386f,-0.139994f,-0.002513f,-0.011455f,0.014411f,0.003144f,-0.078210f,0.099703f,-0.020205f,0.029471f,-0.059246f,-0.061974f,-0.012577f,-0.053016f,-0.085232f,0.026441f,0.204165f,0.020683f,-0.062786f,0.126154f,-0.101189f,0.056769f,-0.015140f,-0.009450f,0.067189f,0.049612f,0.005557f,0.089759f,-0.092248f,0.088241f,-0.010545f,0.054418f,-0.114124f,-0.043526f,-0.058663f,0.040939f,0.029682f,-0.023779f,0.028555f,-0.008470f,0.166759f,-0.032846f,0.000903f,-0.163492f,0.018510f,-0.040974f,0.019686f,0.019179f,0.061775f,-0.042996f,-0.062669f,-0.013904f,-0.061960f},
  {-0.051960f,-0.131050f,0.038015f,-0.030605f,-0.130403f,0.116534f,0.043533f,-0.011748f,-0.142420f,0.025722f,0.180031f,-0.117075f,0.008105f,-0.047673f,-0.039546f,-0.130408f,0.037489f,0.071392f,-0.047365f,0.072102f,-0.003870f,-0.161223f,-0.110344f,-0.075785f,0.058305f,-0.033540f,0.008983f,0.159278f,-0.029277f,-0.023183f,0.017705f,-0.101385f,0.072144f,-0.044454f,-0.019482f,0.063953f,-0.107370f,0.069027f,0.046253f,-0.059227f,0.060131f,0.010241f,0.085721f,-0.100120f,0.005813f,0.034677f,-0.017518f,0.001548f,0.181793f,-0.058337f,0.052496f,0.073646f,-0.013300f,0.005708f,-0.152884f,0.109984f,0.021806f,-0.120594f,-0.042298f,0.088106f,-0.057258f,-0.022669f,0.000906f,-0.011572f},
  {-0.003946f,-0.009173f,0.134263f,0.041054f,-0.008256f,-0.046384f,0.027419f,0.030743f,0.017050f,-0.059423f,-0.199009f,-0.105187f,0.252531f,-0.028806f,0.193259f,0.102739f,0.056864f,-0.102200f,0.009287f,0.043546f,-0.062885f,0.050526f,0.063177f,-0.069761f,-0.139014f,0.088281f,0.031686f,-0.032946f,-0.025306f,0.004511f,-0.089770f,0.171236f,0.048166f,-0.060199f,0.022152f,-0.137467f,0.086411f,-0.115447f,-0.145939f,0.000647f,0.016986f,-0.039069f,0.069672f,0.084773f,0.118954f,0.005310f,-0.000231f,-0.020237f,-0.050568f,-0.014157f,0.038949f,-0.000145f,-0.002540f,-0.037732f,0.030586f,-0.013325f,-0.042083f,-0.156822f,-0.018556f,-0.107347f,0.197673f,-0.030064f,-0.017766f,-0.007876f},
  {-0.060863f,0.041311f,-0.010057f,-0.019360f,0.389175f,-0.046117f,0.001022f,-0.002932f,-0.259202f,-0.162147f,-0.092854f,-0.046520f,0.030837f,0.157716f,0.178902f,-0.080761f,0.317317f,0.069542f,-0.103701f,-0.039075f,0.007558f,0.036375f,0.247583f,-0.215156f,-0.254761f,0.197183f,0.029191f,0.023922f,-0.116964f,0.005442f,-0.047861f,0.003914f,-0.029373f,0.015627f,0.010885f,-0.198667f,-0.012642f,-0.154342f,-0.061752f,-0.030959f,0.205734f,0.010202f,0.289984f,-0.052824f,0.218806f,0.096746f,-0.384016f,-0.010515f,-0.123816f,-0.007052f,-0.057523f,0.034442f,0.013805f,0.022675f,0.029515f,-0.150761f,-0.373593f,-0.331138f,-0.027148f,0.010375f,0.039883f,-0.061224f,0.009930f,-0.280411f},
  {-0.050872f,0.120036f,-0.189627f,-0.036536f,0.236424f,0.096612f,-0.024933f,-0.017919f,-0.039067f,0.013101f,-0.128586f,0.077476f,0.070981f,0.013887f,-0.056315f,-0.163177f,0.340556f,0.077099f,-0.021432f,0.123932f,0.147630f,-0.108494f,0.042753f,-0.042577f,-0.625640f,0.024999f,-0.009499f,-0.149351f,-0.134989f,-0.023844f,-0.050573f,-0.004915f,0.086704f,0.020436f,-0.006737f,0.043541f,-0.082945f,0.040490f,-0.065180f,0.129978f,0.186872f,-0.040569f,0.310978f,-0.056500f,-0.034163f,0.084015f,-0.253396f,-0.040752f,0.219877f,0.057758f,-0.079131f,-0.037198f,-0.004307f,-0.031330f,-0.018895f,0.042239f,-0.085793f,-0.101085f,-0.039088f,0.215886f,-0.325591f,-0.020161f,-0.004699f,-0.115839f},
  {0.003588f,0.004524f,-0.229976f,-0.070085f,0.091703f,0.006655f,0.034157f,-0.014013f,0.011921f,0.148903f,0.000500f,0.024892f,0.110679f,0.012310f,-0.058506f,-0.078645f,0.079431f,0.224231f,-0.141689f,-0.014679f,0.287195f,-0.125729f,0.111260f,0.049372f,0.072468f,-0.107013f,-0.033104f,-0.154304f,-0.019536f,-0.011325f,-0.014486f,-0.222771f,0.035603f,0.007189f,0.031955f,0.089310f,-0.255549f,0.001268f,0.155047f,0.051346f,0.050013f,-0.013986f,0.195990f,-0.041756f,-0.178556f,0.170154f,-0.034310f,-0.004543f,0.164313f,0.061160f,0.131600f,0.213336f,0.022143f,-0.020835f,-0.028146f,0.235806f,-0.022306f,-0.049090f,0.014580f,-0.067869f,-0.111702f,-0.027078f,0.001744f,0.081927f},
  {-0.001679f,-0.122472f,-0.226987f,-0.043255f,-0.073878f,0.034928f,0.022561f,-0.046715f,-0.057709f,-0.020964f,-0.174042f,-0.209900f,0.185663f,0.051057f,-0.127301f,-0.130604f,0.006109f,0.060983f,-0.124088f,0.145687f,0.123644f,-0.211992f,0.027791f,0.218758f,0.150696f,-0.193096f,-0.022577f,0.001519f,-0.090972f,-0.035340f,0.053706f,-0.201803f,0.148816f,-0.030757f,0.015560f,0.115244f,-0.293741f,-0.080688f,0.136083f,0.015831f,0.034690f,0.010171f,-0.035635f,-0.066496f,-0.164645f,0.195208f,0.137535f,-0.033676f,0.195934f,-0.058496f,0.239014f,0.220999f,-0.001020f,0.000023f,0.057021f,0.217908f,0.082914f,0.081545f,-0.014513f,0.060393f,-0.010673f,-0.050816f,-0.032338f,0.036369f},
  {0.028110f,-0.202570f,-0.070449f,-0.026737f,0.112949f,0.029256f,0.002281f,-0.008164f,0.062743f,0.005314f,-0.338287f,-0.010254f,-0.052415f,-0.015779f,-0.379155f,-0.006168f,-0.435333f,-0.040057f,-0.117544f,0.012736f,-0.185113f,-0.063153f,-0.042865f,0.234183f,0.261205f,-0.170479f,-0.000315f,-0.041520f,-0.072985f,0.000099f,-0.047230f,-0.228937f,0.174240f,-0.032382f,-0.004700f,0.301906f,-0.227827f,-0.018521f,0.091959f,0.001955f,-0.231385f,-0.033501f,-0.523818f,-0.059338f,-0.127421f,0.157620f,0.263704f,0.023798f,0.215346f,-0.066199f,0.145075f,0.032838f,-0.029425f,0.027779f,0.065897f,0.188428f,0.036904f,0.164977f,0.003372f,0.181126f,0.010684f,-0.027223f,0.042514f,0.091051f},
  {-0.002888f,-0.002019f,0.121438f,-0.038542f,-0.002618f,-0.055675f,0.053586f,-0.045319f,0.172770f,0.029783f,-0.063494f,0.101844f,0.001684f,0.085740f,-0.247526f,0.121918f,-0.277721f,0.069409f,0.000365f,-0.071128f,-0.128850f,0.134820f,-0.024492f,0.212483f,0.144464f,0.060156f,-0.016288f,-0.251910f,0.042950f,-0.017689f,0.025829f,0.009425f,0.153688f,-0.007259f,-0.028722f,0.164925f,-0.125300f,-0.034881f,-0.022150f,-0.017841f,-0.196335f,0.024103f,-0.362305f,0.095794f,-0.113361f,-0.069666f,0.064225f,-0.045817f,0.060107f,-0.180612f,0.077649f,-0.046099f,-0.008645f,0.008541f,0.091685f,-0.021584f,0.140183f,0.087662f,0.020854f,0.011080f,0.105668f,-0.036842f,-0.041031f,-0.063709f},
