#ifndef MNIST_WEIGHTS_H
#define MNIST_WEIGHTS_H

const float conv1_weights[8][1][3][3] PROGMEM = {
  {
    {
      {0.448156f,0.183228f,-0.280180f},
      {-0.646613f,-0.617513f,-0.142650f},
      {0.170524f,0.196588f,0.244716f}
    }
  },
  {
    {
      {-0.169402f,-0.711531f,-0.671502f},
      {0.546221f,0.075613f,0.154928f},
      {0.458266f,0.291293f,0.311142f}
    }
  },
  {
    {
      {0.285437f,0.375165f,0.330853f},
      {-0.015508f,-0.095932f,0.357524f},
      {-0.475212f,-0.447505f,-0.425497f}
    }
  },
  {
    {
      {-0.325541f,-0.361438f,-0.554494f},
      {0.159604f,0.082242f,0.420756f},
      {0.194993f,0.126973f,0.218110f}
    }
  },
  {
    {
      {0.148557f,0.178287f,-0.211195f},
      {0.083734f,0.285114f,-0.718852f},
      {0.635618f,0.093688f,-0.466986f}
    }
  },
  {
    {
      {0.077950f,0.064495f,-0.299541f},
      {0.342682f,0.630590f,0.596882f},
      {-0.392925f,-0.127771f,0.355818f}
    }
  },
  {
    {
      {0.209666f,0.363044f,0.465322f},
      {0.143502f,0.310486f,0.076508f},
      {-0.595540f,-0.563219f,-0.365050f}
    }
  },
  {
    {
      {0.361107f,0.461807f,0.513353f},
      {0.315042f,0.490435f,-0.278681f},
      {0.356888f,0.325259f,0.187896f}
    }
  }
};
const float conv1_bias[8] PROGMEM = {0.211629f,-0.033842f,0.091810f,0.053979f,0.252981f,0.286387f,-0.065765f,0.390743f};
const float conv2_weights[16][8][3][3] PROGMEM = {
  {
    {
      {-0.392383f,-0.060744f,-0.029578f},
      {-0.330870f,-0.320819f,0.014295f},
      {-0.303829f,-0.223808f,-0.128036f}
    },
    {
      {-0.214611f,0.139952f,-0.356605f},
      {-0.194388f,0.261843f,0.192480f},
      {-0.447641f,-0.037683f,0.241728f}
    },
    {
      {-0.487000f,-0.228256f,0.140911f},
      {0.261080f,-0.434960f,-0.481407f},
      {0.126358f,-0.064930f,0.067511f}
    },
    {
      {-0.250492f,-0.185111f,-0.216394f},
      {-0.087789f,0.159385f,0.048416f},
      {-0.380152f,-0.059853f,-0.105612f}
    },
    {
      {0.215843f,0.080138f,-0.058264f},
      {-0.159474f,0.302480f,0.237813f},
      {-0.541057f,-0.215971f,-0.075354f}
    },
    {
      {0.071825f,0.003875f,-0.122664f},
      {0.198226f,0.296834f,-0.028487f},
      {0.010468f,0.101031f,0.029117f}
    },
    {
      {-0.145951f,-0.128794f,0.080582f},
      {0.328104f,-0.005796f,-0.259517f},
      {0.165406f,0.137289f,0.151080f}
    },
    {
      {0.205640f,0.103886f,-0.134724f},
      {-0.039814f,0.094327f,-0.176993f},
      {-0.163089f,0.141600f,-0.032811f}
    }
  },
  {
    {
      {0.013293f,0.098369f,0.020952f},
      {-0.351180f,-0.351071f,-0.044943f},
      {-0.251456f,-0.249088f,-0.080854f}
    },
    {
      {0.156869f,0.377686f,0.004184f},
      {-0.037927f,0.115939f,0.241650f},
      {0.081193f,-0.278057f,-0.019139f}
    },
    {
      {-0.107849f,-0.325662f,0.037791f},
      {0.270666f,-0.077149f,-0.153994f},
      {-0.101848f,0.250879f,0.171505f}
    },
    {
      {0.266490f,0.083719f,-0.143567f},
      {-0.117944f,0.160618f,0.116838f},
      {-0.090521f,-0.284591f,0.004907f}
    },
    {
      {-0.132255f,0.164651f,-0.088559f},
      {-0.346429f,-0.254867f,0.154994f},
      {-0.051317f,-0.184685f,-0.098259f}
    },
    {
      {0.119487f,-0.180737f,-0.285857f},
      {0.221461f,0.212260f,0.047857f},
      {-0.058855f,0.122454f,0.060015f}
    },
    {
      {-0.046091f,-0.162018f,0.103177f},
      {0.161254f,-0.010630f,-0.084289f},
      {-0.039966f,-0.019517f,0.163129f}
    },
    {
      {0.173024f,-0.176140f,-0.241481f},
      {-0.078984f,0.090838f,-0.002233f},
      {-0.005128f,-0.023998f,0.096840f}
    }
  },
  {
    {
      {-0.107837f,-0.330560f,0.117492f},
      {0.008212f,0.075464f,0.234553f},
      {-0.001640f,-0.017421f,-0.061463f}
    },
    {
      {-0.424237f,-0.312392f,-0.068879f},
      {0.167928f,-0.079688f,-0.266910f},
      {0.295938f,0.294922f,0.407230f}
    },
    {
      {-0.226312f,0.021172f,-0.016057f},
      {-0.306368f,0.385715f,0.206059f},
      {0.043869f,0.058319f,0.031311f}
    },
    {
      {-0.454872f,-0.128472f,0.023377f},
      {-0.060063f,-0.363875f,-0.412288f},
      {0.159309f,0.169582f,0.204609f}
    },
    {
      {-0.385545f,-0.324301f,0.010814f},
      {0.068985f,-0.106499f,-0.252770f},
      {0.111209f,-0.047257f,-0.026695f}
    },
    {
      {-0.279245f,0.221474f,-0.000467f},
      {-0.225677f,-0.555680f,-0.206809f},
      {0.234992f,0.154835f,-0.009366f}
    },
    {
      {-0.250380f,0.188800f,0.244777f},
      {-0.386370f,0.323813f,0.394191f},
      {0.118057f,-0.096472f,-0.134834f}
    },
    {
      {-0.565655f,-0.179985f,0.237013f},
      {-0.287923f,-0.474254f,-0.117286f},
      {-0.072579f,0.035792f,-0.044290f}
    }
  },
  {
    {
      {-0.060567f,0.184009f,0.024716f},
      {-0.185560f,-0.051088f,0.146824f},
      {-0.461919f,0.187448f,0.254306f}
    },
    {
      {0.269616f,0.089842f,-0.023479f},
      {-0.097329f,0.043837f,-0.542109f},
      {0.351249f,0.369219f,0.025789f}
    },
    {
      {0.015483f,-0.120676f,-0.021951f},
      {0.243300f,0.336911f,0.024165f},
      {-0.044506f,0.011488f,-0.192679f}
    },
    {
      {0.211880f,0.134543f,0.078015f},
      {-0.059382f,0.088629f,-0.286650f},
      {0.019660f,-0.011104f,0.173716f}
    },
    {
      {0.009603f,-0.064613f,-0.168409f},
      {-0.199422f,-0.263057f,-0.037109f},
      {-0.181251f,-0.253995f,-0.163385f}
    },
    {
      {0.014512f,0.107775f,0.026152f},
      {0.116309f,0.152232f,-0.232209f},
      {-0.146695f,-0.223961f,-0.186483f}
    },
    {
      {0.022175f,-0.009019f,0.062954f},
      {0.347981f,0.439964f,0.248495f},
      {-0.108261f,0.101013f,-0.445074f}
    },
    {
      {-0.009845f,0.103256f,0.120899f},
      {-0.012773f,0.131591f,-0.011305f},
      {-0.136115f,-0.247731f,-0.239628f}
    }
  },
  {
    {
      {-0.161415f,-0.230298f,-0.058864f},
      {-0.227608f,-0.096018f,0.108743f},
      {-0.246467f,-0.083375f,0.073849f}
    },
    {
      {0.047835f,-0.105901f,-0.078667f},
      {0.100663f,-0.238973f,-0.310612f},
      {0.049604f,-0.146107f,0.141457f}
    },
    {
      {-0.256488f,-0.482883f,0.035185f},
      {-0.457609f,-0.410024f,0.065749f},
      {-0.184922f,0.074226f,0.055847f}
    },
    {
      {-0.032904f,0.165932f,0.144910f},
      {0.140580f,-0.012744f,-0.294295f},
      {0.035832f,-0.135301f,-0.012810f}
    },
    {
      {-0.203954f,-0.069984f,0.165391f},
      {-0.258648f,0.307874f,0.208414f},
      {-0.121668f,0.098592f,-0.101757f}
    },
    {
      {-0.128036f,-0.099889f,-0.009914f},
      {-0.074048f,-0.113944f,-0.070462f},
      {0.031334f,0.032286f,0.173144f}
    },
    {
      {-0.629542f,-0.221910f,0.159622f},
      {-0.402391f,-0.243990f,-0.083888f},
      {-0.089109f,0.080144f,0.226812f}
    },
    {
      {-0.435738f,0.083676f,0.207828f},
      {-0.014471f,0.202702f,0.086022f},
      {0.131393f,0.145649f,-0.085365f}
    }
  },
  {
    {
      {-0.218727f,0.089187f,0.201636f},
      {-0.148894f,0.037263f,-0.124957f},
      {-0.209461f,-0.149086f,0.295791f}
    },
    {
      {-0.001099f,-0.051384f,0.265561f},
      {0.144351f,0.128771f,-0.106274f},
      {0.100424f,-0.280342f,-0.249025f}
    },
    {
      {-0.011451f,0.040542f,-0.370289f},
      {-0.058302f,-0.685051f,0.159790f},
      {-0.148995f,-0.107715f,-0.108798f}
    },
    {
      {-0.202588f,-0.024624f,0.435733f},
      {0.129095f,0.248967f,0.102800f},
      {0.266604f,0.020213f,-0.218327f}
    },
    {
      {-0.095081f,-0.272392f,-0.373382f},
      {-0.410671f,-0.105930f,0.058530f},
      {-0.165528f,0.211724f,0.329164f}
    },
    {
      {-0.221967f,-0.119041f,0.141239f},
      {0.027661f,0.035143f,-0.025905f},
      {-0.092574f,-0.044197f,-0.062067f}
    },
    {
      {0.014808f,-0.029692f,-0.259373f},
      {-0.285441f,-0.381302f,0.391259f},
      {-0.073585f,-0.102435f,-0.105930f}
    },
    {
      {-0.357777f,-0.142748f,-0.057965f},
      {-0.155850f,0.035136f,0.185902f},
      {0.113495f,0.206458f,0.079988f}
    }
  },
  {
    {
      {-0.171036f,-0.274920f,0.120344f},
      {0.004735f,-0.324410f,0.252585f},
      {0.055929f,-0.278788f,-0.361202f}
    },
    {
      {-0.378800f,0.063390f,0.115368f},
      {-0.606126f,-0.092573f,0.404616f},
      {0.034589f,-0.260699f,0.126652f}
    },
    {
      {-0.013408f,-0.350038f,0.032807f},
      {0.147815f,-0.201484f,-0.366583f},
      {-0.066672f,0.119017f,-0.149878f}
    },
    {
      {-0.079810f,0.097766f,-0.112075f},
      {-0.463315f,-0.051575f,-0.028295f},
      {-0.085556f,-0.307947f,-0.095178f}
    },
    {
      {-0.179177f,0.021403f,0.445585f},
      {-0.265229f,0.098029f,0.729579f},
      {-0.015298f,-0.078852f,0.395043f}
    },
    {
      {0.086252f,0.240814f,-0.359056f},
      {-0.063335f,0.232212f,-0.112668f},
      {-0.369145f,0.222043f,-0.008415f}
    },
    {
      {0.080087f,-0.196643f,0.081969f},
      {-0.136213f,0.177898f,-0.487892f},
      {-0.063650f,0.207834f,-0.397368f}
    },
    {
      {-0.018682f,0.156441f,0.032154f},
      {-0.303162f,0.166121f,-0.011292f},
      {-0.414244f,0.191191f,-0.013901f}
    }
  },
  {
    {
      {-0.069504f,0.017877f,-0.034045f},
      {-0.124298f,-0.046485f,0.030985f},
      {0.069697f,0.037443f,0.002750f}
    },
    {
      {-0.223250f,-0.343639f,-0.280340f},
      {-0.383267f,-0.574481f,-0.084867f},
      {-0.037957f,0.141296f,0.026647f}
    },
    {
      {0.086465f,0.077978f,-0.079398f},
      {0.259094f,0.018162f,-0.103911f},
      {-0.062858f,-0.154566f,0.196348f}
    },
    {
      {0.098021f,-0.361980f,-0.302088f},
      {-0.014227f,-0.412442f,-0.005987f},
      {0.021716f,0.002573f,0.149542f}
    },
    {
      {0.204507f,0.289005f,0.004604f},
      {0.067417f,-0.097830f,-0.334012f},
      {0.017562f,0.197062f,-0.086380f}
    },
    {
      {0.175453f,0.040594f,-0.285296f},
      {-0.017244f,-0.180228f,0.139013f},
      {-0.137301f,-0.178526f,0.156180f}
    },
    {
      {0.254880f,0.239409f,-0.214322f},
      {0.357191f,-0.202909f,-0.222611f},
      {0.043603f,-0.409463f,0.155451f}
    },
    {
      {0.268321f,0.159434f,-0.221746f},
      {0.085336f,-0.184015f,-0.180287f},
      {-0.008151f,-0.260621f,-0.053924f}
    }
  },
  {
    {
      {-0.120956f,0.051614f,0.265870f},
      {0.042121f,-0.146284f,-0.207566f},
      {-0.074527f,0.031643f,-0.010712f}
    },
    {
      {0.109563f,0.051681f,0.004524f},
      {0.071998f,-0.002306f,0.414829f},
      {-0.149721f,-0.420337f,-0.022802f}
    },
    {
      {0.138753f,-0.287787f,-0.026966f},
      {0.042334f,0.147835f,-0.056111f},
      {0.177161f,0.178945f,0.073717f}
    },
    {
      {0.073287f,-0.059272f,0.162874f},
      {-0.010325f,0.088027f,0.224683f},
      {-0.122702f,-0.172283f,-0.023264f}
    },
    {
      {-0.242942f,-0.037932f,-0.110118f},
      {-0.339434f,-0.167998f,-0.182377f},
      {-0.276812f,-0.324182f,-0.253482f}
    },
    {
      {0.161036f,0.151755f,-0.084782f},
      {0.110370f,0.221625f,0.194672f},
      {-0.147579f,-0.177081f,0.027626f}
    },
    {
      {0.101542f,-0.002722f,0.104963f},
      {0.021014f,0.055786f,0.067246f},
      {0.163712f,0.184805f,0.042075f}
    },
    {
      {0.135033f,0.013359f,0.018179f},
      {-0.144387f,-0.042138f,0.061271f},
      {-0.223632f,-0.256918f,-0.162592f}
    }
  },
  {
    {
      {0.306183f,-0.174992f,0.183989f},
      {-0.161280f,0.085730f,-0.071798f},
      {-0.157906f,-0.306761f,-0.348665f}
    },
    {
      {-0.188675f,-0.143251f,-0.332310f},
      {0.482500f,0.236799f,0.076014f},
      {0.050518f,0.128633f,0.172858f}
    },
    {
      {0.200049f,0.210498f,0.149874f},
      {-0.367310f,-0.141683f,0.059895f},
      {-0.127969f,-0.272635f,0.017885f}
    },
    {
      {-0.195334f,-0.497204f,-0.267857f},
      {0.257723f,0.165119f,-0.236616f},
      {0.005791f,-0.075452f,0.118959f}
    },
    {
      {-0.106557f,-0.241097f,0.151645f},
      {0.110600f,-0.001031f,-0.065108f},
      {-0.024434f,-0.004301f,0.063196f}
    },
    {
      {-0.390777f,-0.028698f,-0.011193f},
      {0.070776f,-0.119953f,-0.266401f},
      {0.163201f,0.208723f,0.110612f}
    },
    {
      {0.093624f,0.331774f,0.358334f},
      {-0.504746f,-0.272081f,-0.257375f},
      {-0.046900f,-0.191658f,-0.158352f}
    },
    {
      {-0.408145f,-0.210791f,0.113841f},
      {0.105004f,-0.164904f,-0.297908f},
      {0.149201f,0.187524f,-0.063751f}
    }
  },
  {
    {
      {0.146327f,0.142465f,-0.135283f},
      {-0.073015f,0.170224f,0.119656f},
      {-0.088802f,0.259113f,-0.081841f}
    },
    {
      {0.034476f,0.185869f,0.023974f},
      {0.315631f,0.062788f,-0.163414f},
      {-0.143321f,-0.154078f,-0.076383f}
    },
    {
      {-0.029565f,-0.201064f,-0.184224f},
      {0.025464f,0.093333f,-0.139805f},
      {0.172254f,0.264903f,0.018491f}
    },
    {
      {0.059964f,0.190567f,0.178988f},
      {0.313451f,0.166694f,-0.212260f},
      {-0.001430f,-0.291788f,-0.007185f}
    },
    {
      {0.131394f,-0.281661f,0.017727f},
      {-0.273073f,0.004321f,0.046986f},
      {-0.034687f,-0.230993f,-0.119859f}
    },
    {
      {-0.203917f,-0.022954f,-0.121349f},
      {0.147155f,-0.068928f,-0.008485f},
      {0.064444f,-0.065912f,0.164939f}
    },
    {
      {-0.150081f,-0.160526f,0.034353f},
      {0.087046f,0.225799f,0.042651f},
      {0.189692f,0.205804f,0.087209f}
    },
    {
      {0.032279f,-0.148898f,0.116037f},
      {-0.010673f,0.099360f,-0.003114f},
      {-0.101436f,-0.223201f,-0.077914f}
    }
  },
  {
    {
      {-0.427598f,-0.116701f,0.029844f},
      {-0.321490f,0.033213f,-0.098405f},
      {0.066184f,0.213196f,0.207468f}
    },
    {
      {-0.346752f,-0.286347f,-0.198640f},
      {-0.392853f,0.219345f,0.149798f},
      {0.196527f,0.169977f,-0.028506f}
    },
    {
      {-0.586881f,-0.100080f,-0.076838f},
      {-0.196210f,-0.193603f,-0.110097f},
      {0.039450f,0.360339f,0.138910f}
    },
    {
      {-0.233696f,-0.235102f,-0.153216f},
      {-0.219414f,0.091459f,0.045939f},
      {0.170269f,-0.075199f,-0.008491f}
    },
    {
      {-0.072822f,0.030883f,-0.186792f},
      {-0.276958f,-0.030643f,-0.168948f},
      {0.110182f,-0.372646f,-0.089410f}
    },
    {
      {0.095543f,-0.114605f,0.029576f},
      {-0.063202f,0.088270f,0.179201f},
      {0.177988f,0.155858f,0.042211f}
    },
    {
      {-0.360140f,-0.037259f,-0.132973f},
      {-0.163485f,0.083901f,0.144143f},
      {0.092225f,0.341320f,0.266832f}
    },
    {
      {0.154267f,0.206279f,-0.141946f},
      {-0.050738f,0.086272f,-0.078106f},
      {0.149136f,0.016882f,-0.120557f}
    }
  },
  {
    {
      {-0.135348f,-0.492062f,-0.147570f},
      {-0.129666f,-0.569255f,-0.415043f},
      {-0.203236f,-0.091925f,0.101817f}
    },
    {
      {-0.223378f,-0.230747f,0.135976f},
      {-0.446463f,-0.292812f,-0.005576f},
      {-0.324052f,0.158385f,-0.285913f}
    },
    {
      {0.114188f,0.088106f,0.031606f},
      {-0.187632f,0.026892f,0.002261f},
      {-0.118143f,0.015763f,0.176949f}
    },
    {
      {-0.153027f,-0.186182f,-0.017155f},
      {-0.394104f,-0.616077f,0.028483f},
      {-0.204994f,-0.097163f,-0.271372f}
    },
    {
      {-0.088898f,-0.163700f,-0.025351f},
      {0.086979f,-0.318499f,-0.331554f},
      {0.051184f,0.011697f,-0.099637f}
    },
    {
      {0.194435f,0.300774f,0.332366f},
      {0.072519f,0.101931f,0.149603f},
      {-0.055733f,-0.088952f,-0.019856f}
    },
    {
      {0.131970f,0.051557f,-0.057019f},
      {-0.217777f,-0.087235f,0.149244f},
      {-0.091094f,0.029869f,0.092316f}
    },
    {
      {0.145947f,0.171646f,0.122169f},
      {-0.000880f,0.004528f,-0.035882f},
      {0.150439f,-0.115578f,-0.074476f}
    }
  },
  {
    {
      {-0.094173f,-0.038157f,0.021688f},
      {0.069041f,-0.181239f,-0.080609f},
      {-0.131223f,-0.017979f,-0.096046f}
    },
    {
      {-0.270575f,-0.183292f,-0.250490f},
      {-0.470697f,-0.066930f,0.088960f},
      {-0.293607f,-0.240962f,-0.051015f}
    },
    {
      {-0.223288f,-0.246922f,0.043027f},
      {-0.327321f,-0.316789f,-0.088282f},
      {-0.311418f,-0.154163f,-0.043141f}
    },
    {
      {0.000706f,0.137203f,-0.128283f},
      {-0.185155f,-0.026744f,-0.317733f},
      {-0.094915f,-0.049619f,-0.192187f}
    },
    {
      {-0.428873f,0.162118f,0.283664f},
      {-0.226177f,0.190669f,0.223737f},
      {0.021106f,0.358109f,0.248877f}
    },
    {
      {0.101686f,0.118287f,-0.288460f},
      {0.146910f,0.139766f,-0.262968f},
      {0.147205f,0.050495f,-0.209915f}
    },
    {
      {-0.314224f,-0.045863f,0.119550f},
      {-0.248577f,-0.092609f,-0.070061f},
      {-0.260386f,0.083679f,0.056370f}
    },
    {
      {0.080316f,0.153935f,0.073555f},
      {-0.002399f,0.297177f,-0.159940f},
      {0.123722f,0.286973f,-0.154743f}
    }
  },
  {
    {
      {-0.413387f,0.110195f,-0.118119f},
      {-0.512889f,-0.128342f,0.042954f},
      {-0.267258f,-0.217754f,0.098427f}
    },
    {
      {-0.032460f,0.223446f,0.144938f},
      {-0.328478f,-0.014173f,-0.413569f},
      {-0.508036f,-0.405807f,-0.335426f}
    },
    {
      {-0.233891f,0.062677f,-0.126485f},
      {-0.237804f,-0.069761f,0.114635f},
      {0.084254f,0.171432f,0.075875f}
    },
    {
      {0.076732f,0.132410f,0.231520f},
      {-0.093260f,-0.046336f,0.030566f},
      {-0.492992f,-0.200163f,-0.139170f}
    },
    {
      {0.040382f,-0.067732f,-0.267151f},
      {0.045106f,-0.241712f,-0.029620f},
      {0.010763f,-0.088905f,-0.099451f}
    },
    {
      {0.181119f,0.149924f,0.160467f},
      {-0.026744f,-0.064953f,-0.079189f},
      {0.007803f,-0.074409f,-0.198999f}
    },
    {
      {-0.035702f,-0.054531f,0.002210f},
      {-0.125088f,0.003258f,0.088613f},
      {-0.121929f,0.199296f,0.179843f}
    },
    {
      {0.239357f,-0.043873f,-0.047894f},
      {0.146039f,0.032568f,0.128181f},
      {0.156192f,0.060138f,-0.130945f}
    }
  },
  {
    {
      {-0.050516f,-0.051613f,-0.265874f},
      {-0.051686f,0.171217f,-0.189638f},
      {-0.211252f,0.225585f,0.011565f}
    },
    {
      {-0.244342f,-0.057325f,-0.357934f},
      {0.023012f,0.263070f,-0.025220f},
      {-0.023032f,0.058083f,0.054253f}
    },
    {
      {-0.339057f,0.056235f,-0.020721f},
      {-0.001444f,-0.318138f,-0.116900f},
      {0.202910f,0.068472f,0.052355f}
    },
    {
      {-0.197537f,-0.147015f,-0.162213f},
      {-0.188066f,0.055640f,-0.081613f},
      {0.094194f,-0.033552f,-0.079929f}
    },
    {
      {0.271176f,0.210650f,0.226352f},
      {0.007050f,0.120975f,0.194282f},
      {-0.202501f,-0.163036f,0.023042f}
    },
    {
      {-0.014132f,-0.217944f,0.290484f},
      {0.013796f,-0.132256f,-0.059229f},
      {0.037069f,0.102234f,-0.005089f}
    },
    {
      {-0.125149f,-0.049539f,0.209182f},
      {0.179028f,-0.251418f,0.043337f},
      {0.274622f,0.216726f,0.180294f}
    },
    {
      {0.096072f,-0.206626f,0.051010f},
      {0.114793f,-0.198013f,-0.012110f},
      {-0.102645f,-0.062163f,-0.022227f}
    }
  }
};
const float conv2_bias[16] PROGMEM = {-0.112540f,-0.116092f,-0.190085f,-0.171741f,-0.231622f,-0.176404f,-0.111370f,-0.150780f,-0.246275f,-0.202408f,-0.272648f,-0.200494f,-0.220000f,0.079503f,-0.331196f,-0.175024f};
const float fc1_weights[784][64] PROGMEM = {
  {-0.012688f,0.053722f,0.007312f,0.023791f,0.048942f,0.088399f,0.026301f,-0.079260f,0.036314f,-0.060084f,0.008481f,-0.042994f,0.014046f,-0.048821f,-0.016312f,0.061163f,-0.001675f,-0.026237f,0.121009f,-0.011925f,0.019575f,-0.004969f,-0.017819f,-0.024418f,0.080518f,0.032165f,-0.028595f,0.121334f,-0.060334f,-0.074380f,-0.022060f,0.028430f,-0.065245f,-0.058361f,0.062177f,-0.023372f,-0.011868f,0.002880f,0.010168f,-0.040114f,-0.043177f,0.077461f,0.087618f,-0.102546f,-0.086762f,-0.000565f,0.014475f,0.008841f,-0.031040f,-0.054580f,0.094726f,-0.046088f,-0.000916f,0.080698f,0.001973f,0.106823f,-0.013412f,0.065394f,-0.038949f,-0.046455f,-0.026813f,0.002155f,0.027733f,0.008090f},
  {0.026481f,-0.290323f,-0.013753f,0.024382f,0.004260f,-0.234322f,0.003083f,0.095483f,0.027940f,0.061314f,0.019175f,-0.067277f,-0.019035f,-0.038954f,-0.009725f,0.146936f,-0.034567f,-0.092193f,-0.017200f,0.001110f,0.022194f,-0.019451f,0.009470f,-0.291626f,0.273038f,-0.042989f,0.312245f,-0.030510f,0.022996f,-0.107520f,-0.259869f,-0.013046f,-0.025438f,-0.008954f,-0.150370f,-0.008135f,0.021023f,-0.023615f,-0.032089f,-0.040364f,0.003178f,-0.253976f,0.066969f,0.038843f,-0.046215f,-0.002957f,-0.005508f,-0.029657f,0.009509f,0.070766f,0.008870f,-0.092197f,-0.236583f,-0.035999f,-0.096093f,0.137348f,-0.001107f,0.073862f,0.099975f,-0.105310f,-0.012021f,-0.191566f,0.016764f,-0.010676f},
  {0.011404f,-0.015723f,-0.021595f,-0.030275f,-0.186875f,-0.125368f,0.062809f,-0.104067f,-0.011973f,-0.129048f,0.163689f,0.104685f,-0.024833f,0.264225f,-0.029687f,0.046202f,0.018065f,-0.129457f,-0.071659f,0.009147f,0.007870f,0.059542f,-0.103548f,-0.075564f,0.041219f,0.101327f,0.109595f,-0.026856f,0.152883f,-0.040966f,-0.131538f,-0.018304f,-0.056024f,0.116034f,-0.306630f,-0.011920f,0.004121f,0.164317f,0.007089f,-0.010262f,0.029358f,-0.311902f,-0.038553f,-0.129267f,0.126544f,0.012045f,0.033097f,-0.035469f,0.026653f,0.073460f,0.065336f,-0.008983f,-0.054097f,0.009777f,-0.322854f,0.002385f,0.017877f,-0.064775f,0.005671f,-0.028244f,0.019483f,0.046629f,-0.016929f,0.008934f},
  {0.013648f,0.013135f,0.027737f,-0.033874f,0.144973f,-0.026445f,-0.046373f,0.036301f,0.010438f,0.026628f,0.052601f,0.090480f,0.017002f,-0.007391f,0.019762f,0.168687f,-0.019589f,0.153059f,-0.093246f,-0.034944f,-0.028656f,0.108718f,-0.095364f,-0.059231f,0.277625f,-0.178837f,0.104362f,-0.138722f,0.051927f,-0.186736f,-0.114461f,0.000348f,-0.046316f,0.066609f,0.077348f,0.030459f,0.013817f,-0.052316f,0.016170f,-0.029819f,0.147143f,0.034131f,0.014800f,-0.123728f,-0.016907f,0.000711f,0.028339f,-0.044318f,0.003924f,-0.089584f,0.054091f,-0.249306f,-0.060403f,-0.080392f,0.008329f,0.075378f,0.013537f,-0.086423f,0.197959f,0.074601f,0.010385f,-0.022961f,0.013485f,-0.034738f},
  {0.012413f,0.082142f,-0.027823f,0.016412f,0.037329f,0.018419f,0.006428f,0.099684f,-0.034808f,-0.086048f,-0.022196f,-0.147253f,-0.015832f,0.041686f,0.014247f,0.006072f,-0.011489f,-0.153540f,-0.095151f,0.024349f,-0.033771f,-0.025428f,-0.019369f,0.133957f,-0.035714f,0.312497f,-0.099574f,0.014288f,0.222731f,0.085726f,-0.027935f,-0.010382f,0.121183f,-0.185498f,-0.075803f,-0.035033f,0.019030f,0.074665f,-0.012774f,-0.022750f,-0.123912f,0.091678f,0.111986f,0.142491f,0.177217f,-0.041845f,-0.010790f,0.020726f,-0.029812f,-0.098761f,0.009869f,0.029340f,-0.120149f,0.037083f,-0.068382f,0.206655f,-0.001600f,-0.139631f,-0.082746f,0.115877f,-0.013042f,-0.113902f,-0.019394f,-0.006774f},
  {0.023289f,0.142686f,0.025043f,-0.038959f,0.028007f,-0.185857f,-0.030621f,0.147625f,0.011139f,0.059220f,-0.003194f,-0.158249f,-0.028654f,-0.042938f,0.038906f,-0.102821f,0.003373f,-0.040197f,0.154386f,0.013336f,0.014635f,-0.132294f,0.047645f,-0.025971f,0.106808f,0.002440f,0.059371f,-0.089268f,0.107324f,-0.049152f,-0.071900f,0.025488f,0.120219f,-0.161418f,-0.044121f,0.027492f,-0.025535f,-0.106369f,-0.027002f,0.019285f,-0.039773f,0.215385f,-0.008176f,-0.035806f,0.009916f,0.018727f,-0.019585f,-0.030126f,-0.029321f,-0.076817f,-0.018250f,-0.038498f,-0.026661f,-0.008280f,0.113868f,0.148140f,-0.028515f,0.127852f,-0.111454f,0.121989f,-0.038095f,-0.070179f,-0.059175f,-0.002385f},
  {0.014946f,-0.013181f,-0.014535f,0.024433f,-0.057297f,-0.011386f,0.033819f,0.058598f,-0.005700f,-0.016364f,0.040773f,0.029801f,0.032138f,0.075419f,-0.031320f,-0.022288f,0.008153f,-0.045471f,-0.044306f,-0.024989f,-0.033106f,-0.066839f,0.011759f,-0.022352f,-0.011608f,0.023286f,0.025304f,-0.045236f,0.046583f,0.002749f,-0.066178f,-0.008239f,-0.014904f,-0.005464f,0.040964f,0.018398f,-0.021310f,0.046852f,0.024484f,-0.025215f,-0.003273f,0.005392f,0.058435f,-0.043530f,0.052382f,-0.022873f,-0.034951f,-0.015751f,-0.007938f,-0.014203f,-0.008627f,-0.003912f,0.002451f,-0.062485f,0.054887f,0.055838f,0.009775f,0.083966f,-0.087206f,0.007075f,-0.009460f,-0.013082f,0.026008f,-0.030719f},
  {0.008374f,-0.018033f,-0.024164f,-0.037640f,-0.194140f,-0.072416f,0.009962f,-0.050311f,0.010985f,-0.104978f,0.057355f,-0.043467f,-0.016941f,0.180583f,-0.009544f,0.017703f,0.002392f,0.041109f,-0.040408f,0.036415f,0.011825f,-0.006037f,-0.092494f,-0.088862f,0.088824f,-0.000808f,0.145925f,-0.031470f,0.085755f,-0.076424f,0.001686f,-0.023074f,-0.001722f,0.028370f,-0.065524f,-0.025790f,-0.005231f,0.016217f,0.025355f,0.025191f,0.025786f,0.009890f,0.161227f,-0.055528f,-0.041881f,-0.010448f,-0.025107f,0.017148f,0.013705f,0.062904f,0.091486f,0.090064f,0.020396f,0.119708f,0.208784f,0.233117f,0.003926f,0.277865f,0.058810f,0.002781f,0.003666f,-0.027608f,0.008400f,0.012298f},
  {-0.010109f,0.038787f,-0.007666f,0.019751f,-0.038912f,0.186489f,0.006900f,-0.365882f,0.047565f,-0.072715f,0.059487f,0.086598f,-0.033671f,-0.013950f,-0.009167f,0.089659f,-0.005637f,0.127662f,0.188064f,0.011169f,0.034732f,0.151231f,0.070024f,0.083860f,-0.054539f,-0.099077f,-0.097860f,0.279401f,0.008311f,-0.092789f,0.232679f,-0.015290f,-0.083734f,0.005785f,0.036442f,0.035632f,-0.024130f,-0.136477f,0.010166f,-0.026623f,-0.099235f,0.038510f,0.064394f,-0.152899f,0.098546f,-0.025001f,-0.003570f,-0.081533f,0.010790f,0.015652f,0.185549f,-0.118591f,0.145183f,-0.057032f,0.047665f,-0.054966f,-0.070535f,0.058817f,0.245788f,-0.272860f,0.024390f,0.052679f,0.037069f,0.028742f},
  {-0.041187f,-0.030036f,0.014166f,0.035392f,0.085984f,0.143905f,0.003895f,-0.229416f,-0.041971f,0.020076f,-0.080474f,-0.060770f,-0.041934f,-0.061377f,-0.018426f,-0.252452f,-0.020051f,0.158194f,-0.056983f,-0.032573f,0.029229f,-0.029962f,-0.023964f,-0.048082f,-0.015099f,0.137201f,-0.234411f,0.169110f,0.037468f,-0.214004f,0.182337f,0.019707f,0.131743f,-0.153107f,-0.042897f,-0.014767f,-0.035185f,0.126551f,-0.011035f,0.061869f,-0.132247f,0.039083f,0.264073f,-0.237388f,0.093819f,0.026619f,-0.036378f,0.026481f,-0.034831f,-0.194537f,0.209477f,-0.193169f,0.138404f,-0.124007f,0.074019f,0.082443f,-0.069274f,0.016793f,0.155608f,-0.162898f,-0.022559f,-0.038889f,-0.041960f,-0.005906f},
  {-0.041751f,0.072642f,-0.014660f,-0.022831f,0.008198f,0.038232f,-0.033550f,-0.136568f,-0.026836f,-0.075103f,0.098741f,-0.073907f,-0.018251f,0.105335f,0.005883f,-0.003380f,0.019528f,0.082446f,0.002777f,-0.007599f,-0.023058f,0.039959f,-0.148358f,-0.137815f,0.164229f,0.032063f,-0.034163f,0.032899f,0.126425f,-0.079530f,0.051944f,0.019965f,-0.131512f,-0.091763f,-0.050828f,-0.001224f,-0.032966f,0.145948f,-0.022606f,-0.041891f,-0.058124f,-0.021077f,0.017687f,0.004209f,0.058417f,-0.031516f,-0.003312f,-0.043066f,-0.035957f,-0.039571f,0.148104f,0.023387f,-0.002871f,0.033358f,-0.126188f,0.189004f,-0.014654f,0.050070f,-0.012349f,-0.032225f,-0.028218f,0.092617f,-0.014090f,0.020644f},
  {-0.053556f,-0.034632f,0.023999f,-0.008540f,-0.084218f,0.059796f,-0.069114f,0.155216f,0.018209f,-0.057052f,0.093272f,0.027468f,-0.019931f,0.026845f,-0.007431f,0.023508f,0.026177f,-0.023849f,-0.041028f,-0.035418f,0.004020f,0.041901f,-0.084691f,-0.000249f,0.163757f,0.015042f,0.022535f,-0.110795f,0.042244f,0.039623f,-0.031806f,-0.029013f,-0.121249f,0.034728f,-0.132261f,0.004454f,0.014057f,-0.031381f,0.027810f,-0.054052f,-0.024981f,0.060712f,0.022182f,0.093127f,-0.006536f,-0.038758f,0.014169f,-0.039753f,-0.045896f,-0.033774f,-0.007659f,0.105876f,-0.007388f,0.010078f,-0.061231f,0.013922f,-0.049951f,0.150141f,-0.147215f,0.163485f,0.020623f,-0.070570f,-0.069201f,-0.012054f},
  {-0.063434f,-0.060766f,-0.007283f,-0.008000f,-0.102231f,-0.012293f,0.011513f,0.055574f,-0.016362f,0.026455f,0.007143f,0.050717f,0.010215f,0.006778f,-0.026204f,0.058103f,0.016524f,0.026101f,-0.088587f,0.029095f,0.013715f,0.013201f,0.004590f,-0.031495f,0.051616f,-0.019061f,0.020633f,0.039681f,-0.065244f,0.026072f,0.000964f,-0.001715f,-0.195251f,0.154057f,-0.085318f,-0.036526f,0.024703f,0.124226f,0.008053f,-0.014484f,0.098827f,-0.042600f,-0.187678f,0.107535f,-0.041482f,0.003225f,0.009449f,-0.024177f,0.001326f,0.113043f,0.124474f,-0.148365f,-0.045506f,0.072929f,-0.011132f,-0.122716f,-0.062004f,0.019279f,0.059897f,-0.065982f,-0.040840f,-0.097205f,-0.022970f,0.029864f},
  {0.014081f,-0.123384f,0.011315f,-0.018802f,-0.008566f,-0.256828f,0.025607f,0.157517f,-0.037719f,0.107938f,-0.037062f,-0.040723f,-0.011663f,0.018622f,-0.036804f,-0.088126f,-0.023342f,-0.071801f,0.165462f,-0.007721f,0.035483f,-0.104768f,0.159152f,0.002379f,0.048230f,-0.004333f,0.176095f,-0.148133f,-0.052945f,0.006776f,-0.160260f,0.013411f,0.070069f,-0.012811f,0.002439f,0.005406f,0.026926f,-0.185194f,0.002753f,-0.008757f,0.224804f,0.217112f,0.012455f,0.100732f,-0.170420f,-0.005312f,-0.009670f,0.042823f,-0.027990f,0.115386f,-0.222225f,0.089775f,-0.118725f,-0.228615f,0.036713f,0.077358f,-0.045335f,0.075886f,0.013111f,0.004552f,-0.025793f,-0.083984f,0.004104f,0.016983f},
  {-0.014450f,-0.056176f,0.026941f,0.020380f,-0.010257f,0.031041f,0.016081f,-0.019724f,0.007258f,0.056720f,-0.145153f,0.134148f,-0.004456f,0.109293f,-0.000797f,0.106084f,0.026031f,0.188435f,0.071632f,0.029521f,-0.009740f,0.110595f,0.106750f,-0.076425f,-0.016860f,-0.163073f,0.017513f,0.164883f,0.020676f,-0.123005f,-0.097539f,-0.014499f,-0.052175f,-0.101959f,-0.092633f,-0.034313f,-0.002632f,-0.022014f,0.013485f,-0.047613f,-0.107066f,0.076150f,0.043671f,-0.121633f,-0.331070f,0.009016f,-0.018368f,0.075650f,0.028422f,0.074308f,0.099032f,-0.015976f,0.133835f,-0.125914f,0.013153f,0.087372f,0.034839f,0.181658f,0.076538f,-0.068183f,0.012699f,-0.145797f,-0.060050f,-0.023918f},
  {-0.026977f,0.008557f,0.025178f,0.004268f,-0.026450f,0.210105f,0.009358f,0.127670f,0.017280f,-0.020011f,-0.071486f,-0.208157f,0.011780f,-0.252180f,-0.036749f,0.004577f,-0.000046f,0.283526f,0.238583f,0.010876f,0.012043f,-0.222165f,0.101903f,0.169386f,-0.130891f,-0.178249f,0.112144f,0.155542f,-0.138228f,0.090720f,-0.175665f,-0.026893f,0.109153f,0.107577f,-0.045562f,0.002879f,-0.003364f,-0.162071f,-0.033716f,0.031458f,0.054707f,0.049674f,-0.150354f,-0.200688f,0.063703f,-0.026625f,0.049037f,-0.011026f,-0.001204f,-0.168700f,-0.097953f,0.186777f,0.231187f,-0.044923f,-0.112137f,0.030807f,0.042528f,0.020641f,-0.181797f,0.153868f,-0.000394f,0.054852f,0.056157f,-0.032424f},
  {-0.001715f,0.077997f,-0.017940f,-0.020304f,0.106776f,0.114864f,-0.002043f,-0.019106f,-0.024256f,0.057362f,0.095544f,-0.141512f,-0.030017f,-0.406202f,0.008944f,0.015125f,-0.012879f,0.176183f,0.123379f,-0.007958f,-0.005886f,-0.184427f,0.087626f,0.020499f,-0.167657f,-0.066356f,0.061054f,-0.017957f,-0.141065f,0.003778f,0.017287f,-0.034561f,0.152184f,-0.027395f,0.126491f,0.025511f,0.022797f,-0.002772f,-0.014414f,-0.001464f,-0.169297f,-0.036089f,-0.226207f,-0.049242f,0.066294f,-0.020100f,0.014622f,-0.011154f,-0.026618f,-0.238019f,-0.225826f,-0.007188f,0.111024f,0.023315f,-0.028212f,0.070114f,-0.021988f,0.000803f,-0.237961f,0.111717f,0.012001f,-0.030620f,-0.020090f,-0.030157f},
  {-0.041964f,0.245317f,-0.024099f,-0.028742f,0.184511f,0.131755f,-0.055105f,-0.022988f,0.014682f,0.033332f,-0.147272f,-0.180188f,-0.043552f,-0.219892f,-0.015669f,0.033191f,0.008439f,-0.021193f,0.085930f,-0.001325f,-0.016742f,-0.118043f,-0.167626f,0.086298f,-0.170513f,0.083489f,0.040332f,-0.110129f,0.088098f,0.010782f,-0.082282f,-0.027243f,-0.031652f,0.001344f,0.320645f,-0.011871f,0.012764f,0.088878f,-0.004442f,0.014595f,0.262595f,0.025536f,-0.152942f,-0.022054f,-0.094490f,-0.017910f,-0.011825f,-0.070454f,0.003989f,-0.092634f,-0.008363f,0.187286f,0.208205f,-0.024573f,0.188710f,0.185980f,0.008812f,-0.030445f,-0.054107f,0.156039f,0.019207f,0.098212f,0.005699f,-0.038631f},
  {-0.036323f,0.028207f,-0.016337f,-0.020504f,-0.177967f,-0.095867f,-0.075106f,-0.005268f,0.019430f,-0.002978f,-0.002791f,0.063061f,-0.034536f,0.141631f,-0.000185f,-0.109912f,-0.030254f,0.055282f,-0.172173f,0.004615f,-0.033072f,0.035944f,-0.197940f,-0.045097f,-0.099650f,-0.029348f,0.125888f,-0.214126f,-0.061922f,0.079351f,-0.093558f,-0.026619f,-0.140740f,0.129062f,-0.054755f,-0.006954f,-0.006301f,0.008623f,-0.001637f,-0.025950f,0.202141f,-0.045587f,-0.134084f,-0.176074f,0.027559f,0.023974f,-0.024610f,-0.044917f,0.023799f,0.077658f,0.006750f,0.120184f,0.134496f,0.094024f,0.077920f,0.040305f,-0.064589f,-0.012664f,-0.034336f,0.167870f,-0.009279f,0.000912f,-0.015903f,0.025210f},
  {-0.022136f,-0.116906f,-0.031467f,-0.013312f,-0.162374f,-0.057624f,-0.045482f,0.152019f,-0.037030f,-0.025502f,0.005821f,-0.057723f,-0.024073f,0.075498f,0.030570f,0.216651f,-0.016096f,-0.032658f,0.184115f,-0.037988f,-0.010496f,0.004723f,-0.119805f,0.000986f,0.197394f,-0.075028f,0.085054f,-0.175969f,-0.126567f,0.101654f,-0.189303f,-0.028098f,-0.117630f,0.064020f,0.033388f,0.023620f,0.019616f,0.044966f,-0.009848f,-0.034065f,0.088751f,0.034261f,-0.188014f,-0.006451f,-0.153999f,0.002531f,0.034292f,0.055285f,-0.017595f,0.069135f,-0.145769f,0.034190f,-0.127157f,-0.009227f,-0.105640f,0.050794f,-0.034097f,0.030221f,-0.067758f,0.128203f,0.029269f,0.217152f,0.040137f,-0.036653f},
  {-0.053319f,0.200122f,-0.039319f,-0.029695f,0.010887f,0.020876f,-0.035474f,-0.069196f,-0.031889f,0.217053f,-0.065817f,0.019761f,0.004430f,-0.056471f,0.010096f,0.027751f,-0.017384f,-0.283166f,-0.162111f,-0.011860f,-0.008272f,0.018140f,0.017226f,0.064909f,0.061398f,-0.156701f,-0.047753f,0.099705f,0.135116f,-0.042245f,0.140182f,-0.032618f,0.076955f,0.151280f,0.077406f,-0.009640f,0.008793f,-0.023560f,-0.030454f,0.002592f,0.082870f,0.003246f,-0.170769f,0.181169f,-0.213950f,0.038691f,-0.052076f,0.051962f,-0.037379f,-0.062360f,0.069979f,-0.132334f,0.089950f,0.017775f,0.120403f,-0.120769f,-0.076015f,-0.243943f,0.076868f,-0.124102f,0.028285f,-0.049827f,0.037314f,-0.037263f},
  {0.040362f,-0.162105f,0.004636f,-0.013116f,0.076836f,0.095317f,-0.031152f,-0.033673f,0.020038f,0.101765f,-0.031120f,0.002038f,-0.015614f,-0.027335f,-0.028826f,0.054643f,0.015471f,-0.139982f,-0.000619f,-0.029987f,-0.002708f,0.066219f,0.045852f,0.060422f,0.129426f,0.337317f,-0.178294f,0.125991f,0.103908f,-0.025055f,-0.004765f,0.005622f,0.061503f,-0.073428f,-0.180982f,0.005100f,-0.022110f,0.255330f,-0.019812f,0.013956f,-0.210779f,-0.196881f,0.110019f,0.002162f,0.202297f,0.005838f,0.037925f,-0.056476f,0.000409f,-0.141921f,0.099255f,-0.176883f,0.071099f,-0.084784f,-0.059240f,0.004092f,0.059936f,0.042367f,0.104128f,-0.065289f,-0.018176f,0.008382f,0.007895f,0.026757f},
  {0.020675f,0.159850f,0.017777f,-0.000955f,0.249534f,-0.109399f,-0.030967f,0.105968f,0.036881f,0.251506f,-0.299959f,0.102012f,-0.001329f,-0.159820f,0.008229f,0.072327f,0.007485f,-0.046305f,0.083775f,-0.001963f,-0.005056f,-0.093604f,0.214208f,-0.010337f,-0.045568f,-0.020932f,-0.133810f,-0.015056f,-0.128229f,-0.022358f,0.106507f,0.023550f,0.115890f,0.024226f,0.188604f,0.004713f,-0.014765f,-0.022941f,0.000164f,-0.031993f,-0.073253f,0.162663f,0.032623f,0.132912f,-0.213445f,-0.004931f,-0.017773f,0.066271f,0.026064f,-0.152073f,-0.070005f,0.012965f,0.012995f,0.036218f,0.301962f,-0.102268f,-0.016133f,-0.250425f,-0.093015f,-0.013939f,-0.019754f,0.029643f,-0.064204f,0.005742f},
  {-0.020450f,0.007490f,-0.033849f,0.015348f,0.027392f,-0.071850f,-0.024104f,0.253858f,0.004153f,0.106577f,-0.246037f,0.069860f,-0.048602f,-0.193108f,0.006421f,0.089361f,-0.040550f,0.151538f,0.152293f,0.010158f,-0.022166f,-0.075478f,0.319822f,0.064245f,-0.173122f,-0.183620f,0.060586f,-0.054884f,-0.067189f,0.096253f,-0.028916f,-0.027869f,0.102103f,0.040061f,0.154033f,-0.032647f,0.024099f,-0.052631f,-0.022854f,-0.023929f,0.149102f,0.322186f,-0.008766f,0.111679f,-0.040096f,0.026509f,0.018782f,-0.043130f,-0.006180f,-0.030153f,-0.163022f,0.058012f,0.081526f,-0.060554f,0.207587f,-0.155956f,0.007103f,-0.032919f,-0.041904f,0.030000f,-0.036800f,0.165488f,-0.071673f,-0.001609f},
  {-0.042834f,-0.017244f,0.008812f,0.014435f,0.019957f,0.066693f,-0.003681f,0.033802f,0.000941f,0.002625f,-0.119373f,0.112841f,-0.013689f,-0.014015f,-0.010707f,-0.193267f,-0.022695f,0.203012f,0.014866f,-0.040367f,0.003582f,-0.046216f,-0.056074f,-0.022837f,-0.119339f,0.050593f,-0.058862f,-0.062456f,0.039283f,0.069403f,-0.058870f,0.004415f,0.057285f,0.044207f,0.034336f,0.022794f,0.026262f,0.126258f,-0.020620f,0.032553f,0.018782f,0.152015f,0.241546f,-0.054548f,0.025774f,0.000586f,-0.034799f,-0.018975f,-0.012369f,0.015211f,-0.153788f,-0.018895f,0.104475f,-0.230302f,0.096473f,0.094591f,-0.027695f,0.074622f,-0.143283f,0.060628f,0.017474f,-0.083380f,-0.122893f,-0.006297f},
  {-0.016659f,0.015811f,-0.024714f,-0.048045f,0.171978f,-0.063490f,-0.066076f,-0.198212f,0.017434f,0.068525f,-0.124704f,0.172945f,-0.018675f,-0.095984f,-0.043558f,-0.115900f,-0.056456f,0.251373f,-0.029358f,0.009578f,-0.033483f,0.178860f,0.102077f,-0.041942f,0.038150f,-0.058665f,-0.041564f,-0.055977f,0.075774f,0.108327f,0.060426f,-0.043465f,0.021635f,-0.016370f,-0.012789f,-0.021579f,-0.037240f,-0.090642f,-0.003736f,-0.068745f,-0.143858f,-0.173750f,0.080418f,0.160223f,-0.018050f,0.012083f,-0.045359f,-0.053438f,0.001265f,0.033250f,0.175262f,-0.211420f,0.008326f,0.056449f,0.003522f,0.140880f,-0.007418f,0.108281f,0.205827f,0.036944f,0.035125f,-0.058654f,-0.080288f,-0.019692f},
  {-0.040098f,0.056162f,-0.019652f,0.002943f,0.075465f,-0.128493f,-0.006642f,0.050030f,-0.035460f,0.139935f,-0.170543f,0.161386f,0.014756f,0.042803f,-0.024466f,-0.010315f,0.003163f,0.008879f,-0.115180f,-0.039224f,-0.015507f,0.047652f,0.085967f,0.193888f,0.113936f,-0.051334f,-0.050376f,0.043398f,0.083425f,0.023441f,-0.059004f,-0.033813f,0.087080f,0.101673f,-0.163302f,-0.024602f,0.005951f,-0.097113f,-0.015534f,-0.045728f,-0.031399f,-0.039929f,0.009219f,0.138930f,0.014708f,0.011832f,-0.021670f,-0.005489f,0.013089f,0.077955f,-0.003962f,-0.044420f,0.030289f,-0.113660f,0.022387f,0.009343f,0.006935f,-0.014184f,0.177375f,0.020579f,-0.006176f,-0.007238f,-0.040315f,-0.029322f},
  {-0.032710f,0.226996f,0.006189f,-0.033568f,0.067341f,-0.073207f,0.048879f,0.120426f,0.009537f,0.260814f,-0.095706f,0.001950f,0.022795f,-0.118377f,-0.038562f,0.062772f,-0.020376f,0.036490f,0.002460f,-0.033507f,0.014050f,0.066486f,0.109496f,-0.072653f,0.005863f,0.058386f,0.071186f,-0.137989f,0.130026f,-0.004785f,-0.069099f,-0.014076f,0.061877f,0.177690f,0.216778f,0.035671f,0.012044f,0.048787f,0.021740f,-0.008731f,-0.090799f,0.043247f,-0.005071f,0.096546f,0.003823f,-0.016481f,0.026822f,0.029396f,-0.037006f,-0.004482f,-0.031133f,-0.066215f,-0.099280f,-0.046741f,0.166676f,-0.017585f,-0.032816f,-0.199119f,0.082673f,0.092696f,-0.028876f,-0.026847f,-0.072603f,0.011788f},
  {-0.044560f,0.010722f,0.004466f,-0.024809f,0.131485f,-0.018253f,-0.020733f,-0.163277f,-0.013213f,0.153161f,-0.065632f,0.072306f,-0.006218f,0.030886f,-0.001029f,-0.129747f,0.032043f,-0.008926f,0.010306f,0.000533f,0.022559f,0.024902f,0.037327f,0.097134f,0.096572f,0.118156f,-0.108967f,0.146340f,-0.118116f,0.030202f,0.092656f,-0.030475f,-0.022449f,0.057957f,0.034063f,-0.032255f,-0.029194f,0.077179f,-0.019554f,-0.006523f,-0.154451f,-0.047433f,0.098580f,0.091200f,-0.028953f,0.028490f,0.035027f,0.030268f,0.004740f,-0.160944f,-0.004589f,-0.045010f,0.118862f,-0.247651f,-0.113971f,0.011217f,-0.057829f,0.098159f,0.099150f,-0.118327f,-0.012313f,-0.052987f,0.053864f,0.028195f},
  {-0.007951f,-0.052427f,0.013709f,0.024453f,-0.074630f,-0.100933f,-0.007544f,0.028183f,0.042637f,0.065729f,-0.116815f,0.023766f,-0.014126f,0.011202f,-0.019694f,0.137174f,0.002419f,-0.140280f,-0.009652f,-0.022447f,-0.018420f,0.010306f,0.023227f,-0.153412f,0.004187f,-0.064782f,0.130340f,-0.103437f,-0.152666f,0.152515f,0.066541f,0.010400f,0.015111f,0.036999f,-0.113395f,0.020213f,0.018625f,-0.033035f,0.015228f,-0.046417f,0.068333f,-0.127334f,-0.002714f,0.082858f,0.053308f,-0.035537f,0.005049f,0.013001f,0.007707f,0.130291f,0.009755f,0.011229f,-0.083390f,0.091555f,0.074993f,-0.093097f,-0.041811f,-0.146508f,0.074945f,0.009114f,0.025347f,0.117563f,0.048778f,-0.023467f},
  {-0.031663f,-0.008712f,0.008124f,0.010060f,-0.275694f,0.107918f,-0.040620f,0.052165f,-0.027357f,0.046368f,-0.032881f,0.049812f,0.027660f,-0.054467f,-0.029485f,-0.006441f,-0.012988f,0.043613f,0.155163f,0.015383f,0.004506f,-0.119115f,0.090323f,0.000446f,-0.059251f,-0.144057f,0.004764f,0.021921f,-0.127749f,0.024819f,-0.015885f,-0.031149f,0.041852f,-0.033947f,-0.068176f,-0.034232f,-0.016365f,-0.134561f,-0.037503f,-0.003360f,0.035183f,-0.087279f,-0.059952f,0.057993f,-0.024900f,0.023944f,-0.061674f,-0.036191f,-0.000681f,-0.012995f,-0.123525f,0.016922f,-0.031270f,-0.152379f,0.099133f,0.002516f,-0.009984f,-0.094647f,0.015057f,-0.009960f,0.032879f,-0.026823f,0.010176f,0.021185f},
  {-0.036532f,0.026289f,0.012446f,0.064423f,-0.085786f,-0.042961f,0.048382f,-0.003021f,-0.027676f,0.130607f,-0.118526f,0.083271f,-0.039269f,0.118331f,0.010464f,-0.010562f,0.022304f,0.065956f,-0.212839f,0.026241f,0.006425f,0.035944f,-0.081341f,-0.002765f,0.082992f,0.067845f,-0.054311f,0.001758f,0.028561f,0.024045f,-0.124469f,0.011449f,0.014360f,0.097194f,-0.105224f,0.006974f,-0.039633f,0.112333f,-0.018189f,0.040171f,-0.168019f,-0.049011f,0.028564f,0.091638f,0.023433f,0.008677f,-0.038973f,-0.010759f,0.012473f,-0.101376f,0.005796f,-0.242857f,0.086237f,-0.078079f,-0.026334f,0.007557f,-0.053470f,-0.116638f,0.085983f,0.013832f,0.020409f,-0.243291f,-0.051593f,0.018225f},
  {0.012828f,0.098004f,0.003503f,-0.021237f,0.260376f,0.067578f,-0.054382f,-0.055291f,-0.005733f,0.033909f,0.006516f,0.008369f,-0.039904f,0.020307f,-0.019163f,0.015765f,-0.018845f,-0.078476f,-0.059182f,-0.005553f,-0.035987f,0.092407f,0.007203f,-0.051222f,-0.037857f,0.077025f,-0.038834f,0.034283f,-0.029413f,-0.079484f,0.144544f,-0.020422f,0.131557f,0.050356f,0.203679f,-0.036402f,-0.014198f,0.171942f,-0.040554f,-0.004600f,-0.034439f,0.011706f,0.139951f,0.145360f,0.098483f,0.007700f,-0.004639f,0.020330f,-0.047288f,-0.016653f,0.010609f,-0.157978f,0.015462f,-0.113449f,0.038843f,0.098053f,-0.024117f,-0.102650f,-0.199448f,-0.078510f,0.010653f,0.043578f,-0.132772f,0.022517f},
  {0.002772f,-0.009805f,-0.016513f,-0.006596f,0.158630f,0.080130f,-0.023978f,-0.039888f,0.010462f,0.099343f,-0.206378f,0.000565f,-0.034910f,-0.046398f,0.009325f,0.042921f,-0.003907f,0.015407f,-0.014583f,0.007108f,0.021269f,0.032370f,0.041751f,0.034056f,-0.120141f,0.096010f,0.020109f,0.123664f,0.129142f,-0.051490f,0.108570f,0.001255f,0.142863f,-0.034126f,0.004682f,-0.011306f,-0.035999f,0.017225f,-0.013650f,-0.032467f,-0.123897f,-0.014348f,0.103016f,0.190886f,-0.012736f,0.020118f,0.004322f,-0.053267f,-0.013183f,-0.014258f,-0.030263f,-0.097720f,-0.011328f,0.012771f,0.038263f,-0.017416f,0.002310f,-0.110996f,-0.079689f,-0.058504f,0.023927f,0.056185f,-0.016528f,-0.005669f},
  {-0.068206f,0.033711f,-0.030167f,0.030071f,-0.038929f,-0.109837f,-0.015442f,-0.085919f,0.013850f,0.086749f,0.105496f,0.097151f,-0.023871f,-0.017784f,0.014282f,0.054313f,-0.026646f,0.066905f,0.119245f,0.011349f,-0.016685f,0.089052f,0.084967f,-0.137163f,0.035433f,-0.077837f,0.023125f,0.038919f,0.046927f,-0.148866f,0.067488f,-0.023753f,0.015689f,0.072280f,-0.019521f,0.017996f,0.025218f,-0.165160f,-0.001428f,-0.038087f,0.010277f,-0.001045f,-0.052798f,-0.163499f,0.097758f,0.025219f,0.015066f,-0.032276f,-0.028892f,-0.077709f,-0.037260f,0.073409f,0.093972f,-0.122349f,-0.030023f,-0.059683f,0.001882f,-0.002655f,0.102037f,-0.004357f,-0.000260f,0.012117f,0.028928f,-0.014423f},
  {-0.029599f,-0.131204f,0.024146f,-0.008247f,-0.082393f,-0.053916f,0.026989f,-0.092360f,0.039148f,-0.248301f,-0.015604f,0.246186f,0.030190f,0.179126f,0.006234f,0.082911f,-0.030628f,-0.072916f,-0.050926f,0.031662f,-0.019699f,0.208674f,-0.039511f,-0.195332f,0.008537f,-0.156029f,0.027234f,-0.077451f,-0.113369f,0.060153f,-0.078133f,-0.049639f,0.051352f,-0.160951f,0.164629f,0.012956f,-0.029866f,0.203366f,0.033244f,-0.018055f,0.087867f,0.263761f,0.111845f,0.047336f,-0.209345f,-0.010593f,-0.017765f,-0.015688f,-0.017355f,0.107547f,0.268490f,-0.039228f,-0.150768f,0.198583f,-0.161824f,0.082292f,-0.001387f,0.066269f,-0.031538f,-0.032962f,-0.010846f,-0.245065f,0.066187f,0.013294f},
  {-0.018041f,0.067231f,0.012448f,-0.010275f,0.097980f,-0.049780f,-0.033174f,0.043425f,-0.017566f,0.092361f,0.010246f,-0.041238f,0.024431f,-0.050959f,0.015060f,0.138132f,0.011026f,0.111676f,-0.178686f,-0.037686f,0.012536f,0.054240f,-0.058068f,-0.077750f,0.053444f,-0.054729f,0.133913f,-0.108511f,-0.020841f,-0.006282f,0.038119f,-0.000570f,0.120751f,-0.021907f,0.281963f,0.016319f,-0.045190f,-0.065872f,-0.026643f,-0.002558f,0.114979f,-0.005827f,-0.044993f,-0.026293f,0.026254f,0.018330f,0.005603f,-0.034581f,-0.026680f,-0.081389f,0.013357f,-0.037131f,-0.063420f,0.028628f,0.180821f,0.078558f,-0.015326f,0.024418f,0.046816f,0.111984f,0.017692f,-0.048637f,0.069721f,0.028048f},
  {-0.033975f,-0.010304f,-0.011657f,-0.038306f,0.027296f,-0.027369f,-0.061935f,-0.011807f,0.019267f,0.038532f,-0.056675f,-0.044438f,-0.028246f,0.075037f,-0.024732f,-0.004594f,-0.000791f,0.029540f,-0.027931f,-0.028803f,0.005076f,-0.000187f,0.024828f,-0.043278f,0.015290f,-0.090179f,0.072734f,-0.020976f,-0.018791f,-0.048836f,0.021047f,0.011840f,0.101697f,-0.112651f,0.071098f,-0.017897f,0.021687f,-0.040804f,0.012715f,-0.049270f,0.090416f,0.070012f,-0.063155f,-0.103494f,0.067161f,0.001002f,0.016983f,0.011410f,-0.015299f,-0.039185f,0.025693f,0.012889f,-0.072422f,-0.012466f,-0.024962f,0.131281f,-0.032250f,0.013001f,0.051976f,-0.011686f,-0.020444f,-0.046886f,-0.027944f,-0.010415f},
  {-0.012158f,0.005237f,0.009288f,-0.038026f,-0.087254f,-0.092545f,0.021468f,0.010646f,0.001551f,0.105993f,-0.003669f,-0.043463f,0.034721f,0.032821f,-0.013345f,0.097540f,-0.005178f,-0.069254f,0.058791f,-0.005754f,0.024728f,-0.052304f,-0.090350f,-0.036529f,0.071866f,0.139373f,0.104628f,0.080923f,0.144387f,-0.034816f,0.033743f,0.020613f,-0.018508f,0.209093f,0.082881f,-0.013362f,-0.030070f,0.102938f,-0.025373f,-0.018490f,-0.033134f,-0.018034f,-0.198389f,-0.085673f,-0.115141f,-0.019479f,-0.006352f,-0.040664f,-0.026964f,-0.096850f,0.091680f,-0.080408f,-0.132973f,-0.009731f,-0.029253f,0.078039f,-0.068101f,-0.099976f,0.077015f,-0.067685f,0.010022f,-0.096106f,-0.030811f,-0.010978f},
  {0.001818f,0.094391f,-0.036257f,-0.037117f,-0.171021f,0.137449f,0.000313f,0.075046f,0.000358f,-0.102006f,-0.050204f,-0.178570f,-0.013458f,0.008388f,-0.005792f,0.059275f,-0.003415f,-0.045377f,-0.028714f,-0.033294f,0.023951f,-0.014186f,-0.084378f,-0.084978f,0.182042f,0.040887f,0.142036f,0.120535f,0.096153f,0.011242f,-0.078755f,0.016079f,-0.030759f,-0.020362f,0.026407f,-0.023655f,-0.021283f,0.005861f,-0.053723f,0.061686f,-0.162778f,-0.065083f,0.015548f,0.021969f,-0.051601f,-0.024980f,-0.060884f,-0.100020f,-0.046767f,-0.097183f,-0.024941f,0.121650f,0.073314f,0.007755f,-0.007531f,0.174145f,-0.037604f,0.135384f,-0.162584f,-0.059917f,0.009042f,-0.075373f,-0.037386f,0.025414f},
  {0.001835f,0.090953f,-0.001908f,-0.031263f,-0.022977f,0.073663f,0.054447f,0.135492f,-0.005684f,-0.213952f,0.103603f,-0.264504f,-0.048930f,0.079105f,-0.022851f,-0.064564f,-0.020617f,-0.025175f,0.093796f,-0.041086f,-0.024583f,0.040815f,-0.097925f,-0.099655f,-0.121736f,-0.076782f,0.299192f,-0.112746f,-0.007287f,0.017268f,-0.212913f,-0.016918f,0.018842f,-0.195077f,0.127870f,0.014869f,-0.034868f,0.082609f,-0.038271f,-0.041545f,-0.141772f,-0.022674f,-0.074379f,0.034941f,-0.050928f,0.020819f,-0.032425f,-0.076630f,0.000292f,0.004000f,-0.020059f,0.061565f,-0.068611f,0.134716f,0.132527f,0.131757f,-0.027237f,0.026010f,-0.341981f,0.074799f,-0.015734f,0.127046f,-0.030264f,0.029356f},
  {-0.009281f,-0.090580f,-0.011569f,-0.032317f,0.010986f,-0.071491f,-0.001615f,0.041354f,-0.022159f,-0.014951f,-0.002654f,-0.042280f,0.015762f,0.011216f,0.000444f,-0.065323f,-0.020046f,-0.085040f,-0.101537f,-0.013196f,-0.021527f,0.061731f,-0.047561f,-0.103795f,0.058315f,0.191824f,0.137782f,0.039069f,0.169834f,0.085740f,0.048220f,0.028265f,0.064516f,-0.020894f,-0.221694f,0.001261f,-0.023352f,0.174060f,-0.003432f,-0.016539f,-0.045826f,-0.073765f,0.068634f,0.210774f,0.010751f,-0.021012f,0.001932f,-0.044241f,-0.025310f,0.027737f,0.078651f,0.117260f,0.030785f,0.028895f,0.144380f,-0.058552f,0.010155f,0.010334f,-0.059179f,-0.029263f,-0.023689f,0.001100f,0.009765f,0.028914f},
  {-0.002671f,0.062721f,0.011811f,0.021331f,-0.057252f,0.057241f,-0.009303f,-0.098941f,0.015092f,-0.058101f,0.085054f,0.049923f,-0.008435f,-0.068090f,-0.021042f,-0.087798f,0.022133f,0.032990f,0.092136f,-0.038516f,0.027653f,0.066845f,-0.142993f,-0.018651f,-0.109028f,0.021197f,-0.036355f,0.175038f,-0.046099f,-0.033141f,0.091374f,0.019555f,0.052914f,0.014700f,0.137059f,-0.007615f,-0.034782f,0.028067f,-0.003948f,0.000526f,0.032800f,0.005062f,0.075497f,-0.012986f,0.058709f,-0.004531f,-0.032104f,-0.008085f,-0.020133f,-0.060383f,0.100135f,-0.055117f,0.038979f,0.043405f,0.030869f,0.013035f,0.022206f,0.015420f,-0.024077f,-0.159165f,-0.027348f,-0.092509f,0.032573f,-0.030296f},
  {-0.020428f,0.035170f,0.014983f,-0.008232f,0.108340f,-0.315432f,0.006175f,0.393350f,-0.041403f,0.454474f,-0.280535f,0.063367f,-0.008227f,-0.099900f,-0.030557f,-0.120263f,-0.031760f,-0.190511f,-0.115426f,-0.034220f,0.011142f,-0.203109f,0.250738f,-0.234344f,-0.202792f,0.072114f,0.113183f,-0.128091f,-0.244025f,0.251341f,-0.408689f,-0.027515f,0.124780f,0.367581f,0.000198f,-0.003864f,0.003434f,0.282169f,0.008792f,0.003852f,-0.143882f,0.399943f,0.019944f,0.434839f,-0.048946f,-0.029380f,0.014036f,-0.024099f,-0.036264f,0.171340f,-0.188636f,-0.339778f,-0.216588f,-0.271840f,0.175552f,0.059716f,-0.022246f,-0.178470f,0.070315f,-0.222627f,0.023023f,-0.269881f,0.032102f,0.015032f},
  {0.005937f,0.333319f,-0.038179f,0.035802f,0.138980f,0.312100f,-0.013828f,-0.250109f,0.023321f,-0.190021f,0.396135f,-0.105939f,-0.016464f,0.112301f,-0.019410f,-0.143506f,0.000331f,-0.001371f,0.164876f,-0.037487f,0.018700f,0.051313f,-0.121411f,-0.226799f,-0.012922f,-0.132727f,0.098613f,0.069480f,0.065993f,-0.111445f,-0.082512f,-0.036774f,-0.367870f,0.062906f,0.224423f,0.013758f,-0.002646f,-0.100805f,0.030122f,0.003369f,-0.131182f,-0.169780f,0.093985f,-0.198190f,-0.092264f,-0.010549f,-0.033914f,0.002649f,-0.031989f,-0.238065f,0.429701f,0.037128f,-0.051804f,0.216488f,0.168593f,0.347650f,-0.034161f,-0.011757f,-0.211439f,-0.184921f,0.001018f,0.169631f,-0.059682f,0.008903f},
  {-0.004508f,0.069359f,0.003149f,0.008706f,-0.377471f,0.429037f,-0.023047f,-0.124250f,0.039217f,-0.338202f,-0.077140f,0.102488f,-0.008190f,-0.094585f,-0.043404f,-0.204450f,-0.003832f,-0.063534f,0.359989f,-0.011207f,-0.041439f,-0.005151f,-0.008936f,0.006645f,-0.369821f,-0.347867f,0.152884f,0.145683f,-0.328197f,0.217499f,-0.036370f,0.016941f,-0.099691f,-0.182557f,0.119754f,-0.018542f,0.011081f,-0.026738f,-0.016011f,-0.049473f,0.032160f,0.214394f,0.053170f,-0.220528f,0.184357f,-0.034539f,0.028296f,0.019161f,0.025042f,0.226341f,0.232464f,0.081415f,0.116115f,0.265222f,0.130648f,0.230191f,-0.066851f,-0.004643f,-0.332544f,-0.091324f,0.027940f,0.164716f,-0.043161f,-0.003874f},
  {-0.037717f,0.014617f,-0.010115f,-0.031220f,-0.250714f,-0.006329f,-0.039621f,0.001721f,-0.014024f,-0.108626f,-0.022550f,-0.096401f,-0.034830f,0.030960f,0.019883f,0.142551f,-0.002741f,0.062487f,0.189458f,0.000684f,0.018684f,-0.008158f,0.087270f,0.117980f,0.194239f,-0.278303f,-0.004337f,-0.015748f,0.042830f,0.000921f,-0.095310f,0.025777f,0.026242f,-0.064122f,-0.080387f,-0.027921f,-0.034313f,-0.160380f,0.001434f,0.024800f,0.008705f,-0.100116f,-0.020552f,0.015827f,0.037806f,-0.026941f,-0.016109f,-0.019062f,0.009750f,0.079595f,-0.089475f,0.224444f,-0.013013f,0.045930f,0.117471f,-0.243712f,-0.022777f,0.136978f,-0.118228f,0.041252f,-0.030547f,-0.102286f,-0.019592f,0.000912f},
  {-0.042834f,-0.001288f,0.018283f,-0.020578f,-0.162010f,0.113214f,-0.033398f,0.020226f,-0.008750f,-0.252623f,-0.098976f,-0.145062f,0.007162f,-0.113276f,-0.034847f,0.180025f,-0.015157f,-0.118134f,-0.019049f,-0.005677f,-0.016266f,0.174834f,-0.012618f,-0.212418f,0.151221f,-0.088328f,-0.114477f,0.091325f,-0.047567f,0.012342f,0.105791f,0.009923f,-0.151301f,-0.240093f,0.009015f,-0.027735f,0.025697f,0.141011f,-0.008144f,0.015119f,-0.087618f,0.010877f,0.023334f,0.105180f,-0.262160f,0.019250f,-0.040713f,0.015523f,-0.000350f,-0.022505f,0.088259f,0.056521f,0.186713f,0.189469f,-0.126785f,0.071990f,0.016342f,0.078635f,-0.045635f,0.116764f,0.018545f,0.055884f,0.017289f,-0.017367f},
  {-0.001836f,-0.044107f,0.017610f,-0.037787f,0.129771f,-0.147989f,-0.026463f,-0.018361f,0.007315f,0.185546f,-0.207984f,0.120036f,-0.030245f,-0.057616f,-0.023775f,-0.115174f,0.000589f,0.001668f,-0.093808f,-0.018041f,-0.013087f,-0.000333f,0.135162f,0.046408f,0.178262f,-0.014708f,0.073630f,0.082032f,0.073187f,-0.099077f,0.017319f,0.018955f,0.148749f,-0.066176f,0.043558f,-0.035603f,-0.033894f,-0.067689f,0.019435f,0.018771f,0.075628f,0.160538f,0.214733f,0.175452f,0.009809f,-0.016676f,-0.012960f,0.017206f,-0.009137f,0.112550f,0.027696f,-0.022118f,-0.024810f,-0.049000f,0.112334f,-0.077797f,0.039156f,-0.037824f,0.141620f,-0.091185f,-0.030092f,-0.216178f,0.002023f,0.020475f},
  {0.024819f,0.036436f,0.028231f,0.005352f,-0.005398f,0.102943f,-0.021497f,-0.023643f,-0.024633f,-0.025624f,-0.102488f,-0.060025f,-0.048702f,-0.109362f,0.021408f,0.104726f,-0.024123f,-0.041321f,0.115435f,-0.036560f,-0.034215f,0.064461f,-0.029910f,-0.075798f,0.081762f,0.022745f,0.143188f,0.126933f,-0.054011f,-0.071204f,-0.050280f,-0.034451f,0.036399f,-0.013436f,0.113721f,-0.025250f,0.026165f,0.049141f,-0.002872f,0.012519f,-0.022432f,-0.004473f,0.122268f,-0.014725f,-0.006111f,0.015592f,-0.011072f,-0.030958f,0.008666f,-0.032264f,0.120048f,-0.094147f,0.030512f,0.042154f,-0.107942f,0.087971f,0.029286f,-0.023711f,0.059101f,-0.176012f,0.019441f,-0.097869f,-0.017922f,-0.011324f},
  {-0.021504f,0.001380f,-0.006271f,0.018322f,0.070413f,-0.221032f,0.009521f,0.126906f,0.043102f,0.266703f,0.174100f,-0.078066f,0.022132f,0.013193f,-0.021352f,0.168675f,-0.047224f,-0.131640f,-0.044850f,0.011562f,-0.024668f,-0.121046f,0.035292f,-0.167231f,0.216726f,-0.048486f,0.257889f,-0.033322f,0.047954f,-0.182716f,-0.235424f,0.021689f,0.020455f,0.220433f,-0.131162f,0.008115f,0.011340f,-0.128056f,-0.000782f,0.011979f,-0.032581f,-0.262286f,-0.188537f,-0.059947f,0.037228f,0.001888f,-0.017131f,-0.018854f,-0.006103f,-0.041646f,-0.112959f,-0.055254f,-0.174918f,-0.034603f,-0.004855f,-0.042651f,-0.031077f,-0.158074f,0.112019f,0.016790f,-0.031668f,-0.052139f,-0.008733f,0.000757f},
  {-0.010236f,-0.092287f,-0.002674f,-0.043779f,-0.114794f,-0.081353f,0.001784f,0.055626f,-0.014910f,-0.012140f,0.210094f,-0.022764f,-0.051714f,0.098946f,-0.024977f,0.115809f,0.009140f,-0.066012f,0.110541f,0.029616f,0.014431f,-0.012977f,-0.135915f,-0.167887f,0.089564f,-0.021945f,0.251673f,-0.104136f,0.073581f,-0.157767f,-0.133980f,-0.035424f,-0.037921f,0.161814f,-0.132902f,-0.019699f,-0.020919f,0.016157f,0.009468f,-0.039210f,0.065300f,-0.174453f,-0.077991f,-0.165667f,0.000965f,-0.024388f,-0.025328f,-0.028159f,0.014621f,-0.032996f,0.032727f,-0.016386f,-0.076265f,-0.191111f,-0.198160f,0.058878f,-0.050890f,-0.018885f,-0.073712f,-0.022925f,-0.029302f,0.077920f,-0.073264f,-0.018941f},
  {-0.002335f,-0.021429f,-0.013854f,-0.024052f,0.056769f,-0.022565f,-0.053343f,0.095522f,-0.019611f,-0.033021f,0.150972f,-0.044398f,0.023034f,0.073435f,-0.010597f,0.084339f,-0.011382f,0.040819f,-0.072442f,-0.034208f,0.018571f,-0.011154f,-0.101648f,-0.033452f,0.165643f,0.032307f,0.138122f,0.012061f,-0.025867f,-0.178149f,0.009903f,0.027270f,0.035724f,0.076484f,0.052873f,0.017150f,-0.031540f,0.045639f,-0.026701f,-0.044268f,0.064581f,-0.037985f,0.019817f,-0.132976f,-0.018851f,0.003101f,-0.018619f,-0.041619f,-0.038564f,-0.000047f,0.099054f,-0.226014f,0.004897f,-0.024920f,-0.072450f,0.095154f,-0.007853f,-0.101221f,0.087393f,0.059309f,-0.005553f,-0.050592f,0.011582f,-0.034213f},
  {-0.007783f,0.168991f,0.024682f,-0.032568f,-0.038687f,-0.038375f,-0.006715f,-0.020321f,-0.015751f,0.102949f,-0.015163f,-0.092584f,0.005704f,0.066678f,-0.032918f,-0.006663f,0.016722f,-0.139465f,-0.000691f,-0.011519f,0.020865f,-0.024833f,0.067045f,-0.080054f,-0.028702f,0.099126f,0.074537f,0.163887f,0.039383f,-0.081850f,0.140421f,-0.023246f,0.066741f,0.082205f,0.024224f,-0.027300f,-0.039804f,0.014601f,0.026099f,-0.018004f,0.131209f,-0.011017f,0.118019f,0.073918f,-0.028899f,-0.029908f,0.025546f,-0.004097f,-0.011283f,-0.006845f,0.129737f,0.000199f,0.065819f,0.137952f,-0.082984f,-0.060385f,0.040250f,-0.116339f,0.060068f,-0.157318f,0.027809f,-0.140279f,0.007647f,-0.002686f},
  {-0.027549f,0.111799f,0.003927f,0.004431f,-0.136515f,-0.143221f,0.009133f,0.197706f,-0.003957f,0.174523f,0.066245f,-0.157343f,0.018804f,0.075695f,-0.010667f,-0.039015f,0.019991f,-0.101735f,0.068208f,-0.008125f,-0.010642f,-0.057196f,0.084547f,-0.086156f,0.088938f,-0.015986f,0.057385f,-0.070152f,0.085427f,-0.088917f,-0.053231f,-0.046623f,0.193028f,-0.007892f,-0.122239f,-0.030300f,0.011120f,-0.071377f,-0.032134f,0.032972f,0.090465f,0.252956f,-0.036172f,-0.036352f,0.044757f,-0.043707f,0.025552f,-0.028275f,0.028522f,-0.030711f,-0.048898f,0.052483f,0.070645f,0.144569f,-0.065331f,0.017077f,-0.027752f,0.134605f,0.062564f,-0.081420f,-0.037716f,-0.139330f,0.018334f,-0.026095f},
  {0.021486f,0.053739f,-0.015247f,-0.029029f,-0.096974f,-0.064703f,-0.033453f,0.019460f,-0.003481f,-0.001366f,0.054217f,0.072927f,0.011706f,0.065484f,-0.039701f,0.058790f,-0.010933f,-0.035871f,-0.056014f,0.026577f,0.009336f,0.052727f,0.002681f,-0.042179f,0.006920f,0.063220f,0.020839f,0.034973f,0.045398f,-0.041745f,0.029826f,-0.014426f,-0.039933f,0.022627f,0.003215f,-0.029442f,0.021796f,0.006068f,-0.008683f,-0.002890f,0.057223f,-0.022345f,0.016076f,-0.017535f,0.068190f,-0.024992f,-0.030257f,-0.015417f,-0.040833f,0.008021f,-0.015660f,0.032538f,-0.013244f,-0.031623f,0.021043f,0.025545f,-0.024114f,-0.005473f,0.015391f,0.026305f,-0.024429f,-0.025397f,-0.009700f,-0.007410f},
  {0.018450f,-0.050190f,-0.011917f,0.018857f,-0.151765f,0.038879f,-0.021380f,-0.081745f,0.015139f,-0.154446f,0.082778f,0.026682f,-0.026929f,0.228171f,-0.021478f,-0.030014f,-0.031788f,0.052953f,0.089173f,-0.005936f,-0.013560f,0.026981f,-0.105655f,0.050937f,-0.061542f,-0.025176f,0.054220f,0.108878f,0.062817f,-0.102818f,0.008685f,0.012700f,0.061119f,-0.070335f,-0.096826f,0.013826f,0.024831f,-0.099702f,0.016025f,0.029423f,-0.087089f,-0.003225f,0.109033f,-0.083722f,-0.026853f,0.002993f,-0.063887f,-0.011725f,0.000842f,0.064942f,0.161502f,0.034839f,-0.035642f,-0.047088f,0.076729f,0.261560f,0.021674f,0.233643f,0.078221f,0.003086f,-0.040956f,-0.058886f,0.008776f,0.026074f},
  {-0.010335f,-0.018829f,-0.016483f,-0.032794f,-0.009898f,0.023149f,0.004070f,-0.185318f,-0.005566f,-0.023235f,-0.010920f,0.151529f,-0.024340f,-0.023756f,-0.002545f,0.040199f,-0.036725f,0.086345f,0.093386f,-0.038456f,-0.013909f,0.127416f,0.140184f,0.043463f,-0.157781f,-0.001115f,-0.066865f,0.157214f,-0.114757f,0.006023f,0.109936f,0.006079f,-0.116184f,0.012885f,-0.001822f,-0.033589f,0.016514f,-0.071935f,-0.007764f,0.034325f,-0.056648f,0.068573f,0.084344f,-0.069670f,0.037971f,-0.006761f,-0.040075f,-0.064356f,0.025014f,0.113456f,0.123118f,0.014883f,0.083030f,-0.043537f,0.074098f,-0.059927f,-0.047385f,-0.001539f,0.023664f,-0.142894f,0.016078f,0.041149f,-0.056901f,-0.018168f},
  {-0.054457f,-0.010379f,-0.019137f,0.012572f,0.077046f,0.131681f,-0.056027f,-0.065632f,-0.007756f,-0.017922f,-0.082704f,-0.023170f,0.013986f,-0.006237f,0.018089f,-0.093930f,0.008086f,0.032319f,0.050461f,0.002484f,0.000996f,0.076779f,0.018880f,0.034432f,0.047549f,0.095507f,-0.167210f,-0.002692f,0.135471f,-0.034563f,0.142421f,-0.035148f,0.068416f,-0.249343f,-0.031126f,0.006944f,-0.003039f,0.082562f,-0.014044f,-0.029649f,-0.103368f,0.071469f,0.128335f,0.028777f,0.036216f,-0.042327f,-0.017363f,-0.037319f,-0.032695f,-0.006712f,-0.018710f,0.105836f,0.037620f,-0.095297f,-0.045286f,0.067446f,-0.053985f,0.107849f,0.026264f,0.078096f,0.016164f,-0.034962f,-0.077448f,0.009283f},
  {-0.047668f,0.067979f,-0.010960f,-0.006780f,0.044175f,0.053748f,-0.066783f,-0.001075f,-0.037379f,-0.050413f,-0.040033f,0.063973f,0.002741f,-0.035030f,-0.020444f,-0.047941f,0.012874f,-0.055783f,0.019031f,-0.023463f,-0.013831f,0.078183f,-0.025184f,-0.000660f,0.078543f,0.046544f,0.056634f,-0.074052f,-0.008469f,-0.057904f,0.029230f,-0.005350f,-0.095490f,-0.034867f,0.055858f,-0.002497f,0.002346f,0.027153f,0.010125f,-0.010832f,0.078916f,0.037970f,0.010274f,0.022794f,-0.077979f,0.001547f,0.013357f,-0.015485f,-0.003501f,0.027668f,0.079521f,0.025615f,-0.058863f,0.077649f,-0.081875f,0.023304f,-0.026923f,-0.001030f,-0.127674f,0.043508f,-0.003954f,0.011150f,-0.127769f,0.017458f},
  {-0.018613f,0.109661f,-0.008767f,-0.040330f,-0.077037f,0.042265f,-0.032210f,0.077351f,0.004886f,0.019077f,0.104548f,0.028259f,-0.049507f,-0.000054f,-0.031907f,0.026641f,0.019967f,-0.136983f,-0.026625f,-0.036121f,-0.019701f,0.070270f,-0.038572f,-0.050702f,0.102806f,0.029103f,0.026676f,-0.077059f,-0.013200f,-0.003460f,0.011044f,-0.011817f,-0.112974f,0.083032f,0.036292f,-0.039879f,-0.011975f,0.034940f,0.006604f,-0.015512f,0.162286f,-0.033858f,-0.049033f,0.056838f,-0.030541f,0.021255f,-0.008691f,-0.039294f,-0.042996f,0.009916f,0.006216f,0.091012f,-0.064370f,0.086079f,0.014795f,-0.051648f,-0.017729f,-0.001883f,-0.083216f,0.002273f,-0.018385f,-0.072119f,-0.072096f,-0.013616f},
  {-0.016371f,0.030369f,0.010794f,-0.026012f,-0.142391f,-0.007466f,0.024733f,-0.000022f,-0.018131f,-0.065552f,0.086964f,0.104592f,0.000984f,-0.036769f,-0.023653f,0.010461f,-0.020661f,-0.012559f,-0.040477f,0.013657f,0.028292f,0.001772f,0.035706f,-0.000993f,0.024575f,-0.087885f,-0.018177f,-0.038274f,-0.088107f,0.114168f,-0.021936f,-0.021138f,-0.140259f,-0.028252f,-0.058105f,-0.004192f,-0.022727f,0.048133f,-0.034639f,-0.057470f,0.100872f,-0.024948f,-0.096144f,0.113033f,-0.100267f,-0.018209f,0.019115f,0.021319f,-0.044886f,0.134299f,0.115905f,-0.155713f,-0.028229f,0.098578f,0.203778f,-0.081390f,-0.059310f,0.015101f,0.030007f,0.006342f,0.026246f,-0.045103f,-0.056659f,0.029798f},
  {-0.034116f,-0.019579f,0.003941f,-0.010536f,-0.036650f,-0.157625f,0.002820f,-0.015253f,-0.045504f,0.128197f,-0.082524f,0.208397f,0.031433f,0.115880f,-0.009147f,-0.052825f,0.005081f,-0.023561f,0.035985f,0.010345f,-0.028777f,0.016106f,0.267487f,0.049857f,-0.057760f,-0.066909f,0.032508f,-0.067437f,-0.023826f,0.054636f,0.010363f,0.001327f,-0.005803f,-0.071589f,-0.162342f,-0.024254f,-0.036395f,0.059841f,-0.021408f,0.002248f,0.127292f,0.065482f,0.240608f,0.208459f,-0.203227f,-0.006847f,-0.000351f,0.013787f,-0.005389f,0.106228f,-0.000222f,0.040960f,-0.108641f,-0.362173f,0.041617f,-0.052429f,-0.045066f,0.079877f,0.019958f,0.006413f,-0.039134f,-0.288759f,0.033053f,0.026385f},
  {-0.034373f,-0.099508f,-0.006318f,0.027153f,-0.154222f,0.129199f,-0.026108f,-0.062229f,-0.028988f,-0.021554f,-0.082612f,-0.038094f,0.009582f,0.096719f,0.011144f,0.068948f,-0.004864f,0.164071f,0.104477f,0.028201f,0.012487f,-0.003344f,0.123271f,-0.124989f,-0.096028f,-0.209547f,-0.018990f,-0.072254f,-0.033713f,-0.148679f,-0.255073f,-0.035639f,-0.084070f,-0.005232f,-0.058618f,-0.018856f,-0.019142f,-0.056595f,0.019154f,0.007560f,-0.014867f,0.162806f,-0.022959f,-0.080859f,-0.286448f,0.015731f,-0.003576f,0.018092f,-0.013241f,0.096372f,0.051803f,0.046913f,0.116311f,-0.009002f,-0.003623f,0.077934f,-0.007144f,0.262494f,-0.180747f,0.059716f,-0.029416f,-0.078929f,0.019184f,-0.015217f},
  {-0.008371f,-0.058133f,-0.032825f,-0.040555f,-0.015681f,0.135369f,-0.063391f,-0.048691f,-0.019141f,0.021973f,0.136609f,-0.112467f,-0.034790f,0.055694f,0.002558f,-0.044159f,0.012465f,0.225674f,0.095884f,-0.020465f,-0.036572f,-0.255342f,-0.037086f,0.006625f,-0.098359f,-0.010713f,-0.093973f,0.125497f,0.069999f,-0.056375f,-0.091174f,0.021377f,0.003483f,0.040082f,0.048877f,-0.026066f,-0.009139f,-0.154630f,-0.026206f,-0.029974f,-0.046442f,0.036395f,-0.064131f,-0.079873f,0.202853f,-0.013728f,-0.037751f,0.032186f,0.028908f,-0.181352f,-0.050600f,0.077607f,0.059886f,0.002444f,-0.210978f,-0.004757f,0.002434f,0.044463f,-0.102733f,0.039790f,-0.007275f,0.154351f,-0.020793f,-0.036102f},
  {-0.025924f,-0.071872f,0.006041f,0.027334f,-0.005470f,0.046264f,-0.054531f,0.000216f,0.000601f,0.056384f,-0.013934f,-0.107689f,-0.008281f,-0.201382f,-0.013994f,0.097945f,-0.024417f,0.128998f,-0.044143f,0.025663f,-0.008100f,-0.036036f,0.043127f,0.015815f,-0.091481f,-0.039699f,-0.033073f,-0.080640f,-0.026171f,-0.053096f,-0.125436f,0.010677f,-0.037556f,0.026888f,0.038784f,-0.006957f,0.019395f,-0.062186f,0.014468f,-0.077762f,-0.076619f,-0.064172f,-0.181832f,-0.047715f,0.052508f,-0.037416f,-0.022020f,-0.042990f,0.027387f,-0.161667f,-0.142314f,-0.026787f,0.052711f,-0.037662f,-0.224464f,0.067511f,-0.056214f,0.056792f,0.037046f,0.109251f,0.037844f,0.098041f,-0.074060f,-0.039299f},
  {-0.049479f,0.045261f,0.011913f,0.014576f,0.050096f,0.014555f,-0.043832f,-0.079550f,-0.019277f,0.048785f,-0.261767f,-0.192834f,-0.000751f,-0.006689f,-0.048699f,0.063935f,-0.008495f,0.140083f,0.022765f,-0.008550f,-0.036704f,-0.031193f,-0.057803f,0.059571f,-0.015926f,0.014150f,-0.056575f,-0.104443f,0.103947f,-0.141813f,-0.004336f,-0.027470f,-0.010027f,-0.080105f,0.067140f,0.007642f,-0.012490f,0.057044f,-0.049111f,-0.017015f,0.072265f,0.084262f,-0.185358f,-0.090872f,-0.145733f,0.010863f,-0.033910f,-0.004202f,0.001704f,-0.012938f,-0.022346f,0.035421f,0.178779f,-0.012144f,-0.080957f,0.088519f,-0.031659f,-0.053242f,0.102693f,0.102732f,0.026880f,0.172896f,-0.013932f,-0.012557f},
  {-0.011289f,-0.045262f,-0.018256f,-0.036598f,-0.079431f,-0.094893f,-0.036505f,-0.063323f,0.016383f,0.060575f,-0.186626f,-0.009243f,-0.022821f,0.099664f,-0.033841f,0.079522f,-0.012551f,-0.026909f,0.016523f,-0.028506f,0.010342f,0.042181f,0.006426f,0.062578f,0.036199f,-0.082563f,-0.027380f,-0.147485f,-0.001330f,-0.089264f,0.124014f,-0.025938f,-0.085224f,0.011092f,0.024737f,-0.039824f,-0.059593f,-0.063964f,-0.015275f,-0.085020f,0.121364f,0.117055f,-0.036144f,0.010718f,-0.183985f,-0.021224f,-0.021747f,0.006919f,-0.045451f,0.096002f,0.012401f,-0.008008f,0.092407f,0.022975f,-0.003637f,-0.056747f,-0.038109f,-0.028864f,0.085035f,0.001077f,-0.032723f,-0.016991f,0.012592f,-0.007945f},
  {-0.000742f,0.083319f,0.013681f,-0.032251f,-0.085831f,0.095428f,-0.061783f,0.006551f,-0.010703f,0.026923f,-0.062901f,-0.060850f,-0.006625f,0.009813f,0.004292f,0.181534f,-0.010993f,-0.053611f,0.079239f,0.027116f,-0.024970f,0.068267f,-0.035778f,0.080014f,0.093895f,-0.243744f,-0.051279f,-0.071034f,-0.028633f,-0.105026f,0.113046f,-0.040831f,-0.139740f,0.149368f,-0.030685f,0.011489f,-0.022470f,-0.036293f,0.026035f,-0.052066f,0.033880f,0.034009f,-0.254194f,0.040261f,-0.260788f,-0.008128f,0.013641f,0.021812f,-0.004702f,-0.112050f,0.049996f,0.036139f,0.042157f,0.052357f,-0.086249f,-0.135893f,-0.012326f,-0.113122f,-0.013307f,0.102555f,-0.021747f,0.225832f,0.021479f,-0.032684f},
  {0.006902f,0.182821f,0.016398f,-0.006199f,-0.050316f,0.050244f,-0.028172f,-0.025402f,-0.015289f,0.094104f,-0.142863f,-0.022430f,0.009426f,-0.208556f,0.011749f,-0.011789f,-0.013725f,-0.046349f,-0.006703f,0.016898f,-0.005919f,0.057168f,0.090464f,0.109614f,0.028324f,-0.242342f,0.031649f,-0.060802f,0.031391f,0.036139f,-0.052699f,-0.031973f,-0.089016f,0.192612f,0.047891f,-0.039135f,0.010962f,-0.103069f,0.024197f,0.030750f,-0.003511f,0.054796f,-0.282687f,-0.041520f,-0.287801f,0.010190f,-0.018799f,0.028169f,0.011449f,-0.146238f,0.026897f,0.054522f,0.062673f,-0.129527f,0.227982f,-0.017989f,-0.047683f,-0.079760f,0.106353f,0.125445f,0.028303f,0.069165f,-0.011862f,-0.011156f},
  {-0.030872f,0.019482f,-0.033089f,-0.011979f,-0.167946f,0.003935f,-0.029552f,-0.186932f,0.030048f,-0.088354f,0.016780f,0.118313f,0.001075f,-0.004955f,0.008081f,-0.055441f,-0.028653f,0.256450f,0.028698f,-0.006502f,-0.016782f,-0.157792f,-0.067417f,0.043169f,0.284716f,0.061993f,-0.235696f,0.004225f,-0.054495f,-0.129622f,-0.183336f,-0.015870f,-0.015529f,-0.006938f,-0.204616f,0.013096f,0.006551f,0.027556f,-0.009727f,-0.056159f,0.013018f,0.020169f,0.234446f,-0.089414f,-0.088020f,-0.030452f,0.021946f,0.023531f,-0.015013f,0.059259f,0.015318f,-0.225670f,0.155457f,-0.137393f,-0.081888f,0.169160f,0.017243f,0.324434f,0.117833f,0.030745f,-0.005533f,-0.241920f,-0.075634f,-0.015551f},
  {-0.014371f,0.008541f,-0.024266f,-0.028462f,0.028824f,0.054179f,-0.006555f,0.106255f,-0.027230f,0.042416f,-0.074719f,-0.010640f,-0.038280f,-0.091043f,0.007642f,-0.052086f,0.010313f,0.060430f,-0.004427f,-0.028792f,-0.032339f,-0.149425f,-0.014935f,-0.029106f,-0.070781f,0.049693f,-0.027599f,-0.088977f,-0.010143f,-0.020725f,-0.001993f,-0.000160f,0.130300f,-0.139974f,0.053905f,0.017939f,0.020718f,-0.131434f,-0.031946f,-0.037354f,-0.181308f,0.041758f,0.027174f,-0.052799f,-0.005407f,-0.009160f,-0.004001f,-0.014722f,0.020775f,-0.079549f,-0.127073f,0.092221f,0.006136f,-0.103852f,0.125513f,-0.080606f,-0.015322f,-0.025382f,-0.092912f,0.056229f,-0.037556f,0.061289f,-0.003324f,-0.011171f},
  {-0.005026f,-0.061262f,0.009110f,-0.021676f,0.103380f,-0.132635f,-0.018386f,0.126759f,0.009555f,0.047174f,-0.115053f,-0.030975f,0.008146f,-0.236259f,0.005297f,0.026932f,-0.039765f,-0.018994f,-0.009951f,0.025655f,-0.021022f,-0.067587f,0.156927f,0.092005f,0.051203f,0.055011f,0.118006f,-0.120730f,-0.000061f,0.109095f,-0.105708f,-0.007501f,0.037035f,0.081967f,0.146826f,-0.018032f,-0.032027f,-0.010241f,0.025991f,-0.069439f,0.005374f,0.285565f,-0.012234f,0.152735f,0.163989f,0.008439f,0.003037f,-0.096681f,0.012211f,-0.081746f,-0.152680f,-0.002846f,-0.111857f,0.023649f,0.087366f,0.008177f,-0.047088f,0.031109f,0.008412f,0.090788f,-0.016713f,0.145988f,-0.013818f,-0.026100f},
  {-0.055311f,-0.045468f,0.017828f,-0.016563f,0.243089f,-0.056296f,-0.065059f,0.047728f,-0.046034f,0.105749f,-0.373333f,-0.052485f,-0.048887f,-0.229400f,-0.024828f,0.032658f,-0.003872f,0.060378f,0.072431f,0.019787f,0.008687f,-0.052280f,0.105056f,0.137628f,-0.015256f,0.146832f,0.015375f,-0.045755f,0.050342f,0.035247f,0.010556f,-0.020294f,0.231592f,-0.022356f,0.154484f,0.000729f,-0.013947f,0.004127f,-0.038473f,-0.013776f,0.055627f,0.275908f,0.210280f,0.210367f,0.085820f,-0.028004f,-0.007127f,-0.037426f,-0.046320f,0.013913f,-0.239830f,-0.140540f,-0.115737f,-0.165465f,0.037123f,0.105691f,-0.034610f,0.122380f,-0.024985f,-0.009170f,0.003206f,-0.048549f,-0.036066f,0.010346f},
  {-0.042387f,-0.200772f,-0.036129f,-0.042367f,0.108890f,-0.130109f,-0.013813f,-0.062235f,-0.016723f,0.104940f,-0.292033f,0.182255f,-0.052523f,0.028507f,-0.029233f,-0.053665f,-0.042751f,0.108902f,-0.054815f,-0.010470f,-0.007947f,0.087656f,0.091784f,0.032874f,-0.018674f,0.067012f,0.016783f,-0.016808f,0.034216f,0.086205f,0.018613f,0.001299f,0.062782f,0.079293f,-0.051458f,-0.007796f,0.019503f,-0.044146f,0.024882f,0.004418f,0.085618f,-0.012480f,0.111907f,0.160071f,0.167885f,-0.023466f,-0.066615f,-0.080174f,-0.016814f,0.133047f,0.036645f,-0.180175f,-0.024139f,0.020363f,-0.113050f,-0.041609f,-0.030635f,0.037639f,0.263558f,-0.079932f,0.005425f,0.041942f,-0.094252f,0.005486f},
  {-0.036140f,0.022718f,-0.036447f,-0.025325f,0.081109f,-0.003700f,-0.003422f,-0.005980f,-0.042474f,0.108404f,-0.180985f,0.179834f,0.010673f,-0.005583f,-0.046501f,0.014710f,-0.037030f,-0.082583f,-0.122870f,-0.029617f,-0.016128f,0.019271f,0.086867f,0.141755f,-0.199450f,-0.018437f,-0.039822f,0.161907f,0.013273f,0.031500f,-0.057299f,0.000719f,0.142394f,0.142055f,-0.161910f,-0.026553f,-0.036171f,-0.196553f,-0.041018f,-0.031693f,-0.064788f,-0.052293f,0.065656f,0.058662f,0.178680f,-0.041885f,-0.056776f,0.011789f,-0.001038f,0.085968f,-0.005021f,-0.072313f,0.072285f,-0.028034f,0.026231f,-0.129206f,0.000814f,-0.105525f,0.078892f,-0.058420f,-0.000129f,-0.012149f,-0.066986f,-0.010296f},
  {-0.032653f,0.023795f,-0.034466f,-0.030138f,0.024118f,-0.045748f,-0.001066f,0.008817f,0.002721f,0.216002f,-0.070103f,0.041361f,0.001159f,0.126492f,-0.004113f,0.044427f,0.009496f,-0.060305f,0.131164f,0.000455f,0.007767f,-0.234970f,-0.008295f,-0.107159f,-0.096724f,0.106176f,0.054799f,0.055639f,-0.058130f,-0.008119f,-0.071204f,0.007060f,0.105937f,0.203808f,0.193768f,-0.036122f,0.024957f,-0.162029f,0.005838f,-0.011805f,-0.223064f,-0.080561f,0.157052f,-0.071332f,0.158788f,0.000648f,0.029239f,0.027510f,0.006071f,-0.077425f,-0.017823f,-0.157897f,0.016949f,-0.085654f,0.040418f,-0.072984f,0.033938f,-0.238781f,0.167869f,-0.091110f,-0.033993f,-0.048664f,0.017196f,0.005217f},
  {0.018168f,0.030924f,0.020521f,0.021581f,0.146099f,-0.001192f,0.004222f,-0.075849f,0.043713f,0.119646f,0.017336f,0.250251f,-0.001645f,0.103031f,0.007714f,-0.008624f,-0.039782f,-0.043893f,-0.262485f,-0.003955f,-0.018736f,-0.001013f,-0.039728f,0.131827f,0.133724f,0.194516f,-0.185271f,0.023511f,0.020341f,0.086560f,-0.003369f,0.028536f,0.015388f,0.028889f,0.019963f,-0.014719f,0.003483f,0.208191f,0.000617f,-0.003100f,-0.070332f,-0.199707f,0.082840f,0.194691f,-0.012318f,-0.019509f,0.031962f,0.001668f,0.005750f,-0.146359f,-0.025438f,-0.069639f,0.188623f,-0.304860f,0.070247f,-0.060871f,0.003497f,-0.071518f,0.096566f,-0.031391f,0.008265f,-0.135138f,0.024762f,0.004383f},
  {0.011906f,-0.036211f,0.007377f,-0.039387f,0.007236f,-0.059045f,0.000345f,-0.023576f,0.007452f,0.147540f,-0.094467f,0.152709f,-0.021772f,0.021721f,-0.007296f,0.118955f,-0.037623f,-0.141654f,0.080320f,0.021842f,-0.023440f,0.118530f,0.007268f,0.042753f,0.065408f,-0.033280f,0.018248f,-0.051349f,-0.117078f,0.110126f,-0.023192f,0.019090f,0.058701f,0.105678f,-0.034929f,-0.037721f,0.002989f,0.150230f,-0.030507f,-0.023712f,0.016785f,-0.044346f,0.019423f,0.252596f,-0.096730f,-0.008250f,-0.010809f,0.017929f,-0.012293f,0.037265f,0.144528f,-0.014461f,-0.054106f,-0.046857f,0.054968f,-0.056461f,-0.042835f,-0.095479f,0.057386f,-0.001633f,-0.035579f,0.035524f,0.040793f,-0.007938f},
  {-0.000645f,-0.049726f,-0.020460f,-0.009034f,-0.145490f,0.097050f,-0.070020f,0.019605f,-0.025265f,0.053331f,-0.022121f,0.081051f,0.013564f,-0.081749f,-0.003384f,0.070978f,0.008671f,-0.013829f,0.045374f,0.016180f,0.003259f,0.054606f,0.170585f,0.143084f,-0.061881f,-0.044265f,-0.089871f,0.109676f,-0.129724f,0.135376f,0.066674f,0.018445f,-0.054781f,-0.018731f,-0.270271f,-0.009374f,0.026548f,0.001415f,-0.016760f,-0.020244f,-0.086414f,-0.029830f,-0.076451f,0.155330f,0.062868f,-0.018626f,-0.051329f,0.016132f,-0.013589f,-0.022122f,-0.048140f,0.013820f,-0.098731f,-0.076471f,0.203773f,0.010268f,-0.057815f,-0.132775f,0.054741f,0.110789f,0.036766f,0.069006f,0.015393f,0.003892f},
  {-0.015373f,-0.102707f,-0.002280f,-0.010188f,0.046449f,-0.069070f,-0.000406f,0.108854f,0.008539f,0.185079f,-0.196687f,0.134902f,-0.028463f,0.096209f,-0.047049f,0.053696f,-0.008619f,0.035656f,-0.035911f,-0.031785f,-0.003151f,0.081710f,0.057537f,-0.038221f,0.072680f,0.086718f,-0.084907f,0.118121f,0.183936f,-0.098948f,0.049981f,0.003730f,0.083736f,0.165319f,-0.179041f,0.001513f,-0.016276f,-0.034278f,-0.031652f,-0.051439f,-0.177287f,-0.023236f,0.025524f,0.140901f,0.026063f,-0.041487f,-0.013384f,-0.075118f,-0.013490f,0.055412f,-0.125872f,-0.206397f,-0.064087f,-0.251456f,-0.022105f,-0.096670f,-0.023440f,-0.052433f,0.104887f,-0.041157f,-0.036395f,-0.234461f,-0.091821f,-0.034356f},
  {-0.049573f,-0.189617f,0.021644f,-0.051882f,0.267413f,-0.126961f,-0.034709f,0.036737f,-0.020688f,0.098841f,-0.066389f,-0.046173f,0.007314f,0.251004f,0.022917f,-0.048602f,-0.050172f,0.077743f,0.007349f,0.001258f,0.009698f,0.055512f,0.104336f,-0.053405f,0.057055f,0.106445f,-0.033683f,0.069773f,0.186976f,-0.164551f,0.115803f,0.032957f,0.184162f,-0.040102f,-0.066613f,0.010723f,-0.043204f,0.011821f,0.002899f,-0.046001f,-0.267551f,-0.064591f,0.131757f,0.054916f,0.134045f,-0.019907f,-0.008355f,-0.050285f,-0.025040f,0.117448f,-0.083427f,-0.180199f,-0.068186f,-0.355682f,-0.172256f,0.075733f,0.009097f,0.144135f,-0.076709f,-0.085434f,-0.004749f,-0.037485f,-0.100789f,-0.011453f},
  {0.012631f,-0.011764f,-0.008286f,-0.037360f,0.211315f,0.042800f,-0.056108f,-0.001897f,-0.029829f,0.017349f,0.002950f,-0.110200f,-0.051525f,-0.090438f,-0.029120f,0.032489f,0.017873f,0.026942f,0.044820f,0.011747f,-0.026863f,0.101526f,0.115617f,0.038174f,-0.098935f,0.095770f,0.024657f,0.057581f,0.128029f,-0.127136f,0.076188f,-0.032664f,0.014403f,-0.147802f,-0.027271f,-0.006809f,-0.010146f,0.006636f,-0.014946f,-0.005091f,-0.304883f,-0.043176f,0.024388f,0.089466f,0.004203f,-0.010759f,-0.019884f,-0.005031f,-0.016685f,-0.081241f,0.054068f,0.011167f,-0.038053f,0.035336f,-0.042108f,0.136316f,-0.075915f,0.000420f,-0.143500f,-0.010009f,0.006118f,0.023914f,-0.016428f,-0.023315f},
  {-0.039781f,0.089895f,0.020207f,0.003785f,0.033936f,-0.048290f,0.010888f,0.046280f,-0.020116f,0.163041f,-0.022450f,0.101352f,-0.006386f,-0.091579f,-0.018933f,-0.091977f,-0.020519f,-0.038981f,0.098789f,-0.007660f,-0.022244f,-0.073219f,0.037867f,-0.190675f,0.022671f,0.053511f,0.092264f,0.050445f,0.041920f,-0.148673f,-0.127847f,-0.012335f,0.086123f,-0.008817f,0.099171f,-0.036911f,0.015269f,-0.047441f,0.000621f,-0.046872f,-0.188330f,-0.091861f,0.166211f,-0.142755f,0.080714f,0.001581f,-0.004718f,-0.021683f,-0.028585f,-0.006555f,-0.090673f,0.093950f,0.001462f,-0.170259f,0.153055f,0.159659f,-0.051405f,0.017139f,-0.014092f,-0.030257f,0.021511f,-0.041919f,-0.020350f,-0.028815f},
  {-0.004648f,-0.009962f,-0.041240f,-0.010388f,-0.031169f,0.283843f,0.019134f,0.020210f,0.000800f,-0.258104f,0.094181f,-0.092825f,-0.033607f,0.029892f,-0.038364f,-0.112511f,-0.027203f,-0.102997f,0.061127f,0.022723f,-0.038070f,0.024531f,-0.112225f,0.036104f,-0.012154f,0.105774f,0.009357f,0.050296f,0.062741f,-0.000370f,0.147406f,0.017357f,0.076594f,-0.195317f,-0.008318f,0.003350f,0.015898f,0.071638f,-0.030659f,-0.035027f,-0.068164f,0.114229f,0.042640f,-0.117774f,-0.002793f,0.023912f,0.015471f,-0.035280f,-0.002610f,-0.106924f,0.189158f,0.105151f,-0.051077f,0.213436f,-0.267596f,0.139058f,-0.032569f,0.103986f,-0.167431f,-0.067187f,-0.005814f,-0.231957f,0.091261f,-0.029906f},
  {-0.054707f,0.040449f,-0.035188f,-0.055511f,0.009868f,0.124542f,0.022521f,0.014864f,0.024903f,-0.070759f,-0.004615f,-0.032869f,0.016431f,-0.052626f,0.006183f,-0.053230f,-0.037107f,-0.022628f,-0.130601f,-0.024264f,-0.026618f,0.059604f,-0.104613f,0.128428f,0.025944f,-0.077868f,0.029133f,-0.107262f,-0.103613f,0.145819f,-0.029969f,0.007523f,-0.034626f,-0.056358f,0.058379f,-0.006315f,0.023154f,0.065554f,-0.021681f,-0.010208f,0.013741f,0.167618f,-0.026958f,0.085632f,-0.016251f,-0.038055f,-0.037213f,-0.024484f,-0.028221f,-0.015744f,0.007115f,-0.051207f,-0.019480f,0.185796f,0.165149f,0.004331f,0.001292f,0.044823f,-0.028561f,0.086092f,0.009365f,-0.132518f,0.045974f,-0.034700f},
  {-0.028186f,-0.017785f,-0.020220f,-0.034483f,0.035205f,-0.040734f,-0.037878f,-0.023555f,-0.005879f,-0.001468f,0.084336f,0.033118f,0.028814f,0.055607f,-0.017703f,-0.094876f,0.003020f,-0.120743f,-0.207638f,0.016301f,0.002455f,-0.009224f,0.062598f,0.055491f,-0.070451f,-0.072467f,0.083283f,-0.004887f,-0.125650f,0.140288f,-0.029622f,0.006348f,-0.031592f,0.076362f,0.056418f,-0.026351f,0.026871f,0.017939f,-0.008526f,-0.044420f,0.113826f,0.048391f,-0.088586f,0.045934f,-0.003315f,0.020256f,0.012065f,-0.039480f,0.021914f,-0.015546f,0.011816f,0.049022f,0.007853f,-0.008944f,0.035106f,0.038944f,-0.039465f,-0.076614f,0.019044f,0.056123f,0.016864f,0.042592f,0.044778f,0.002683f},
  {-0.009511f,0.065836f,-0.013946f,-0.002201f,-0.012792f,-0.134867f,-0.021807f,0.039102f,-0.025448f,0.101998f,0.037646f,-0.059123f,-0.030336f,0.065106f,-0.024859f,-0.013385f,-0.016758f,-0.150568f,-0.085907f,0.013855f,0.014302f,-0.065569f,-0.061326f,-0.004306f,0.073559f,0.122768f,0.044746f,0.023390f,0.095701f,0.031305f,-0.027023f,-0.023893f,-0.041473f,0.168025f,0.072548f,0.004819f,-0.016263f,0.043734f,0.020357f,-0.048662f,-0.054974f,-0.084014f,-0.165920f,-0.081317f,-0.036061f,0.005430f,-0.009791f,-0.014331f,0.013742f,-0.117045f,0.077869f,-0.005297f,-0.058950f,-0.084404f,0.030808f,0.088113f,-0.071111f,-0.109642f,0.013767f,0.034631f,-0.032589f,-0.064474f,-0.065081f,0.021695f},
  {-0.043713f,-0.008119f,0.021437f,0.009211f,-0.164765f,-0.015879f,-0.024844f,0.106203f,-0.018276f,-0.059273f,0.159892f,-0.204317f,-0.005070f,0.061079f,-0.029923f,-0.103979f,-0.050360f,-0.100808f,-0.110125f,-0.030601f,-0.032912f,-0.102920f,-0.233157f,-0.171996f,0.118257f,0.182072f,0.114890f,0.080322f,0.046027f,-0.041256f,-0.140088f,-0.021733f,0.066083f,0.002858f,0.023333f,-0.017605f,0.025365f,0.153684f,0.003217f,0.046301f,-0.133358f,-0.111994f,0.026186f,-0.198665f,-0.128454f,-0.022501f,-0.050619f,-0.063585f,0.000172f,-0.066381f,0.057364f,0.020669f,0.022271f,0.024947f,0.007606f,0.189291f,-0.015409f,0.118180f,-0.187615f,-0.089080f,-0.030929f,-0.082367f,-0.056566f,-0.017661f},
  {-0.005195f,0.011185f,0.028443f,0.010648f,-0.103916f,0.090391f,0.012806f,0.170919f,-0.022324f,-0.180841f,0.185656f,-0.288734f,-0.035528f,0.047158f,-0.000068f,-0.200371f,-0.030264f,0.011061f,0.036527f,-0.036008f,0.017730f,-0.122088f,-0.077568f,-0.231392f,-0.141677f,0.128232f,0.206548f,0.030073f,-0.045844f,-0.131913f,-0.206109f,-0.016795f,0.140859f,-0.116056f,-0.032303f,-0.021109f,-0.018322f,0.176036f,-0.026837f,0.000268f,-0.139907f,-0.027298f,0.103553f,-0.192300f,-0.023304f,0.026807f,-0.035307f,-0.017006f,-0.006885f,-0.050960f,-0.024975f,0.018100f,-0.081077f,0.080502f,0.163150f,0.172542f,-0.067054f,-0.003454f,-0.403408f,0.069481f,-0.003801f,0.037209f,-0.051595f,0.000227f},
  {-0.024530f,-0.008570f,-0.022738f,0.007531f,-0.024446f,0.059938f,-0.000382f,0.064642f,0.012981f,-0.019719f,0.054976f,-0.121421f,-0.010543f,-0.069764f,0.022882f,-0.179191f,-0.005992f,-0.179988f,-0.091340f,-0.011097f,-0.031316f,0.076506f,0.023913f,-0.162179f,0.046067f,0.186100f,0.082927f,0.122605f,0.031994f,0.098649f,0.073132f,-0.011722f,0.093766f,0.088446f,-0.298809f,0.013506f,-0.026072f,0.142344f,-0.012104f,0.009031f,-0.071345f,-0.000012f,0.070703f,0.225411f,0.083760f,0.007039f,-0.022883f,-0.059421f,-0.001268f,0.003546f,0.035679f,0.175883f,-0.141454f,0.091971f,0.102709f,-0.089358f,0.027795f,0.001908f,-0.124300f,-0.034104f,0.029001f,0.100861f,-0.012351f,-0.040881f},
  {-0.029441f,-0.179882f,0.004376f,-0.035302f,-0.184103f,-0.300991f,-0.001867f,0.299161f,-0.026235f,0.216862f,-0.243607f,0.095331f,-0.042495f,0.120269f,0.002154f,-0.236854f,0.029143f,-0.206729f,0.145329f,-0.041670f,0.016737f,-0.212801f,0.234865f,-0.322832f,-0.246579f,-0.142989f,0.002113f,-0.164129f,-0.399383f,0.317211f,-0.428144f,0.023462f,-0.147651f,0.203347f,-0.016182f,-0.006934f,-0.015214f,0.326676f,0.008449f,-0.018696f,-0.140683f,0.376264f,-0.088385f,0.351384f,-0.015472f,-0.026210f,-0.032469f,0.019570f,0.009584f,0.295022f,-0.165120f,-0.298926f,-0.174263f,-0.139100f,0.168607f,0.149381f,0.023696f,0.050715f,-0.136503f,-0.179364f,-0.009194f,-0.214741f,0.031130f,0.012535f},
  {-0.034432f,-0.156339f,0.028084f,0.012724f,0.038369f,-0.447059f,-0.002089f,0.434871f,-0.038213f,0.459577f,-0.359221f,0.244675f,0.001346f,0.040297f,-0.026509f,-0.032806f,-0.023973f,-0.129474f,-0.156241f,0.011235f,0.017190f,0.090220f,0.312809f,-0.277923f,0.114844f,-0.119615f,-0.142119f,-0.221729f,0.028903f,0.124172f,-0.335535f,0.021122f,0.169295f,0.313309f,-0.059528f,0.010058f,-0.003239f,0.326059f,-0.028391f,0.017881f,-0.305395f,0.192497f,-0.090771f,0.404562f,0.054512f,0.007694f,-0.024782f,-0.020755f,-0.035546f,0.316552f,-0.006650f,-0.335852f,-0.176055f,-0.252974f,-0.023484f,0.171884f,-0.020281f,0.072515f,0.222874f,-0.204684f,-0.021053f,-0.301847f,-0.035922f,-0.008589f},
  {-0.021641f,0.369760f,-0.014691f,0.003988f,0.275463f,-0.140214f,0.026246f,0.122657f,0.008794f,0.354052f,-0.052281f,0.215634f,-0.006825f,0.142555f,0.011142f,0.053109f,-0.015455f,0.158034f,-0.202726f,-0.039033f,0.023903f,0.076592f,-0.072548f,-0.342477f,0.133883f,-0.141562f,-0.096919f,0.003167f,0.429573f,-0.252964f,0.076833f,-0.008138f,0.111307f,0.265873f,-0.105758f,0.029997f,0.003394f,-0.073141f,0.005186f,0.006790f,-0.157178f,-0.279936f,-0.014689f,0.161263f,-0.001604f,0.005569f,-0.007339f,0.031047f,-0.024837f,-0.142047f,0.205830f,-0.022553f,0.103235f,-0.180106f,-0.033849f,0.194454f,-0.013866f,-0.041720f,0.208952f,-0.144978f,-0.026645f,-0.125855f,-0.065882f,-0.024976f},
  {-0.000212f,-0.001894f,-0.025186f,-0.024058f,-0.202239f,0.305839f,-0.018148f,0.015418f,-0.000296f,-0.160958f,0.182777f,0.082536f,-0.025577f,-0.283996f,-0.022461f,-0.238846f,0.010342f,-0.009867f,0.178103f,-0.022331f,0.006823f,-0.205563f,-0.035749f,0.135523f,-0.116177f,-0.022111f,0.112059f,0.136992f,-0.201301f,0.133809f,0.074284f,0.037415f,-0.031620f,-0.121999f,0.045214f,0.028467f,0.026530f,-0.095011f,0.018199f,-0.074248f,-0.180578f,0.021448f,-0.012750f,-0.364477f,0.410931f,0.007407f,0.029114f,-0.034762f,0.024049f,-0.051347f,0.002150f,0.117979f,-0.001465f,0.021331f,0.179340f,0.154384f,0.031200f,-0.094230f,-0.263451f,0.026621f,-0.019581f,0.091912f,-0.074152f,-0.027081f},
  {-0.033404f,-0.177411f,0.012033f,-0.037863f,-0.466481f,-0.116947f,-0.016198f,0.204853f,0.046747f,-0.150880f,0.113606f,-0.061040f,-0.022956f,0.130863f,0.000978f,-0.025121f,0.036398f,-0.035780f,0.040888f,-0.019316f,-0.036546f,-0.157214f,-0.103947f,0.145043f,0.137532f,0.074310f,0.116308f,-0.023897f,0.053658f,0.184431f,-0.296020f,-0.018816f,-0.046706f,0.184962f,0.001592f,0.027067f,0.016029f,0.057774f,0.008756f,0.038059f,-0.046051f,-0.238720f,-0.002833f,-0.075242f,0.172971f,-0.014247f,-0.005763f,-0.078165f,0.016271f,0.034923f,-0.218116f,0.305693f,-0.143456f,0.028353f,0.094876f,-0.047649f,-0.012059f,0.188015f,-0.093323f,0.140327f,-0.038388f,-0.059417f,-0.024301f,-0.016492f},
  {-0.013554f,-0.191102f,-0.016309f,-0.060851f,-0.229157f,0.155341f,-0.027565f,0.216853f,0.016851f,-0.233425f,-0.034833f,-0.051192f,-0.021456f,-0.142755f,-0.025958f,0.136391f,-0.001643f,-0.102789f,0.022574f,-0.039530f,0.005108f,0.130253f,-0.058171f,-0.092937f,0.099176f,-0.027101f,0.068323f,0.037576f,-0.115660f,0.143625f,-0.149419f,-0.001589f,-0.220401f,-0.050358f,0.146809f,-0.013130f,0.007809f,0.240124f,-0.013518f,0.049143f,-0.017547f,-0.094924f,-0.042834f,0.024247f,-0.306344f,0.014675f,-0.010031f,-0.014864f,0.009282f,-0.041667f,-0.171293f,0.248459f,0.173406f,0.158712f,-0.078689f,0.067927f,0.011406f,0.086600f,-0.087093f,0.201446f,-0.032146f,0.202882f,-0.060157f,-0.035057f},
  {-0.033629f,-0.122024f,-0.020559f,-0.038660f,0.006002f,-0.152174f,-0.025418f,0.204946f,0.037260f,0.108009f,-0.190120f,0.142080f,0.006396f,-0.246424f,-0.028665f,-0.117622f,-0.026978f,0.042355f,0.042159f,-0.034148f,-0.014792f,0.047252f,0.170772f,-0.001328f,0.130220f,-0.141689f,0.185074f,-0.068270f,-0.038057f,0.078702f,-0.175334f,-0.039608f,-0.003994f,-0.046644f,-0.024660f,-0.024645f,0.029209f,-0.024234f,-0.014760f,-0.001432f,0.149456f,0.264069f,0.077896f,0.150194f,-0.069950f,0.004022f,-0.015160f,0.019967f,-0.042153f,0.182936f,-0.058759f,0.003398f,-0.090557f,0.164427f,0.181074f,0.005897f,0.037585f,0.055001f,0.067354f,0.076874f,0.024717f,-0.073335f,0.027013f,0.005454f},
  {-0.053385f,0.037483f,-0.014479f,-0.019289f,-0.015708f,-0.038144f,-0.020506f,-0.015044f,-0.035283f,0.077579f,0.094327f,-0.000780f,-0.042292f,0.022310f,-0.028699f,0.049960f,-0.052003f,0.011938f,0.047222f,-0.028435f,-0.029890f,-0.037580f,-0.074648f,-0.067745f,0.057214f,-0.002989f,0.110546f,-0.009278f,0.026013f,-0.062952f,-0.007614f,0.003096f,0.067193f,0.081251f,0.078351f,-0.035884f,-0.007167f,0.002574f,-0.017244f,-0.073050f,0.072709f,-0.050587f,0.049469f,-0.107100f,0.001821f,-0.020281f,-0.001134f,-0.008187f,0.011089f,0.008184f,0.042485f,-0.033399f,0.034455f,0.093948f,0.062753f,0.008348f,-0.010095f,0.016640f,0.086418f,-0.035640f,-0.004045f,0.033457f,-0.053428f,-0.030763f},
  {-0.043802f,0.008994f,0.000152f,-0.053332f,0.018312f,-0.049891f,-0.047659f,-0.004581f,-0.022797f,0.128200f,-0.010466f,0.047475f,-0.017652f,0.037420f,-0.035534f,-0.059016f,-0.053599f,-0.041600f,0.011513f,0.017371f,0.004276f,-0.030896f,0.021772f,0.003891f,-0.087245f,0.042596f,0.076819f,0.076022f,-0.027006f,0.062226f,0.002057f,-0.013162f,0.001000f,0.182927f,0.153846f,-0.021110f,-0.025482f,-0.013087f,-0.007757f,-0.066979f,0.056799f,-0.004449f,0.077305f,-0.082369f,-0.061767f,-0.040778f,-0.067520f,-0.007001f,-0.009174f,0.074479f,-0.067274f,0.126380f,0.047781f,-0.054981f,0.156199f,-0.091257f,-0.045152f,-0.108044f,-0.001577f,-0.019721f,0.005048f,0.048457f,-0.014987f,-0.027812f},
  {-0.022810f,0.014364f,-0.017698f,-0.047811f,0.095099f,-0.000684f,-0.033490f,-0.039472f,0.000664f,0.036589f,0.038735f,0.098574f,-0.025287f,0.030919f,0.004172f,-0.009271f,-0.052477f,-0.004059f,-0.039723f,0.028060f,-0.019559f,0.109706f,0.046756f,-0.039309f,-0.036013f,-0.048564f,0.015012f,-0.046348f,-0.076563f,-0.044234f,0.045466f,0.027430f,-0.076697f,-0.030349f,0.007626f,0.017208f,-0.004594f,0.016345f,0.023843f,-0.017126f,0.008694f,0.031836f,-0.015052f,-0.084510f,-0.078627f,-0.005983f,-0.027806f,0.017052f,-0.017918f,0.110416f,0.013256f,0.039295f,0.034020f,-0.031834f,0.101396f,0.022006f,-0.013723f,-0.053961f,-0.034333f,0.095662f,0.001147f,-0.029050f,-0.003129f,0.024569f},
  {-0.024816f,-0.003835f,0.006183f,-0.006163f,0.064186f,0.023396f,-0.049311f,0.060101f,-0.036432f,0.009037f,-0.038169f,0.026691f,0.001704f,-0.049907f,0.005601f,0.130863f,-0.028498f,-0.125418f,0.003906f,0.019320f,-0.012704f,0.073715f,-0.054802f,-0.027648f,0.075406f,0.057383f,0.051038f,-0.060455f,0.023254f,-0.057414f,-0.025389f,-0.013838f,-0.011015f,-0.008863f,0.071772f,0.011006f,-0.034517f,0.018030f,-0.004622f,-0.015493f,0.022132f,-0.006883f,0.036672f,0.075820f,-0.086385f,-0.041601f,-0.017686f,-0.033032f,-0.021158f,-0.009405f,-0.019717f,-0.034512f,-0.084662f,0.035407f,0.040439f,0.083613f,-0.008988f,-0.049098f,-0.036104f,0.022542f,-0.015094f,-0.081258f,-0.001234f,-0.040135f},
  {-0.049245f,0.061140f,-0.022475f,-0.005387f,-0.069182f,0.007516f,-0.045085f,0.081898f,0.019377f,0.036449f,0.015435f,0.025226f,0.002340f,-0.087800f,-0.023506f,0.138912f,-0.033006f,-0.032952f,0.025465f,0.012954f,-0.006914f,0.018452f,0.011647f,-0.015962f,0.121513f,0.069390f,0.033198f,-0.023608f,-0.034552f,-0.037723f,-0.054412f,0.000926f,0.086855f,-0.073972f,0.127050f,-0.007638f,-0.017977f,-0.057675f,-0.026093f,-0.025945f,0.041203f,-0.082654f,0.037743f,0.176738f,-0.041927f,0.015855f,-0.006876f,-0.048338f,0.005140f,0.011844f,0.023314f,-0.062333f,-0.142102f,0.005009f,0.085593f,0.094867f,-0.029857f,0.074237f,0.020759f,0.046619f,0.013795f,-0.188076f,-0.023080f,0.020092f},
  {-0.041006f,0.099219f,-0.008388f,-0.030899f,-0.078886f,0.055819f,-0.035022f,0.039336f,0.020958f,0.016573f,0.067758f,-0.029855f,-0.022818f,0.015380f,-0.046053f,-0.045415f,-0.024412f,0.047422f,0.065980f,-0.014151f,-0.003763f,-0.048173f,0.001251f,0.038123f,0.085646f,0.032959f,-0.003153f,-0.005820f,0.037576f,0.001769f,-0.036308f,0.015388f,0.075989f,-0.084645f,0.024194f,0.004282f,0.009488f,-0.029522f,-0.040785f,-0.045899f,0.025361f,-0.065881f,-0.023007f,0.050185f,-0.055658f,-0.028540f,-0.040071f,-0.025986f,-0.029520f,-0.002207f,0.058049f,-0.068529f,-0.083762f,-0.012158f,0.117742f,0.017051f,-0.063207f,0.109564f,0.041382f,0.080952f,-0.040314f,-0.107014f,-0.062021f,0.002759f},
  {-0.020305f,0.055481f,-0.028197f,-0.041757f,-0.072635f,-0.060211f,-0.005269f,-0.008314f,-0.034991f,0.114457f,0.054390f,0.067527f,-0.025464f,0.140232f,-0.003748f,-0.000322f,0.001124f,-0.011641f,0.032252f,0.023248f,0.004697f,-0.060333f,-0.024427f,-0.087878f,0.091486f,0.050617f,0.072836f,-0.016264f,0.083582f,-0.056994f,0.005768f,-0.025891f,0.138925f,-0.007286f,-0.079986f,0.028311f,0.012304f,0.091300f,-0.009249f,-0.030801f,0.023482f,-0.061223f,0.115086f,0.011045f,-0.063060f,-0.031502f,-0.009053f,-0.034857f,-0.056499f,0.027466f,0.023625f,0.065685f,-0.095304f,-0.049783f,-0.043035f,0.028928f,-0.009952f,0.104050f,0.044787f,0.002185f,-0.034524f,-0.194047f,-0.036445f,0.030083f},
  {-0.011130f,0.003163f,0.015091f,0.001884f,-0.081302f,0.059561f,0.017359f,0.068331f,0.013571f,0.011604f,0.046541f,-0.027547f,-0.036155f,0.102327f,-0.017687f,-0.160308f,-0.018810f,0.058086f,0.057898f,0.002013f,-0.000347f,-0.170831f,-0.050926f,-0.081923f,-0.149248f,-0.043220f,0.175415f,0.029764f,0.049283f,0.041245f,-0.115112f,0.020958f,0.100454f,-0.030601f,0.135034f,-0.020583f,-0.031392f,-0.128459f,-0.021756f,-0.010505f,-0.072510f,0.059472f,0.181200f,-0.072836f,0.019551f,-0.020982f,-0.005194f,-0.063254f,0.005206f,-0.018579f,-0.001724f,0.123474f,-0.018062f,-0.052509f,0.158103f,0.234002f,-0.015803f,0.143626f,-0.106349f,0.004750f,-0.036755f,-0.137585f,0.010445f,-0.005835f},
  {-0.019251f,0.016246f,-0.004249f,-0.037800f,-0.057649f,0.074858f,-0.016394f,-0.128444f,-0.010641f,-0.009911f,0.103685f,-0.030782f,-0.001112f,0.104408f,0.016133f,0.050946f,-0.031823f,0.044537f,0.105394f,0.008115f,0.006215f,-0.044842f,-0.048403f,-0.037851f,-0.066330f,0.018636f,-0.072421f,0.075400f,0.067585f,0.019779f,-0.064711f,-0.017597f,-0.071592f,0.052616f,0.020201f,0.007086f,-0.002666f,-0.095426f,-0.037623f,-0.024130f,-0.137137f,-0.031804f,-0.037512f,-0.095717f,0.156444f,0.009373f,-0.021541f,-0.024555f,-0.018459f,0.002694f,0.029809f,0.020114f,0.067844f,-0.006942f,0.008186f,0.073017f,-0.034556f,0.022472f,0.017717f,0.032824f,-0.028441f,0.119129f,-0.005290f,-0.032437f},
  {-0.050416f,-0.070171f,0.002270f,-0.037890f,-0.013417f,-0.052617f,-0.049670f,-0.091460f,-0.033235f,0.017886f,-0.030734f,0.042880f,-0.046100f,-0.023044f,-0.002582f,-0.000575f,0.019216f,0.120140f,0.031160f,0.002616f,-0.036413f,0.061341f,-0.037922f,0.052712f,0.164513f,0.016164f,-0.185405f,-0.119196f,0.111178f,-0.002527f,-0.118118f,-0.004999f,-0.081155f,-0.165750f,-0.019122f,-0.007013f,-0.013791f,0.030669f,-0.052825f,-0.034351f,-0.136989f,0.008141f,0.079756f,-0.025547f,-0.048920f,-0.012202f,-0.076827f,-0.001648f,0.006841f,-0.032338f,0.021487f,0.058195f,-0.098753f,0.077935f,-0.123200f,0.108632f,-0.034686f,0.145108f,0.171149f,0.243144f,0.010509f,0.055865f,-0.082411f,0.033059f},
  {-0.023361f,-0.065359f,-0.041385f,0.012189f,0.013779f,-0.065755f,-0.053427f,-0.175524f,-0.011819f,0.014405f,-0.184139f,-0.014562f,-0.000742f,0.020711f,0.002686f,-0.072058f,-0.003650f,0.016236f,-0.011278f,-0.002305f,-0.004587f,0.154938f,0.074616f,0.081907f,0.049246f,0.018080f,-0.157739f,-0.092366f,0.030009f,0.043913f,0.010700f,0.004921f,-0.109427f,-0.116590f,0.090979f,-0.008835f,-0.019346f,0.186770f,-0.030411f,0.000804f,-0.051078f,0.117626f,-0.037477f,0.072448f,-0.066447f,-0.034469f,-0.018803f,-0.016763f,0.013915f,-0.013798f,0.094214f,0.088296f,0.008124f,0.169918f,-0.087454f,-0.073857f,-0.046110f,0.034429f,0.172938f,0.162663f,-0.031596f,0.126676f,-0.085623f,-0.018676f},
  {-0.059003f,-0.043030f,0.021503f,-0.013580f,0.019156f,-0.114962f,0.012456f,-0.027460f,0.000935f,0.105167f,-0.038134f,-0.041315f,-0.004758f,0.013310f,-0.009016f,0.088681f,0.000291f,-0.065161f,0.053694f,0.013818f,-0.012320f,0.026257f,0.101023f,0.014579f,0.121319f,-0.089765f,0.015124f,-0.108914f,0.031397f,-0.014994f,0.088046f,0.002968f,-0.068982f,0.013203f,0.067240f,-0.027145f,-0.029679f,-0.093390f,-0.054026f,-0.041847f,0.026703f,0.210073f,-0.066644f,0.015329f,-0.140629f,0.019840f,-0.050200f,0.016364f,0.003112f,0.068222f,-0.034896f,0.038827f,-0.020168f,0.030371f,-0.114367f,-0.117208f,-0.028415f,-0.007996f,0.027469f,0.070023f,0.026401f,-0.011729f,0.015812f,-0.023515f},
  {-0.005591f,0.112916f,-0.008451f,-0.001075f,0.102252f,0.069948f,-0.050090f,-0.047057f,-0.028696f,0.080204f,-0.011029f,-0.030670f,0.002181f,-0.046872f,-0.023935f,0.108746f,0.021549f,0.091848f,0.103948f,0.015528f,0.017650f,-0.039515f,0.043874f,-0.005032f,0.075255f,-0.326601f,-0.028745f,-0.019820f,-0.006203f,-0.131060f,0.057167f,-0.039128f,-0.010612f,0.072425f,0.129939f,-0.035585f,0.005076f,-0.163230f,0.024120f,-0.056816f,0.047301f,0.114127f,-0.109267f,-0.083522f,-0.136216f,-0.009145f,-0.037656f,0.007629f,-0.035019f,-0.083097f,-0.147789f,-0.038328f,0.072192f,-0.039756f,0.065969f,-0.050055f,-0.024503f,0.012431f,0.003997f,-0.006442f,-0.024711f,0.001198f,0.029139f,-0.003244f},
  {-0.009240f,0.116892f,0.010450f,0.010033f,-0.031202f,0.017751f,0.002687f,0.069603f,0.007425f,0.098587f,0.030956f,-0.017327f,-0.011105f,-0.118713f,-0.044916f,-0.020333f,0.001189f,0.058092f,0.087996f,0.011000f,0.013019f,-0.120571f,-0.117284f,-0.083634f,0.063141f,-0.172289f,0.074079f,-0.103265f,0.050129f,-0.000831f,-0.087667f,-0.031665f,-0.020099f,0.163114f,0.105403f,0.005454f,-0.018364f,-0.087995f,-0.019296f,-0.016775f,0.079128f,0.034059f,-0.092952f,-0.184065f,-0.057896f,-0.030778f,0.013099f,0.037188f,-0.018869f,-0.065617f,-0.050339f,-0.004845f,0.022643f,-0.113569f,0.254748f,0.023160f,-0.023445f,0.087547f,0.101830f,0.229922f,-0.022214f,0.077839f,-0.006331f,-0.009717f},
  {-0.038677f,-0.038490f,-0.014782f,0.004543f,-0.085027f,-0.122027f,0.023391f,-0.041100f,-0.013660f,0.006696f,-0.016118f,0.089969f,-0.014591f,0.214919f,-0.037539f,0.102687f,-0.040406f,0.006793f,0.012417f,0.007508f,-0.004940f,0.041275f,-0.081442f,-0.157120f,0.008006f,-0.070832f,-0.024544f,-0.093890f,0.027423f,-0.043107f,-0.072255f,-0.014840f,-0.010663f,0.002044f,0.037989f,-0.014188f,-0.016030f,-0.039021f,0.013789f,-0.066046f,0.043096f,-0.016373f,-0.016267f,0.108278f,-0.051494f,-0.032276f,-0.037651f,-0.035596f,0.000615f,0.163329f,0.102520f,-0.026531f,-0.153352f,-0.011683f,-0.027490f,0.084501f,0.040380f,0.232357f,0.181757f,0.097231f,-0.017551f,-0.059318f,0.031074f,-0.026449f},
  {-0.005305f,-0.151976f,0.024549f,-0.011139f,-0.187230f,-0.175648f,-0.021050f,-0.031384f,-0.046658f,-0.067438f,0.111331f,0.020204f,-0.049205f,-0.101596f,-0.009684f,0.095946f,-0.008737f,0.090352f,-0.166937f,-0.027862f,-0.001007f,0.124644f,-0.010893f,-0.094081f,0.082211f,0.100840f,-0.071650f,-0.070451f,0.029754f,0.044817f,-0.029547f,0.014259f,-0.231802f,-0.040906f,-0.137840f,-0.025098f,-0.041724f,0.095177f,0.003550f,0.000268f,-0.140699f,-0.246880f,0.074786f,-0.022244f,0.180772f,0.007982f,-0.031906f,-0.021214f,-0.001951f,0.081255f,0.112699f,-0.020503f,-0.035287f,-0.078682f,-0.265930f,0.096682f,-0.065781f,0.175660f,0.193799f,0.139191f,0.025853f,0.042274f,-0.032957f,-0.011496f},
  {0.010600f,-0.042195f,-0.019323f,0.033635f,0.000593f,-0.015518f,-0.044510f,0.092610f,0.002574f,-0.022323f,0.096855f,-0.058819f,-0.004489f,0.088725f,-0.010326f,-0.107041f,-0.047819f,0.109105f,-0.139282f,0.026828f,-0.037718f,-0.064240f,-0.293734f,-0.157715f,0.325333f,0.141540f,-0.149183f,-0.070154f,0.242367f,-0.072998f,-0.115105f,-0.004049f,-0.063766f,-0.130056f,-0.165061f,-0.010563f,-0.004995f,0.088983f,-0.024266f,-0.029503f,-0.234074f,-0.269273f,0.028515f,-0.024831f,0.290098f,-0.021530f,0.030565f,0.028809f,-0.020356f,-0.278287f,0.255059f,-0.181341f,-0.163393f,0.111317f,-0.368598f,0.353929f,0.007331f,0.186634f,0.204570f,0.182327f,-0.019743f,0.116786f,-0.043751f,-0.035107f},
  {-0.049520f,0.028891f,-0.001521f,-0.018247f,0.056401f,0.184100f,0.010337f,-0.073417f,-0.044110f,-0.075360f,0.126947f,-0.131278f,-0.003611f,0.066612f,-0.000819f,0.017392f,-0.012625f,0.169980f,-0.042488f,-0.011167f,0.029508f,-0.025845f,-0.245174f,-0.034198f,0.182404f,0.008801f,-0.072077f,0.109349f,0.094096f,-0.102572f,-0.139334f,0.018319f,-0.153356f,0.009466f,-0.118270f,-0.019146f,0.013566f,-0.031991f,0.010505f,-0.045234f,-0.073493f,-0.014004f,-0.060202f,-0.138995f,0.183721f,0.025357f,-0.003947f,-0.066623f,0.003521f,-0.312599f,0.204582f,0.015305f,0.052325f,0.046153f,-0.296856f,-0.026745f,0.024876f,0.153005f,0.041213f,0.074517f,-0.012063f,0.205461f,0.109711f,-0.034989f},
  {0.004616f,-0.040305f,0.019908f,-0.009448f,-0.238447f,0.185926f,0.085676f,0.037443f,-0.000051f,0.020929f,-0.041947f,-0.057705f,-0.009626f,0.066959f,0.002620f,0.097801f,-0.038156f,-0.033438f,-0.005009f,-0.000426f,-0.018022f,-0.120937f,-0.239644f,0.122610f,-0.223997f,0.097776f,-0.089655f,0.295936f,-0.043689f,-0.019386f,0.124773f,-0.002094f,-0.012366f,0.257303f,-0.296389f,0.026508f,-0.008976f,0.089311f,-0.008504f,-0.050319f,0.365779f,0.017771f,-0.167672f,-0.246539f,-0.021019f,-0.030811f,-0.060331f,0.017559f,-0.026435f,0.053162f,0.174176f,0.010289f,0.318511f,0.076816f,-0.127617f,-0.257833f,-0.024136f,-0.181605f,0.172225f,-0.104736f,-0.014169f,0.289100f,0.091152f,0.002705f},
  {-0.020415f,-0.105679f,0.029472f,-0.018738f,-0.070076f,0.050219f,0.018002f,-0.016739f,0.019559f,0.078622f,-0.064145f,-0.082414f,-0.018485f,0.165724f,0.013483f,0.149870f,-0.043539f,-0.080097f,0.165052f,0.027392f,-0.001715f,-0.127020f,-0.110829f,-0.013798f,-0.289634f,-0.005594f,-0.053816f,0.143013f,-0.010965f,-0.235398f,0.020524f,0.014629f,0.113422f,0.081623f,-0.151665f,-0.015266f,0.025152f,-0.144717f,-0.017306f,0.000415f,-0.004096f,-0.106863f,-0.006217f,-0.033145f,0.129063f,-0.008859f,-0.034575f,0.017202f,-0.013840f,0.111587f,0.077256f,0.031457f,-0.069746f,0.178782f,-0.194284f,-0.022997f,0.010497f,0.030884f,0.197019f,-0.137291f,0.008266f,0.121535f,0.113554f,-0.013259f},
  {-0.055371f,0.034088f,0.025268f,-0.034436f,0.072865f,0.089945f,0.025321f,-0.023062f,-0.041587f,0.136632f,0.005706f,-0.023534f,-0.003083f,0.038935f,-0.035155f,0.082387f,-0.053240f,-0.023996f,0.108017f,-0.006542f,0.022536f,-0.112660f,0.004095f,0.018818f,-0.264557f,-0.055625f,0.014670f,0.080121f,-0.107396f,-0.032380f,-0.103769f,-0.014933f,0.119663f,0.107472f,0.171500f,0.023223f,0.030137f,-0.204109f,-0.040469f,-0.053218f,-0.107305f,0.064467f,-0.006208f,0.043493f,0.066766f,0.007824f,0.001024f,-0.031279f,-0.031835f,-0.053893f,-0.040868f,0.028510f,0.102556f,0.051759f,0.070526f,0.003662f,0.052872f,-0.248529f,0.017357f,0.013556f,-0.041651f,0.109170f,0.053530f,-0.014071f},
