#ifndef MNIST_WEIGHTS_H
#define MNIST_WEIGHTS_H

const float conv1_weights[8][1][3][3] PROGMEM = {
  {
    {
      {-0.063420f,0.150901f,-0.651720f},
      {-0.421173f,-0.503327f,-0.440380f},
      {-0.468058f,0.024549f,-0.129560f}
    }
  },
  {
    {
      {-0.473199f,-0.600685f,-0.395434f},
      {-0.073442f,-0.045916f,0.051310f},
      {0.486613f,0.352050f,0.531427f}
    }
  },
  {
    {
      {-0.108989f,0.158309f,0.369895f},
      {-0.360900f,0.212255f,0.443242f},
      {0.276849f,0.339053f,0.252429f}
    }
  },
  {
    {
      {0.067604f,0.038777f,-0.589390f},
      {0.357571f,-0.084665f,-0.008748f},
      {0.371995f,0.515098f,0.004552f}
    }
  },
  {
    {
      {0.059024f,-0.743755f,-0.683169f},
      {0.631507f,-0.063265f,-0.154285f},
      {0.494344f,0.485902f,0.507495f}
    }
  },
  {
    {
      {-0.229790f,0.312129f,0.344713f},
      {-0.703882f,0.374477f,0.049190f},
      {-0.682754f,0.026652f,0.390837f}
    }
  },
  {
    {
      {0.231859f,-0.141639f,0.347978f},
      {0.240230f,0.486244f,-0.014407f},
      {-0.069104f,0.392291f,0.071865f}
    }
  },
  {
    {
      {0.301670f,0.612231f,0.463035f},
      {-0.195247f,0.105116f,0.334564f},
      {-0.705573f,-0.744969f,-0.192601f}
    }
  }
};
const float conv1_bias[8] PROGMEM = {0.242687f,0.000939f,0.074196f,0.339787f,0.015595f,0.025705f,0.184893f,0.015912f};
const float conv2_weights[16][8][3][3] PROGMEM = {
  {
    {
      {-0.312366f,-0.120461f,-0.274529f},
      {-0.430631f,-0.126609f,-0.408498f},
      {-0.504589f,-0.389764f,-0.171443f}
    },
    {
      {0.081287f,-0.085809f,0.047045f},
      {-0.074113f,-0.070345f,-0.299002f},
      {-0.170936f,0.217050f,0.183832f}
    },
    {
      {0.107025f,0.081520f,-0.006889f},
      {-0.117195f,-0.276734f,0.087964f},
      {-0.077910f,-0.055166f,-0.098648f}
    },
    {
      {0.041910f,-0.315259f,0.181405f},
      {0.065707f,0.139229f,-0.194265f},
      {0.041930f,0.232782f,0.064037f}
    },
    {
      {0.138329f,-0.376656f,0.004580f},
      {0.269053f,0.156060f,-0.078310f},
      {0.151273f,0.401458f,0.071317f}
    },
    {
      {-0.067373f,-0.096444f,0.221287f},
      {0.124820f,-0.020675f,0.257277f},
      {0.334179f,0.133545f,0.021419f}
    },
    {
      {-0.042988f,-0.048352f,0.022829f},
      {0.014844f,-0.203514f,-0.038668f},
      {0.087954f,0.064173f,-0.130163f}
    },
    {
      {-0.180163f,0.150320f,0.219347f},
      {-0.076908f,-0.039872f,0.386215f},
      {0.197747f,-0.057364f,0.154875f}
    }
  },
  {
    {
      {-0.036340f,-0.057151f,0.040507f},
      {-0.078943f,-0.115688f,0.081399f},
      {0.119356f,-0.048863f,-0.016563f}
    },
    {
      {-0.322560f,-0.404982f,-0.728577f},
      {-0.363023f,-0.229765f,-0.219493f},
      {-0.108086f,-0.081260f,-0.040506f}
    },
    {
      {-0.028885f,0.140236f,-0.126799f},
      {0.140780f,0.207054f,-0.266155f},
      {-0.151706f,0.207953f,-0.102395f}
    },
    {
      {-0.474280f,-0.013766f,0.181845f},
      {-0.393416f,0.066495f,0.144063f},
      {-0.050090f,0.017208f,0.081716f}
    },
    {
      {-0.446846f,-0.044706f,0.067195f},
      {-0.592795f,-0.023360f,0.077412f},
      {-0.152918f,0.058335f,0.135195f}
    },
    {
      {0.208793f,0.290344f,0.047898f},
      {0.218003f,0.324278f,-0.451377f},
      {0.272210f,0.198481f,-0.249239f}
    },
    {
      {-0.045556f,0.180408f,-0.070648f},
      {-0.289321f,0.159795f,-0.159076f},
      {-0.174727f,-0.011215f,-0.061158f}
    },
    {
      {0.082627f,-0.207096f,-0.166740f},
      {0.146878f,0.072548f,-0.299649f},
      {0.186180f,0.028615f,-0.190148f}
    }
  },
  {
    {
      {0.099519f,0.033848f,0.037935f},
      {-0.157241f,-0.105361f,-0.042962f},
      {0.090593f,0.092913f,0.083993f}
    },
    {
      {0.140453f,0.378933f,0.350587f},
      {0.196056f,0.073583f,0.021477f},
      {-0.332566f,-0.079114f,-0.107742f}
    },
    {
      {-0.124205f,-0.006060f,-0.000555f},
      {0.116198f,0.015544f,0.088820f},
      {-0.049558f,-0.227806f,0.028646f}
    },
    {
      {-0.074947f,-0.031480f,-0.065619f},
      {0.166435f,-0.002666f,0.071026f},
      {-0.137665f,0.028714f,-0.159441f}
    },
    {
      {-0.107909f,0.188740f,0.211624f},
      {0.024898f,-0.027465f,0.044687f},
      {-0.080009f,-0.153462f,-0.112745f}
    },
    {
      {-0.306450f,-0.326730f,-0.060531f},
      {-0.241307f,-0.109451f,-0.059326f},
      {-0.076445f,0.013134f,-0.172092f}
    },
    {
      {-0.206273f,-0.240420f,-0.016957f},
      {0.004990f,0.048503f,0.125418f},
      {0.026549f,0.037329f,-0.096622f}
    },
    {
      {-0.484587f,-0.552467f,-0.423503f},
      {-0.283670f,0.138888f,0.209048f},
      {0.456746f,0.240793f,0.223638f}
    }
  },
  {
    {
      {0.069724f,0.088770f,0.032766f},
      {-0.027721f,-0.029339f,-0.069300f},
      {-0.026022f,-0.139866f,0.096512f}
    },
    {
      {-0.407246f,0.175395f,0.287318f},
      {-0.041779f,0.180294f,-0.118544f},
      {0.102140f,0.048077f,-0.197000f}
    },
    {
      {-0.330368f,0.017079f,0.123155f},
      {-0.305520f,0.183688f,0.196095f},
      {-0.055026f,0.261795f,-0.118650f}
    },
    {
      {-0.014263f,-0.042586f,0.042940f},
      {-0.157236f,-0.068239f,-0.032156f},
      {0.016349f,0.099061f,0.055052f}
    },
    {
      {-0.215493f,0.013456f,-0.028682f},
      {-0.001541f,-0.024381f,-0.204252f},
      {0.008511f,-0.075595f,-0.094185f}
    },
    {
      {-0.025271f,0.107976f,-0.039969f},
      {0.079171f,0.199782f,0.001039f},
      {0.127488f,0.242183f,-0.087620f}
    },
    {
      {-0.217697f,-0.050253f,0.068244f},
      {-0.352427f,0.190198f,0.156272f},
      {-0.176534f,0.075449f,0.052515f}
    },
    {
      {0.069239f,-0.162191f,-0.419390f},
      {-0.111105f,-0.247730f,-0.232346f},
      {-0.048123f,-0.271286f,-0.233676f}
    }
  },
  {
    {
      {-0.062150f,-0.039152f,0.046298f},
      {0.018903f,0.087337f,-0.150096f},
      {-0.006076f,-0.022740f,-0.161144f}
    },
    {
      {0.147618f,-0.008217f,0.122877f},
      {-0.252423f,0.113024f,0.011214f},
      {0.054478f,0.134923f,-0.052090f}
    },
    {
      {-0.171153f,-0.246123f,0.082201f},
      {-0.324274f,-0.023600f,0.178974f},
      {-0.235202f,0.082965f,0.240373f}
    },
    {
      {0.269085f,-0.150248f,-0.055658f},
      {0.147958f,-0.187128f,-0.035777f},
      {-0.115929f,-0.013395f,0.140643f}
    },
    {
      {0.337925f,0.128574f,-0.159696f},
      {0.096822f,-0.090918f,-0.250675f},
      {-0.049992f,-0.088591f,-0.238447f}
    },
    {
      {-0.111451f,-0.207708f,0.083930f},
      {-0.349962f,0.054992f,0.203435f},
      {-0.214644f,0.169693f,0.238465f}
    },
    {
      {0.104062f,-0.163735f,0.249438f},
      {-0.011990f,-0.244624f,0.219148f},
      {-0.315292f,0.012472f,0.094613f}
    },
    {
      {0.014435f,-0.176726f,-0.288704f},
      {0.003425f,-0.008622f,-0.018216f},
      {0.020800f,-0.139418f,-0.264640f}
    }
  },
  {
    {
      {-0.193390f,-0.154619f,-0.080551f},
      {-0.202896f,-0.170245f,-0.217126f},
      {-0.209675f,-0.263559f,-0.258646f}
    },
    {
      {-0.021034f,-0.258579f,-0.123433f},
      {-0.324310f,-0.226833f,0.031375f},
      {-0.274947f,-0.230420f,-0.528855f}
    },
    {
      {-0.003791f,0.101423f,-0.043214f},
      {0.115130f,-0.045695f,0.154892f},
      {-0.071507f,-0.101296f,0.217434f}
    },
    {
      {0.061033f,0.023528f,0.055001f},
      {0.032843f,0.012406f,0.207098f},
      {-0.185313f,-0.058623f,-0.083018f}
    },
    {
      {0.180399f,-0.115874f,-0.073583f},
      {0.041797f,0.159678f,0.103612f},
      {-0.396921f,-0.053744f,-0.172145f}
    },
    {
      {-0.121726f,-0.251139f,-0.421058f},
      {-0.084741f,-0.113180f,-0.374919f},
      {0.099118f,0.053232f,-0.094261f}
    },
    {
      {0.258739f,0.101647f,-0.069976f},
      {0.055191f,-0.014216f,0.208291f},
      {0.072118f,-0.030502f,0.190378f}
    },
    {
      {-0.465275f,-0.200536f,-0.561124f},
      {0.061561f,-0.017657f,-0.376257f},
      {0.216206f,0.247933f,0.359513f}
    }
  },
  {
    {
      {-0.064747f,-0.105457f,-0.110574f},
      {-0.087279f,-0.493293f,-0.202088f},
      {0.094702f,-0.700892f,-0.602766f}
    },
    {
      {-0.290055f,-0.125990f,-0.198369f},
      {-0.576442f,-0.296776f,0.096041f},
      {-0.217935f,-0.336191f,-0.136929f}
    },
    {
      {0.054490f,0.056514f,-0.237446f},
      {-0.140379f,0.146585f,-0.111767f},
      {-0.218388f,-0.025090f,-0.087615f}
    },
    {
      {0.157161f,0.072850f,0.094315f},
      {-0.098366f,0.184415f,0.295588f},
      {-0.265326f,-0.121533f,0.297111f}
    },
    {
      {-0.019631f,0.087964f,-0.022307f},
      {-0.275815f,0.170950f,0.485885f},
      {-0.314630f,-0.048150f,0.484012f}
    },
    {
      {-0.082345f,0.107630f,0.072711f},
      {0.210336f,0.357225f,-0.269505f},
      {-0.018865f,0.237420f,0.075667f}
    },
    {
      {-0.014899f,0.134103f,-0.244538f},
      {-0.081716f,0.121665f,-0.135079f},
      {-0.235018f,-0.022563f,0.177506f}
    },
    {
      {0.200554f,-0.298231f,-0.011032f},
      {0.126920f,0.172742f,-0.374647f},
      {0.008919f,0.091429f,0.022471f}
    }
  },
  {
    {
      {0.001714f,-0.149476f,-0.050654f},
      {-0.011488f,-0.160066f,-0.027148f},
      {0.008380f,0.086267f,-0.020436f}
    },
    {
      {0.119389f,0.302104f,0.088010f},
      {-0.455350f,-0.111923f,0.266952f},
      {-0.295418f,-0.216328f,-0.093087f}
    },
    {
      {0.020910f,-0.017130f,-0.047742f},
      {-0.212839f,-0.047525f,0.063496f},
      {-0.288858f,-0.292818f,-0.178348f}
    },
    {
      {0.082996f,0.144775f,0.240449f},
      {-0.311685f,0.056069f,0.145351f},
      {-0.285833f,-0.463226f,-0.515883f}
    },
    {
      {0.152493f,0.312261f,0.140494f},
      {-0.062547f,0.235945f,0.089043f},
      {0.147174f,-0.329544f,-0.284473f}
    },
    {
      {-0.122321f,-0.121550f,-0.216395f},
      {0.099348f,-0.034605f,0.011346f},
      {0.005377f,0.029551f,0.055528f}
    },
    {
      {0.018546f,0.060991f,-0.005529f},
      {0.032621f,0.005185f,0.112889f},
      {-0.331439f,-0.090119f,-0.199701f}
    },
    {
      {0.259578f,-0.009629f,-0.005698f},
      {0.163118f,0.148547f,0.207644f},
      {-0.032601f,0.238010f,0.346000f}
    }
  },
  {
    {
      {0.109409f,0.077988f,0.047235f},
      {-0.129715f,-0.164753f,-0.108185f},
      {-0.094823f,-0.185879f,-0.156404f}
    },
    {
      {0.240405f,0.311055f,-0.224779f},
      {0.026678f,0.081043f,-0.087337f},
      {0.027766f,-0.103779f,0.046807f}
    },
    {
      {-0.302235f,-0.374969f,-0.391510f},
      {0.067291f,0.051458f,-0.385473f},
      {0.101165f,0.126238f,-0.024686f}
    },
    {
      {0.122268f,-0.039325f,-0.289944f},
      {0.034037f,0.092834f,0.076537f},
      {-0.107083f,-0.011669f,0.247980f}
    },
    {
      {0.332960f,0.191009f,-0.264688f},
      {0.082673f,0.272233f,0.151487f},
      {-0.260117f,-0.016082f,0.273880f}
    },
    {
      {-0.732168f,-0.265365f,0.277734f},
      {-0.075234f,-0.076029f,-0.525396f},
      {0.041159f,0.265379f,-0.014466f}
    },
    {
      {-0.049259f,-0.346519f,-0.413992f},
      {-0.020122f,0.216295f,-0.139421f},
      {-0.110558f,0.184879f,0.017829f}
    },
    {
      {-0.461010f,-0.050866f,0.122323f},
      {0.231484f,-0.023315f,-0.561924f},
      {0.121334f,0.069853f,-0.376701f}
    }
  },
  {
    {
      {-0.035386f,-0.201282f,0.031080f},
      {-0.049654f,-0.183542f,-0.245544f},
      {-0.143818f,-0.257743f,-0.352997f}
    },
    {
      {0.058642f,-0.247237f,-0.456887f},
      {-0.114546f,-0.175193f,0.351481f},
      {0.052020f,0.144149f,0.209411f}
    },
    {
      {-0.035815f,0.237819f,-0.219070f},
      {0.161616f,-0.116070f,-0.025841f},
      {0.062803f,-0.015520f,0.026141f}
    },
    {
      {-0.199048f,0.065543f,0.090605f},
      {-0.118883f,0.150145f,0.230773f},
      {0.070105f,0.209132f,-0.119314f}
    },
    {
      {-0.367501f,-0.129365f,-0.219301f},
      {-0.235823f,-0.097889f,0.331610f},
      {0.109175f,0.216681f,-0.072430f}
    },
    {
      {0.176945f,0.351251f,-0.228535f},
      {0.267485f,0.172825f,-0.327696f},
      {-0.227099f,-0.440213f,-0.245302f}
    },
    {
      {-0.144034f,0.125683f,-0.039168f},
      {-0.015951f,0.066246f,-0.019243f},
      {0.015538f,-0.118259f,0.036986f}
    },
    {
      {-0.168653f,-0.498643f,-0.399273f},
      {-0.028338f,-0.170607f,-0.451867f},
      {0.000958f,-0.063947f,0.455237f}
    }
  },
  {
    {
      {-0.124775f,-0.136564f,-0.368696f},
      {-0.028103f,-0.322429f,-0.044125f},
      {0.076519f,0.178288f,0.010594f}
    },
    {
      {0.053940f,-0.076173f,0.047354f},
      {0.161838f,0.021709f,-0.100535f},
      {0.069856f,-0.149179f,-0.139703f}
    },
    {
      {-0.035229f,0.200601f,0.183705f},
      {0.082997f,0.233553f,0.103404f},
      {0.174592f,0.095659f,-0.087103f}
    },
    {
      {0.078860f,0.046835f,0.005164f},
      {-0.159739f,0.082367f,-0.011699f},
      {0.094258f,0.034656f,0.092960f}
    },
    {
      {-0.070049f,-0.058642f,-0.112929f},
      {-0.024322f,-0.119387f,-0.005421f},
      {0.069540f,-0.191322f,0.013295f}
    },
    {
      {-0.307379f,-0.091393f,0.065927f},
      {-0.184333f,-0.057907f,-0.259934f},
      {-0.356031f,-0.266336f,-0.345223f}
    },
    {
      {0.016116f,0.069214f,0.145173f},
      {-0.128423f,0.209658f,0.142892f},
      {0.147734f,0.002886f,-0.035730f}
    },
    {
      {0.176503f,0.037046f,-0.291758f},
      {-0.055370f,-0.413370f,-0.279559f},
      {-0.212487f,0.063056f,0.036989f}
    }
  },
  {
    {
      {-0.142966f,-0.147929f,0.003214f},
      {-0.073979f,-0.239451f,0.080146f},
      {0.097331f,0.207024f,0.072150f}
    },
    {
      {-0.258701f,0.069448f,-0.004370f},
      {0.375968f,0.178231f,-0.186584f},
      {0.158431f,-0.157037f,-0.006125f}
    },
    {
      {-0.082606f,0.072765f,0.156794f},
      {0.294667f,0.182012f,0.097869f},
      {0.072966f,-0.175690f,-0.523108f}
    },
    {
      {-0.288180f,-0.081472f,0.145129f},
      {-0.003883f,0.204528f,-0.172095f},
      {0.073690f,-0.146874f,-0.345529f}
    },
    {
      {-0.288535f,0.003510f,0.009720f},
      {0.105163f,0.069105f,-0.302367f},
      {-0.170014f,-0.409843f,-0.164675f}
    },
    {
      {0.068799f,0.024296f,0.163012f},
      {0.150548f,0.067502f,-0.023043f},
      {-0.197581f,-0.149041f,-0.055332f}
    },
    {
      {-0.061552f,0.012200f,-0.000280f},
      {0.053789f,0.176300f,0.105727f},
      {0.067957f,-0.194608f,-0.358638f}
    },
    {
      {0.223443f,-0.165057f,-0.391819f},
      {-0.409327f,-0.077225f,0.102295f},
      {0.261164f,0.391730f,0.004816f}
    }
  },
  {
    {
      {0.053214f,-0.080574f,-0.126312f},
      {0.007402f,-0.245667f,-0.124228f},
      {-0.083797f,-0.069268f,-0.144555f}
    },
    {
      {0.211016f,-0.062980f,-0.091276f},
      {0.313892f,0.214243f,0.188824f},
      {-0.049344f,-0.060213f,0.215444f}
    },
    {
      {-0.061192f,-0.100492f,-0.255242f},
      {-0.049842f,-0.132139f,0.159311f},
      {0.046303f,0.128704f,0.129978f}
    },
    {
      {-0.129084f,-0.132175f,0.068008f},
      {0.038899f,-0.037139f,-0.040721f},
      {0.040427f,0.236291f,-0.082083f}
    },
    {
      {-0.199478f,0.042862f,0.014994f},
      {0.086064f,-0.085048f,0.137957f},
      {0.010405f,0.175268f,-0.011699f}
    },
    {
      {0.112809f,0.044339f,-0.142753f},
      {-0.317249f,-0.120902f,-0.147836f},
      {0.054551f,-0.161792f,-0.239829f}
    },
    {
      {-0.211189f,-0.088465f,-0.105369f},
      {-0.191843f,-0.156357f,0.095155f},
      {0.107338f,0.089973f,0.016068f}
    },
    {
      {0.328032f,0.308364f,0.042401f},
      {-0.039416f,0.061202f,-0.160562f},
      {-0.387538f,-0.281830f,0.151886f}
    }
  },
  {
    {
      {-0.180630f,-0.092113f,-0.294512f},
      {-0.215954f,-0.044634f,-0.278002f},
      {-0.080095f,-0.192394f,-0.163291f}
    },
    {
      {0.079358f,-0.014408f,-0.333059f},
      {-0.134310f,-0.333254f,-0.511284f},
      {0.155816f,-0.202812f,-0.259470f}
    },
    {
      {0.078207f,0.047541f,0.022231f},
      {0.129381f,0.100502f,0.070941f},
      {0.197685f,0.150938f,0.085103f}
    },
    {
      {-0.001328f,-0.043034f,0.159532f},
      {-0.238226f,0.031927f,0.165686f},
      {-0.051127f,-0.111638f,-0.025929f}
    },
    {
      {0.175148f,0.095525f,-0.054154f},
      {-0.306779f,-0.171076f,-0.076037f},
      {-0.056078f,-0.291912f,0.027733f}
    },
    {
      {0.153701f,0.002259f,-0.085625f},
      {0.124479f,0.123705f,0.075500f},
      {-0.043508f,-0.059702f,0.023898f}
    },
    {
      {-0.045508f,-0.049552f,0.133631f},
      {-0.096646f,-0.001954f,0.124055f},
      {-0.034058f,0.176791f,0.124158f}
    },
    {
      {0.099346f,0.018106f,-0.128120f},
      {0.116428f,-0.041296f,-0.399856f},
      {-0.000305f,-0.048805f,-0.149602f}
    }
  },
  {
    {
      {-0.103961f,-0.045452f,0.015082f},
      {-0.086551f,-0.148238f,-0.164283f},
      {0.215314f,0.149000f,0.075654f}
    },
    {
      {0.095261f,0.077263f,-0.130883f},
      {0.313364f,0.148726f,0.237587f},
      {-0.097305f,-0.219388f,-0.172444f}
    },
    {
      {-0.133810f,-0.245005f,-0.247415f},
      {-0.042428f,-0.038883f,-0.112896f},
      {-0.002030f,-0.025885f,0.059740f}
    },
    {
      {0.035254f,0.002309f,-0.267460f},
      {0.262716f,0.125577f,0.167915f},
      {-0.228945f,-0.212352f,-0.089586f}
    },
    {
      {-0.165777f,-0.153648f,-0.149262f},
      {0.245293f,0.092298f,0.282111f},
      {-0.185986f,-0.074655f,0.077578f}
    },
    {
      {-0.154894f,-0.332812f,-0.133251f},
      {-0.447973f,-0.298288f,-0.127655f},
      {-0.147418f,-0.012206f,0.172286f}
    },
    {
      {-0.245894f,-0.263423f,-0.158470f},
      {-0.049347f,-0.012955f,0.106667f},
      {0.023489f,0.029701f,-0.019827f}
    },
    {
      {0.040996f,0.077449f,0.273408f},
      {-0.313622f,-0.135728f,-0.070506f},
      {0.313396f,0.243889f,0.370217f}
    }
  },
  {
    {
      {0.083655f,-0.469937f,-0.017528f},
      {-0.373815f,-0.174000f,0.160765f},
      {-0.230841f,-0.056859f,-0.066155f}
    },
    {
      {0.177265f,0.095441f,-0.147227f},
      {0.219392f,-0.115624f,-0.138721f},
      {-0.088880f,0.001180f,0.194079f}
    },
    {
      {-0.051625f,0.214287f,-0.031636f},
      {0.069846f,0.083527f,-0.304151f},
      {0.105576f,-0.071825f,0.001215f}
    },
    {
      {-0.100526f,0.104564f,-0.023681f},
      {0.062060f,0.085877f,-0.037998f},
      {0.023367f,0.143745f,0.134078f}
    },
    {
      {0.201961f,0.083150f,-0.021029f},
      {0.005786f,0.066341f,-0.037331f},
      {-0.181437f,0.020601f,0.215973f}
    },
    {
      {0.282406f,0.303751f,0.188998f},
      {0.280038f,-0.017756f,-0.251929f},
      {-0.379273f,-0.236352f,-0.465007f}
    },
    {
      {-0.196359f,0.065796f,-0.014556f},
      {-0.062720f,-0.034200f,-0.369276f},
      {-0.077526f,-0.046315f,-0.177192f}
    },
    {
      {-0.072159f,-0.153507f,-0.197103f},
      {-0.192254f,-0.232352f,-0.152446f},
      {-0.217337f,0.043772f,-0.421850f}
    }
  }
};
const float conv2_bias[16] PROGMEM = {-0.023076f,0.034401f,-0.147199f,-0.066765f,-0.041968f,0.000925f,-0.126283f,-0.108826f,-0.070910f,0.029248f,-0.026946f,-0.049280f,-0.013437f,-0.128677f,-0.127614f,-0.051522f};
const float fc1_weights[784][64] PROGMEM = {
  {-0.003869f,0.005882f,0.009246f,-0.024018f,-0.003745f,-0.078081f,0.029040f,-0.048947f,-0.011911f,0.029513f,0.001757f,0.021171f,-0.021544f,0.012666f,-0.010730f,0.048912f,0.016683f,0.007993f,-0.008895f,0.015393f,-0.002701f,0.044519f,-0.002654f,0.040589f,-0.028751f,0.042708f,0.045526f,-0.027339f,-0.041473f,-0.014576f,-0.002108f,-0.030536f,-0.027207f,-0.005070f,0.022156f,0.049465f,0.050746f,0.023819f,0.106946f,-0.011796f,-0.033432f,-0.040741f,0.023050f,-0.006606f,0.055847f,-0.033260f,-0.014581f,0.038095f,0.040601f,-0.022609f,-0.002571f,0.054877f,0.019408f,0.062881f,-0.014547f,0.055251f,0.025466f,0.046387f,0.039723f,-0.002719f,-0.042662f,-0.014888f,0.011501f,0.004878f},
  {-0.037597f,-0.022655f,0.031847f,-0.040360f,-0.082542f,-0.012596f,0.138662f,-0.043780f,-0.155159f,-0.013478f,-0.006393f,0.030404f,0.135431f,-0.007215f,-0.053407f,-0.097690f,-0.002746f,-0.153677f,-0.019353f,-0.010181f,0.009710f,0.131606f,0.030920f,0.079673f,-0.035976f,0.003035f,0.109822f,0.033717f,-0.116224f,0.042746f,-0.072100f,0.013419f,-0.158166f,0.047373f,0.003376f,-0.047727f,-0.064305f,-0.122620f,0.068916f,-0.054406f,-0.076806f,-0.033006f,-0.045993f,-0.168309f,0.024573f,0.017229f,0.028376f,0.067402f,0.042359f,0.060135f,0.089498f,0.089227f,-0.148558f,0.064790f,0.006781f,-0.014756f,-0.039211f,0.055649f,0.031998f,0.128791f,0.030118f,-0.059057f,-0.003557f,0.013164f},
  {-0.023084f,-0.078507f,0.017428f,-0.047850f,-0.006208f,-0.108041f,0.161478f,0.031807f,0.076236f,-0.012098f,-0.055098f,0.125834f,-0.037783f,-0.039764f,-0.331793f,0.096925f,0.012739f,-0.056741f,-0.005173f,-0.019337f,-0.007375f,0.005567f,-0.086935f,-0.020833f,0.011686f,0.100030f,-0.015956f,-0.074810f,0.004605f,-0.058797f,-0.061090f,0.010141f,-0.038808f,-0.180345f,0.015010f,0.037649f,-0.077438f,-0.008078f,0.081878f,0.028403f,-0.073616f,-0.033026f,-0.012315f,-0.151940f,0.099139f,-0.078333f,0.044047f,-0.005036f,-0.118791f,0.075037f,-0.186097f,0.009111f,-0.164822f,-0.012385f,0.024974f,-0.001777f,-0.001732f,0.139200f,0.047104f,-0.052254f,-0.234644f,-0.016845f,0.027045f,-0.009329f},
  {-0.005856f,-0.052326f,-0.079594f,-0.118671f,0.017546f,-0.019703f,0.066775f,-0.063475f,0.000186f,-0.020279f,0.038227f,-0.049286f,0.013366f,-0.037841f,-0.051826f,0.111331f,0.057077f,-0.078901f,-0.015731f,-0.060796f,-0.076045f,0.120763f,0.030239f,-0.046985f,-0.147473f,0.050506f,0.018397f,0.051784f,-0.038135f,-0.162038f,-0.089370f,-0.013320f,0.004706f,0.029938f,-0.003842f,-0.068302f,0.015077f,-0.061107f,0.070026f,0.027522f,-0.070848f,0.024447f,0.001532f,0.008867f,0.114321f,-0.023042f,0.065251f,0.066725f,0.099697f,0.037158f,0.072789f,0.035794f,-0.097433f,0.173426f,-0.016932f,-0.022038f,0.019631f,0.020652f,0.013718f,0.085469f,-0.085035f,-0.024519f,-0.010830f,0.010720f},
  {0.012122f,-0.092294f,-0.006878f,-0.156889f,0.000292f,0.045892f,0.107176f,0.015836f,-0.091453f,-0.007445f,0.076836f,-0.009348f,0.004660f,-0.029033f,0.055271f,0.199319f,0.017757f,0.059066f,-0.037617f,-0.216587f,-0.003016f,-0.066727f,0.045815f,-0.052053f,-0.165264f,0.012042f,-0.018058f,0.001698f,-0.025677f,-0.006455f,0.032845f,-0.033693f,-0.015476f,-0.027158f,-0.029716f,0.115439f,0.041273f,0.102240f,0.013450f,0.052477f,-0.160784f,0.025537f,0.007669f,0.044828f,0.092267f,-0.050106f,-0.024267f,0.035627f,0.016993f,-0.021129f,0.153887f,0.033059f,-0.096692f,0.068599f,-0.021520f,-0.062637f,-0.011096f,-0.064733f,0.003207f,-0.065285f,0.010484f,-0.034544f,0.007209f,0.005176f},
  {0.011910f,-0.005329f,0.133412f,-0.105366f,-0.149963f,0.019878f,0.051023f,0.108258f,-0.033555f,-0.050364f,0.138479f,0.022931f,-0.118520f,-0.042773f,-0.106470f,0.079794f,-0.018633f,0.173518f,-0.010269f,-0.070957f,0.006098f,-0.020985f,0.174412f,0.044824f,0.048733f,0.018313f,-0.005285f,-0.109553f,-0.074964f,-0.023739f,-0.073950f,0.019301f,0.065341f,0.080022f,-0.019153f,0.054518f,-0.017007f,0.009369f,0.055137f,0.068050f,-0.021586f,0.027358f,-0.123190f,0.025268f,0.038006f,-0.026791f,-0.064857f,-0.007021f,0.060696f,0.019999f,0.093379f,0.046271f,0.038307f,0.068872f,-0.027463f,-0.064238f,-0.008188f,-0.116060f,0.137376f,-0.153720f,-0.010871f,-0.036493f,-0.007411f,0.020057f},
  {-0.018174f,0.032778f,0.062721f,-0.082497f,-0.083103f,0.014512f,0.045831f,0.033525f,0.076056f,-0.166388f,0.223811f,-0.037341f,-0.163110f,-0.005657f,0.002866f,0.106593f,0.108385f,-0.074006f,-0.015292f,-0.040079f,-0.068125f,-0.207191f,0.124232f,0.120568f,0.043561f,-0.202014f,-0.021494f,-0.145044f,-0.131325f,0.011424f,-0.056513f,-0.017947f,0.015243f,0.021162f,0.023480f,-0.082490f,0.092060f,-0.190293f,-0.081143f,-0.118259f,0.047909f,-0.023866f,-0.030981f,-0.026880f,-0.026116f,-0.076635f,0.077963f,0.116857f,-0.065472f,0.016004f,0.026806f,-0.064204f,0.102989f,0.167071f,-0.007374f,-0.104762f,-0.042347f,0.030877f,0.190572f,0.172107f,0.040857f,-0.039367f,0.023386f,0.004868f},
  {0.013501f,-0.022899f,-0.024687f,0.085359f,0.081565f,-0.045746f,0.312071f,-0.025223f,-0.157218f,0.152943f,-0.145241f,0.154545f,0.029629f,0.014877f,0.045312f,0.031138f,-0.170123f,-0.174694f,-0.037179f,0.011993f,-0.029465f,0.206812f,-0.024710f,0.037540f,0.066375f,0.231955f,-0.142262f,0.045132f,0.008271f,0.026944f,-0.017471f,-0.025124f,-0.169499f,0.065474f,-0.031447f,0.133083f,-0.238854f,0.047686f,0.079136f,-0.104077f,0.152371f,-0.007050f,0.025603f,-0.237990f,0.127524f,0.010053f,-0.106235f,-0.170393f,0.014919f,-0.055811f,0.015080f,0.165603f,-0.055797f,0.076468f,-0.010083f,0.006988f,-0.002625f,-0.073862f,0.063328f,0.096958f,-0.097407f,-0.010957f,-0.028087f,0.019870f},
  {0.020626f,-0.063399f,-0.034629f,0.130089f,0.008847f,-0.273447f,0.201965f,0.135920f,-0.047961f,-0.090315f,0.097793f,0.042022f,-0.044583f,-0.003328f,-0.076962f,-0.091125f,-0.058559f,0.077391f,0.013932f,-0.022804f,-0.039539f,0.089807f,-0.149666f,-0.080979f,0.089301f,0.018362f,-0.082917f,0.032284f,0.122361f,-0.102125f,0.201791f,0.010798f,-0.192230f,0.078279f,-0.003281f,0.054245f,0.062419f,-0.165862f,-0.021742f,0.007856f,0.049134f,-0.002183f,0.026393f,-0.136073f,0.090439f,-0.116566f,-0.034547f,-0.004908f,-0.065130f,-0.103289f,0.029574f,0.117104f,-0.237130f,-0.277498f,-0.002201f,-0.059857f,0.009494f,-0.103636f,-0.093025f,0.175940f,-0.153333f,-0.008138f,-0.033265f,-0.009294f},
  {0.010003f,-0.048993f,-0.334987f,0.335508f,0.055799f,-0.126744f,-0.195272f,0.113838f,0.182729f,0.004242f,0.037512f,0.080488f,-0.132326f,-0.011521f,0.030746f,-0.395309f,-0.135338f,0.094409f,-0.037258f,-0.146705f,-0.026102f,0.079729f,-0.073157f,-0.099828f,-0.209699f,0.093114f,-0.225480f,0.089883f,0.009262f,-0.107309f,0.191203f,0.002521f,-0.131138f,0.057863f,-0.034521f,-0.163427f,-0.005415f,-0.342946f,-0.029647f,0.117209f,0.080658f,-0.011782f,-0.185695f,-0.114341f,-0.120433f,0.281176f,-0.158300f,-0.250141f,-0.140527f,0.011679f,-0.118734f,-0.086465f,-0.142855f,-0.098152f,-0.040413f,0.071248f,-0.010901f,0.049473f,-0.080027f,0.107416f,-0.146483f,-0.052120f,0.004311f,0.023707f},
  {-0.010456f,-0.068182f,-0.119350f,0.105537f,0.003489f,-0.101273f,0.024293f,0.030328f,0.173366f,-0.075862f,-0.127828f,0.050457f,0.094442f,0.023549f,-0.025456f,-0.094021f,-0.116213f,0.141744f,0.010230f,-0.067589f,-0.058793f,-0.186000f,-0.146425f,-0.333401f,0.041126f,-0.041751f,0.120212f,0.138732f,0.167327f,0.090234f,0.001650f,-0.014286f,0.053976f,0.018796f,-0.006241f,0.130536f,0.034208f,-0.125750f,0.072454f,0.125967f,0.165308f,-0.007947f,0.029567f,-0.071067f,-0.162730f,-0.097126f,-0.031700f,0.126299f,-0.091371f,-0.124974f,0.021310f,0.193117f,0.063355f,-0.040651f,0.005520f,0.062259f,0.002576f,0.182108f,-0.014983f,-0.014212f,-0.119836f,-0.016852f,-0.039768f,-0.006408f},
  {-0.042887f,-0.051751f,0.068726f,-0.105638f,0.085036f,0.006119f,0.102049f,-0.092601f,-0.009648f,0.125105f,-0.044683f,0.097559f,0.020830f,0.009999f,0.132655f,0.005579f,0.103515f,-0.073738f,0.005724f,-0.226363f,-0.073399f,0.087562f,-0.013963f,-0.135663f,0.053999f,0.020075f,0.065962f,0.025220f,0.023603f,-0.000217f,-0.156500f,-0.069144f,0.148830f,-0.011771f,-0.061384f,0.008754f,-0.156259f,0.086547f,0.032750f,-0.135544f,-0.053761f,-0.013482f,-0.103987f,0.051810f,-0.009949f,-0.024419f,0.042746f,0.129278f,-0.024442f,-0.166434f,0.055079f,-0.036742f,0.085305f,0.066970f,-0.045056f,0.147553f,0.014063f,0.033239f,-0.016278f,-0.109426f,-0.148326f,0.004016f,0.015634f,-0.024300f},
  {-0.015337f,-0.051779f,0.144911f,-0.171459f,-0.030325f,0.090005f,0.079968f,-0.117305f,-0.237308f,0.036665f,-0.072692f,0.075061f,0.056501f,-0.036775f,-0.022634f,0.065034f,0.094842f,-0.130629f,-0.010282f,-0.157585f,0.002964f,-0.054110f,0.028702f,0.010665f,-0.004256f,-0.064264f,0.095996f,-0.017546f,0.013346f,0.142382f,-0.086072f,-0.009834f,0.229824f,-0.161446f,-0.037597f,0.012023f,-0.022116f,0.188033f,-0.007997f,-0.130232f,-0.083538f,-0.020446f,-0.092189f,0.104538f,0.081645f,-0.010829f,0.093142f,0.139045f,-0.101997f,-0.056373f,-0.021713f,-0.079116f,0.027065f,-0.030947f,-0.009933f,0.069202f,-0.015655f,0.103295f,-0.040863f,-0.030571f,0.001524f,0.005238f,-0.005681f,0.010464f},
  {-0.019226f,-0.012502f,0.075124f,-0.056812f,0.297940f,-0.063681f,-0.081486f,-0.234375f,-0.042372f,0.168802f,0.305717f,0.221029f,-0.034999f,0.007850f,-0.049546f,0.112317f,0.199358f,-0.126394f,-0.040696f,-0.039138f,0.000853f,-0.148223f,0.019102f,0.009775f,0.062362f,-0.083450f,0.163719f,-0.019052f,0.126031f,0.035434f,-0.018241f,0.009877f,0.296109f,-0.051074f,-0.025933f,-0.227297f,0.002501f,-0.024302f,0.121906f,-0.249578f,-0.041676f,-0.007785f,-0.122286f,0.115644f,0.109192f,-0.089894f,0.103395f,0.203243f,-0.119419f,0.160434f,-0.242730f,-0.185491f,-0.055485f,0.036622f,0.003266f,0.268260f,-0.031834f,-0.244856f,0.072846f,-0.073044f,-0.186895f,0.006504f,-0.026855f,-0.035082f},
  {-0.029988f,0.007658f,-0.015581f,0.070405f,0.100608f,-0.087855f,0.219252f,-0.223780f,0.087903f,-0.055860f,0.196506f,0.031606f,-0.199962f,-0.011629f,-0.096218f,-0.154311f,0.090983f,0.087658f,-0.023343f,-0.033795f,-0.014611f,-0.066957f,-0.156338f,-0.010556f,-0.007028f,0.068475f,0.108198f,-0.120644f,-0.094227f,0.134887f,-0.083545f,-0.030787f,0.075046f,0.059801f,0.014897f,-0.022505f,0.031209f,-0.130462f,0.066221f,-0.028191f,-0.137414f,-0.031770f,0.111580f,0.002771f,0.147903f,-0.059478f,0.060088f,0.113335f,0.069120f,-0.152800f,-0.097110f,-0.033787f,-0.010516f,-0.038389f,-0.030576f,0.230567f,0.028739f,0.009810f,0.077589f,0.214049f,0.001874f,-0.019487f,-0.010259f,-0.031038f},
  {-0.030061f,-0.045775f,-0.010289f,-0.014260f,-0.351120f,0.196418f,0.014373f,0.053825f,-0.381577f,-0.065576f,0.097298f,-0.160486f,0.063771f,-0.003991f,0.115714f,-0.298139f,0.091874f,-0.160098f,0.010692f,-0.141153f,-0.087443f,0.048812f,-0.093349f,-0.195341f,0.062369f,-0.070547f,-0.029633f,0.050850f,-0.141770f,-0.035198f,0.067358f,-0.027813f,-0.000567f,-0.078152f,-0.022009f,-0.084415f,-0.058180f,0.096484f,-0.066560f,-0.169299f,-0.177410f,-0.044436f,-0.141814f,-0.006311f,0.241985f,0.147676f,-0.046489f,-0.035909f,-0.013127f,-0.026249f,-0.052141f,-0.161980f,0.033355f,-0.084542f,-0.011664f,0.093896f,-0.033734f,0.174153f,-0.049951f,0.074472f,0.114452f,-0.025805f,-0.040001f,0.015001f},
  {0.021788f,0.002749f,0.158748f,-0.094598f,0.049969f,0.110213f,0.089721f,0.060953f,-0.166599f,0.082239f,-0.124337f,0.061456f,0.168225f,-0.028742f,-0.047566f,-0.194066f,-0.142926f,-0.145000f,-0.061951f,-0.026299f,-0.105772f,-0.071962f,-0.148026f,-0.066081f,0.328748f,-0.167927f,0.135407f,0.202328f,0.147273f,0.147895f,-0.066160f,-0.057140f,0.138878f,-0.156645f,-0.024620f,0.115423f,-0.283008f,0.132784f,-0.234426f,-0.212275f,-0.126345f,-0.021520f,-0.164610f,0.120004f,-0.067120f,0.141554f,-0.044261f,0.156911f,-0.034328f,0.007980f,0.056332f,-0.124100f,0.170265f,-0.048521f,-0.000459f,0.032857f,-0.034889f,0.213420f,-0.011974f,0.010947f,0.185298f,0.027984f,-0.013962f,0.025006f},
  {-0.028866f,-0.022993f,0.211664f,-0.014793f,-0.110608f,0.104832f,-0.105936f,0.050132f,-0.111341f,0.026115f,-0.327671f,0.023536f,0.178390f,-0.033378f,0.119985f,0.021082f,-0.169733f,-0.060318f,-0.006982f,-0.122858f,-0.028525f,-0.089448f,-0.212173f,-0.026145f,0.148643f,-0.169121f,0.242118f,0.180679f,0.228410f,0.108135f,0.190264f,-0.073215f,0.111074f,-0.162357f,0.010089f,0.092396f,-0.165313f,0.146338f,-0.069796f,-0.075428f,0.040591f,-0.055189f,-0.071071f,0.146293f,0.054536f,0.099731f,-0.024127f,0.122807f,0.063596f,-0.001382f,-0.004431f,-0.033252f,0.014935f,-0.039993f,-0.002883f,0.139509f,-0.003633f,0.174260f,-0.181452f,-0.070534f,0.123189f,-0.018927f,-0.022093f,-0.029824f},
  {-0.010179f,-0.090518f,0.118043f,-0.077844f,-0.175905f,0.048755f,-0.076647f,0.033313f,-0.048627f,-0.087728f,-0.088913f,0.104988f,-0.038908f,-0.040834f,0.024924f,0.053364f,0.031275f,0.150379f,-0.005906f,-0.267356f,-0.035948f,-0.071338f,0.035230f,0.192191f,0.010233f,-0.037333f,0.085287f,-0.044512f,0.016908f,0.283933f,-0.018510f,-0.015166f,0.142531f,0.007840f,-0.059250f,0.062584f,0.087635f,0.101032f,-0.201521f,0.036941f,0.044763f,-0.035707f,0.024686f,0.216451f,0.023576f,-0.037584f,0.093839f,-0.172571f,-0.069453f,-0.022799f,0.048495f,0.113617f,0.062115f,-0.096424f,-0.054168f,-0.034907f,-0.032851f,0.059483f,0.017580f,0.077983f,-0.146640f,-0.014851f,0.022057f,0.022990f},
  {-0.035659f,-0.013004f,0.080710f,-0.021614f,-0.002329f,0.001052f,0.165077f,-0.043490f,-0.007444f,-0.129506f,-0.026491f,0.103768f,0.112625f,-0.014554f,0.064464f,-0.082610f,-0.002345f,-0.008225f,-0.048075f,-0.141522f,-0.011885f,-0.127154f,0.024749f,-0.146400f,0.158621f,-0.081071f,0.038419f,0.107531f,-0.054472f,-0.000148f,0.044200f,-0.030870f,-0.017299f,-0.060663f,0.000635f,0.025268f,0.042796f,0.073784f,-0.010255f,0.011427f,0.097546f,-0.019628f,0.024728f,-0.036314f,0.006490f,-0.034506f,0.120992f,0.038013f,-0.225555f,0.013300f,-0.013949f,-0.103510f,-0.046375f,-0.227846f,-0.009310f,-0.018359f,0.026095f,0.089000f,-0.033900f,0.047528f,-0.067054f,-0.012374f,-0.014721f,-0.040145f},
  {-0.037272f,-0.077562f,-0.038905f,-0.093593f,-0.024579f,-0.013023f,-0.042776f,-0.187746f,0.085733f,-0.069559f,0.155905f,0.132503f,0.079348f,-0.039968f,0.172307f,-0.045121f,0.163057f,0.016887f,-0.002981f,0.103477f,-0.022163f,0.023743f,0.055611f,0.013129f,-0.023304f,0.012941f,0.004110f,0.028091f,-0.044359f,-0.089057f,0.046094f,-0.018502f,0.086556f,-0.047780f,0.015560f,-0.014963f,0.139098f,0.096339f,0.061199f,-0.023257f,-0.068950f,-0.042193f,0.093511f,0.176454f,-0.022341f,-0.165855f,-0.031141f,0.048406f,-0.136994f,0.147320f,-0.027691f,-0.097367f,0.074205f,0.047246f,-0.004169f,-0.051188f,0.020683f,0.042268f,0.018554f,-0.184864f,-0.086599f,-0.005210f,0.001157f,-0.006065f},
  {0.021440f,-0.025215f,-0.000450f,0.303963f,-0.033290f,-0.060557f,-0.022810f,-0.018679f,-0.023397f,-0.315765f,-0.045513f,0.050605f,-0.163011f,-0.030650f,0.146194f,-0.167178f,-0.008795f,0.080534f,0.007192f,-0.168801f,0.003182f,0.096662f,-0.200457f,-0.029816f,0.024116f,0.089129f,-0.005081f,0.099668f,0.007406f,0.175376f,0.344969f,0.001850f,-0.139016f,0.215564f,-0.032953f,-0.096719f,-0.159927f,-0.051595f,0.250401f,-0.073573f,0.056210f,0.001566f,0.152576f,-0.174323f,-0.058862f,0.088105f,-0.090859f,-0.101731f,-0.072819f,0.072410f,-0.258437f,-0.192549f,-0.007674f,-0.358895f,0.002372f,0.127695f,-0.031850f,-0.062369f,-0.077322f,0.214804f,0.030427f,-0.015754f,-0.002466f,-0.013448f},
  {0.023732f,-0.056516f,0.020443f,-0.013266f,-0.229993f,0.094842f,-0.026686f,0.224516f,-0.046892f,-0.099193f,0.171477f,-0.071671f,0.123263f,-0.003994f,0.061593f,-0.060610f,-0.151892f,0.118124f,-0.004040f,0.132333f,-0.053836f,-0.126283f,0.009627f,-0.068199f,0.185949f,-0.022561f,-0.154896f,0.295201f,0.085243f,-0.101341f,0.080409f,-0.028541f,0.006982f,0.019961f,-0.050966f,0.184582f,-0.024820f,0.152223f,0.182242f,-0.038974f,-0.059467f,0.025918f,0.077505f,0.079757f,-0.235326f,-0.022452f,-0.149565f,-0.032267f,0.009611f,0.083602f,0.212740f,0.108288f,0.183703f,-0.090647f,-0.023234f,-0.129364f,-0.031972f,0.098739f,-0.044821f,-0.218263f,-0.152082f,0.007528f,-0.003826f,0.003685f},
  {-0.023924f,-0.027650f,0.216709f,-0.000867f,0.067536f,0.103198f,-0.089131f,0.236858f,-0.038677f,0.065639f,-0.044966f,0.018523f,0.046304f,-0.041317f,0.261369f,-0.110849f,0.046733f,0.022935f,-0.004036f,-0.008149f,0.030517f,0.092466f,-0.011412f,0.136001f,0.320435f,-0.108217f,-0.066153f,0.057318f,0.041663f,0.203585f,-0.001747f,-0.011500f,0.107609f,0.010979f,-0.016888f,0.039288f,0.087115f,0.040298f,-0.285382f,-0.333427f,-0.062950f,-0.002965f,-0.050887f,0.158715f,-0.257215f,0.030640f,-0.024326f,-0.169836f,-0.234811f,-0.016196f,0.063395f,-0.076077f,0.123672f,-0.087385f,-0.017673f,-0.063898f,-0.019085f,-0.009719f,0.088570f,-0.047010f,0.055431f,-0.039016f,-0.041134f,0.000570f},
  {-0.016184f,-0.043967f,0.187062f,0.057792f,0.056815f,0.151013f,-0.301487f,0.011539f,0.000730f,0.022061f,-0.175256f,0.081194f,-0.066205f,-0.032086f,0.195480f,-0.106345f,0.080997f,-0.077901f,-0.004954f,-0.106207f,-0.005130f,0.116945f,-0.021041f,-0.051679f,0.187982f,-0.148895f,0.244591f,-0.063035f,-0.009792f,0.106508f,-0.054156f,-0.050329f,0.066592f,0.018634f,-0.027431f,-0.156341f,-0.029945f,-0.011326f,-0.210924f,-0.180402f,0.179566f,-0.005444f,-0.078098f,0.169792f,-0.045856f,0.152999f,0.073131f,-0.108044f,-0.134883f,0.121501f,-0.135475f,-0.173517f,-0.019116f,-0.240497f,-0.031443f,0.050026f,0.020848f,-0.012597f,0.105469f,0.129361f,0.047390f,-0.017863f,-0.007212f,0.011973f},
  {0.014358f,-0.073324f,0.086455f,0.075257f,-0.187002f,0.030972f,-0.245071f,0.222475f,0.157754f,0.062654f,-0.026806f,0.013486f,0.067908f,-0.026095f,-0.023902f,-0.107170f,0.119762f,0.093861f,-0.014071f,-0.174437f,-0.085873f,0.091534f,0.267686f,-0.008639f,-0.037535f,0.126405f,-0.036149f,0.018049f,0.047713f,-0.234908f,-0.002777f,-0.053039f,0.043823f,0.046132f,-0.025555f,-0.105415f,0.127798f,-0.123348f,-0.375144f,-0.014758f,0.062234f,-0.017646f,-0.158448f,0.163075f,0.028855f,0.065642f,0.081796f,-0.206050f,-0.205567f,0.043071f,0.160376f,0.173026f,0.006537f,-0.189376f,-0.026098f,-0.100998f,-0.005140f,-0.012795f,0.093865f,0.052989f,0.022078f,-0.012148f,-0.033066f,0.004755f},
  {0.016807f,-0.065199f,-0.019339f,0.138316f,0.025640f,0.041383f,-0.147056f,0.158142f,0.059238f,-0.020225f,0.057677f,-0.084976f,0.147212f,-0.039397f,-0.107117f,-0.076420f,0.089395f,0.008725f,-0.024617f,-0.115749f,-0.033090f,0.154925f,0.094509f,0.056644f,0.133560f,0.055171f,0.040413f,0.070168f,0.011600f,-0.097585f,0.063293f,0.003771f,-0.088543f,0.190001f,0.022900f,-0.135690f,0.123015f,-0.200791f,-0.141059f,-0.051774f,0.083719f,-0.014314f,-0.144549f,-0.002754f,-0.064830f,0.055797f,0.072044f,-0.130889f,-0.041377f,-0.024672f,-0.019353f,-0.047743f,0.017418f,-0.152642f,0.027530f,0.092281f,-0.011510f,-0.071954f,-0.063804f,0.111738f,0.087642f,-0.043914f,0.021878f,0.002317f},
  {-0.005598f,-0.053725f,-0.274460f,0.136491f,-0.065660f,0.142931f,-0.104538f,0.123114f,-0.064313f,-0.048061f,-0.056265f,0.099975f,0.103493f,-0.006337f,0.105494f,-0.273270f,0.100319f,-0.037142f,-0.008929f,0.045548f,0.000962f,0.012297f,-0.012651f,0.113709f,0.066419f,-0.137410f,-0.075421f,0.131481f,0.093327f,-0.028992f,0.187014f,-0.002577f,-0.112440f,0.067987f,-0.019323f,-0.162007f,0.126514f,-0.039352f,-0.034127f,0.101396f,-0.020723f,-0.058326f,0.059349f,0.121320f,-0.174191f,0.076199f,0.064641f,-0.145175f,-0.000086f,0.002458f,-0.025449f,-0.050579f,-0.019902f,0.034101f,-0.015683f,0.075562f,-0.000750f,-0.108245f,-0.119255f,-0.095611f,-0.038249f,-0.025532f,0.003814f,-0.028153f},
  {-0.009538f,0.022847f,0.102992f,-0.000916f,0.016846f,0.052041f,-0.030513f,-0.136754f,-0.137139f,-0.203766f,0.114176f,0.114173f,-0.044472f,-0.023072f,0.093675f,-0.018679f,-0.018816f,-0.077003f,-0.002216f,-0.131166f,-0.033404f,-0.256131f,0.071084f,0.060054f,0.186540f,-0.010662f,-0.166067f,-0.084166f,0.031645f,0.109925f,0.168020f,-0.014665f,0.021817f,-0.020013f,-0.034936f,-0.076405f,-0.096229f,0.105776f,0.115349f,0.083789f,0.052156f,0.008681f,-0.061715f,-0.013818f,0.011268f,0.057928f,0.130412f,-0.104403f,0.115616f,0.152819f,-0.067936f,0.016016f,0.006832f,0.125335f,-0.030239f,0.024399f,-0.023912f,0.041335f,-0.055558f,0.062979f,-0.031908f,-0.039731f,-0.005754f,-0.017742f},
  {-0.039543f,-0.092898f,0.166962f,-0.116330f,0.202712f,-0.054671f,-0.100046f,0.030479f,0.010184f,0.047589f,0.036185f,0.139026f,0.020286f,-0.038749f,0.031628f,0.144246f,-0.074786f,-0.034740f,-0.026155f,0.165419f,0.026520f,-0.135723f,0.106110f,-0.048127f,-0.104023f,-0.004846f,-0.062690f,-0.017020f,-0.009534f,0.034575f,0.039824f,-0.012355f,0.112364f,0.059934f,0.018735f,0.113581f,-0.021071f,0.030405f,-0.132347f,-0.232087f,-0.024118f,0.025459f,0.037409f,0.171464f,-0.059985f,-0.080969f,-0.103648f,-0.138311f,-0.087020f,-0.026958f,0.097673f,0.028240f,0.004011f,-0.060492f,-0.003577f,-0.159980f,-0.000770f,0.083958f,0.162020f,-0.094318f,0.029273f,-0.058591f,0.013359f,0.028119f},
  {-0.032135f,-0.091195f,0.068066f,-0.099147f,-0.112712f,0.085899f,-0.287638f,0.001240f,-0.058851f,-0.060181f,0.046234f,-0.089058f,0.027260f,0.001811f,0.111739f,0.012828f,0.059257f,0.026191f,-0.010852f,-0.058756f,-0.071964f,0.047554f,0.007592f,0.124570f,-0.026064f,0.206971f,-0.149150f,0.066383f,-0.019654f,0.089991f,-0.025895f,-0.012307f,0.038392f,0.067763f,0.007998f,-0.001093f,0.022746f,0.073318f,-0.141379f,-0.097852f,-0.275811f,-0.030926f,0.036813f,-0.044322f,-0.081293f,-0.065019f,0.083224f,0.076104f,-0.020539f,-0.048294f,0.072224f,0.167355f,-0.023512f,0.100873f,-0.009966f,-0.048138f,-0.009560f,0.011375f,-0.021030f,-0.100414f,0.118361f,-0.077015f,-0.008708f,-0.042303f},
  {-0.010103f,-0.047172f,0.080725f,0.073120f,-0.007507f,0.095503f,-0.505191f,0.204420f,0.026937f,0.023570f,0.034763f,-0.298452f,-0.040195f,-0.046597f,0.098028f,-0.317563f,0.059960f,0.039864f,0.023391f,-0.050296f,-0.068379f,0.047876f,0.123990f,-0.059208f,-0.027454f,-0.022741f,-0.069888f,-0.049530f,0.052570f,-0.011149f,0.025215f,-0.024671f,0.042206f,0.062006f,-0.053978f,0.022322f,-0.110286f,0.023066f,-0.170187f,-0.059716f,-0.061421f,-0.036250f,-0.169041f,0.264785f,-0.089662f,0.053610f,0.096171f,-0.036049f,0.028437f,-0.007425f,0.140583f,0.073920f,0.092368f,-0.105150f,0.025407f,-0.016571f,-0.032858f,-0.033524f,0.060617f,0.041351f,-0.046008f,-0.045675f,-0.020071f,-0.011421f},
  {-0.040090f,-0.103238f,-0.004097f,0.107359f,-0.172159f,0.292937f,-0.381773f,0.232073f,0.105294f,0.088169f,0.023267f,-0.347794f,0.067366f,-0.017303f,-0.015688f,-0.285759f,0.077017f,-0.043350f,0.014114f,-0.278235f,-0.108339f,0.120867f,0.047018f,0.074052f,-0.027492f,-0.073033f,0.049832f,0.113241f,0.193379f,-0.213616f,0.115338f,0.027051f,0.059990f,0.029551f,-0.019849f,-0.071991f,0.022734f,-0.055067f,-0.091211f,0.022510f,-0.035570f,-0.010087f,-0.225646f,0.079285f,-0.003507f,0.146124f,0.128499f,-0.115482f,-0.101417f,-0.051082f,0.206239f,-0.071773f,0.001452f,0.038543f,-0.010216f,-0.074811f,0.000881f,0.049061f,-0.169199f,0.005445f,-0.178627f,0.014650f,0.024268f,-0.037913f},
  {-0.009111f,-0.061224f,-0.108890f,-0.068360f,-0.014442f,0.155848f,-0.341528f,0.159181f,-0.079389f,0.101863f,-0.053562f,-0.287101f,0.235179f,-0.049373f,-0.176826f,-0.021516f,0.042158f,-0.140376f,-0.025160f,-0.109418f,-0.068881f,0.176339f,0.076929f,0.008442f,-0.041131f,-0.008692f,0.058780f,0.005574f,0.092741f,-0.119556f,0.052271f,-0.009841f,-0.055889f,-0.054898f,-0.022737f,0.118802f,0.069399f,0.009095f,-0.052058f,-0.035450f,-0.004490f,0.001432f,-0.137541f,0.047973f,0.021678f,-0.001427f,0.027097f,-0.076044f,-0.045883f,0.095873f,0.087254f,0.091177f,-0.013179f,0.091724f,0.012016f,0.003234f,0.004817f,-0.082861f,-0.101681f,0.101042f,0.062191f,-0.030847f,-0.014068f,-0.018221f},
  {-0.010238f,-0.021947f,-0.025658f,-0.049890f,-0.011977f,0.115330f,-0.127040f,-0.010923f,-0.009454f,-0.000973f,-0.023437f,-0.069909f,0.013145f,0.003922f,-0.000746f,-0.090821f,0.005107f,0.047323f,-0.003838f,-0.007409f,0.027655f,-0.126100f,0.035486f,0.062363f,-0.024677f,-0.064138f,0.015083f,-0.062902f,-0.137797f,0.163682f,-0.105167f,-0.005776f,0.018110f,0.001125f,0.026981f,0.064699f,-0.025832f,0.199440f,-0.006237f,0.048847f,-0.066688f,-0.020129f,-0.079943f,-0.054817f,-0.049761f,0.021684f,0.059119f,-0.014261f,0.059503f,-0.036803f,0.014719f,0.162014f,0.090641f,0.053667f,0.004906f,0.006798f,0.006878f,0.110984f,0.005392f,-0.072196f,-0.226903f,-0.000928f,-0.000110f,-0.037959f},
  {-0.039030f,-0.036889f,-0.106082f,-0.093760f,-0.070897f,-0.035431f,-0.001731f,-0.234426f,-0.019642f,0.051773f,0.124098f,0.026860f,-0.001096f,-0.009055f,0.095498f,0.119207f,-0.000387f,0.086288f,0.004411f,0.058303f,-0.022174f,-0.121422f,0.049562f,-0.168593f,-0.024696f,0.059914f,-0.065313f,-0.022389f,-0.143473f,0.039426f,0.047575f,-0.005858f,0.079668f,0.075495f,-0.003250f,0.028275f,0.134062f,0.006644f,0.067904f,0.144852f,0.100713f,-0.031207f,0.013761f,-0.034665f,-0.073744f,0.027924f,-0.038497f,0.071203f,0.033355f,0.026135f,-0.098910f,0.135644f,-0.092807f,0.035687f,-0.010415f,0.175267f,-0.021144f,0.037576f,-0.012450f,-0.064108f,0.186684f,-0.018508f,-0.006931f,-0.041334f},
  {0.004432f,-0.049449f,-0.055388f,-0.217895f,-0.253463f,0.129347f,0.078330f,0.039503f,0.063265f,-0.056774f,0.153694f,-0.068125f,0.185085f,-0.040099f,0.063879f,0.079270f,0.124872f,0.076077f,-0.008584f,-0.050784f,-0.000723f,-0.110205f,0.132840f,0.060326f,-0.158699f,-0.092391f,-0.075667f,-0.058736f,0.008898f,-0.075999f,-0.061511f,0.003539f,0.009203f,0.005720f,-0.034997f,-0.018347f,0.055890f,0.074238f,-0.129628f,0.154353f,-0.051282f,0.031726f,0.004655f,0.117692f,-0.007535f,-0.099703f,0.068173f,0.024104f,-0.037592f,0.031595f,0.007513f,0.110132f,0.007710f,0.070851f,-0.041159f,-0.071295f,-0.026884f,0.117289f,0.035116f,-0.113408f,0.127054f,-0.051417f,0.000002f,0.002637f},
  {0.015703f,-0.074150f,0.071166f,-0.105572f,-0.067216f,0.122072f,-0.419093f,-0.100204f,0.016670f,0.140998f,0.040280f,-0.027804f,-0.154220f,-0.001650f,0.117547f,0.115957f,0.155828f,-0.130015f,0.017387f,0.059529f,-0.008125f,0.058169f,0.096994f,0.069541f,0.015427f,-0.075403f,0.215507f,-0.009047f,0.078350f,0.108101f,0.046127f,-0.017371f,0.102323f,-0.080587f,0.021724f,-0.084837f,-0.014175f,0.103016f,0.019950f,0.103396f,0.179147f,-0.030890f,0.041054f,0.180647f,0.010847f,0.098696f,0.151276f,0.139792f,-0.000257f,0.003772f,-0.050811f,-0.035945f,0.012870f,0.096737f,-0.024840f,-0.031348f,-0.022355f,0.063046f,-0.032365f,0.020671f,0.041364f,-0.024487f,0.003732f,0.025834f},
  {0.004333f,-0.002231f,-0.061848f,0.100996f,-0.136190f,0.020891f,0.004818f,-0.019880f,0.090562f,0.106915f,-0.272885f,-0.077868f,-0.150333f,-0.023007f,-0.070600f,-0.032541f,0.038619f,-0.000944f,-0.024915f,-0.058938f,-0.035697f,-0.060998f,0.060224f,0.115023f,0.148101f,0.039058f,0.045038f,0.047744f,-0.009728f,-0.120693f,-0.047001f,-0.033207f,0.100009f,-0.203207f,-0.031104f,0.003628f,-0.282885f,-0.104955f,-0.054484f,0.043608f,0.069031f,-0.051490f,-0.118659f,0.083940f,-0.094299f,0.010407f,0.156454f,0.117991f,-0.007854f,-0.052379f,0.062340f,0.002119f,0.001642f,0.169766f,-0.020195f,-0.034911f,0.017844f,0.026827f,0.025418f,0.065301f,0.015114f,-0.060448f,-0.027698f,-0.014963f},
  {-0.015679f,-0.080658f,-0.079687f,0.063114f,-0.055809f,0.063929f,-0.027336f,0.116153f,0.209008f,-0.149348f,0.132831f,-0.397890f,-0.276209f,0.017818f,0.052978f,-0.077529f,0.029086f,0.076287f,0.009504f,-0.021324f,-0.069771f,-0.133681f,-0.004176f,0.100923f,-0.223514f,0.050646f,-0.083777f,-0.199601f,-0.081885f,-0.029712f,0.026133f,0.023194f,0.132450f,-0.085696f,-0.028195f,-0.097162f,-0.039343f,-0.013438f,0.009134f,0.021750f,-0.095686f,0.017770f,-0.129665f,-0.024749f,-0.161020f,0.012390f,0.030000f,-0.027267f,-0.178566f,0.002440f,-0.014525f,-0.002544f,0.023450f,-0.040558f,0.009792f,-0.053701f,0.011558f,0.000153f,0.054250f,0.095857f,-0.222694f,0.035446f,-0.005196f,-0.004901f},
  {-0.006648f,0.045496f,-0.151032f,0.036209f,-0.125860f,0.112811f,0.026944f,-0.037511f,-0.056271f,0.258821f,-0.099568f,-0.078634f,-0.066378f,-0.004798f,-0.017334f,-0.098617f,-0.023844f,-0.028206f,-0.034556f,0.114664f,-0.059909f,0.148367f,-0.024609f,-0.031856f,0.057384f,0.161562f,-0.038955f,0.051621f,-0.160466f,-0.098070f,0.208600f,0.001428f,0.022622f,0.017032f,0.000241f,0.011430f,-0.019803f,0.090963f,0.016119f,-0.047675f,-0.024381f,0.015265f,0.086921f,-0.187646f,-0.021102f,0.041438f,0.140935f,0.023368f,0.083852f,-0.101439f,0.003141f,0.070919f,-0.085161f,0.171664f,-0.013174f,-0.008991f,-0.041737f,0.019499f,-0.008751f,0.135974f,-0.038010f,-0.025761f,-0.005356f,-0.011225f},
  {-0.010413f,0.002838f,0.089903f,0.286560f,0.238300f,0.041229f,-0.024112f,0.061580f,0.078994f,-0.195857f,0.093972f,-0.005525f,0.025191f,-0.013024f,0.142080f,-0.016064f,-0.008134f,0.156361f,-0.003901f,0.109501f,-0.003877f,0.044299f,-0.141130f,0.105457f,0.170597f,-0.091463f,0.134783f,-0.028485f,0.056038f,0.314222f,-0.140496f,0.004148f,0.054660f,0.080768f,-0.032874f,0.092202f,0.068245f,0.000105f,0.005579f,0.095102f,-0.054429f,-0.027541f,-0.053192f,0.097483f,-0.205901f,0.126629f,0.007271f,-0.012426f,-0.146209f,-0.061218f,-0.046989f,0.028930f,0.320125f,-0.129591f,0.019554f,-0.021195f,-0.032516f,-0.025793f,0.038846f,0.056892f,-0.013693f,-0.044413f,0.007425f,0.015525f},
  {0.012787f,0.008066f,0.070093f,0.046826f,0.044932f,0.004457f,-0.079855f,0.082456f,-0.078669f,-0.187796f,-0.154885f,-0.144194f,0.006126f,-0.010319f,-0.046553f,0.090012f,-0.076378f,0.240821f,0.020177f,0.117473f,-0.034069f,-0.063799f,-0.028864f,0.165272f,-0.046016f,-0.124067f,0.011786f,0.097593f,-0.055196f,0.099783f,-0.044682f,0.016443f,-0.059379f,-0.109965f,-0.018575f,0.098296f,0.023815f,0.112278f,-0.032733f,-0.009667f,0.055314f,-0.012076f,-0.081372f,0.012493f,-0.282278f,0.013836f,-0.152411f,-0.115469f,0.023725f,-0.049838f,-0.062071f,0.105548f,0.176356f,-0.057306f,0.016612f,-0.043459f,0.006251f,-0.063624f,0.117305f,-0.180850f,-0.232639f,-0.036176f,0.011559f,0.022350f},
  {-0.025338f,0.017721f,-0.110592f,-0.027541f,0.011442f,-0.061668f,0.149636f,-0.162669f,-0.102155f,-0.008716f,0.175186f,-0.078303f,-0.166892f,-0.005927f,-0.072903f,0.080483f,0.141087f,-0.049054f,-0.026330f,0.149311f,0.026173f,0.226854f,0.024629f,0.148553f,0.101505f,0.167631f,-0.071090f,-0.052986f,-0.145043f,-0.146255f,0.039028f,-0.016772f,-0.169975f,0.149378f,0.017721f,-0.062426f,0.106563f,-0.123215f,0.211620f,-0.019058f,0.099629f,-0.028038f,-0.043666f,-0.216246f,-0.007249f,0.037462f,0.016433f,0.171412f,0.144871f,-0.011946f,0.001765f,0.025533f,-0.167118f,0.103856f,-0.002023f,0.273824f,-0.022184f,0.042769f,-0.123840f,0.221334f,0.164559f,-0.026459f,0.023897f,0.025260f},
  {-0.013685f,-0.053858f,-0.129622f,0.187970f,0.087018f,-0.180657f,0.138767f,-0.183779f,0.036496f,0.095606f,-0.004403f,0.213557f,-0.106822f,-0.024301f,0.011843f,-0.017007f,0.096450f,-0.004770f,0.019457f,-0.081541f,-0.033798f,0.160961f,-0.167672f,-0.124398f,0.054246f,-0.017720f,-0.017681f,-0.108741f,-0.055166f,-0.088488f,0.116044f,-0.003936f,-0.228043f,0.018540f,-0.038804f,-0.200116f,0.004384f,-0.176648f,0.278804f,-0.039042f,0.128175f,-0.012048f,0.035487f,-0.181289f,0.119041f,0.069079f,-0.046251f,-0.151125f,0.121329f,0.057401f,-0.085595f,-0.144407f,-0.124067f,-0.177782f,0.018921f,0.195587f,-0.016271f,-0.161645f,0.011147f,0.097358f,0.078203f,0.011860f,-0.031814f,-0.017331f},
  {-0.014820f,-0.032835f,0.039721f,-0.086827f,0.065304f,0.031880f,0.109700f,-0.026057f,0.036722f,0.112396f,0.070017f,0.090620f,0.010802f,0.011828f,-0.112527f,0.135317f,0.070822f,-0.235450f,-0.029459f,-0.019265f,-0.029209f,0.085594f,0.040674f,0.120433f,-0.006272f,0.093250f,0.029387f,-0.082222f,0.070898f,-0.038120f,0.009465f,-0.029202f,0.152410f,-0.083318f,0.004786f,-0.020376f,-0.104413f,-0.099293f,-0.024243f,-0.075752f,-0.223816f,-0.011927f,-0.095896f,-0.025349f,0.177968f,0.030677f,-0.077237f,0.148257f,-0.122290f,-0.015263f,-0.068266f,-0.183743f,-0.003244f,0.108285f,0.004545f,0.115901f,0.024010f,0.016021f,-0.027616f,-0.078846f,-0.009126f,-0.029598f,-0.030511f,0.011338f},
  {-0.040004f,0.019520f,0.169091f,0.029884f,0.053689f,0.113610f,0.137621f,-0.001906f,0.154125f,0.160163f,-0.215861f,0.060753f,-0.049890f,-0.010592f,0.071966f,0.127377f,-0.043296f,0.083477f,-0.041263f,0.068259f,0.014542f,0.108639f,-0.294537f,0.067930f,0.271903f,0.244315f,-0.154080f,0.051391f,-0.109735f,0.205075f,-0.019207f,0.003888f,-0.001034f,-0.014483f,-0.016639f,0.036438f,-0.025098f,0.110094f,-0.075031f,0.006783f,0.063552f,0.018772f,0.032188f,-0.066121f,0.011229f,0.096689f,0.150519f,-0.071113f,0.085469f,-0.336130f,-0.102618f,-0.031397f,0.144165f,0.015425f,-0.014117f,0.035123f,0.005943f,-0.099532f,0.137571f,0.126899f,0.039090f,-0.030939f,-0.039437f,0.006909f},
  {0.021265f,-0.004137f,0.025289f,0.012658f,0.182483f,-0.187059f,0.233047f,0.326400f,0.078585f,0.207797f,-0.037902f,0.021445f,0.054897f,0.015044f,0.004291f,-0.114057f,-0.113532f,0.045097f,0.002867f,-0.025888f,-0.053963f,-0.130712f,-0.137292f,-0.173862f,0.040211f,-0.025066f,-0.222921f,0.151016f,0.099956f,0.010436f,0.077176f,0.016080f,0.125549f,-0.197445f,0.002992f,0.241245f,0.083303f,0.172814f,0.255834f,0.108844f,0.068498f,0.025529f,0.006234f,-0.133733f,-0.094470f,-0.153421f,-0.207071f,0.039997f,0.011031f,0.090288f,-0.167847f,0.028746f,0.099710f,0.082724f,-0.022856f,-0.184265f,-0.018823f,0.234544f,0.089550f,-0.189931f,-0.290183f,-0.008079f,0.006423f,0.008840f},
  {-0.041598f,-0.011496f,0.013967f,0.019337f,-0.039880f,-0.066482f,0.136075f,0.030676f,0.004356f,-0.008912f,0.044415f,0.090206f,0.030385f,0.003038f,-0.116210f,0.013261f,-0.022060f,0.086605f,-0.041356f,-0.077052f,-0.007624f,-0.084879f,0.052152f,-0.013517f,-0.100852f,-0.040822f,-0.033008f,0.055488f,0.079171f,-0.067004f,0.076504f,0.018501f,0.026346f,0.068882f,-0.022687f,0.051810f,0.150168f,-0.018076f,-0.039910f,0.019906f,-0.051124f,-0.028820f,-0.029400f,0.032980f,0.052604f,-0.034148f,-0.057827f,-0.004093f,0.036470f,0.022331f,0.118048f,0.081540f,-0.049673f,-0.018147f,-0.039938f,-0.089369f,-0.038929f,-0.009508f,-0.060608f,0.006189f,0.033767f,-0.031337f,0.025268f,-0.003945f},
  {0.019556f,0.003048f,0.008065f,-0.021463f,0.002813f,-0.030619f,0.009148f,-0.087200f,-0.002847f,0.052017f,0.027244f,-0.012452f,0.062358f,0.007687f,0.007434f,-0.002225f,0.051802f,-0.021425f,-0.039236f,-0.010639f,-0.008325f,-0.000103f,0.008569f,0.025181f,-0.008033f,0.008867f,0.042897f,-0.039154f,0.021956f,-0.030205f,-0.045243f,-0.005838f,0.002982f,-0.021351f,0.004733f,0.006170f,0.062141f,-0.028754f,0.078022f,0.019236f,-0.047011f,-0.037542f,0.000420f,-0.030964f,0.061391f,-0.016093f,0.044077f,0.018986f,0.065045f,0.001131f,0.000333f,0.043429f,-0.024436f,0.041265f,0.010297f,0.043039f,-0.030336f,0.038552f,0.021251f,-0.003389f,-0.013808f,-0.048507f,-0.038546f,-0.009800f},
  {-0.013330f,-0.064839f,-0.033959f,-0.022989f,-0.061667f,0.128126f,0.036544f,0.025945f,-0.098155f,0.063513f,0.067605f,0.024705f,0.013622f,-0.011889f,-0.057465f,-0.158658f,0.075715f,-0.052615f,-0.048831f,0.005600f,0.028265f,0.083206f,0.181675f,0.181802f,-0.114281f,-0.098601f,0.101536f,-0.081889f,-0.121350f,0.114478f,0.007383f,-0.009915f,-0.074612f,0.130024f,0.000850f,-0.034332f,0.039921f,-0.062619f,0.001610f,0.042081f,0.029401f,-0.030685f,-0.077876f,-0.003936f,-0.016114f,-0.040525f,0.208590f,-0.006531f,-0.117608f,0.089406f,-0.048579f,0.027684f,-0.029636f,-0.116512f,0.020598f,0.034293f,0.009371f,0.053909f,-0.053748f,0.174459f,0.099555f,-0.082699f,-0.014336f,0.027084f},
  {-0.013337f,-0.077376f,0.029703f,-0.017913f,-0.044252f,0.101780f,-0.004276f,0.032897f,0.119560f,0.025349f,-0.048205f,0.014390f,0.206951f,-0.035219f,-0.171278f,-0.081727f,-0.135027f,0.095552f,-0.001306f,0.025324f,-0.054275f,0.022388f,-0.052496f,-0.007414f,0.119426f,0.052062f,-0.053447f,0.097205f,0.027398f,0.025720f,-0.105790f,-0.028874f,0.130578f,-0.038991f,-0.020142f,0.152925f,-0.021315f,-0.023649f,-0.224196f,0.044860f,-0.015657f,-0.052549f,-0.088583f,0.065534f,-0.034099f,-0.044766f,-0.057607f,0.000437f,-0.180110f,-0.047472f,0.027874f,0.136071f,0.133595f,0.098247f,-0.030454f,-0.154144f,-0.017835f,0.079284f,0.120024f,-0.082880f,-0.213638f,-0.045860f,0.019336f,-0.001979f},
  {-0.000269f,-0.061331f,-0.013263f,-0.049453f,0.104395f,-0.010233f,0.140377f,0.010015f,-0.123283f,0.024293f,0.134403f,0.031283f,0.027286f,0.013442f,0.067740f,0.095667f,0.034870f,-0.009442f,-0.036121f,-0.113630f,0.018548f,0.002595f,0.113039f,0.034363f,-0.022133f,0.094456f,-0.093274f,0.042366f,-0.101449f,-0.063175f,0.005950f,-0.050937f,0.032755f,0.161790f,0.003681f,-0.022664f,-0.072722f,-0.053678f,-0.025893f,-0.008726f,-0.109314f,-0.036601f,0.041667f,0.004669f,0.067697f,0.012386f,-0.082184f,-0.026530f,0.119532f,0.078212f,0.211234f,0.041869f,0.054485f,0.077117f,-0.005579f,-0.044522f,-0.012235f,-0.095064f,-0.049800f,0.102641f,-0.020730f,0.001704f,0.009272f,-0.034214f},
  {-0.035220f,-0.064453f,0.210222f,-0.039010f,-0.033243f,0.173461f,-0.098619f,0.052271f,-0.069232f,0.087640f,0.061855f,-0.029628f,0.143610f,-0.045603f,0.043150f,0.087750f,-0.096445f,-0.086515f,-0.017024f,0.075198f,-0.018127f,0.140472f,0.040049f,0.222237f,0.237638f,-0.062762f,0.199069f,0.100374f,0.100468f,0.115686f,-0.084842f,0.010075f,-0.109518f,0.109190f,-0.054027f,0.087808f,-0.065844f,0.057364f,0.061121f,-0.195189f,0.014612f,-0.019559f,-0.129794f,0.102372f,-0.029424f,0.090709f,-0.047811f,0.126620f,-0.067077f,-0.106690f,0.035399f,-0.169244f,0.055344f,-0.001017f,-0.011175f,-0.071071f,0.006604f,-0.224558f,-0.001059f,0.105979f,-0.118346f,0.025107f,0.000667f,-0.008390f},
  {0.017963f,-0.003647f,0.058717f,0.091331f,0.097588f,0.103925f,-0.009785f,0.031914f,0.159628f,0.132339f,-0.210480f,0.215367f,-0.087172f,0.015077f,0.147001f,0.048508f,-0.074527f,-0.061033f,-0.019166f,-0.045875f,-0.035416f,0.081285f,-0.103675f,0.048849f,0.188481f,-0.137097f,0.050267f,0.062384f,0.271211f,0.076378f,-0.089530f,-0.016780f,0.063072f,-0.116056f,0.003233f,-0.039302f,-0.150641f,0.033161f,0.087360f,0.133130f,0.191371f,0.006852f,-0.143061f,0.012376f,-0.074895f,0.169379f,-0.027537f,-0.020101f,-0.087279f,0.066168f,-0.091042f,-0.165500f,-0.104948f,-0.114622f,0.015096f,0.244456f,0.024756f,-0.047619f,-0.136869f,-0.046062f,-0.128266f,-0.009509f,0.003074f,0.011471f},
  {-0.007498f,-0.098018f,-0.029301f,-0.045884f,0.020549f,-0.036561f,0.036003f,-0.021836f,0.017699f,-0.000069f,0.052646f,0.048355f,-0.007644f,-0.023854f,-0.043383f,0.045965f,0.022489f,-0.058449f,-0.004444f,-0.051649f,-0.048687f,0.032959f,0.071068f,-0.018135f,-0.087502f,0.020140f,0.011045f,-0.041894f,-0.039068f,-0.022425f,0.055578f,-0.002864f,0.048920f,-0.013576f,-0.007370f,-0.023712f,0.022456f,-0.039869f,-0.053980f,-0.002064f,-0.020914f,-0.061165f,-0.076208f,0.045795f,0.030471f,-0.002972f,-0.012352f,-0.001131f,-0.024455f,0.014738f,0.019035f,-0.028116f,0.054891f,0.080989f,-0.008786f,-0.034510f,0.019965f,0.025118f,0.011487f,0.010570f,0.015490f,-0.040790f,-0.007306f,0.018464f},
  {0.007436f,-0.031800f,0.012896f,0.036170f,-0.004686f,0.015393f,0.132377f,0.088588f,0.031147f,0.025631f,0.036908f,0.114290f,0.109153f,-0.013119f,0.051063f,-0.057720f,0.013646f,-0.018337f,-0.005050f,-0.079777f,-0.025042f,0.141573f,0.067024f,-0.032712f,-0.009896f,0.057615f,-0.001159f,0.024198f,0.025774f,-0.018634f,0.057753f,-0.036057f,0.114002f,0.039063f,-0.043155f,0.009144f,-0.063820f,0.022748f,0.014456f,0.033631f,-0.003261f,-0.019855f,0.111747f,-0.082218f,0.054427f,-0.014001f,-0.067500f,0.031755f,-0.088915f,0.043923f,-0.102002f,0.031105f,0.019969f,-0.007213f,-0.021587f,0.065597f,-0.036112f,-0.005916f,-0.012564f,-0.056872f,-0.049550f,0.012041f,-0.028669f,0.011030f},
  {0.008632f,0.023718f,-0.174800f,0.016786f,-0.123431f,-0.002140f,0.013792f,0.142140f,-0.174368f,-0.175033f,0.156664f,-0.074778f,-0.098886f,-0.019417f,-0.072829f,-0.030502f,0.103573f,-0.055249f,0.006007f,-0.128437f,-0.076915f,0.191320f,0.119034f,0.168768f,0.008094f,0.031254f,-0.149768f,0.046781f,-0.090812f,-0.059781f,0.063194f,-0.034110f,-0.348875f,0.173171f,-0.062519f,-0.082587f,0.000476f,-0.126743f,-0.027984f,-0.091306f,-0.009614f,-0.070610f,-0.112407f,0.044215f,0.143428f,0.046593f,0.176437f,-0.262995f,0.016075f,0.094458f,0.066759f,-0.125729f,-0.070733f,-0.006896f,0.017485f,-0.081610f,0.025379f,-0.137716f,-0.141090f,0.315946f,0.026758f,-0.044973f,0.009086f,-0.018350f},
  {0.009426f,-0.064814f,-0.436822f,0.077264f,-0.169271f,0.058627f,-0.228156f,-0.004627f,0.058593f,-0.033938f,-0.029427f,-0.173893f,-0.051240f,-0.029672f,-0.157162f,0.046872f,-0.145656f,0.240563f,-0.006956f,0.008894f,-0.040633f,0.086412f,0.238238f,-0.039564f,-0.420520f,0.377329f,-0.265535f,-0.218167f,-0.138439f,-0.208985f,0.102339f,-0.022277f,-0.293627f,0.213513f,-0.019677f,-0.109936f,0.089139f,-0.202999f,-0.111728f,0.398902f,-0.097957f,0.026619f,-0.101948f,-0.164836f,-0.100940f,-0.010423f,-0.222574f,-0.199779f,0.171596f,0.223697f,0.019347f,0.209858f,0.024814f,0.063139f,-0.031296f,-0.050122f,0.015655f,0.148050f,-0.013580f,-0.110159f,0.236938f,-0.008752f,0.017296f,-0.005362f},
  {-0.024195f,0.037050f,-0.136428f,0.110410f,0.009570f,0.130901f,0.107228f,-0.018249f,0.119857f,0.009579f,0.083865f,0.046734f,-0.154823f,0.000614f,0.139460f,-0.075480f,-0.154781f,0.100199f,-0.013979f,-0.080806f,-0.065926f,-0.211954f,-0.000327f,-0.011941f,-0.280345f,0.012276f,0.026364f,-0.260734f,-0.025872f,0.122926f,0.330841f,-0.061620f,0.080770f,0.027805f,-0.030819f,-0.012056f,0.037760f,0.127561f,0.310393f,0.154015f,0.142593f,-0.008960f,-0.045525f,0.200548f,0.048989f,-0.023981f,-0.038312f,0.024128f,0.108243f,0.237043f,-0.145303f,-0.085027f,-0.130488f,-0.046264f,-0.066495f,0.081925f,-0.005175f,0.183679f,-0.132752f,0.077654f,0.186578f,-0.083157f,0.001593f,0.000731f},
  {-0.011993f,0.053981f,-0.141299f,0.116752f,0.182247f,-0.031437f,0.068405f,-0.017130f,-0.392156f,-0.038076f,0.083538f,-0.220234f,-0.019923f,0.007273f,0.020043f,-0.003937f,-0.187344f,0.198653f,0.021130f,-0.008920f,-0.085246f,0.060688f,0.118341f,0.065884f,0.250236f,0.074376f,-0.142312f,0.035330f,0.094123f,-0.071246f,0.111383f,-0.011517f,-0.068098f,0.240335f,-0.014273f,0.166711f,-0.005726f,0.099699f,0.146745f,0.045655f,0.032524f,0.022417f,-0.069841f,-0.099302f,-0.193500f,0.002713f,-0.227578f,-0.173163f,0.304374f,-0.155565f,0.226719f,0.074946f,-0.085323f,0.055543f,-0.018747f,-0.058346f,-0.019997f,0.079645f,-0.078988f,-0.041160f,-0.095618f,-0.021010f,0.018008f,-0.006366f},
  {-0.008419f,0.000434f,-0.022679f,0.198357f,0.008062f,0.219795f,-0.090319f,-0.109494f,-0.033285f,0.168715f,-0.207654f,0.104105f,0.004168f,0.001309f,0.113218f,-0.043088f,0.113337f,-0.145069f,0.019054f,0.089849f,-0.033443f,0.230787f,-0.100163f,0.154032f,0.172616f,-0.082176f,0.095374f,0.308829f,0.242418f,-0.095795f,0.129105f,-0.018742f,-0.218977f,0.147032f,0.005377f,-0.285377f,0.003665f,-0.101186f,0.160749f,-0.035795f,0.233965f,0.011972f,-0.049369f,-0.014515f,0.010980f,0.278369f,0.023684f,-0.085692f,-0.097964f,0.057503f,-0.166690f,-0.187501f,-0.336688f,-0.258447f,-0.016007f,0.223418f,0.029022f,-0.123437f,-0.381932f,0.051877f,0.057830f,-0.005336f,0.004326f,-0.014102f},
  {-0.013551f,-0.057482f,0.013039f,-0.055917f,-0.026289f,0.052291f,-0.054290f,0.039118f,0.023980f,-0.006223f,-0.017804f,0.020841f,0.055050f,-0.022913f,0.041268f,-0.033947f,-0.027614f,-0.013314f,-0.029159f,-0.100400f,-0.013017f,-0.023718f,0.025692f,0.021805f,0.056861f,-0.077919f,0.065705f,0.046778f,0.067293f,0.093917f,0.058430f,-0.015255f,0.111791f,-0.022922f,-0.031880f,-0.036596f,0.043614f,0.060663f,-0.039740f,0.077087f,-0.017208f,-0.002988f,-0.085224f,0.113009f,0.061091f,0.011560f,-0.017196f,-0.025767f,-0.090457f,0.001066f,-0.030317f,-0.036451f,0.088058f,0.027216f,0.006098f,-0.032288f,-0.033658f,0.112869f,0.024603f,0.090211f,-0.087202f,0.022462f,0.025258f,-0.015080f},
  {-0.006770f,0.008856f,0.062336f,-0.026938f,0.006727f,-0.072507f,-0.029971f,0.018251f,0.044697f,-0.014150f,0.077453f,-0.021657f,-0.005313f,-0.023144f,-0.010683f,-0.084551f,0.087193f,-0.056127f,0.018976f,-0.067881f,0.025718f,0.048655f,0.006365f,-0.031211f,-0.042396f,-0.020965f,0.093068f,-0.050166f,0.054100f,-0.014736f,0.035048f,-0.018945f,0.086544f,-0.022126f,-0.021345f,-0.060445f,-0.001847f,-0.033627f,0.008847f,0.010658f,-0.032857f,-0.004525f,0.168072f,0.052360f,0.034347f,-0.043652f,-0.080451f,0.019551f,-0.041348f,0.047033f,-0.018862f,0.005847f,-0.025264f,0.009377f,-0.033681f,0.074329f,0.026845f,0.134657f,-0.011357f,0.068260f,-0.082223f,-0.034227f,-0.024428f,0.016182f},
  {-0.044617f,0.021228f,0.008145f,-0.038258f,-0.218263f,0.083956f,-0.134430f,0.091989f,0.027436f,0.002792f,0.191233f,-0.178973f,-0.024538f,-0.041070f,-0.129514f,-0.074095f,0.064371f,0.053487f,-0.010659f,-0.001629f,-0.027061f,-0.114231f,0.049917f,0.179900f,0.042465f,0.012596f,-0.031223f,0.063509f,0.021304f,-0.239295f,0.103631f,-0.024714f,-0.075553f,0.097308f,0.000448f,-0.074107f,0.100120f,0.044677f,0.011287f,0.037812f,-0.028668f,0.003037f,0.130328f,-0.034600f,0.137432f,-0.047406f,0.005251f,0.048241f,-0.069679f,-0.029048f,0.057884f,0.144226f,-0.112646f,-0.040621f,-0.018976f,-0.056915f,-0.023953f,0.070518f,-0.093432f,0.161780f,0.107583f,-0.053947f,0.001726f,-0.002143f},
  {-0.007684f,-0.050959f,-0.021002f,0.063313f,-0.093980f,0.128535f,-0.067797f,-0.106863f,0.062306f,-0.107129f,-0.207277f,0.111550f,0.054209f,-0.043924f,-0.055613f,-0.023915f,-0.210671f,0.030246f,-0.025203f,0.164547f,-0.031923f,-0.049238f,-0.266625f,0.149781f,-0.172755f,-0.003442f,-0.040603f,0.091639f,0.136564f,0.068859f,0.168099f,-0.028772f,-0.098656f,0.006684f,0.003790f,0.071821f,-0.155113f,-0.071148f,0.283388f,0.224437f,0.120901f,-0.070785f,-0.039465f,-0.112464f,-0.037676f,0.208533f,-0.056761f,0.068137f,0.248227f,0.202418f,0.003137f,0.059454f,-0.127361f,0.023272f,-0.012692f,0.051725f,-0.006595f,0.069417f,-0.084499f,0.112804f,-0.179096f,-0.031937f,-0.024485f,-0.022730f},
  {-0.035060f,-0.019632f,-0.152697f,0.116244f,0.045211f,-0.037438f,-0.009449f,0.195009f,-0.143422f,-0.034178f,0.082866f,-0.292522f,0.258068f,-0.019300f,0.174813f,0.117399f,-0.030021f,0.064868f,-0.015317f,-0.044739f,-0.059620f,0.113688f,-0.036198f,0.080090f,-0.048537f,-0.026910f,0.001440f,0.262810f,-0.052951f,-0.036133f,0.149599f,0.013768f,-0.322462f,0.256927f,0.004547f,0.181529f,-0.176976f,-0.068672f,0.314201f,0.088615f,0.122542f,-0.024465f,0.024588f,0.048987f,-0.238614f,0.040180f,-0.064666f,0.011901f,0.383837f,-0.012665f,0.130133f,0.042057f,-0.198048f,-0.100259f,-0.019166f,-0.077075f,-0.037071f,-0.029390f,-0.292382f,0.029617f,-0.035745f,-0.059641f,0.011596f,-0.015359f},
  {0.019130f,-0.078218f,-0.089204f,0.037109f,0.030532f,0.154397f,-0.201651f,-0.307088f,-0.281203f,0.150626f,-0.069097f,-0.107597f,-0.136038f,-0.000211f,0.298403f,-0.066586f,-0.005778f,-0.048855f,0.025463f,0.003560f,-0.016778f,0.099801f,-0.122143f,-0.050830f,-0.024428f,0.008944f,0.118673f,-0.114396f,0.005077f,-0.047077f,0.004143f,-0.005950f,-0.001558f,0.150772f,-0.035790f,-0.242838f,-0.081447f,-0.042729f,0.244592f,0.142066f,-0.055215f,-0.007756f,-0.047136f,-0.044796f,0.037274f,0.156933f,-0.117055f,0.128883f,0.229592f,0.037285f,-0.285638f,-0.160643f,-0.171634f,0.035793f,-0.001748f,0.352566f,-0.022980f,0.007365f,-0.124766f,-0.070400f,0.152663f,-0.050380f,-0.018410f,-0.015170f},
  {-0.026657f,-0.055311f,0.053384f,0.204800f,0.043644f,0.237351f,0.144473f,-0.175001f,-0.458545f,-0.153837f,-0.050074f,0.071655f,-0.335640f,0.019820f,-0.027958f,0.230335f,0.050192f,-0.135086f,0.011492f,-0.136566f,-0.013381f,-0.169491f,-0.230018f,0.254818f,0.264023f,0.058341f,0.072591f,-0.179840f,0.164854f,0.187676f,-0.112221f,-0.004920f,-0.098328f,-0.099832f,-0.029734f,-0.170474f,-0.032841f,-0.222128f,-0.065857f,-0.075100f,0.009627f,0.014167f,0.019315f,-0.206083f,-0.003248f,0.224988f,0.327823f,0.044558f,0.007254f,-0.012731f,-0.186978f,-0.037079f,-0.085628f,-0.105590f,0.005534f,0.226353f,-0.002865f,-0.151105f,0.011185f,0.346466f,0.162319f,-0.004784f,-0.009532f,-0.012008f},
  {-0.044713f,0.000921f,0.009794f,-0.194598f,0.004125f,0.027196f,0.134727f,-0.111795f,0.027076f,-0.063363f,0.057381f,0.052739f,-0.208950f,-0.012604f,-0.068092f,-0.007392f,0.103292f,0.008466f,0.015597f,-0.081860f,0.037391f,-0.064303f,0.062374f,0.077607f,-0.158748f,-0.027993f,0.097650f,-0.177442f,-0.137431f,0.041760f,-0.023004f,-0.007276f,0.139302f,-0.058183f,-0.023933f,-0.092808f,0.022506f,0.081563f,-0.057610f,0.105857f,-0.155122f,0.006952f,-0.143318f,-0.002948f,0.238424f,-0.125194f,0.104095f,-0.002810f,-0.031967f,0.069507f,-0.036969f,0.008243f,0.005079f,0.048079f,0.001272f,0.026463f,0.021467f,0.144432f,0.209327f,0.041757f,0.168424f,-0.027720f,0.013540f,-0.009984f},
  {0.021431f,-0.000024f,-0.004577f,0.037913f,0.002089f,0.066257f,-0.074662f,-0.024337f,0.096565f,-0.047645f,-0.010727f,0.015740f,-0.139010f,0.008237f,0.098844f,-0.119967f,-0.034690f,-0.048300f,0.011869f,-0.032947f,0.005388f,0.091480f,-0.004092f,0.064297f,-0.050719f,-0.050130f,0.001170f,-0.055364f,0.097398f,0.039288f,0.050066f,-0.027512f,0.122287f,-0.068250f,-0.030534f,-0.036035f,0.025447f,0.059492f,0.106554f,0.021941f,0.042852f,0.001904f,0.155560f,0.000309f,0.002732f,-0.041044f,-0.007168f,0.089539f,0.109852f,0.011113f,0.029887f,-0.022477f,-0.005943f,-0.002793f,0.026160f,0.118992f,0.024536f,0.213933f,-0.106782f,0.015899f,0.089311f,0.003704f,-0.023905f,0.010586f},
  {-0.046846f,0.081129f,-0.017010f,-0.053423f,0.005788f,-0.141574f,-0.016544f,-0.004214f,0.198109f,0.014754f,0.145756f,0.113846f,-0.065245f,-0.022864f,-0.051607f,-0.046502f,0.073534f,0.021558f,-0.033349f,-0.150142f,-0.044575f,0.052082f,0.053985f,0.026810f,-0.129959f,0.123687f,-0.128402f,-0.163624f,0.107440f,-0.162318f,0.288952f,-0.035485f,0.029963f,0.015854f,-0.000663f,0.050289f,0.049885f,-0.045321f,0.169154f,-0.117443f,0.088033f,-0.018351f,-0.050235f,-0.005433f,-0.082037f,-0.108235f,-0.082558f,-0.051928f,-0.088948f,0.243401f,-0.114544f,0.090468f,-0.085804f,-0.018704f,-0.034022f,-0.217783f,-0.009432f,0.117261f,0.073805f,-0.056047f,-0.098891f,-0.027121f,-0.015442f,0.003785f},
  {0.013849f,0.065734f,0.170070f,0.080203f,0.026925f,0.123581f,-0.292720f,0.010500f,0.212847f,0.224518f,-0.063333f,0.038903f,-0.143461f,0.023454f,-0.045547f,-0.004711f,0.039479f,-0.125981f,0.005328f,0.015755f,0.064980f,0.005553f,-0.012485f,0.000917f,0.058907f,0.100126f,0.035210f,-0.033925f,0.333873f,-0.243429f,0.318516f,-0.038929f,-0.035762f,-0.049961f,-0.026821f,-0.073781f,-0.067886f,0.060846f,0.251375f,0.140130f,0.251596f,-0.007873f,0.107233f,0.098831f,0.192776f,0.221912f,0.046741f,-0.104805f,0.147339f,0.236972f,-0.250678f,-0.003874f,-0.374213f,-0.304802f,-0.019087f,0.091257f,-0.006078f,0.056293f,-0.046174f,0.048135f,-0.227466f,-0.011173f,-0.026091f,-0.004812f},
  {-0.047249f,-0.036257f,-0.037918f,-0.184867f,0.023778f,-0.109838f,-0.023237f,0.208945f,0.055279f,-0.066366f,-0.062825f,-0.057592f,0.147197f,-0.044656f,-0.032836f,0.132567f,-0.111567f,-0.037593f,0.019433f,-0.068903f,0.011518f,-0.000348f,-0.010009f,0.049554f,0.076005f,0.109822f,0.018993f,0.123474f,-0.228472f,0.001563f,0.259739f,0.050590f,-0.078862f,-0.046879f,0.004000f,0.144265f,0.092919f,-0.237885f,-0.012758f,-0.018206f,-0.043953f,-0.033957f,-0.050614f,-0.070994f,-0.074467f,0.002701f,-0.120977f,0.126589f,0.006166f,0.055295f,0.009963f,0.131593f,-0.069219f,0.056702f,-0.047045f,-0.112596f,-0.037779f,-0.029265f,-0.005732f,-0.020764f,0.034070f,-0.038945f,-0.018553f,0.014835f},
  {0.008717f,0.084216f,-0.125641f,-0.014888f,0.224991f,-0.079201f,-0.104677f,-0.030885f,0.046224f,-0.029353f,-0.144763f,-0.042314f,-0.225145f,-0.020582f,0.093204f,0.054806f,-0.274060f,0.009431f,-0.025246f,0.102151f,-0.013842f,-0.151736f,-0.268110f,0.031881f,-0.149824f,0.055897f,0.075397f,-0.110714f,0.078273f,0.117885f,0.141937f,-0.024946f,-0.000852f,-0.042674f,-0.005224f,0.084290f,-0.015278f,-0.015924f,0.103654f,-0.144152f,0.127475f,0.012403f,0.097320f,-0.093518f,-0.061992f,-0.060324f,-0.041956f,0.181851f,-0.067629f,0.029413f,-0.226646f,0.018036f,-0.132015f,0.048515f,-0.035497f,0.124443f,-0.020128f,-0.061213f,0.049050f,-0.008928f,-0.253555f,0.059661f,0.014918f,0.000941f},
  {-0.022976f,0.031830f,-0.078174f,-0.057416f,0.236911f,-0.175396f,0.220770f,-0.239047f,-0.048552f,-0.100370f,0.079449f,0.106613f,-0.234357f,-0.040521f,0.162544f,0.157770f,-0.062645f,-0.104660f,0.009602f,-0.019632f,-0.019466f,-0.176531f,-0.200316f,0.031375f,0.035713f,0.111219f,-0.043698f,-0.205873f,0.024054f,0.084683f,0.085507f,-0.027636f,-0.003392f,-0.085777f,-0.000118f,-0.073026f,-0.016323f,-0.152923f,0.027455f,-0.034358f,-0.191111f,-0.010938f,0.181848f,-0.356092f,0.109410f,-0.069400f,0.104130f,0.156020f,-0.064517f,0.023793f,-0.111475f,-0.019858f,-0.212185f,0.055465f,0.007245f,0.034582f,-0.041056f,0.061903f,0.131720f,0.197643f,0.041969f,-0.005064f,0.017596f,-0.034816f},
  {-0.006640f,-0.040018f,-0.195403f,-0.015458f,-0.058843f,0.002161f,-0.073407f,0.070255f,0.150851f,-0.046502f,-0.030025f,0.077371f,0.055431f,-0.011266f,0.291777f,0.114202f,-0.043621f,0.165857f,-0.040719f,0.139695f,0.032374f,-0.108649f,-0.076187f,-0.098065f,-0.084297f,-0.082529f,0.019966f,0.052068f,-0.072995f,0.003407f,0.028430f,-0.021298f,-0.014316f,0.044778f,-0.032807f,0.018056f,0.200422f,0.136390f,-0.068261f,0.112033f,0.090964f,-0.023026f,-0.119133f,0.130930f,-0.040878f,-0.162490f,-0.120497f,-0.005785f,0.011934f,0.013384f,0.091202f,-0.009098f,0.096433f,-0.000814f,-0.032714f,-0.018314f,-0.000078f,0.111305f,0.020561f,-0.109858f,0.030171f,-0.026692f,0.019963f,0.019336f},
  {-0.019131f,-0.015572f,0.030445f,-0.138216f,0.014432f,-0.073837f,-0.004341f,-0.024529f,0.090447f,-0.058608f,0.137210f,0.141350f,-0.035986f,-0.031816f,0.058717f,0.063272f,0.075587f,-0.052626f,0.005164f,-0.024498f,0.037845f,0.030127f,-0.016311f,-0.067335f,0.001430f,-0.141986f,-0.027069f,-0.009949f,0.013085f,0.115933f,0.081715f,0.010212f,0.115922f,-0.072826f,-0.014722f,0.005236f,0.032368f,0.083225f,-0.007540f,-0.013208f,0.043168f,-0.021778f,0.148418f,0.143067f,0.090867f,-0.071731f,-0.070831f,-0.027961f,0.054098f,0.171888f,0.075286f,-0.004508f,0.051660f,0.012459f,-0.039247f,-0.127972f,0.005848f,0.070067f,0.065149f,-0.050963f,-0.112562f,-0.039931f,0.004861f,-0.031849f},
  {-0.009096f,-0.026394f,0.054069f,0.063650f,0.201723f,-0.057920f,0.082247f,-0.261828f,0.037971f,0.075611f,0.053195f,0.262768f,-0.027679f,-0.012344f,-0.135994f,0.055384f,0.111042f,-0.220729f,-0.035735f,-0.120043f,-0.035672f,0.102475f,0.155137f,0.005121f,-0.351195f,0.237651f,0.045146f,-0.125876f,0.110266f,-0.148227f,0.115277f,-0.041978f,0.052727f,0.096913f,-0.026146f,-0.133595f,-0.012732f,-0.213097f,0.029707f,0.044872f,-0.141419f,-0.022816f,-0.037999f,-0.114861f,0.191974f,-0.068641f,0.011634f,0.044032f,-0.031056f,0.037128f,-0.262394f,-0.044956f,-0.126052f,0.082816f,0.022720f,0.026253f,0.004175f,-0.028010f,-0.004931f,-0.027909f,0.184565f,-0.013234f,0.028303f,-0.021029f},
  {-0.013490f,0.010362f,-0.072725f,-0.082861f,0.104823f,0.113097f,-0.204452f,0.101981f,-0.088846f,0.046263f,-0.121828f,-0.118576f,0.019313f,0.027224f,0.024025f,0.213697f,0.008141f,-0.140438f,-0.011899f,0.020833f,0.033152f,0.051817f,-0.013088f,-0.096691f,-0.152803f,-0.064625f,0.106493f,-0.016820f,0.329319f,-0.102839f,-0.047926f,0.005401f,0.016842f,-0.184124f,0.010491f,-0.029059f,-0.208465f,-0.135356f,-0.001048f,-0.068765f,0.103349f,-0.068270f,0.211700f,0.050337f,0.156631f,0.036177f,0.164008f,0.045787f,0.105622f,0.139497f,-0.068922f,-0.135605f,-0.130393f,-0.073330f,0.006766f,0.064577f,-0.009105f,-0.139053f,-0.051769f,0.162493f,0.253999f,-0.072614f,-0.004170f,0.012357f},
  {-0.021251f,-0.041284f,-0.122489f,-0.291464f,0.082905f,-0.085702f,-0.148956f,0.144649f,-0.116854f,-0.071386f,0.151788f,-0.115519f,0.064315f,-0.000090f,-0.106307f,0.326384f,-0.013601f,-0.269310f,0.005667f,-0.139690f,0.048192f,0.186024f,0.092827f,0.073741f,-0.068249f,0.043774f,0.160069f,0.082453f,-0.084335f,-0.082498f,0.076693f,0.025340f,-0.080469f,0.052691f,0.001943f,0.019704f,-0.247294f,-0.180454f,0.091576f,-0.287929f,-0.085087f,-0.050721f,-0.002670f,-0.131221f,-0.057631f,0.022224f,0.107807f,0.006710f,0.052218f,0.105473f,0.164039f,0.006033f,-0.040749f,0.219862f,-0.060668f,-0.162072f,-0.015003f,-0.105172f,-0.054599f,0.133761f,0.071966f,-0.023647f,-0.025682f,-0.033603f},
  {-0.046681f,-0.028903f,-0.093053f,-0.140865f,0.205681f,-0.098336f,-0.054086f,0.014131f,-0.192486f,0.042465f,0.002336f,-0.153206f,-0.088222f,0.002060f,-0.036918f,0.055705f,-0.173274f,-0.016246f,-0.060664f,0.089790f,-0.068918f,-0.076500f,0.041645f,0.095393f,-0.080671f,0.059103f,-0.053448f,-0.142189f,0.008055f,0.127154f,0.097218f,-0.021133f,-0.087511f,0.002279f,-0.039281f,0.183663f,-0.131952f,0.087750f,0.034479f,-0.072515f,-0.026465f,-0.007418f,0.131108f,-0.027342f,-0.041486f,-0.114295f,-0.100974f,0.040675f,0.147260f,0.182120f,0.158261f,0.203132f,0.099006f,0.253508f,0.005291f,-0.086717f,0.020367f,0.067996f,0.095786f,0.026921f,-0.025208f,-0.006031f,-0.008140f,0.022035f},
  {-0.018340f,0.024615f,0.043334f,-0.058491f,0.189304f,0.082476f,-0.061265f,0.009094f,-0.011124f,-0.059878f,0.101750f,-0.005168f,-0.006389f,-0.010269f,0.265515f,0.105040f,-0.049788f,-0.020742f,-0.043212f,-0.006180f,0.011490f,-0.149220f,-0.008181f,-0.120089f,0.105660f,-0.076553f,0.062801f,-0.031016f,0.006647f,0.179369f,-0.008369f,-0.037106f,-0.000307f,0.071647f,-0.028863f,0.005484f,-0.106522f,0.022760f,0.039860f,-0.011906f,0.006132f,0.006299f,-0.028363f,0.069396f,-0.100373f,-0.070066f,0.147328f,0.016802f,-0.125523f,0.016697f,0.082145f,-0.019250f,0.114684f,0.177459f,-0.039206f,0.012071f,-0.021620f,0.036590f,0.020803f,0.249089f,-0.116003f,-0.052203f,0.004341f,-0.036603f},
  {-0.024057f,-0.055739f,0.007219f,-0.018692f,0.155328f,0.025116f,0.214175f,0.033837f,-0.096693f,0.068121f,0.044307f,0.035563f,0.050805f,0.028174f,-0.125675f,0.092968f,-0.031051f,-0.008954f,-0.013757f,-0.063793f,0.014070f,0.062665f,-0.024837f,0.134617f,0.086290f,0.135501f,0.089360f,0.055944f,-0.001249f,0.068749f,-0.134158f,-0.018604f,0.095949f,0.147219f,-0.039548f,0.080273f,-0.182728f,-0.043118f,-0.024235f,-0.092819f,-0.053606f,0.015256f,-0.183406f,-0.083995f,-0.081777f,0.052343f,-0.070331f,-0.012905f,-0.046061f,-0.004954f,0.044726f,0.020241f,0.245060f,-0.003171f,-0.020889f,-0.053801f,-0.032181f,-0.115148f,0.087319f,0.155236f,-0.204918f,-0.004855f,0.026947f,0.005022f},
  {-0.024898f,0.010791f,-0.063280f,-0.062463f,-0.021654f,-0.038559f,-0.001965f,0.036355f,0.096434f,-0.029174f,0.213202f,0.088694f,0.014799f,0.013855f,0.037990f,0.107333f,0.041997f,0.029454f,0.003469f,-0.002797f,0.006530f,-0.055152f,-0.032861f,-0.019996f,-0.023540f,-0.079588f,-0.007413f,-0.036967f,0.104331f,-0.009501f,0.037575f,-0.028533f,0.058953f,-0.001678f,-0.005704f,-0.000644f,0.123093f,0.035217f,0.012645f,0.060576f,0.021818f,-0.019764f,0.154726f,0.083115f,0.053618f,-0.004178f,-0.121116f,0.002773f,-0.064843f,0.093685f,0.070220f,0.048471f,-0.039743f,-0.002244f,-0.024834f,-0.083849f,-0.006373f,0.047539f,-0.016146f,-0.026254f,-0.058783f,-0.024185f,-0.004689f,-0.028113f},
  {-0.031631f,-0.002225f,0.031240f,0.004670f,-0.026842f,0.142506f,0.043984f,-0.028996f,-0.002166f,0.019999f,0.099861f,-0.004890f,0.083911f,0.014053f,0.224951f,0.081433f,-0.020684f,-0.045352f,-0.026824f,0.036072f,0.005290f,0.036623f,-0.031936f,-0.038462f,-0.066974f,-0.175532f,0.146611f,0.192580f,0.152837f,0.140424f,0.091291f,-0.048819f,-0.050444f,0.025732f,-0.021062f,-0.069530f,0.173831f,0.145272f,-0.051122f,0.074540f,0.370555f,-0.020682f,-0.001835f,0.143438f,-0.103581f,0.050101f,-0.064972f,-0.005617f,-0.160795f,0.152756f,0.020357f,-0.077667f,-0.132242f,0.011829f,-0.037148f,-0.034689f,-0.003003f,0.164690f,-0.230353f,0.030458f,0.059621f,0.024821f,-0.025775f,-0.036254f},
  {-0.032564f,0.030212f,-0.118348f,-0.042230f,-0.102300f,0.086546f,-0.005634f,0.025832f,-0.132438f,0.245568f,0.032358f,-0.130404f,0.260580f,0.019682f,0.050237f,0.041289f,0.192594f,-0.147786f,-0.033693f,0.057193f,0.054712f,0.143159f,0.175241f,0.042520f,0.217021f,-0.208997f,0.198228f,0.064320f,0.173206f,-0.119080f,0.043604f,-0.030497f,0.006004f,0.004660f,-0.010398f,-0.157276f,-0.137537f,-0.130398f,0.121849f,0.037582f,0.311381f,-0.045004f,0.146488f,0.100161f,0.095126f,0.125358f,0.151103f,0.118235f,0.087477f,0.017500f,0.010276f,-0.157541f,-0.013251f,-0.112804f,-0.018033f,0.103776f,-0.013502f,0.015616f,-0.188610f,0.283484f,0.232804f,-0.026805f,-0.034970f,0.023168f},
  {-0.005865f,-0.022438f,0.066911f,0.105485f,0.157989f,-0.056061f,0.133237f,-0.123962f,0.071495f,-0.022835f,0.033551f,-0.033280f,-0.079297f,-0.021052f,0.020144f,0.118332f,-0.092740f,-0.171095f,-0.007171f,-0.152958f,0.019756f,0.049631f,-0.174775f,0.198473f,0.101852f,0.140931f,0.132955f,-0.034511f,0.000225f,0.170652f,-0.099155f,0.017569f,0.020405f,-0.022705f,-0.021107f,-0.037715f,-0.590250f,0.035002f,0.016935f,-0.075693f,0.019939f,0.022684f,-0.012062f,-0.109774f,0.106135f,0.231053f,0.031545f,0.157526f,0.055146f,-0.052664f,-0.118818f,-0.174480f,0.095934f,0.138625f,-0.014623f,0.094338f,-0.014833f,-0.212819f,-0.030516f,0.065098f,0.044038f,-0.031170f,-0.014704f,-0.011567f},
  {0.023591f,-0.009735f,0.008389f,0.137371f,0.422382f,-0.032015f,0.091273f,-0.083176f,-0.013942f,-0.059989f,-0.298011f,-0.054652f,-0.078897f,-0.048407f,0.049084f,-0.072313f,-0.368933f,0.002523f,0.007653f,0.019638f,-0.038522f,0.048143f,-0.209621f,0.153436f,0.016609f,0.458339f,-0.215977f,-0.005450f,-0.091589f,0.120505f,0.012733f,0.022367f,0.012731f,0.032114f,0.003426f,0.263199f,-0.652725f,-0.022063f,-0.021788f,-0.073309f,-0.108899f,0.031415f,-0.034454f,-0.166679f,-0.126524f,-0.054385f,-0.075721f,0.128706f,0.148999f,-0.317618f,0.019954f,0.068303f,0.068346f,0.415005f,0.024638f,0.095940f,-0.043632f,-0.151522f,0.095148f,-0.061872f,0.127276f,0.005823f,0.016317f,-0.039477f},
  {-0.017518f,-0.026599f,0.078176f,0.114034f,0.151034f,0.186722f,0.038865f,-0.135766f,0.058562f,0.136908f,-0.203374f,-0.217747f,0.010978f,0.004798f,0.056234f,0.097741f,-0.097864f,0.224348f,-0.050371f,0.054832f,-0.047437f,-0.058831f,-0.027021f,0.055906f,0.020557f,0.404388f,-0.014354f,-0.160427f,-0.142668f,0.230241f,-0.136841f,0.014020f,-0.026522f,0.122739f,-0.049459f,0.135669f,-0.069695f,-0.011248f,-0.098930f,-0.008597f,-0.206311f,-0.029839f,0.134384f,-0.161485f,-0.086115f,-0.011094f,0.195004f,0.139157f,0.066391f,-0.470369f,-0.248207f,0.164728f,0.273288f,0.217199f,-0.036453f,0.146476f,-0.034677f,-0.148542f,0.136673f,0.101855f,0.101476f,-0.033520f,0.007384f,-0.007951f},
  {-0.036459f,-0.007772f,-0.067483f,0.014915f,0.150899f,-0.198363f,0.171173f,0.181210f,0.083137f,0.001731f,0.159448f,-0.028278f,0.212865f,-0.006735f,-0.144411f,0.030743f,-0.208899f,0.258910f,-0.009042f,-0.051439f,0.014605f,0.106979f,-0.015979f,0.078074f,0.116649f,0.091998f,0.034364f,0.018350f,-0.002632f,-0.047549f,-0.054230f,-0.022032f,-0.135846f,0.027565f,-0.022080f,0.278562f,-0.185674f,-0.003804f,0.120548f,-0.024140f,-0.201307f,0.034559f,0.030613f,-0.027016f,-0.041482f,-0.135978f,-0.307698f,0.036623f,0.048387f,0.054088f,0.063952f,0.252522f,0.140583f,-0.058148f,-0.032297f,-0.235095f,0.024030f,0.114351f,0.127060f,0.043475f,-0.238676f,-0.018772f,0.022879f,-0.028005f},
  {-0.037362f,-0.095821f,0.017630f,-0.085146f,-0.019907f,0.051786f,-0.049518f,0.021162f,0.079554f,0.005113f,0.063962f,0.101104f,0.010074f,-0.027693f,-0.013333f,-0.002116f,0.034491f,-0.046178f,0.022853f,-0.091009f,-0.020081f,-0.007569f,0.069908f,0.034918f,0.007737f,-0.023235f,0.084375f,0.019481f,0.052379f,0.071946f,0.015036f,-0.018223f,0.090154f,-0.032747f,0.003216f,0.029526f,0.030691f,0.010951f,-0.090886f,-0.005247f,-0.025359f,-0.030035f,-0.024645f,0.100848f,0.059040f,-0.028699f,0.019913f,0.038969f,-0.184897f,0.104687f,0.020449f,0.002393f,0.070422f,-0.030188f,-0.015758f,-0.082953f,-0.042343f,0.090914f,0.050278f,0.028541f,-0.082257f,-0.068131f,-0.005791f,-0.040504f},
  {-0.032151f,0.005809f,-0.103337f,-0.035202f,-0.020552f,0.122439f,0.046459f,-0.201023f,-0.011267f,0.176993f,-0.114934f,0.016118f,-0.203082f,-0.026508f,0.052040f,-0.166745f,0.118977f,-0.086389f,0.013582f,0.275663f,-0.033844f,0.083613f,0.004719f,0.045888f,0.036962f,-0.021623f,-0.036264f,0.061402f,-0.063840f,-0.014385f,0.080229f,-0.012382f,-0.084921f,-0.069280f,0.003887f,-0.076957f,-0.113164f,0.037947f,0.254331f,0.021672f,0.165301f,0.026416f,0.073697f,-0.170747f,0.068163f,0.211171f,0.125674f,0.061323f,0.187405f,-0.103018f,-0.123188f,-0.022549f,-0.242894f,0.088811f,0.027749f,0.442641f,0.024019f,-0.129509f,-0.157153f,0.156153f,0.206641f,0.012368f,0.013368f,-0.033074f},
  {-0.045072f,0.122580f,0.070519f,0.051348f,0.281309f,-0.056498f,0.295668f,-0.100714f,-0.020355f,-0.222971f,-0.047341f,0.033789f,-0.362618f,-0.011411f,0.048572f,0.115160f,-0.076724f,0.024747f,0.026114f,0.170359f,-0.033655f,0.047788f,-0.210494f,0.153963f,0.234644f,0.163092f,-0.066145f,-0.052780f,-0.029910f,0.378113f,-0.052579f,0.021166f,0.067577f,-0.074646f,-0.037797f,0.095456f,-0.214064f,-0.346156f,-0.045019f,-0.116392f,-0.128572f,-0.030494f,0.113123f,-0.151948f,0.129429f,0.137439f,0.035140f,0.231057f,-0.104150f,-0.253086f,-0.188151f,-0.264434f,0.128897f,0.086538f,-0.002049f,0.139492f,-0.002608f,-0.129868f,0.103232f,0.169289f,0.155671f,-0.012143f,-0.018860f,-0.030824f},
  {0.021962f,-0.056985f,0.033174f,0.027962f,0.320551f,-0.067114f,0.353709f,-0.180667f,-0.114045f,0.078271f,0.031278f,0.091990f,-0.173741f,-0.024385f,-0.163673f,0.078287f,-0.095218f,-0.118750f,0.001427f,-0.186997f,0.011678f,0.063416f,-0.268431f,0.274255f,0.119007f,0.466623f,-0.207227f,-0.064702f,-0.049428f,-0.026711f,-0.094073f,0.022022f,-0.057487f,0.000633f,-0.041731f,0.044102f,-0.544640f,-0.080660f,0.093019f,-0.052876f,-0.028567f,0.018562f,-0.163986f,-0.316486f,0.145737f,0.208096f,-0.144021f,0.056524f,0.106224f,-0.177876f,-0.098372f,0.083997f,0.074046f,0.089752f,0.001757f,0.143170f,-0.023768f,-0.327429f,0.129971f,0.019896f,0.139913f,0.002545f,-0.024275f,-0.016416f},
  {-0.008301f,0.000225f,0.195118f,0.103817f,0.121741f,0.104292f,-0.002760f,0.111820f,0.032499f,0.088813f,-0.146992f,0.019874f,0.112787f,-0.028735f,0.017445f,-0.045379f,0.020044f,-0.104556f,-0.009692f,-0.066428f,-0.056998f,0.246119f,0.110574f,0.031241f,-0.091774f,0.368407f,-0.311414f,-0.003327f,0.012720f,-0.033550f,-0.071796f,-0.020963f,-0.092127f,0.099396f,-0.055354f,0.035940f,-0.347433f,-0.090721f,-0.055426f,0.087289f,-0.211411f,0.002095f,0.012878f,-0.065030f,0.016646f,0.044884f,-0.007182f,-0.209647f,0.028104f,-0.440416f,0.094462f,-0.048518f,0.015349f,0.003002f,0.012790f,-0.007422f,0.021930f,-0.276216f,0.127488f,-0.095927f,0.160622f,-0.051790f,0.007959f,0.020001f},
  {-0.029668f,-0.012283f,0.142980f,0.025445f,0.143442f,-0.051691f,0.209328f,0.100583f,0.134634f,0.252092f,-0.057892f,0.030127f,0.123286f,0.018007f,-0.089992f,0.204182f,-0.032968f,0.042251f,0.019158f,0.030171f,-0.063129f,-0.083117f,-0.173865f,-0.198876f,-0.017755f,0.153206f,0.084640f,0.091836f,0.214027f,0.014329f,0.029834f,-0.004533f,0.109681f,-0.136506f,-0.026796f,0.100767f,0.004999f,0.108232f,0.130658f,-0.094282f,-0.032349f,-0.030113f,0.152444f,0.048559f,0.126417f,-0.041884f,-0.086204f,0.184198f,-0.040810f,-0.097505f,-0.120640f,0.054763f,0.101808f,0.042194f,-0.002891f,-0.032441f,0.027765f,-0.145794f,0.027460f,-0.108362f,-0.017114f,-0.040680f,0.029066f,-0.031247f},
  {-0.036614f,-0.006766f,-0.030985f,0.071150f,0.093380f,-0.099855f,0.038109f,0.136494f,0.082390f,0.011273f,0.090700f,0.038099f,0.070529f,-0.029819f,0.018567f,0.003786f,-0.098297f,0.108624f,0.012816f,-0.057157f,0.008206f,-0.061247f,-0.015856f,0.063988f,-0.029521f,-0.032621f,-0.012710f,-0.012898f,0.053706f,0.068395f,0.010548f,-0.036105f,-0.043943f,-0.011091f,-0.034776f,0.146882f,-0.031748f,0.026296f,0.030189f,0.018256f,-0.014105f,0.011326f,0.015817f,0.034868f,-0.029135f,-0.035178f,-0.133894f,0.052804f,-0.044812f,0.106461f,0.040431f,0.135601f,0.009935f,-0.077841f,0.016720f,-0.164899f,-0.010505f,0.019911f,-0.016600f,-0.032429f,-0.100438f,-0.044677f,-0.004062f,0.005728f},
  {-0.001864f,-0.042709f,0.065473f,-0.134781f,0.025505f,0.154958f,0.086185f,-0.085756f,-0.133448f,-0.106049f,-0.029434f,0.114378f,-0.102197f,-0.017891f,-0.103233f,0.119164f,0.029400f,-0.226074f,-0.037703f,-0.021311f,0.033235f,-0.020736f,0.062466f,0.169985f,0.126894f,0.029696f,0.134666f,-0.021435f,0.101486f,0.136580f,-0.023860f,-0.000498f,0.035919f,-0.083707f,-0.024022f,-0.052563f,-0.102629f,-0.026459f,-0.108871f,-0.170930f,-0.044505f,-0.010545f,0.084076f,-0.042021f,0.148303f,0.053670f,0.181962f,-0.036659f,-0.128887f,0.202714f,0.007826f,-0.175173f,-0.033954f,0.150740f,-0.055991f,-0.081161f,-0.011006f,-0.040210f,0.000217f,0.186929f,0.034565f,-0.069252f,0.012718f,-0.024483f},
  {-0.008350f,-0.034177f,-0.049863f,-0.142219f,-0.135937f,0.142546f,-0.014752f,-0.141339f,-0.002362f,0.014643f,0.040860f,-0.020112f,0.006831f,-0.038151f,-0.043039f,-0.013175f,0.195143f,-0.041686f,0.005629f,-0.016324f,-0.005432f,-0.091039f,0.148424f,-0.024929f,-0.066984f,-0.039533f,0.124649f,-0.181578f,-0.041709f,-0.084751f,-0.021983f,0.017759f,0.073676f,-0.152456f,-0.034096f,-0.139104f,0.187133f,0.078732f,0.105529f,0.184690f,-0.056280f,-0.011496f,-0.026801f,0.106655f,0.095644f,-0.129925f,0.162572f,0.085686f,0.011483f,-0.021058f,-0.055728f,0.114464f,-0.096965f,0.081498f,0.020280f,0.055794f,0.000504f,0.204977f,0.018154f,-0.195139f,0.185577f,0.017871f,-0.018208f,-0.024839f},
  {0.000949f,-0.003963f,-0.140072f,-0.037187f,-0.148682f,0.036349f,0.033437f,0.089732f,-0.145299f,0.068329f,0.124559f,0.113071f,0.056643f,0.016927f,-0.182630f,-0.201970f,0.099516f,-0.153749f,0.023154f,-0.010482f,0.050866f,0.031367f,0.085459f,-0.177603f,-0.122151f,-0.126691f,0.107133f,-0.020675f,-0.016381f,-0.295859f,0.045296f,0.000197f,0.090426f,-0.119932f,0.016134f,-0.059406f,-0.036778f,0.102079f,0.243603f,-0.042867f,-0.163074f,-0.014248f,-0.083662f,0.112607f,0.005377f,0.073092f,0.122771f,0.035199f,0.130267f,0.006468f,0.070210f,-0.060988f,-0.125779f,0.250541f,-0.032461f,0.002146f,-0.024738f,0.048270f,-0.127574f,-0.107985f,0.144808f,-0.040687f,0.014253f,-0.016376f},
  {0.019367f,-0.031583f,-0.138038f,-0.005369f,-0.009033f,-0.015778f,0.036675f,0.060523f,-0.002515f,0.081337f,0.163103f,0.119321f,-0.055150f,0.004534f,-0.050104f,-0.123353f,0.047555f,-0.020036f,-0.032115f,-0.011604f,0.017918f,-0.045816f,0.119831f,-0.181181f,-0.010017f,-0.033931f,0.047539f,-0.067173f,-0.038112f,-0.111090f,0.146517f,-0.009699f,0.064744f,0.019329f,-0.013254f,-0.056922f,-0.020222f,0.014312f,0.172575f,-0.005042f,-0.074187f,-0.013741f,-0.190333f,0.078716f,0.016800f,0.087561f,-0.009474f,0.055295f,-0.002986f,0.051302f,0.019807f,-0.045042f,-0.136885f,0.205269f,-0.013574f,-0.003000f,-0.017856f,-0.049398f,0.069603f,-0.058949f,-0.002556f,-0.018410f,0.028020f,-0.017469f},
  {-0.032459f,-0.057572f,0.009882f,0.015458f,-0.028765f,0.064666f,-0.079568f,0.173536f,0.035376f,0.066000f,0.172436f,-0.079199f,-0.112087f,-0.038725f,0.013933f,-0.058419f,0.006876f,0.051162f,0.003167f,0.032795f,-0.033911f,-0.168413f,0.161964f,-0.184218f,0.147394f,-0.022945f,0.035485f,-0.006355f,0.036956f,-0.121265f,0.080159f,-0.009629f,-0.047617f,0.108082f,0.008460f,0.064927f,-0.053537f,-0.017305f,0.039739f,0.023019f,0.068066f,0.024336f,-0.123787f,0.127741f,0.012012f,0.091785f,-0.046236f,0.052968f,-0.074378f,0.099044f,0.147918f,0.062990f,-0.139033f,-0.117990f,-0.042661f,-0.112714f,-0.026005f,-0.015305f,-0.031466f,-0.066520f,-0.014179f,0.025749f,0.024285f,-0.007832f},
  {0.019911f,-0.037600f,0.117649f,0.026252f,-0.065694f,0.042189f,-0.089469f,0.182142f,0.145483f,-0.030324f,0.028881f,-0.003854f,-0.032934f,0.028487f,-0.014425f,0.099510f,-0.007299f,0.113404f,-0.037275f,-0.020047f,-0.063878f,-0.178120f,0.044598f,0.001349f,0.229931f,-0.332914f,0.141366f,0.117740f,0.170082f,-0.010373f,0.057365f,0.027755f,-0.088299f,-0.035719f,-0.041046f,0.116074f,0.077712f,0.080320f,-0.029984f,-0.013425f,0.130891f,-0.007817f,-0.040688f,0.221312f,-0.031311f,0.040558f,-0.053706f,0.026727f,-0.008131f,0.092762f,0.124292f,-0.049802f,-0.071153f,-0.104994f,0.008390f,-0.194897f,0.032651f,0.056664f,-0.153991f,-0.093060f,-0.085116f,-0.024514f,-0.023000f,0.018237f},
  {-0.028638f,0.003409f,0.149066f,-0.000572f,-0.050473f,0.051317f,0.039365f,0.080043f,0.016961f,-0.066650f,-0.008475f,-0.045501f,-0.095019f,-0.016270f,0.043001f,0.020596f,0.033075f,-0.088925f,-0.018578f,0.109809f,-0.016205f,-0.129224f,-0.033764f,0.094635f,0.273788f,-0.043019f,0.090997f,-0.028488f,0.103395f,0.153700f,-0.007985f,-0.012824f,-0.021053f,-0.107419f,-0.032546f,-0.023288f,-0.061497f,-0.055954f,-0.014659f,-0.098300f,0.088676f,-0.024868f,-0.103729f,0.043031f,-0.099736f,0.148450f,0.050616f,0.143872f,-0.082478f,0.043787f,-0.035228f,-0.162755f,-0.043452f,0.044336f,-0.026033f,-0.081126f,0.009260f,-0.141633f,-0.050059f,0.134696f,0.090954f,0.003283f,-0.021880f,0.019387f},
  {0.019292f,0.007577f,-0.071416f,0.016554f,-0.161186f,-0.135314f,0.093351f,-0.011065f,0.007255f,0.144629f,0.016842f,-0.054431f,0.019111f,0.019367f,-0.034216f,-0.023041f,0.081408f,0.067963f,-0.030518f,-0.054453f,0.011373f,0.039222f,-0.053507f,0.038394f,-0.029825f,-0.052624f,0.021697f,0.004924f,0.047963f,0.063379f,-0.044433f,-0.033843f,-0.086218f,0.194263f,0.005790f,-0.113731f,0.035129f,-0.108190f,-0.007489f,0.045746f,-0.087544f,0.011100f,0.108147f,-0.114172f,-0.014362f,-0.158082f,0.019911f,-0.100901f,-0.082652f,-0.080980f,0.162221f,0.102163f,-0.118233f,-0.205612f,0.015329f,-0.000279f,-0.026073f,0.047608f,-0.004787f,0.228655f,0.033540f,-0.019644f,-0.011654f,0.004440f},
  {-0.017983f,-0.044589f,-0.035839f,0.016063f,-0.073379f,-0.025822f,-0.009299f,0.078462f,0.212489f,0.012656f,0.054343f,0.041307f,-0.012347f,-0.029174f,-0.069795f,-0.157193f,0.060018f,-0.001309f,-0.020029f,0.011877f,-0.042077f,-0.022909f,-0.065622f,0.032138f,0.039806f,-0.037055f,0.009273f,-0.009953f,-0.025560f,0.090576f,-0.065752f,0.033742f,0.185585f,-0.104370f,-0.005643f,-0.049022f,-0.005123f,-0.009530f,-0.081620f,0.071994f,0.022529f,-0.050484f,0.067503f,-0.045915f,0.113026f,0.002081f,0.093886f,0.008437f,-0.218602f,-0.116451f,-0.139446f,-0.039857f,0.010578f,-0.204485f,-0.022972f,0.060199f,-0.041254f,0.115409f,0.060380f,0.023180f,-0.152070f,-0.046671f,-0.036654f,-0.039314f},
  {-0.048249f,-0.070990f,-0.038214f,-0.001226f,-0.047656f,-0.078197f,0.086492f,0.066070f,0.158999f,0.123681f,-0.019060f,0.138986f,0.109907f,-0.020354f,-0.159428f,-0.090469f,0.049691f,0.014369f,-0.027892f,-0.070542f,-0.071369f,-0.009298f,0.009630f,-0.140860f,0.114459f,0.117039f,-0.060752f,0.046892f,-0.105477f,-0.144714f,-0.059155f,-0.009070f,0.167727f,-0.085685f,0.011200f,-0.005188f,0.010718f,-0.050813f,0.001318f,0.030954f,0.041195f,-0.015986f,-0.085389f,-0.016581f,0.025583f,0.012176f,0.000640f,0.030025f,-0.098362f,-0.004923f,0.035069f,0.031879f,-0.012277f,-0.040895f,-0.004411f,0.008479f,0.022355f,0.012738f,0.110993f,-0.085022f,-0.071943f,-0.000041f,-0.004640f,0.007395f},
  {-0.013602f,-0.087022f,0.061823f,-0.083597f,-0.025945f,-0.031012f,0.067488f,0.075939f,0.160600f,0.133280f,-0.021238f,0.071606f,0.082726f,-0.012637f,-0.067883f,-0.043180f,-0.016366f,0.076135f,-0.015050f,-0.080704f,-0.057254f,-0.092722f,0.033526f,-0.148855f,0.049968f,0.075154f,0.042515f,0.067809f,-0.081168f,-0.047260f,0.033971f,-0.064320f,0.159429f,-0.055745f,-0.052107f,0.178832f,-0.066788f,0.078184f,0.022728f,-0.019524f,-0.067898f,-0.006071f,-0.090785f,0.041081f,0.026057f,-0.047199f,-0.048090f,0.102794f,-0.042978f,-0.068289f,0.094496f,0.118293f,0.000557f,0.035180f,-0.048599f,-0.076380f,-0.006951f,0.008080f,0.059894f,-0.207622f,-0.060266f,-0.003669f,-0.011583f,-0.004649f},
  {-0.004205f,-0.072546f,0.118549f,0.032453f,0.076058f,-0.075797f,0.085553f,0.090171f,0.131291f,0.076146f,0.039360f,0.120660f,0.112098f,0.000898f,-0.065692f,0.038877f,-0.128821f,0.100229f,0.000088f,-0.186260f,0.002635f,-0.061718f,-0.036475f,-0.019215f,0.034262f,-0.000476f,0.071886f,0.046404f,0.038979f,0.016789f,0.061907f,-0.019249f,-0.059142f,-0.099774f,-0.061205f,0.184683f,-0.036753f,0.039298f,0.123179f,-0.184664f,-0.088858f,-0.006850f,0.022025f,0.038988f,0.087560f,-0.052805f,-0.073404f,0.026308f,-0.014048f,0.032967f,0.000977f,0.039258f,-0.066645f,-0.008556f,-0.062421f,-0.070921f,-0.004066f,-0.003836f,-0.046039f,-0.097666f,-0.003710f,0.022673f,0.002047f,-0.029339f},
  {-0.005595f,-0.062881f,0.065874f,0.075880f,0.021753f,0.050722f,0.012008f,0.114100f,0.142716f,0.134547f,0.030517f,-0.023836f,0.059025f,0.001566f,0.102219f,0.023818f,-0.080179f,0.065186f,-0.027144f,-0.069083f,-0.005011f,0.008723f,-0.093643f,0.066587f,0.155908f,-0.163746f,0.077574f,0.079294f,0.175671f,0.037908f,0.052188f,-0.002236f,-0.142249f,-0.182267f,-0.036086f,0.156192f,-0.038136f,0.100047f,0.187062f,-0.054828f,0.089481f,-0.001599f,-0.013127f,0.034540f,0.029534f,0.075965f,-0.006864f,-0.038578f,0.009391f,0.067790f,0.000463f,-0.041486f,-0.164929f,-0.076772f,0.010182f,0.090991f,-0.031535f,-0.162049f,-0.123796f,0.098520f,-0.013318f,-0.051934f,-0.029901f,0.012285f},
  {-0.001542f,0.032582f,0.011068f,0.148197f,0.162068f,-0.007966f,0.041809f,0.065512f,0.117248f,-0.191366f,0.027221f,0.116570f,0.056656f,0.042000f,0.250941f,0.155363f,-0.146775f,0.100896f,-0.020521f,0.081989f,0.004425f,-0.098449f,-0.149628f,-0.043899f,0.148418f,-0.179203f,0.121336f,0.041897f,0.031976f,0.297734f,-0.056381f,-0.038445f,-0.108198f,-0.062331f,-0.001318f,0.147544f,-0.124578f,-0.020237f,-0.147472f,-0.041653f,0.151414f,-0.000500f,-0.156394f,0.052967f,-0.111634f,-0.044841f,0.020669f,-0.007674f,-0.097478f,0.095417f,0.097827f,-0.071275f,0.003072f,-0.057186f,-0.004803f,0.056294f,0.006789f,-0.096446f,0.019207f,0.030843f,-0.106126f,0.010308f,-0.015299f,-0.003576f},
  {-0.027117f,0.021053f,-0.032992f,-0.018165f,-0.048394f,-0.031675f,0.059439f,0.050444f,0.165241f,-0.196868f,-0.076566f,0.086533f,-0.112221f,0.005999f,0.053984f,-0.073343f,0.139058f,0.085421f,0.016520f,-0.200551f,-0.055604f,0.066309f,-0.017056f,-0.085899f,0.185753f,0.083517f,0.048247f,0.056150f,0.076135f,-0.005465f,0.167511f,-0.010442f,0.026797f,-0.032643f,-0.035439f,0.000583f,0.081966f,0.067375f,0.028524f,-0.134489f,0.028386f,0.010684f,0.058949f,0.015596f,0.132162f,-0.045930f,0.164473f,0.128658f,-0.246757f,-0.166381f,-0.152889f,-0.157959f,-0.023214f,-0.241258f,0.006607f,0.080873f,-0.023532f,0.007172f,-0.022853f,0.026423f,-0.258940f,-0.016822f,0.007908f,-0.008471f},
  {-0.022850f,-0.015668f,-0.039101f,-0.054610f,-0.018229f,-0.087307f,-0.104458f,-0.022759f,0.228872f,-0.024474f,-0.045740f,-0.085023f,-0.069060f,-0.045178f,0.110536f,-0.072955f,0.093562f,0.077939f,0.026093f,-0.064470f,-0.061607f,0.006898f,0.051555f,-0.178793f,0.105418f,0.003730f,-0.004622f,0.021535f,-0.088486f,-0.057900f,-0.015695f,-0.028741f,0.054887f,-0.152532f,-0.050139f,0.045083f,0.130976f,0.014493f,0.023211f,-0.039981f,0.052297f,-0.005760f,-0.082830f,0.017294f,-0.019477f,0.049440f,-0.089415f,-0.057427f,-0.026665f,0.015770f,-0.071239f,-0.070626f,0.102907f,-0.124465f,-0.008822f,0.014113f,-0.000512f,-0.026983f,0.069130f,-0.217203f,-0.126900f,0.014374f,0.008341f,-0.029090f},
  {-0.043290f,-0.074371f,-0.093369f,-0.042477f,0.053997f,-0.169940f,0.047268f,0.039947f,0.106106f,0.117916f,0.069477f,0.010300f,-0.010348f,0.018134f,-0.082429f,-0.072540f,0.168774f,0.064031f,-0.055341f,-0.039794f,0.007965f,0.178882f,0.150343f,-0.213083f,0.112843f,0.238744f,-0.121949f,-0.015068f,-0.104860f,-0.055975f,-0.014170f,0.006649f,-0.061212f,-0.075299f,-0.008535f,-0.021601f,0.108104f,0.034716f,0.083542f,-0.035516f,-0.078718f,-0.071953f,-0.071652f,-0.042479f,-0.060674f,-0.062509f,-0.179569f,-0.046685f,0.101504f,-0.151675f,-0.027821f,-0.030243f,0.051832f,0.006565f,-0.017051f,0.117007f,0.027663f,-0.045896f,0.111830f,-0.345329f,-0.004790f,-0.051178f,0.016606f,0.026798f},
  {-0.026795f,-0.013506f,-0.048965f,0.061343f,0.047780f,-0.067287f,0.067185f,0.144941f,0.163884f,0.193102f,0.162805f,0.011951f,-0.228806f,0.000484f,-0.169790f,-0.043397f,0.071810f,0.057273f,-0.024120f,-0.076748f,-0.008943f,0.102236f,0.084262f,-0.099446f,0.046806f,0.129401f,-0.091041f,-0.051420f,0.006305f,-0.107309f,0.025348f,-0.027636f,-0.016506f,-0.026426f,-0.012837f,-0.013086f,0.088104f,0.010705f,0.028614f,-0.061545f,-0.054385f,-0.048505f,-0.170147f,0.024686f,0.066003f,-0.067967f,-0.092727f,-0.186026f,0.004529f,-0.010810f,-0.092463f,0.066674f,0.015430f,0.004926f,-0.026909f,0.033577f,-0.000442f,-0.060358f,0.124799f,-0.172021f,-0.015830f,-0.051710f,-0.029051f,0.018249f},
  {-0.006732f,0.012727f,-0.079558f,0.199625f,-0.037438f,0.039306f,0.047157f,0.211556f,-0.020733f,-0.030534f,0.044843f,0.039355f,0.082391f,-0.015643f,-0.097238f,-0.140257f,-0.070813f,0.067737f,-0.003859f,0.053962f,-0.007279f,0.060288f,-0.179740f,-0.116074f,0.168084f,-0.135360f,-0.030528f,0.207562f,0.242782f,-0.158607f,0.117443f,-0.024764f,-0.075082f,-0.104546f,-0.056454f,0.105772f,0.035329f,0.095863f,0.069045f,0.006768f,0.203339f,-0.047049f,-0.043079f,0.046942f,0.034618f,0.067025f,-0.166893f,-0.232454f,0.149845f,0.049691f,0.001447f,-0.047962f,-0.099781f,-0.144924f,-0.018938f,-0.061018f,-0.034754f,0.137585f,-0.130120f,-0.127984f,-0.195404f,-0.027033f,-0.010173f,-0.011031f},
  {-0.042472f,0.013191f,-0.009586f,0.216486f,-0.051373f,0.017428f,0.066865f,0.149847f,-0.177242f,-0.093245f,-0.185495f,-0.009016f,0.169268f,0.017694f,0.073762f,-0.038593f,-0.079881f,0.037058f,-0.010431f,0.172881f,-0.058883f,0.047318f,-0.081621f,0.164523f,0.107241f,0.058289f,-0.089650f,0.255072f,0.095160f,-0.102183f,0.100866f,-0.047096f,-0.172713f,-0.024972f,0.000671f,0.089956f,-0.071393f,0.035036f,-0.221302f,-0.083328f,0.167913f,-0.057680f,0.033188f,-0.038966f,0.026022f,0.128551f,-0.015482f,-0.050015f,0.134944f,0.069925f,0.115390f,-0.193080f,0.080991f,-0.068785f,-0.033560f,-0.090667f,-0.033746f,-0.013062f,-0.210710f,0.002759f,0.007699f,0.001655f,-0.017361f,-0.027224f},
  {0.005171f,-0.058967f,-0.046769f,0.202626f,0.075612f,-0.007053f,-0.067443f,0.001683f,-0.061193f,-0.012674f,-0.048364f,-0.080408f,0.056714f,0.013338f,0.186612f,-0.006928f,-0.092175f,0.115934f,0.010690f,0.144601f,0.021315f,-0.042423f,0.005800f,0.092351f,-0.052161f,0.129915f,-0.059006f,0.240572f,-0.011967f,-0.039162f,0.120292f,-0.009166f,-0.101340f,0.131723f,0.002492f,0.125466f,-0.072544f,0.049951f,-0.064927f,-0.074839f,0.046452f,-0.003209f,0.130999f,-0.047024f,-0.005989f,0.058160f,-0.026463f,0.034704f,0.037586f,0.048376f,-0.059568f,-0.062797f,-0.130050f,0.113188f,-0.031521f,-0.032180f,0.028949f,-0.024993f,-0.330692f,-0.017664f,0.014806f,-0.019961f,-0.038543f,-0.036560f},
