#ifndef MNIST_WEIGHTS_H
#define MNIST_WEIGHTS_H
#include <pgmspace.h>

const float conv1_weights[72] PROGMEM = {0.091922f,0.196095f,0.142668f,-0.228115f,0.059564f,-0.026531f,-0.255340f,-0.174528f,0.010961f,-0.150655f,0.242310f,-0.056141f,0.095551f,0.072720f,-0.150718f,0.235717f,0.050505f,-0.409554f,0.348129f,-0.004622f,-0.293112f,-0.145947f,-0.409997f,-0.033515f,-0.232093f,-0.003570f,0.125666f,-0.296799f,-0.196378f,0.018070f,-0.111898f,-0.108294f,-0.485330f,0.377253f,-0.139388f,-0.247692f,0.130567f,-0.277846f,0.011490f,-0.105261f,0.084128f,-0.107780f,0.081825f,0.109445f,0.049825f,-0.323169f,0.224026f,0.262525f,0.091903f,-0.297361f,-0.153313f,-0.063200f,0.182808f,-0.295214f,-0.367385f,0.112652f,-0.220553f,0.259545f,0.050518f,-0.052918f,-0.071075f,0.189800f,0.060759f,0.159441f,-0.133795f,0.063224f,0.048966f,0.071834f,0.099849f,-0.140087f,0.174662f,0.001249f};
const float conv1_bias[8] PROGMEM = {-0.279507f,-0.316971f,0.252491f,0.102582f,0.175096f,0.169189f,-0.432065f,-0.668802f};
const float conv2_weights[1152] PROGMEM = {0.054983f,-0.211135f,-0.109100f,-0.008270f,0.053294f,-0.109547f,-0.077736f,-0.024807f,-0.057025f,0.109085f,0.083292f,0.033704f,0.102537f,0.068784f,-0.089137f,-0.219246f,-0.174980f,0.049826f,0.060461f,-0.213418f,-0.209843f,-0.198916f,-0.125110f,-0.004078f,0.031858f,-0.076101f,0.006014f,-0.016396f,-0.026961f,0.021535f,0.150567f,0.009144f,0.090515f,-0.025561f,-0.004400f,-0.147693f,-0.074323f,0.120173f,-0.035239f,0.049762f,-0.167985f,0.074253f,0.248874f,-0.063694f,-0.198418f,-0.014454f,0.046186f,-0.310504f,-0.010657f,-0.014189f,-0.050636f,0.024572f,0.114857f,0.167826f,0.029041f,0.074010f,-0.024856f,0.029612f,0.022964f,-0.055179f,0.111382f,0.007808f,0.009666f,-0.286966f,-0.160215f,-0.125839f,-0.000570f,-0.119864f,-0.160421f,-0.137818f,0.044701f,-0.247314f,0.066678f,-0.016981f,0.140132f,0.168019f,0.137890f,-0.081534f,-0.310290f,-0.241588f,-0.100678f,-0.189334f,-0.007093f,-0.012595f,-0.197899f,-0.007333f,0.021372f,0.040184f,-0.073129f,0.012501f,0.120619f,0.140281f,-0.180372f,0.100189f,0.040133f,-0.253039f,-0.105349f,-0.169583f,-0.058703f,-0.108885f,0.013485f,-0.022743f,-0.458020f,-0.215100f,-0.147333f,-0.146418f,-0.106963f,0.057184f,0.117795f,-0.172115f,0.024072f,0.168164f,-0.182485f,-0.008920f,-0.111498f,-0.156858f,0.073934f,-0.177355f,-0.286050f,-0.068537f,-0.399951f,-0.380568f,0.173369f,-0.141663f,0.272861f,-0.080824f,-0.075937f,-0.006985f,0.026658f,0.021304f,0.066950f,-0.071662f,-0.344527f,0.043651f,0.044827f,-0.100567f,0.126420f,0.069667f,-0.306979f,-0.092576f,-0.051781f,-0.274557f,-0.060335f,0.047004f,0.063846f,0.047341f,0.249453f,-0.076074f,0.016496f,-0.085010f,-0.040399f,-0.072179f,-0.023979f,-0.035400f,0.011491f,0.126996f,-0.243669f,-0.173541f,-0.013998f,0.062979f,0.002430f,-0.003029f,0.023573f,-0.011542f,-0.039816f,-0.084627f,0.037749f,0.108388f,0.075583f,-0.036637f,-0.146738f,-0.023572f,-0.070538f,-0.180767f,-0.272694f,-0.142589f,-0.019762f,-0.104785f,-0.229684f,-0.125904f,0.109371f,0.072103f,0.047927f,-0.050464f,0.151605f,0.091171f,-0.048725f,-0.170560f,0.057457f,0.071146f,-0.040324f,-0.015567f,-0.156002f,-0.061232f,-0.112997f,0.092777f,-0.076475f,-0.047557f,-0.061225f,-0.185493f,0.005091f,0.127022f,-0.223598f,0.015380f,-0.042892f,-0.316654f,-0.040426f,0.120156f,-0.041278f,-0.035314f,0.002935f,-0.193365f,0.062653f,-0.097728f,-0.057015f,0.196765f,-0.073650f,-0.015105f,-0.046956f,-0.167706f,-0.125679f,-0.059822f,0.094110f,0.095749f,0.180923f,0.062892f,0.115808f,-0.094137f,0.184298f,0.066038f,-0.074172f,-0.071473f,-0.037258f,0.082144f,-0.181178f,0.138012f,0.134535f,-0.188585f,0.010017f,0.103623f,-0.024997f,-0.044849f,0.012622f,0.099343f,-0.040227f,0.072838f,0.000646f,-0.111474f,-0.033784f,-0.028615f,-0.046723f,-0.139247f,0.163025f,-0.101021f,0.152760f,0.003507f,-0.086389f,0.007549f,-0.088289f,-0.111558f,0.036605f,0.122461f,0.138600f,-0.110579f,-0.064286f,0.006145f,0.013861f,0.019112f,-0.107990f,-0.135317f,-0.008904f,0.155700f,-0.212524f,-0.071118f,0.065748f,-0.439392f,-0.062355f,-0.099151f,-0.170038f,0.022765f,-0.069166f,-0.222958f,0.099243f,0.105287f,-0.240815f,0.199133f,0.089155f,-0.160526f,-0.267303f,-0.128481f,0.123358f,-0.115898f,-0.339290f,-0.354872f,0.171641f,-0.215200f,-0.371938f,-0.052987f,0.199406f,0.175154f,-0.091281f,0.086769f,0.260579f,-0.181163f,-0.215019f,-0.094977f,0.095188f,0.046233f,0.108591f,0.052667f,0.001819f,-0.031015f,0.281688f,-0.095466f,0.030499f,-0.037326f,0.076051f,0.085904f,-0.115496f,-0.100857f,0.082844f,-0.119693f,-0.096799f,0.101000f,-0.001936f,-0.015549f,-0.120642f,-0.263028f,-0.049754f,-0.148656f,0.008104f,-0.086841f,-0.359557f,-0.014654f,-0.045873f,0.044200f,-0.093638f,-0.070713f,-0.038113f,-0.021127f,0.103965f,0.031827f,-0.099600f,-0.245830f,-0.190784f,0.006597f,0.025262f,-0.246073f,-0.048003f,0.104313f,-0.372296f,-0.049335f,0.039608f,0.049017f,0.281071f,0.028511f,0.096279f,0.161056f,0.006726f,0.106431f,-0.151596f,-0.255371f,-0.179031f,0.012593f,-0.017975f,-0.147992f,0.101342f,0.153250f,0.181158f,-0.071664f,-0.004720f,-0.063253f,0.109305f,-0.119633f,-0.041424f,-0.022555f,0.092851f,-0.065068f,-0.063075f,-0.169098f,-0.139058f,-0.355365f,-0.043215f,-0.089066f,-0.144943f,-0.030714f,-0.081359f,-0.001304f,-0.081981f,0.235305f,-0.111488f,0.006767f,0.056526f,0.088091f,-0.027753f,-0.177003f,-0.126181f,-0.125808f,-0.209568f,-0.116608f,-0.009676f,-0.088729f,0.034728f,-0.095386f,0.006230f,0.013778f,0.116615f,0.092146f,0.005416f,-0.014948f,-0.066764f,-0.123605f,0.018771f,-0.073477f,0.188709f,0.136090f,-0.020244f,-0.168331f,0.120632f,0.098147f,-0.084346f,-0.148714f,-0.162368f,-0.008085f,0.025716f,-0.040014f,-0.121639f,-0.219732f,-0.189287f,-0.100514f,0.017704f,-0.135385f,-0.160538f,-0.056883f,-0.087100f,-0.117702f,0.123873f,0.137215f,-0.374705f,0.005418f,-0.160788f,-0.002471f,-0.009283f,-0.122523f,0.107911f,0.314830f,-0.044484f,0.114601f,0.152167f,-0.012455f,-0.250014f,-0.016816f,0.065948f,0.026524f,-0.015136f,-0.140342f,-0.284285f,-0.130264f,-0.158162f,0.124144f,0.097936f,-0.040866f,0.124476f,-0.074934f,-0.100700f,-0.003480f,0.022577f,0.339618f,-0.080035f,0.085649f,-0.005339f,-0.082267f,0.088419f,-0.099872f,0.015798f,-0.045568f,-0.272739f,-0.083293f,0.040874f,0.020391f,-0.000929f,0.091614f,0.230016f,0.052675f,0.003598f,0.220684f,-0.164237f,-0.089152f,0.126336f,-0.106428f,-0.049877f,0.417649f,0.050695f,-0.082724f,0.309593f,0.279953f,0.241475f,-0.330107f,-0.029982f,-0.129041f,-0.228433f,0.072781f,-0.020925f,-0.001092f,-0.082044f,0.134273f,0.232130f,-0.213257f,-0.116633f,-0.147316f,-0.121097f,-0.420360f,-0.493011f,-0.162525f,-0.076960f,0.049920f,-0.141506f,-0.022607f,0.253788f,0.081454f,0.126326f,0.073182f,0.027256f,-0.050158f,-0.210331f,0.233187f,-0.198472f,0.033710f,-0.050576f,-0.096931f,-0.047666f,0.156882f,0.095234f,0.050931f,-0.150438f,-0.114830f,0.162517f,-0.062086f,-0.243435f,0.011335f,-0.141747f,-0.161202f,-0.053828f,0.051688f,-0.066490f,-0.278715f,-0.133370f,-0.028034f,-0.009670f,-0.240081f,-0.139953f,0.342579f,-0.236845f,0.007761f,0.116561f,-0.116645f,0.006252f,-0.089871f,-0.258297f,0.240440f,-0.040300f,0.006550f,0.317309f,-0.189204f,0.026356f,0.053942f,0.079526f,-0.032266f,0.090240f,-0.122349f,-0.045894f,0.127291f,0.051205f,-0.089755f,-0.187908f,-0.054111f,0.004183f,0.139925f,-0.109488f,-0.125440f,-0.101291f,0.128098f,-0.064177f,-0.024065f,0.027987f,-0.144856f,0.012309f,-0.057348f,-0.036973f,-0.128975f,-0.042738f,0.018190f,-0.071461f,0.040014f,-0.153178f,-0.055145f,0.039938f,-0.016976f,0.138608f,0.066895f,0.039251f,-0.093803f,-0.147339f,0.106918f,0.094102f,0.001341f,-0.053298f,-0.155472f,-0.144071f,-0.040750f,0.122265f,-0.029173f,-0.134408f,0.008650f,-0.053123f,-0.010577f,-0.093577f,-0.006620f,-0.051139f,0.040200f,0.031016f,-0.031016f,0.082632f,0.099647f,0.043930f,-0.057977f,0.008253f,-0.149129f,-0.100593f,-0.096207f,0.043009f,-0.135744f,-0.122036f,-0.004259f,-0.046273f,0.083081f,-0.151818f,-0.191291f,-0.021447f,0.026612f,-0.118804f,0.035647f,-0.054913f,0.034919f,-0.075190f,-0.115186f,-0.062255f,-0.080244f,-0.027766f,0.007705f,0.005798f,-0.045749f,0.021616f,0.061705f,0.096947f,0.082762f,-0.036758f,-0.034321f,0.023444f,-0.126079f,-0.073389f,-0.026007f,0.075224f,-0.035389f,-0.034582f,0.148124f,-0.146589f,-0.033933f,0.004793f,-0.223084f,-0.032431f,-0.052958f,0.080263f,0.010961f,0.057625f,-0.052175f,0.068906f,-0.051798f,-0.012523f,-0.125960f,0.148095f,-0.035137f,0.007256f,0.002873f,0.056218f,0.056295f,-0.122108f,0.001437f,-0.050106f,-0.106790f,-0.049922f,-0.139185f,0.053196f,-0.062382f,-0.100961f,-0.007760f,0.063641f,0.042102f,0.031816f,0.131659f,0.139241f,0.110514f,-0.002066f,0.112539f,-0.123805f,-0.090801f,-0.039799f,0.075066f,0.076538f,0.030392f,0.069699f,-0.125419f,-0.085493f,-0.041114f,-0.006247f,-0.089352f,-0.070037f,-0.001564f,-0.111160f,-0.226059f,-0.127290f,0.071969f,0.055402f,0.006779f,0.064516f,-0.020817f,0.063224f,0.128620f,0.013740f,-0.117371f,0.110138f,-0.146559f,0.069554f,-0.046553f,-0.132306f,0.061395f,-0.052067f,0.067502f,-0.055070f,0.157031f,0.036167f,-0.261204f,-0.041888f,0.161185f,0.006720f,0.170926f,0.072670f,-0.133670f,-0.021766f,-0.048036f,0.066279f,0.046860f,-0.067127f,0.093216f,0.114814f,-0.044612f,0.012307f,0.010383f,-0.030363f,-0.131013f,0.200832f,-0.049174f,0.112383f,-0.013626f,0.092633f,-0.110088f,-0.014930f,-0.004738f,-0.048557f,-0.005238f,0.049241f,0.137336f,0.075237f,0.123516f,0.088330f,-0.081141f,-0.077557f,0.039272f,-0.020440f,-0.284614f,0.026666f,0.025603f,-0.181505f,-0.250472f,-0.184177f,-0.067903f,-0.157584f,-0.255734f,-0.019721f,-0.378966f,0.029810f,0.081055f,0.068731f,0.003112f,-0.116115f,-0.041317f,-0.018933f,-0.093985f,-0.059056f,-0.138486f,0.034550f,-0.010961f,-0.138433f,-0.053578f,-0.158443f,0.019288f,0.108565f,-0.063082f,-0.190636f,-0.013607f,-0.035560f,-0.014987f,-0.109774f,-0.206918f,-0.012430f,0.023827f,-0.079490f,-0.089797f,0.057363f,-0.231460f,0.236868f,0.047129f,-0.030917f,0.042296f,-0.166612f,-0.045675f,-0.103722f,0.151474f,-0.117575f,-0.121429f,0.045898f,0.047997f,0.071441f,0.002769f,0.058387f,-0.216993f,0.121669f,-0.025324f,0.021889f,-0.012892f,-0.073701f,-0.171452f,-0.005033f,-0.202176f,0.088383f,-0.071093f,-0.048263f,-0.011451f,-0.315147f,0.013077f,-0.085458f,-0.564944f,-0.148785f,-0.099208f,-0.294183f,-0.102730f,0.030897f,-0.005276f,0.035010f,0.054319f,0.026574f,-0.021653f,0.028498f,0.026449f,-0.065630f,0.059378f,-0.078628f,-0.077423f,-0.040930f,0.054675f,-0.089821f,-0.077034f,0.026336f,0.172850f,-0.125829f,-0.087080f,-0.144548f,-0.184805f,0.044307f,0.090811f,-0.020656f,-0.028386f,-0.138617f,0.008017f,0.066799f,0.017909f,0.063490f,-0.002896f,0.082187f,-0.125508f,-0.063017f,0.061432f,0.072615f,0.061707f,-0.095205f,-0.135205f,-0.123968f,0.054465f,-0.063002f,-0.039665f,-0.138683f,-0.092674f,-0.055719f,0.021406f,0.083621f,0.107468f,-0.130292f,-0.004383f,-0.025366f,-0.142473f,0.073574f,-0.047559f,-0.108750f,-0.040189f,0.072617f,0.051500f,-0.210975f,-0.203112f,0.014786f,-0.139772f,0.002524f,-0.259145f,0.021545f,-0.078173f,-0.283637f,0.024625f,0.029541f,-0.059188f,-0.141619f,0.055804f,-0.011450f,-0.099415f,-0.054654f,-0.188891f,0.037864f,-0.024081f,-0.028022f,0.062978f,-0.065807f,-0.007202f,-0.022103f,0.010411f,0.124178f,0.056562f,-0.126812f,0.008168f,-0.201302f,-0.095815f,-0.091850f,-0.054817f,-0.225828f,-0.152447f,-0.084028f,0.120011f,-0.327965f,0.205178f,-0.119316f,0.023642f,0.112014f,-0.096939f,0.041177f,-0.017726f,-0.102117f,0.085112f,-0.049174f,-0.157007f,-0.140481f,-0.007460f,0.231572f,0.050955f,-0.117453f,0.016834f,0.069856f,-0.242460f,0.039823f,-0.006319f,-0.134699f,0.166599f,-0.052307f,-0.129118f,0.037475f,0.005636f,-0.001525f,-0.251173f,0.012086f,0.044124f,0.063315f,0.056518f,0.111646f,0.099843f,-0.024153f,-0.021881f,-0.042213f,-0.264076f,-0.061905f,-0.160601f,0.103566f,-0.050354f,-0.014870f,-0.052169f,-0.081625f,-0.139560f,-0.023844f,0.024896f,-0.074064f,-0.083187f,0.038803f,-0.015214f,0.084167f,-0.009055f,-0.076369f,-0.018937f,0.097707f,-0.088052f,-0.078223f,0.067153f,0.074688f,0.140043f,0.030421f,-0.043765f,-0.238784f,-0.216273f,-0.138146f,0.007088f,-0.028669f,0.036354f,-0.132201f,-0.149243f,-0.091224f,-0.061589f,0.096129f,0.013511f,0.135485f,0.025440f,-0.010918f,0.073638f,0.060081f,-0.004768f,-0.014862f,-0.007270f,0.046592f,0.040090f,-0.117550f,-0.043878f,-0.042611f,-0.107608f,0.044238f,0.093993f,-0.166618f,-0.106977f,-0.020927f,0.041414f,0.036766f,-0.008615f,0.043359f,0.017425f,-0.110919f,0.099169f,0.062159f,0.068391f,-0.116405f,-0.144085f,0.034926f,0.064294f,0.086665f,-0.027236f,0.007417f,0.104333f,-0.159710f,-0.106619f,0.077473f,-0.016646f,-0.033981f,-0.000734f,-0.130075f,-0.071992f,0.150021f,-0.134856f,0.080083f,0.013014f,0.024007f,0.008213f,-0.126194f,-0.148521f,-0.093637f,0.092152f,0.039040f,-0.007660f,0.009068f,0.142531f,0.112814f,0.097095f,-0.007579f,-0.087704f,-0.086713f,0.025053f,-0.177785f,-0.037881f,-0.068505f,0.126282f,-0.184694f,-0.158572f,0.106633f,0.016364f,0.044722f,0.006954f,0.093157f,-0.279969f,-0.040749f,-0.117902f,-0.010604f,-0.015334f,0.099970f,0.010839f,0.028491f,-0.031541f,0.000619f,-0.113463f,0.013677f,0.108666f,0.036980f,-0.131869f,-0.016142f,0.025491f,-0.059086f,-0.020139f,0.040094f,-0.071217f,-0.093702f,-0.077752f,-0.147391f,0.104587f,0.013530f,-0.002028f,0.111925f,-0.017934f,-0.022358f,-0.070822f,-0.119298f,0.244593f,-0.179192f,-0.151029f,0.120409f,-0.006416f,-0.157917f,0.055623f,0.086161f,-0.110572f,0.061731f,0.047424f,0.001878f,-0.077232f};
const float conv2_bias[16] PROGMEM = {-0.100062f,-0.187170f,-0.145496f,-0.111889f,-0.295627f,-0.188318f,0.015624f,-0.103073f,-0.391176f,-0.253661f,-0.208755f,-0.180650f,-0.124958f,-0.206159f,-0.013022f,-0.118554f};
const float fc1_weights[50176] PROGMEM = {-0.095037f,-0.052120f,-0.054587f,-0.008765f,-0.040006f,-0.014039f,-0.020579f,-0.116353f,-0.031505f,-0.001426f,0.111890f,0.098651f,0.024266f,-0.059155f,-0.072931f,-0.005023f,0.028947f,-0.071848f,-0.037863f,0.100500f,0.104822f,-0.012208f,0.161767f,-0.029132f,0.079060f,-0.019590f,0.002524f,-0.023404f,-0.050160f,0.001067f,0.006614f,0.110539f,0.026126f,0.009672f,0.006751f,-0.025159f,0.011536f,-0.038147f,-0.026409f,0.020860f,0.011337f,-0.030460f,0.020853f,0.110246f,-0.016890f,0.042173f,0.009717f,-0.020635f,-0.105859f,-0.064993f,-0.041457f,0.041578f,-0.002168f,0.014221f,0.030706f,-0.025231f,0.027092f,-0.031580f,-0.029498f,0.044606f,-0.022404f,-0.050935f,0.041552f,-0.031030f,0.041515f,-0.111261f,0.249822f,0.004602f,-0.043341f,-0.032312f,-0.000257f,0.006430f,0.019974f,0.078588f,0.063442f,0.061642f,-0.002812f,-0.045621f,0.130379f,-0.059498f,-0.031540f,-0.069463f,-0.030703f,-0.059009f,0.062316f,-0.000839f,0.014219f,-0.027012f,-0.270792f,0.016189f,-0.048620f,-0.034663f,-0.042633f,0.021340f,-0.157069f,-0.016525f,0.019297f,-0.041992f,-0.000735f,0.016384f,-0.031963f,0.012088f,-0.053923f,0.073418f,0.000273f,-0.022464f,0.027814f,-0.112732f,-0.031842f,-0.034864f,0.023716f,-0.030278f,0.109693f,0.059338f,0.111740f,0.033721f,0.019626f,-0.148237f,0.341384f,-0.031304f,0.035376f,0.050908f,0.001240f,-0.194609f,-0.029870f,-0.164274f,-0.252147f,-0.067756f,-0.001729f,-0.131520f,-0.025338f,-0.035285f,-0.023185f,-0.025462f,-0.009616f,0.004190f,0.032136f,0.003078f,-0.001201f,0.145071f,0.117918f,-0.029980f,-0.082030f,-0.063175f,0.015824f,-0.056010f,-0.003791f,-0.037005f,-0.129187f,0.013958f,0.067921f,-0.007790f,-0.018452f,0.029571f,-0.016197f,0.006269f,0.043908f,0.005995f,-0.159165f,0.017082f,0.024763f,-0.031110f,-0.026588f,-0.043974f,0.028277f,-0.006191f,0.055443f,0.118929f,0.036627f,-0.011698f,0.191746f,0.160555f,0.029282f,-0.078998f,-0.034676f,-0.035726f,-0.103819f,0.024488f,0.073706f,-0.155175f,0.021768f,-0.142107f,0.111054f,-0.006759f,0.040227f,0.003123f,-0.033459f,-0.026164f,0.025351f,-0.060986f,0.051332f,-0.147579f,-0.071764f,-0.049939f,0.036656f,-0.039382f,0.000907f,0.001667f,-0.052493f,0.038944f,-0.013564f,0.062424f,0.101516f,-0.031875f,0.008391f,-0.082168f,-0.009659f,-0.064848f,-0.034886f,-0.005510f,-0.024605f,0.062187f,0.097966f,0.021807f,0.037303f,-0.005274f,0.017258f,-0.005789f,-0.018894f,0.005131f,-0.042155f,0.011797f,-0.026427f,0.078154f,-0.039740f,-0.002391f,-0.009477f,-0.018265f,-0.035549f,0.029790f,-0.002229f,-0.070207f,0.000620f,-0.006065f,0.153556f,0.121454f,0.066156f,-0.071322f,-0.060287f,0.009034f,-0.169387f,-0.030984f,0.105286f,-0.024279f,-0.014187f,0.098909f,0.082242f,0.007981f,-0.018756f,0.046879f,0.005789f,-0.019252f,0.017797f,-0.058751f,-0.027592f,-0.000040f,0.037545f,-0.023937f,0.041906f,-0.010022f,-0.000048f,0.031475f,0.047125f,-0.090648f,0.000461f,0.097306f,0.063325f,0.058498f,0.020825f,-0.076338f,-0.146512f,0.006904f,-0.028277f,-0.059205f,0.013321f,-0.066418f,0.027542f,-0.054914f,-0.065390f,-0.031273f,0.055298f,-0.036558f,0.001424f,0.025664f,0.039973f,-0.038775f,-0.048028f,0.100230f,-0.036108f,0.001557f,-0.041999f,-0.002846f,0.028978f,0.003957f,-0.007232f,0.002759f,0.018403f,-0.048440f,-0.084886f,0.097433f,0.010824f,0.087271f,-0.046221f,-0.003675f,0.014667f,-0.072565f,0.028113f,-0.010105f,0.013678f,-0.084862f,0.060652f,-0.017416f,-0.030565f,0.025463f,0.026978f,-0.109407f,-0.016334f,-0.011241f,-0.099430f,-0.018423f,0.007715f,0.023632f,-0.006156f,0.010258f,-0.008902f,-0.010539f,0.104576f,-0.039414f,0.021413f,-0.013435f,-0.030486f,0.064825f,0.009508f,0.116086f,-0.075322f,-0.024518f,-0.025138f,0.002389f,-0.004073f,-0.019037f,-0.064315f,-0.058250f,0.073759f,0.014217f,0.005949f,0.036684f,0.014312f,0.011843f,0.068677f,-0.025700f,-0.040471f,-0.013173f,-0.007747f,0.013303f,-0.000672f,-0.002861f,-0.027095f,0.014726f,-0.012806f,0.069869f,-0.002602f,-0.016906f,0.031081f,0.095653f,-0.004592f,-0.029661f,-0.040010f,0.017404f,0.035011f,-0.026585f,0.045665f,0.047916f,0.022011f,-0.003727f,-0.020683f,0.017883f,-0.029110f,-0.055553f,-0.026648f,0.025692f,-0.022062f,-0.055549f,0.042725f,0.015730f,0.073097f,-0.007388f,0.058724f,-0.008071f,-0.034469f,0.024169f,0.005542f,0.009546f,0.022343f,-0.049367f,-0.033416f,-0.016289f,-0.026839f,0.056894f,0.017829f,0.012803f,-0.017202f,-0.020126f,-0.035186f,-0.076159f,0.014464f,-0.015140f,0.037386f,-0.027645f,-0.057057f,-0.018311f,-0.032138f,-0.030888f,0.037709f,-0.020941f,0.034257f,0.039637f,0.025647f,-0.020181f,0.014022f,0.002376f,0.011343f,-0.033281f,-0.001845f,-0.044085f,-0.026191f,0.015190f,-0.015124f,0.020490f,0.009554f,0.035032f,-0.038392f,0.029601f,-0.001701f,0.018462f,0.015212f,-0.023212f,0.006129f,0.012003f,-0.050759f,-0.010013f,-0.029564f,-0.014297f,0.000908f,0.047020f,-0.033659f,0.071852f,0.006091f,-0.057502f,0.073762f,0.144409f,-0.084093f,0.011483f,-0.028675f,-0.022147f,-0.043381f,0.113929f,0.004096f,0.090809f,0.089814f,-0.044628f,0.022854f,0.051596f,0.012318f,-0.036162f,0.011171f,-0.111874f,0.004348f,0.001214f,-0.053827f,-0.032352f,-0.104382f,-0.006709f,-0.014851f,-0.006680f,0.029216f,-0.007969f,0.048706f,0.022926f,0.028793f,-0.291567f,-0.020720f,-0.002895f,0.021191f,-0.030656f,-0.017458f,0.030108f,-0.081703f,0.023623f,0.012646f,-0.022041f,-0.010953f,-0.086758f,-0.070432f,-0.004799f,-0.010809f,-0.001633f,0.082693f,-0.048615f,-0.025257f,0.031809f,0.029251f,0.006648f,0.136087f,0.027308f,-0.038648f,0.045194f,-0.004479f,-0.146356f,0.012066f,0.086092f,0.065587f,-0.037439f,0.046542f,-0.069221f,-0.043745f,-0.019730f,-0.042894f,0.011508f,-0.018507f,-0.144531f,0.022893f,-0.067043f,0.066422f,0.061701f,-0.130012f,-0.055075f,-0.129804f,-0.002908f,-0.012238f,-0.105495f,0.010177f,0.110476f,-0.012318f,-0.033737f,-0.011705f,0.018435f,-0.003425f,-0.003145f,-0.032648f,-0.018134f,0.011091f,0.011453f,0.058412f,0.037669f,0.007203f,-0.000724f,-0.018422f,-0.028882f,0.019152f,-0.029846f,0.065295f,0.012374f,-0.011542f,0.030098f,0.010350f,0.069094f,-0.037891f,-0.042346f,0.026580f,-0.035940f,-0.010712f,-0.145660f,-0.096956f,0.166652f,-0.028961f,0.025977f,0.007746f,-0.017635f,-0.076307f,0.039046f,0.022570f,-0.006044f,-0.018734f,0.098793f,0.006233f,-0.254716f,0.070045f,0.156323f,-0.150759f,-0.006556f,0.013915f,-0.017311f,-0.049321f,-0.000547f,0.005070f,-0.041604f,0.017796f,0.149267f,0.016746f,-0.029977f,-0.010773f,-0.019709f,-0.004874f,-0.108313f,-0.026070f,0.018992f,-0.121102f,0.073712f,-0.023970f,-0.043421f,0.121867f,-0.048798f,0.080830f,-0.032486f,0.146066f,0.026474f,0.103648f,-0.128710f,-0.016833f,0.003334f,0.022338f,-0.022893f,-0.020405f,-0.029816f,-0.045067f,0.100339f,0.019340f,0.030377f,0.036885f,-0.043336f,-0.071646f,-0.028483f,0.012569f,-0.014928f,-0.135571f,0.070024f,0.021518f,-0.001702f,-0.022750f,-0.122638f,0.079000f,-0.031141f,-0.200941f,-0.033921f,-0.009043f,0.023434f,-0.009583f,-0.001621f,0.045115f,-0.129418f,0.064712f,-0.074412f,-0.027994f,0.017454f,-0.022527f,-0.004540f,-0.081018f,0.027320f,0.014424f,0.157639f,-0.039748f,-0.035561f,-0.041515f,-0.078459f,-0.062598f,-0.012844f,0.012861f,-0.061329f,0.008243f,0.006373f,-0.007507f,0.000105f,-0.050123f,-0.002862f,0.005017f,0.026379f,-0.035987f,0.015875f,0.046980f,0.010901f,-0.015041f,-0.081777f,0.011744f,-0.023322f,0.018708f,0.005063f,-0.044231f,0.025140f,0.003163f,-0.060473f,-0.010589f,0.019880f,-0.031797f,-0.056872f,-0.034520f,0.034431f,-0.000230f,-0.041618f,-0.001071f,0.042801f,0.079247f,0.067754f,-0.014340f,0.054858f,0.111525f,0.025824f,-0.058181f,0.051399f,-0.023306f,-0.041778f,-0.001931f,0.044286f,-0.162705f,-0.149175f,0.018708f,-0.085482f,0.019593f,-0.007066f,-0.010047f,-0.008441f,0.011617f,0.090127f,-0.001628f,-0.031919f,0.053326f,0.055681f,-0.033313f,-0.057827f,-0.079054f,0.009295f,0.014343f,0.032154f,-0.002110f,-0.017520f,-0.015950f,0.013944f,-0.071241f,-0.024910f,-0.018505f,-0.035545f,-0.065249f,-0.013497f,0.038036f,0.000363f,-0.085416f,-0.101755f,-0.036731f,-0.022309f,0.021530f,0.029078f,0.003339f,-0.006212f,-0.015560f,0.095750f,0.002223f,0.045485f,-0.052635f,0.027915f,-0.045510f,0.026206f,-0.008957f,-0.035629f,-0.110743f,0.008235f,-0.012600f,0.063941f,0.015411f,0.074714f,0.052959f,-0.038701f,0.024513f,0.036871f,0.000550f,0.040631f,0.008935f,-0.034472f,-0.115155f,0.067364f,0.018195f,-0.095103f,0.049966f,-0.000858f,-0.043908f,-0.004822f,-0.009755f,-0.001678f,-0.028048f,-0.033728f,0.020496f,0.079187f,-0.009021f,0.008442f,0.004094f,0.036501f,-0.023273f,0.062427f,-0.032683f,-0.019405f,0.104682f,-0.022980f,0.064753f,0.025103f,-0.132265f,-0.070110f,-0.032446f,0.013291f,-0.073667f,0.025232f,-0.107656f,-0.015983f,-0.015137f,0.016876f,-0.021360f,0.008368f,0.026537f,0.009698f,0.004104f,0.094324f,0.016349f,-0.035519f,-0.062478f,-0.016076f,-0.013709f,0.053374f,0.052504f,0.014288f,-0.008131f,-0.058844f,-0.002064f,0.057229f,0.007569f,0.038347f,0.049966f,-0.017407f,-0.030427f,-0.149970f,-0.022625f,-0.141215f,-0.012897f,-0.044169f,-0.030935f,-0.007398f,0.048250f,-0.032940f,-0.021289f,0.000679f,-0.005273f,-0.008782f,-0.006404f,-0.042145f,0.016530f,-0.003405f,0.002877f,0.160131f,-0.010005f,-0.078052f,-0.025600f,0.019288f,-0.040355f,0.000872f,0.004352f,-0.043411f,-0.035890f,0.040225f,0.028718f,0.014821f,0.019819f,-0.006749f,0.022327f,0.030744f,-0.036073f,-0.035983f,-0.038804f,0.029353f,-0.021808f,-0.018515f,0.023821f,-0.033249f,-0.008432f,-0.019979f,0.007396f,-0.009575f,-0.025181f,0.048589f,-0.008677f,0.046953f,-0.024509f,0.010711f,-0.005194f,-0.037698f,-0.021194f,0.014075f,0.008333f,0.006467f,0.028268f,-0.015238f,0.014176f,0.023974f,-0.040424f,-0.060318f,-0.026837f,-0.049543f,0.023260f,-0.024547f,0.068444f,-0.015570f,0.060137f,0.039765f,0.039358f,-0.017493f,0.039848f,-0.010208f,-0.008745f,0.068155f,0.025038f,-0.100728f,-0.010785f,0.071189f,0.047985f,-0.056291f,-0.076510f,-0.032331f,0.020573f,-0.096802f,0.002513f,-0.068733f,0.055341f,0.001369f,-0.096808f,-0.024888f,-0.017106f,-0.032510f,0.027620f,-0.016734f,0.203115f,-0.037198f,0.075696f,0.062085f,0.023945f,-0.091029f,-0.006288f,-0.018063f,-0.015396f,0.024311f,0.152803f,0.068965f,0.008810f,-0.032930f,0.020742f,0.005802f,-0.017769f,0.032218f,-0.021262f,-0.021185f,0.043247f,-0.145178f,-0.036176f,0.064704f,-0.015362f,-0.011970f,0.100328f,-0.022412f,-0.145222f,0.038549f,0.023409f,-0.071359f,-0.031174f,0.041515f,0.094944f,-0.113626f,0.078976f,0.024863f,-0.052928f,0.026443f,0.013024f,-0.000503f,0.009458f,0.026929f,-0.036001f,0.070397f,0.046432f,-0.124442f,-0.070135f,-0.120413f,0.081272f,-0.013725f,-0.029685f,-0.087303f,0.026172f,0.056390f,-0.070994f,-0.030819f,-0.071109f,-0.037072f,0.097811f,0.002166f,-0.064696f,0.020550f,0.078689f,-0.037738f,0.150425f,0.017927f,0.007339f,0.003459f,0.015081f,-0.059290f,-0.022998f,0.008048f,-0.109394f,-0.147482f,-0.001619f,-0.070402f,-0.020008f,-0.145167f,-0.098890f,-0.082756f,-0.045448f,-0.001411f,-0.032124f,0.111657f,-0.012783f,0.014887f,0.020164f,-0.127066f,-0.177513f,0.027290f,-0.094762f,-0.086159f,0.010387f,-0.056483f,0.016772f,-0.054207f,0.141072f,-0.005398f,-0.071329f,0.064109f,-0.075392f,-0.035401f,-0.029799f,0.006973f,-0.086891f,0.060027f,-0.014259f,0.099693f,0.021812f,-0.177996f,-0.033935f,-0.133383f,0.029058f,-0.023712f,-0.029118f,-0.167998f,-0.003196f,-0.019924f,-0.023729f,-0.123254f,0.026767f,0.002593f,0.085575f,-0.026756f,-0.071775f,-0.018150f,0.020535f,0.000906f,0.092570f,0.062096f,0.008754f,-0.012330f,0.019399f,-0.058997f,0.000839f,-0.028920f,-0.000543f,-0.068926f,0.002744f,-0.116510f,-0.131789f,-0.140607f,-0.069851f,0.008752f,-0.041889f,-0.022805f,0.064397f,0.087019f,-0.070647f,-0.017291f,-0.035381f,0.009619f,-0.186087f,0.011903f,-0.141435f,0.007008f,0.006428f,0.047140f,-0.027713f,-0.034347f,0.133221f,0.123168f,-0.027817f,0.176554f,-0.016945f,-0.031819f,-0.000258f,0.026495f,0.010553f,0.172073f,-0.034448f,0.097663f,0.058836f,0.022309f,0.001254f,-0.096370f,0.069263f,-0.025607f,0.023159f,-0.053778f,0.021206f,0.070293f,-0.048223f,0.168357f,0.096222f,-0.009772f,-0.042077f,-0.059033f,-0.009606f,-0.032522f,-0.089531f,0.021612f,0.031505f,-0.086506f,0.025590f,-0.035350f,-0.001144f,0.056998f,-0.013776f,0.005660f,0.070127f,-0.044253f,0.016554f,-0.034901f,0.108860f,-0.105279f,0.044241f,-0.016213f,-0.053185f,0.005935f,0.153969f,-0.040234f,0.010549f,-0.233722f,-0.010843f,0.062786f,-0.032970f,-0.017000f,0.122327f,-0.136722f,0.003524f,0.104941f,-0.019733f,-0.064159f,-0.060051f,0.079266f,0.026364f,0.052473f,0.036973f,0.022523f,-0.050514f,-0.009898f,-0.074194f,0.025367f,-0.018077f,0.083293f,-0.020219f,-0.075305f,-0.036017f,-0.058443f,-0.077651f,-0.008981f,0.006370f,0.090086f,-0.039627f,-0.012827f,-0.088322f,0.032956f,-0.074555f,0.021303f,-0.016873f,-0.060269f,0.020147f,-0.002578f,0.087020f,0.006041f,-0.009433f,-0.015262f,-0.005297f,-0.091391f,-0.009387f,0.015846f,0.002873f,-0.027073f,0.042409f,0.083002f,0.003622f,0.014289f,-0.073471f,0.122653f,-0.067847f,-0.043192f,-0.046812f,0.000747f,0.006930f,-0.150023f,0.082130f,0.129543f,0.025015f,0.049952f,0.052024f,-0.036703f,-0.040839f,-0.024969f,-0.025052f,-0.057496f,-0.016559f,0.109905f,-0.070102f,-0.012987f,-0.011798f,-0.038571f,0.082000f,0.004640f,-0.010728f,-0.031136f,0.006307f,0.042447f,0.011685f,-0.008700f,-0.006126f,-0.029420f,0.005374f,0.007805f,0.029012f,-0.001080f,0.015040f,0.062914f,0.005725f,0.054629f,0.103138f,0.003035f,-0.091540f,-0.027655f,-0.056662f,-0.063145f,-0.025105f,-0.010516f,0.030990f,0.019985f,0.051288f,-0.053022f,-0.044286f,-0.100312f,-0.038324f,-0.023748f,-0.029320f,0.029526f,0.026708f,0.050899f,-0.038657f,0.058975f,-0.026977f,-0.052963f,0.013644f,-0.020256f,-0.028556f,-0.025890f,0.032587f,-0.039344f,-0.043075f,0.092327f,0.008373f,0.040634f,-0.108983f,-0.000146f,-0.007293f,-0.025264f,-0.039722f,-0.020448f,-0.008735f,0.043537f,-0.093769f,0.018441f,0.021463f,0.019409f,-0.002170f,-0.030602f,0.002271f,0.023064f,-0.030212f,0.078663f,0.007935f,0.030686f,-0.010955f,0.046763f,0.007799f,-0.003269f,0.030236f,0.029076f,-0.032247f,0.049314f,0.016505f,-0.051593f,-0.001836f,0.016085f,-0.049089f,-0.026989f,-0.018604f,0.015474f,-0.027608f,0.025220f,-0.059532f,0.005045f,0.017934f,0.002955f,0.013203f,-0.008663f,0.022924f,-0.028257f,0.012819f,-0.002827f,0.000559f,-0.019722f,-0.013038f,0.059752f,0.039138f,0.100942f,-0.010675f,-0.035543f,0.020606f,0.023187f,0.026902f,-0.086814f,-0.053808f,0.026469f,-0.039212f,-0.045438f,0.040315f,0.014679f,-0.049276f,-0.091853f,0.037333f,-0.066121f,0.006927f,-0.013664f,0.006981f,0.023247f,0.041013f,-0.081808f,-0.144172f,-0.046788f,-0.012062f,-0.037829f,-0.113064f,0.005159f,-0.001662f,-0.073159f,0.033976f,-0.124979f,-0.010808f,-0.094714f,-0.028309f,-0.021309f,0.010912f,-0.013361f,0.001986f,-0.204689f,0.056557f,-0.056244f,0.020544f,-0.018896f,0.033248f,0.064808f,-0.055693f,0.031454f,0.120526f,-0.009167f,0.039107f,0.136457f,-0.001687f,-0.068710f,0.013269f,-0.026883f,0.004904f,-0.008558f,0.097638f,-0.104748f,-0.025072f,-0.063911f,-0.025579f,0.006228f,0.012876f,0.121791f,-0.003190f,0.017182f,0.038177f,0.005170f,0.001680f,-0.187852f,0.010327f,-0.025078f,0.094932f,0.017443f,0.111486f,0.059596f,0.027952f,0.188418f,-0.016891f,-0.037166f,0.111696f,0.089409f,-0.094773f,-0.220696f,0.042642f,-0.038979f,-0.021694f,-0.005314f,0.007415f,0.039358f,-0.029407f,-0.163509f,-0.075333f,-0.123553f,-0.053380f,0.055088f,0.081723f,0.004574f,-0.020526f,-0.095867f,0.009259f,0.010390f,-0.078724f,-0.028893f,0.167530f,0.015640f,0.056488f,-0.040058f,-0.053941f,0.019324f,-0.062839f,-0.022007f,0.060732f,-0.117540f,-0.016306f,-0.082842f,-0.025318f,0.056215f,-0.040521f,-0.022255f,-0.050697f,-0.012094f,0.026792f,-0.022551f,-0.122753f,0.033891f,0.037293f,-0.100866f,-0.021468f,-0.016427f,0.073778f,-0.029110f,0.002433f,-0.129285f,0.010225f,0.006051f,-0.300496f,-0.000322f,-0.082708f,-0.046026f,0.025676f,0.170278f,-0.036916f,0.036485f,0.073576f,0.143582f,-0.130994f,-0.165034f,-0.121189f,-0.028180f,0.029085f,-0.031049f,0.040476f,0.033717f,0.010206f,-0.073132f,0.089578f,-0.389434f,-0.017976f,-0.193890f,0.060423f,-0.000236f,-0.028272f,-0.057442f,-0.002191f,-0.067460f,-0.044115f,0.077112f,0.140345f,-0.010661f,0.051597f,-0.051648f,-0.061504f,-0.033770f,0.071781f,0.002075f,0.150159f,0.008241f,-0.006246f,0.004161f,-0.013614f,-0.060105f,-0.045788f,0.007320f,-0.077900f,-0.068181f,-0.005645f,0.039288f,-0.029867f,-0.029724f,-0.040806f,-0.105103f,-0.058071f,0.003962f,-0.015299f,0.013418f,-0.016739f,-0.298831f,-0.022244f,0.068056f,-0.073488f,-0.015010f,0.047049f,-0.148302f,0.014982f,0.026711f,0.016263f,-0.016692f,0.161520f,0.122542f,-0.112072f,-0.000302f,0.000251f,0.010943f,-0.062608f,0.018978f,-0.054624f,-0.019060f,0.004739f,0.009144f,0.075698f,0.143968f,0.023849f,0.023127f,0.123964f,-0.015856f,0.002371f,0.043113f,-0.023403f,0.081052f,-0.008595f,-0.080302f,0.087981f,-0.041270f,0.018993f,-0.053003f,-0.049337f,-0.039292f,0.008464f,0.009617f,-0.060727f,0.055488f,-0.011317f,-0.032211f,-0.022140f,0.007744f,0.004328f,-0.022332f,-0.042306f,0.072643f,-0.019043f,-0.054811f,0.001263f,-0.114476f,-0.088090f,0.054826f,-0.049294f,0.005008f,-0.169075f,0.031737f,-0.087139f,-0.087764f,0.024623f,-0.029221f,0.102741f,-0.029814f,0.034402f,-0.059278f,-0.010367f,-0.008165f,0.023628f,-0.059430f,0.068391f,0.019746f,-0.232355f,0.062168f,0.051432f,-0.018562f,-0.021343f,-0.030158f,-0.046711f,-0.174626f,-0.006385f,-0.023956f,-0.070951f,0.039195f,-0.001329f,0.009347f,-0.016421f,-0.050145f,0.012607f,0.010977f,-0.012263f,0.138357f,-0.032812f,0.056700f,0.087147f,0.001197f,-0.028699f,-0.055301f,-0.035719f,-0.038701f,0.030747f,-0.006499f,-0.007996f,0.092722f,-0.037704f,-0.076748f,0.016774f,0.014105f,0.013718f,0.008350f,-0.023526f,-0.036015f,0.021389f,-0.017126f,-0.160331f,0.140198f,0.022299f,0.090191f,-0.042480f,-0.031516f,-0.010136f,-0.023012f,0.010581f,-0.126302f,-0.021435f,-0.077193f,0.114127f,-0.003982f,-0.148989f,-0.123548f,0.028607f,0.024439f,0.010354f,-0.047280f,-0.001727f,-0.061123f,-0.007637f,-0.021771f,0.037742f,0.000927f,-0.050302f,0.018634f,-0.006249f,-0.010858f,-0.036354f,-0.077490f,-0.053134f,-0.085018f,-0.036336f,-0.041582f,-0.056040f,-0.038619f,0.007639f,0.048211f,-0.013974f,-0.108478f,-0.027073f,-0.001753f,0.026303f,-0.043516f,-0.045724f,-0.077887f,-0.005322f,-0.027914f,0.034155f,-0.001899f,-0.011741f,-0.081598f,-0.028985f,0.009170f,-0.012201f,0.000306f,0.005211f,-0.022428f,0.018663f,0.082184f,0.010510f,-0.019960f,-0.024533f,0.082890f,-0.027172f,-0.023496f,-0.027369f,0.021338f,0.027110f,-0.091031f,0.046567f,0.027503f,-0.002580f,0.105294f,0.067468f,-0.007743f,-0.018189f,-0.044065f,-0.012065f,-0.088049f,-0.015479f,0.079583f,0.047658f,-0.092159f,-0.088739f,-0.023799f,-0.029974f,0.005231f,-0.014536f,0.011222f,0.030640f,0.056617f,-0.032224f,-0.073656f,0.048108f,-0.108820f,0.009976f,0.042393f,0.011029f,-0.027045f,-0.037513f,0.010978f,-0.030989f,0.057148f,0.023355f,0.016580f,-0.018895f,-0.031714f,-0.072719f,-0.063564f,-0.029963f,0.031938f,-0.064002f,0.002289f,-0.112000f,-0.082657f,-0.003836f,0.075822f,-0.019640f,0.005875f,-0.040239f,-0.012392f,-0.049281f,-0.016719f,0.006371f,0.027572f,-0.003583f,0.073538f,0.014858f,-0.040338f,0.018161f,0.008694f,-0.002486f,0.033332f,-0.064435f,0.112011f,-0.011092f,0.024879f,-0.002216f,-0.000383f,-0.034591f,0.091388f,0.028146f,-0.000897f,0.004177f,0.052445f,0.063455f,-0.037158f,-0.163630f,0.021443f,-0.080733f,0.035871f,-0.013864f,0.009852f,0.051745f,0.012997f,0.020814f,0.018268f,-0.053627f,0.028082f,-0.039931f,-0.107729f,0.039029f,-0.029173f,-0.034979f,-0.034866f,-0.022669f,0.133310f,0.007644f,-0.053759f,0.055562f,0.032702f,0.019114f,-0.053333f,-0.082520f,0.011145f,0.067198f,0.007861f,-0.144741f,0.040113f,-0.048971f,0.102972f,-0.040470f,-0.107524f,-0.055109f,0.004432f,-0.092020f,0.093683f,0.026498f,0.065986f,0.021962f,0.128897f,-0.098642f,0.105592f,-0.042775f,-0.004000f,-0.107201f,0.020776f,0.058079f,0.009147f,-0.007458f,-0.035867f,0.044108f,0.024199f,-0.057279f,0.040136f,-0.029449f,-0.122235f,-0.021580f,-0.046302f,0.038456f,-0.045788f,-0.065019f,0.060677f,0.053832f,-0.017881f,0.003476f,-0.030602f,0.030351f,-0.065898f,-0.015613f,-0.081871f,0.040754f,-0.034585f,-0.031648f,0.032399f,0.021525f,-0.007208f,-0.013093f,0.097052f,-0.033821f,0.065089f,0.027540f,-0.000806f,-0.029651f,0.013577f,0.094683f,-0.044507f,-0.086338f,0.028126f,-0.029538f,0.008013f,-0.010927f,-0.106412f,-0.050198f,-0.069943f,-0.025969f,0.050233f,0.008992f,-0.023138f,-0.043703f,-0.017754f,0.020591f,0.079800f,0.032311f,0.079344f,0.036771f,0.012576f,-0.040072f,0.028070f,0.104028f,-0.016799f,0.079420f,-0.147373f,0.020460f,0.064496f,-0.033317f,0.007234f,-0.019479f,-0.003845f,-0.029425f,-0.064405f,0.020963f,0.005624f,0.000160f,-0.019152f,-0.091590f,0.051935f,0.009389f,-0.009990f,-0.015135f,0.021813f,0.061467f,0.082952f,-0.024398f,0.034458f,0.100688f,-0.225785f,0.021411f,-0.009495f,0.058784f,0.004683f,-0.004591f,0.069898f,-0.004997f,-0.050282f,0.055133f,0.102098f,0.033154f,0.002695f,-0.000441f,-0.028743f,0.041595f,-0.004912f,0.118312f,-0.003029f,-0.085392f,-0.040327f,-0.035026f,-0.007213f,0.008920f,-0.018791f,-0.006106f,-0.020000f,0.012788f,0.040544f,-0.023325f,-0.020387f,-0.010973f,0.074204f,-0.061004f,-0.145639f,-0.019029f,-0.033215f,0.132473f,-0.035733f,0.020396f,-0.052626f,0.009839f,0.023141f,-0.081248f,-0.006543f,-0.004466f,0.003309f,0.007567f,-0.064168f,0.025693f,0.073151f,0.034918f,0.033865f,-0.085891f,-0.130518f,0.030797f,-0.026800f,0.015771f,-0.009160f,-0.002837f,-0.016036f,0.019431f,-0.206893f,0.070032f,0.001798f,0.021022f,-0.070291f,0.098825f,0.036732f,0.010072f,0.041520f,-0.017130f,0.054332f,0.026086f,-0.052361f,-0.038045f,-0.032426f,0.042478f,-0.026211f,0.097110f,0.000445f,0.063965f,-0.005779f,-0.155454f,-0.006301f,0.013044f,-0.024208f,-0.043102f,-0.018435f,-0.027242f,0.004441f,-0.034487f,0.024600f,0.017011f,-0.032633f,0.123676f,-0.058539f,0.033418f,0.042706f,-0.016789f,0.010873f,-0.214437f,0.007580f,0.096857f,-0.058272f,-0.017292f,-0.075968f,0.117035f,0.001030f,-0.018337f,0.059203f,-0.018836f,0.048622f,-0.004414f,-0.028356f,-0.008400f,0.039140f,0.010458f,-0.043980f,-0.072942f,-0.011762f,-0.005782f,-0.040286f,-0.034754f,-0.100241f,0.005922f,0.014647f,-0.019356f,0.067008f,-0.007556f,0.036416f,0.132620f,-0.003808f,-0.013046f,-0.018748f,-0.018659f,0.173037f,-0.027946f,-0.037181f,0.009658f,-0.024097f,-0.035757f,-0.008461f,-0.026007f,0.003760f,0.038165f,-0.038984f,-0.098803f,-0.053214f,0.021711f,-0.014486f,-0.025070f,-0.006083f,0.022411f,-0.023346f,0.008947f,-0.090133f,0.029943f,-0.043432f,-0.071374f,-0.072383f,-0.059851f,-0.013476f,-0.045351f,-0.025216f,-0.058228f,0.082158f,0.047683f,0.015949f,0.006688f,0.016966f,0.054771f,-0.017855f,0.016925f,-0.001752f,0.011148f,0.034534f,-0.035655f,-0.037585f,0.096533f,0.011184f,-0.031708f,0.025617f,-0.003149f,0.003227f,0.003740f,-0.005785f,-0.066397f,0.076784f,-0.035578f,-0.087660f,0.061324f,0.077604f,0.022415f,-0.037669f,0.034053f,-0.053275f,-0.012157f,0.097963f,-0.038707f,0.027154f,-0.032675f,0.018577f,-0.015774f,0.016831f,-0.044585f,0.000403f,-0.007514f,0.009131f,0.013174f,0.011755f,-0.076361f,0.012387f,-0.005399f,-0.038330f,-0.036211f,0.038676f,-0.029037f,0.013691f,-0.039274f,0.015205f,0.005578f,-0.017082f,0.126340f,0.034743f,0.054387f,0.037144f,-0.050227f,-0.015563f,-0.045177f,0.070493f,0.072251f,0.012542f,-0.023713f,-0.162338f,0.038045f,-0.039497f,-0.028114f,-0.051322f,-0.033295f,0.055783f,0.002257f,0.001096f,0.090220f,0.024269f,0.009866f,0.134633f,0.085783f,0.009695f,0.002276f,0.007975f,-0.040631f,-0.104782f,-0.012827f,0.046547f,-0.004456f,0.035202f,-0.036208f,-0.043361f,-0.005949f,-0.006493f,0.013182f,-0.041647f,-0.006802f,0.046691f,0.013587f,0.001750f,0.090352f,0.015052f,-0.011961f,0.001803f,-0.032282f,0.024210f,-0.043151f,-0.041136f,0.005036f,-0.011487f,0.008176f,-0.003300f,0.010272f,0.023627f,0.017433f,-0.006088f,0.057054f,-0.082825f,-0.006584f,-0.010615f,-0.008995f,0.071478f,-0.057385f,-0.007167f,-0.009343f,-0.003772f,0.007351f,0.056131f,-0.148047f,0.056815f,-0.010492f,-0.005365f,0.053937f,0.029292f,0.025657f,0.018607f,-0.035721f,-0.029544f,-0.009288f,0.020624f,0.072573f,-0.044681f,-0.021285f,-0.128524f,0.031589f,-0.015944f,-0.001462f,0.013315f,-0.077238f,0.137511f,-0.015315f,0.091000f,-0.188891f,0.002995f,0.008817f,0.001683f,-0.112411f,0.084542f,0.018633f,-0.014264f,-0.015591f,0.176145f,0.109893f,-0.066474f,0.081884f,-0.034456f,0.071887f,0.115790f,-0.001263f,0.005821f,0.003927f,0.022060f,-0.037471f,-0.006177f,-0.017751f,0.040521f,-0.023372f,-0.055687f,0.031282f,0.038863f,0.018407f,0.035596f,0.002112f,0.046799f,0.016801f,0.173001f,0.004225f,-0.005205f,-0.007532f,-0.014806f,0.049507f,0.010628f,0.015081f,0.039892f,0.021943f,0.064681f,-0.093817f,-0.041176f,-0.056930f,-0.062428f,-0.002650f,0.007724f,-0.023623f,-0.008672f,-0.072791f,-0.047358f,-0.037634f,-0.072577f,0.006933f,0.028363f,0.017434f,-0.005305f,-0.036572f,0.072436f,-0.001049f,-0.170829f,0.059572f,-0.064207f,-0.061546f,0.054495f,-0.009038f,-0.014217f,-0.003381f,-0.038573f,0.028266f,0.172083f,0.028113f,0.060887f,0.029699f,0.027146f,0.009097f,-0.117932f,-0.050462f,-0.022814f,-0.020477f,-0.014668f,-0.060453f,-0.058793f,0.015630f,-0.030040f,0.027557f,0.058631f,-0.009613f,0.002054f,-0.017484f,-0.052344f,0.027668f,0.108362f,0.060929f,-0.047570f,-0.062725f,-0.036664f,-0.016384f,-0.035888f,-0.065624f,0.115767f,0.116639f,-0.139976f,0.002912f,0.025822f,-0.004719f,0.023055f,-0.094616f,0.080952f,-0.039807f,-0.019969f,-0.004465f,0.072446f,0.086344f,0.017092f,0.039155f,-0.118138f,0.005712f,0.019018f,-0.015366f,-0.032755f,-0.036285f,0.040305f,-0.031363f,-0.019517f,-0.010022f,-0.082899f,0.064737f,0.110436f,0.061699f,0.022616f,0.024654f,0.052300f,0.015726f,0.009495f,0.026752f,-0.046615f,0.036464f,-0.024129f,-0.105139f,-0.041768f,-0.058627f,0.016177f,-0.026129f,-0.000691f,-0.010766f,0.063580f,-0.034481f,0.012106f,-0.024006f,-0.000100f,-0.039549f,-0.005901f,-0.038142f,0.016706f,0.020450f,0.005095f,-0.073510f,-0.041739f,-0.096390f,-0.094431f,0.000884f,0.003523f,-0.069853f,0.030189f,0.067304f,-0.015135f,0.012054f,0.057194f,-0.039604f,0.015987f,-0.051051f,-0.057962f,-0.016855f,-0.020217f,-0.028628f,-0.013994f,0.075767f,0.015384f,0.031332f,-0.090688f,0.084121f,0.015184f,-0.064706f,-0.004426f,-0.048426f,0.148944f,-0.015931f,-0.043381f,0.007569f,-0.012669f,0.005378f,0.038177f,0.040894f,-0.024809f,-0.030068f,-0.083412f,-0.021900f,0.051272f,0.060382f,-0.016959f,-0.117550f,-0.034047f,-0.046589f,0.075282f,-0.061285f,-0.028983f,-0.027186f,-0.011311f,-0.059108f,-0.094753f,0.009366f,0.109376f,0.013024f,0.007020f,-0.000259f,-0.013272f,0.003399f,-0.008320f,0.000485f,0.045585f,0.162138f,-0.033993f,-0.143156f,-0.063382f,-0.039396f,-0.012894f,-0.174204f,0.017033f,0.114710f,-0.055227f,0.008549f,-0.026341f,0.054343f,-0.032522f,0.008696f,-0.033119f,0.015331f,0.061684f,-0.023945f,-0.090995f,0.016216f,0.068831f,0.013460f,-0.103041f,-0.009622f,-0.000490f,0.000163f,-0.020030f,-0.047663f,-0.130808f,-0.017063f,-0.086333f,-0.046813f,0.066830f,-0.010622f,-0.132937f,-0.016790f,0.013450f,-0.024844f,-0.086175f,-0.013399f,0.015073f,-0.046424f,0.012792f,0.012109f,0.000745f,-0.112927f,-0.073431f,-0.026604f,-0.026069f,0.056798f,-0.016591f,-0.043269f,-0.028668f,-0.018925f,0.023638f,0.006809f,0.023078f,-0.020589f,0.025143f,-0.031774f,0.007223f,-0.007356f,-0.017736f,0.126979f,-0.063106f,-0.108745f,0.092018f,0.004447f,-0.022001f,-0.053805f,-0.066686f,-0.013328f,-0.077717f,-0.024174f,-0.061354f,0.113468f,-0.005417f,0.017779f,0.052840f,-0.040657f,0.056647f,0.012240f,-0.038710f,0.104906f,0.037188f,-0.014976f,-0.066774f,-0.101109f,-0.008197f,0.001785f,-0.023465f,-0.034227f,0.071705f,-0.031341f,0.146232f,-0.042929f,-0.060870f,0.014140f,-0.041625f,-0.079961f,-0.018544f,-0.026735f,0.104978f,0.012102f,-0.017532f,-0.029271f,0.160094f,0.106380f,0.018397f,-0.018172f,-0.038970f,-0.028541f,-0.016935f,-0.072104f,-0.014913f,-0.057979f,-0.061906f,-0.034574f,0.000493f,-0.041811f,-0.016216f,-0.005759f,0.007194f,-0.050540f,0.021595f,0.015128f,0.020311f,-0.054561f,-0.037379f,0.020262f,0.047721f,0.042816f,-0.018309f,-0.045341f,-0.025081f,-0.030438f,-0.058564f,0.026154f,-0.057212f,0.023170f,0.003553f,0.041341f,0.145402f,0.012594f,-0.068850f,0.012508f,-0.088042f,-0.080775f,0.110387f,-0.036721f,-0.047861f,-0.064917f,0.009447f,-0.014529f,-0.028128f,-0.035641f,-0.001673f,0.023630f,-0.051525f,-0.082620f,0.141728f,-0.030855f,-0.034407f,-0.009357f,0.023641f,-0.039925f,0.096683f,0.005837f,-0.067209f,-0.055016f,0.017101f,0.051040f,0.006719f,0.175616f,-0.050779f,-0.011381f,-0.019659f,0.040516f,-0.039317f,0.018825f,-0.054271f,0.004574f,0.025787f,-0.018812f,0.021573f,0.029448f,-0.021958f,-0.003104f,0.060910f,-0.010055f,-0.029272f,0.001185f,0.066713f,-0.033348f,0.023678f,-0.034103f,-0.037905f,-0.033390f,-0.026001f,0.020832f,0.059577f,0.002438f,-0.087684f,-0.034461f,-0.025580f,0.013446f,-0.015019f,-0.036053f,-0.009955f,-0.017220f,-0.016375f,0.026027f,-0.008644f,0.093936f,0.010555f,-0.041461f,-0.067495f,0.027485f,-0.019768f,-0.011190f,0.074811f,-0.036505f,0.001458f,-0.046562f,-0.169770f,-0.010453f,0.149915f,0.113349f,-0.102806f,-0.021668f,0.048172f,-0.031446f,-0.175278f,0.164617f,0.000685f,-0.125486f,0.000679f,0.290945f,0.048829f,-0.154608f,0.026484f,0.052304f,-0.007879f,-0.119455f,0.088756f,-0.001812f,-0.097689f,-0.010321f,-0.019827f,-0.041336f,0.010797f,0.016350f,-0.138404f,0.002953f,0.057619f,-0.000352f,0.094499f,-0.087617f,0.002940f,-0.000439f,0.022580f,0.022651f,-0.087401f,0.070255f,0.063229f,-0.040149f,-0.125669f,-0.262345f,-0.036496f,0.119555f,0.167734f,-0.024463f,0.248169f,0.010547f,0.040169f,-0.067448f,0.207037f,-0.139752f,-0.012943f,0.181239f,0.005356f,-0.026490f,-0.021674f,-0.056178f,0.119237f,0.015515f,-0.067236f,-0.009849f,0.057248f,0.025595f,-0.039033f,0.065067f,-0.080818f,-0.025762f,-0.012590f,0.004780f,-0.063473f,0.149881f,-0.135222f,-0.030513f,0.011589f,0.100271f,-0.062974f,0.028128f,0.017372f,-0.090304f,0.001194f,0.007790f,-0.119506f,0.021566f,0.026696f,0.005719f,-0.079277f,-0.008110f,-0.011942f,0.007159f,0.176369f,-0.014697f,-0.072759f,-0.022437f,0.111893f,0.039491f,0.067599f,-0.013314f,0.013928f,-0.119402f,-0.189418f,0.106281f,-0.114378f,0.003416f,-0.140459f,0.120380f,-0.028138f,-0.008151f,-0.036863f,0.005571f,0.064678f,-0.037424f,-0.277286f,-0.000170f,0.133153f,0.087633f,-0.083496f,0.031849f,-0.032774f,-0.014502f,0.019691f,-0.013312f,0.098191f,0.014068f,0.045316f,-0.168710f,0.026723f,0.012413f,-0.019390f,0.002995f,-0.023716f,-0.040830f,-0.044673f,0.021052f,-0.020076f,0.066736f,0.036355f,-0.020187f,-0.030363f,0.097231f,0.012728f,-0.037420f,-0.020259f,0.069314f,-0.007954f,0.013804f,-0.022125f,0.012251f,-0.039255f,-0.001540f,-0.045240f,-0.023888f,-0.016378f,-0.056651f,-0.034000f,-0.018538f,-0.011542f,0.080046f,0.081133f,-0.014397f,0.023166f,0.021324f,-0.039002f,0.015488f,-0.087836f,-0.090876f,-0.051496f,0.020836f,-0.043607f,-0.014335f,-0.033907f,-0.021382f,0.087771f,0.016992f,0.027615f,0.000398f,0.058926f,0.072677f,-0.022420f,0.087089f,-0.062758f,-0.107083f,-0.013199f,-0.000964f,-0.030462f,-0.012152f,-0.141556f,-0.017315f,0.041181f,-0.040448f,-0.317889f,0.059553f,0.028384f,0.030766f,-0.028911f,-0.037254f,-0.013947f,-0.027516f,-0.118941f,-0.014391f,-0.001170f,-0.028810f,-0.006540f,0.072983f,-0.039864f,-0.006672f,-0.005832f,0.011111f,0.026613f,0.104369f,0.084385f,-0.015815f,-0.065378f,-0.006592f,0.037705f,0.028648f,-0.033160f,-0.024686f,-0.002938f,0.009731f,-0.067024f,-0.043629f,-0.067673f,0.030467f,0.012771f,0.018396f,-0.014270f,-0.037629f,-0.040637f,0.042054f,0.005255f,-0.023653f,-0.035281f,-0.034163f,0.015315f,0.133186f,-0.085271f,-0.023748f,-0.062696f,-0.017868f,0.110690f,-0.082023f,0.044421f,0.111580f,0.054070f,-0.065842f,-0.042480f,0.006753f,0.015221f,-0.034233f,-0.120968f,0.007547f,0.141235f,-0.107449f,0.011627f,-0.069465f,0.004942f,-0.047047f,-0.023960f,-0.015108f,0.008923f,-0.038917f,-0.009078f,0.005987f,-0.015813f,-0.080381f,0.022270f,-0.049169f,-0.041880f,-0.024821f,0.022945f,-0.012346f,0.019190f,0.044321f,-0.042549f,-0.043368f,0.047000f,-0.017194f,-0.040364f,-0.033615f,-0.032727f,-0.062488f,-0.065911f,-0.008622f,-0.007181f,0.135903f,-0.102665f,-0.018889f,0.120203f,-0.038569f,0.018244f,0.023850f,0.077233f,0.017801f,0.022507f,0.013722f,-0.005498f,-0.020880f,-0.014150f,0.017542f,0.135363f,0.022295f,-0.048643f,-0.036670f,0.062646f,-0.116297f,0.019302f,-0.016660f,0.016147f,-0.059824f,0.020736f,0.008059f,-0.029707f,0.030236f,-0.096868f,-0.016110f,0.093585f,-0.113530f,-0.009878f,0.027979f,0.032237f,-0.039449f,-0.004188f,0.020852f,0.029462f,-0.028920f,0.014822f,-0.077870f,-0.045628f,-0.040257f,0.013407f,0.048626f,-0.020654f,0.009844f,0.008984f,-0.015958f,0.018537f,0.068126f,-0.048764f,0.029949f,-0.004625f,0.001976f,-0.034955f,-0.003877f,0.020575f,-0.045236f,0.067213f,0.011153f,-0.028436f,0.034435f,-0.044435f,-0.048313f,0.115253f,0.008873f,-0.012461f,0.063324f,-0.076354f,0.009809f,0.038537f,-0.001368f,-0.017876f,-0.009881f,0.000685f,-0.002307f,-0.035618f,0.021281f,0.038732f,-0.013896f,0.048265f,0.010842f,-0.049796f,-0.038166f,-0.053527f,0.027134f,-0.023341f,0.010770f,-0.029532f,0.009450f,0.027172f,0.022520f,-0.092118f,-0.050054f,-0.001865f,0.022607f,0.013324f,0.003396f,0.003702f,-0.032921f,-0.014671f,0.019441f,0.016965f,0.019856f,0.042492f,0.054470f,0.002029f,0.114750f,0.029485f,-0.005976f,-0.017713f,0.016043f,0.026990f,-0.004949f,0.060704f,0.017157f,0.002143f,-0.005054f,0.014179f,-0.035693f,-0.030316f,0.015430f,-0.046780f,-0.000839f,-0.035734f,0.039897f,-0.014882f,-0.002095f,0.098966f,0.004762f,-0.010113f,-0.027586f,0.016196f,0.036770f,-0.003546f,0.008013f,-0.041059f,-0.084262f,0.005002f,-0.057033f,-0.047559f,0.022714f,0.008355f,-0.013595f,-0.059392f,0.028881f,0.010122f,0.030162f,-0.081181f,-0.141934f,-0.016657f,-0.064029f,0.017178f,-0.066898f,0.036264f,0.017287f,0.028177f,0.122924f,0.077971f,-0.016367f,-0.051454f,0.041707f,-0.070035f,0.025769f,-0.153530f,0.005514f,0.148340f,-0.097737f,0.039723f,0.098426f,-0.011012f,-0.076052f,0.002098f,-0.046026f,0.004484f,-0.075025f,-0.008235f,-0.054675f,0.140710f,-0.005307f,-0.042367f,0.001745f,-0.004905f,0.001656f,-0.009891f,-0.087305f,0.028909f,0.009160f,-0.060007f,-0.075246f,-0.033650f,-0.070320f,0.008480f,0.018751f,0.021802f,0.048198f,0.103161f,0.167428f,0.142365f,-0.037893f,-0.005323f,0.168995f,0.002031f,0.023774f,0.139262f,-0.036655f,0.065374f,-0.014221f,-0.019902f,0.013947f,-0.041000f,0.026536f,0.040859f,0.233092f,0.046724f,-0.065042f,-0.035637f,-0.012576f,-0.203108f,-0.026061f,0.061340f,0.215969f,0.165630f,0.108768f,0.000406f,0.018089f,-0.065614f,0.022297f,-0.215313f,0.009539f,-0.034224f,0.379257f,-0.116360f,-0.036395f,-0.001726f,0.000339f,0.037247f,0.010575f,-0.024907f,0.113975f,0.031201f,-0.081858f,-0.128221f,-0.079586f,0.055035f,-0.035028f,-0.036301f,0.016063f,-0.012321f,0.034307f,0.094787f,-0.016102f,-0.027388f,-0.062846f,-0.049347f,-0.011771f,0.120214f,-0.042192f,0.033656f,-0.099028f,-0.110287f,-0.160575f,0.064028f,-0.015496f,0.092518f,0.049559f,0.026078f,-0.112866f,0.091861f,-0.025221f,-0.171767f,-0.015648f,-0.149790f,-0.034157f,-0.264622f,-0.146729f,-0.040715f,0.050259f,0.002670f,-0.010587f,-0.053066f,-0.006890f,0.051243f,0.019563f,-0.130204f,-0.007903f,0.073584f,0.102138f,-0.168593f,0.177739f,-0.056977f,0.004226f,-0.112284f,-0.063328f,0.101963f,0.199973f,0.000406f,-0.126669f,0.033455f,0.269191f,-0.057556f,0.166875f,0.022283f,0.131535f,-0.013530f,0.086608f,-0.138091f,0.068743f,0.080096f,0.020818f,0.024188f,0.004421f,-0.001953f,0.113273f,0.199670f,0.089493f,-0.075528f,-0.044071f,-0.134107f,-0.086708f,-0.024111f,0.016657f,0.015716f,-0.347103f,-0.151884f,-0.024692f,0.099902f,0.012322f,0.010473f,0.014396f,-0.003203f,0.059144f,0.056249f,-0.016771f,0.043443f,-0.017531f,-0.065834f,-0.176237f,-0.287674f,-0.049218f,-0.039758f,-0.017723f,-0.098853f,-0.086455f,-0.006495f,-0.075226f,-0.012969f,0.015086f,0.114541f,-0.049767f,0.000418f,0.136575f,-0.425184f,0.108499f,-0.079985f,-0.020578f,-0.097875f,-0.003282f,-0.024634f,0.029807f,0.240780f,-0.079936f,-0.010221f,0.066020f,-0.088574f,0.114975f,-0.020599f,0.032569f,0.011786f,0.154622f,0.057670f,0.005959f,-0.017346f,0.022995f,-0.016033f,-0.001727f,0.014400f,-0.062104f,0.090690f,0.017083f,0.139464f,-0.058994f,-0.075530f,-0.137080f,0.063681f,-0.001363f,-0.020850f,-0.098189f,-0.040365f,-0.069717f,0.017055f,-0.031581f,-0.214402f,0.059809f,0.002126f,-0.234428f,0.036805f,0.026899f,-0.009495f,0.030786f,0.005167f,-0.044243f,-0.014589f,0.003028f,-0.139437f,0.106088f,-0.068711f,-0.116746f,-0.004317f,0.007146f,0.171524f,-0.053920f,0.106563f,0.007739f,-0.098441f,0.064831f,-0.313840f,0.049297f,-0.073867f,-0.006130f,-0.068996f,-0.048128f,0.050820f,0.046757f,0.097138f,-0.018361f,-0.011780f,0.077087f,-0.161932f,0.018401f,-0.006967f,-0.057422f,-0.034090f,0.070182f,-0.038128f,-0.025309f,-0.157643f,-0.040857f,-0.059146f,-0.056415f,-0.038064f,-0.271894f,0.017765f,-0.001539f,0.026734f,-0.042259f,0.013177f,-0.046493f,0.013745f,0.037571f,0.002730f,-0.118513f,0.047934f,-0.075326f,0.031021f,-0.007966f,0.043798f,0.071826f,-0.025115f,-0.114570f,0.009718f,-0.010327f,-0.031657f,0.000470f,-0.081315f,-0.162796f,0.002406f,-0.048994f,-0.125620f,-0.001677f,0.004946f,-0.058722f,-0.038280f,-0.008623f,0.100252f,-0.004387f,0.010166f,-0.027485f,-0.080521f,-0.115043f,-0.107741f,-0.011615f,-0.037822f,0.016764f,0.039735f,-0.044586f,0.008598f,-0.022641f,-0.066407f,0.038890f,-0.007485f,0.095321f,-0.000925f,-0.067783f,-0.034325f,-0.060958f,-0.031030f,-0.065873f,-0.103271f,-0.028139f,-0.158454f,0.024461f,-0.077398f,-0.057734f,-0.023268f,-0.100384f,-0.012274f,-0.063753f,-0.085819f,-0.006179f,0.088900f,-0.061183f,-0.086028f,-0.010621f,0.012604f,-0.231301f,0.016775f,0.071392f,0.092062f,-0.052990f,0.143365f,-0.002438f,-0.039785f,0.166732f,-0.091938f,-0.011236f,0.042517f,-0.026793f,0.067128f,0.090498f,0.010648f,0.078679f,0.111840f,0.002188f,0.010812f,0.024170f,-0.004943f,0.036818f,0.057695f,-0.036394f,0.055488f,-0.083586f,-0.087687f,-0.051540f,0.092353f,0.150122f,-0.060382f,-0.006284f,0.230133f,-0.081875f,0.043961f,0.037850f,0.001234f,-0.053998f,0.000270f,0.071788f,0.099000f,-0.088457f,-0.029035f,0.008863f,-0.005366f,0.041529f,-0.119148f,0.027699f,-0.000303f,0.010133f,-0.082710f,-0.029923f,-0.039710f,-0.014706f,-0.020266f,-0.003969f,0.051392f,-0.020855f,-0.063172f,0.044392f,-0.059133f,0.027392f,-0.003900f,-0.069686f,0.060079f,0.004875f,-0.050606f,-0.017398f,0.075124f,0.002045f,-0.014122f,0.037122f,0.039857f,-0.009588f,0.048825f,-0.014942f,0.012364f,0.045011f,-0.061276f,-0.041746f,-0.050041f,0.129619f,0.022476f,-0.035404f,-0.051297f,0.010891f,0.242457f,-0.026638f,0.008538f,-0.038160f,-0.187191f,-0.044671f,0.116220f,0.131432f,0.027143f,-0.036798f,-0.068177f,-0.003067f,0.045424f,0.032229f,0.059865f,-0.198073f,0.013693f,0.031471f,-0.005595f,-0.055553f,-0.015620f,-0.151148f,-0.010242f,-0.102036f,0.111646f,-0.029316f,-0.156674f,-0.040126f,-0.039843f,-0.011986f,0.019140f,0.092280f,-0.067522f,0.023674f,-0.045101f,0.016328f,-0.110860f,-0.106548f,0.091674f,-0.002044f,-0.009675f,-0.028379f,-0.080810f,-0.141878f,0.139719f,-0.012925f,-0.108816f,-0.076085f,0.024998f,0.017093f,-0.043878f,-0.031560f,0.302602f,0.025314f,-0.142147f,-0.146682f,0.110719f,0.011557f,0.127976f,-0.050146f,0.066202f,-0.041267f,-0.045917f,-0.001779f,0.012841f,-0.061445f,0.065394f,0.156270f,-0.163873f,-0.132543f,0.032652f,-0.087803f,-0.059657f,-0.021965f,0.130250f,0.020116f,-0.048528f,0.035284f,-0.047048f,-0.141332f,0.005567f,0.108045f,-0.133579f,0.055991f,0.007962f,-0.104156f,-0.019611f,0.162070f,-0.095980f,-0.037807f,-0.078073f,-0.031782f,-0.038082f,-0.006804f,-0.058188f,-0.032390f,0.214254f,-0.003336f,-0.118057f,-0.087424f,-0.134562f,-0.009931f,-0.365969f,-0.053218f,-0.011753f,0.057844f,-0.196855f,0.086587f,-0.036968f,-0.016706f,0.021171f,0.064902f,-0.012251f,0.147025f,0.064679f,-0.008377f,-0.093669f,0.024424f,0.115724f,-0.017034f,-0.096654f,-0.026793f,0.268085f,-0.068010f,0.118448f,0.002742f,0.011206f,0.051715f,0.076188f,-0.050765f,-0.038687f,0.114663f,-0.005728f,0.126919f,-0.120675f,0.022398f,-0.067930f,-0.013846f,0.022891f,0.053731f,-0.019459f,0.088791f,-0.198658f,-0.124179f,-0.021106f,0.290951f,0.031868f,0.099150f,-0.048130f,0.387670f,0.000293f,0.167740f,-0.361840f,0.014614f,0.283743f,0.006163f,-0.048854f,-0.010629f,-0.000558f,0.134385f,0.005191f,-0.032175f,0.125854f,-0.029372f,-0.070519f,-0.067161f,0.066448f,0.103370f,0.015980f,0.187918f,-0.161165f,0.023946f,0.039248f,-0.003716f,-0.066680f,0.158025f,-0.015963f,-0.011865f,-0.122899f,-0.074204f,-0.254623f,-0.007232f,0.061252f,-0.071699f,-0.327628f,-0.008829f,0.192544f,-0.226252f,-0.037347f,-0.004312f,-0.020424f,0.124879f,0.114924f,-0.053712f,-0.020625f,0.055831f,-0.064864f,-0.077353f,-0.135763f,0.005271f,0.016232f,-0.008569f,0.118807f,-0.123730f,-0.076522f,0.065155f,0.179744f,-0.074224f,0.006627f,0.137978f,-0.113530f,0.067444f,-0.001964f,0.089767f,0.017973f,0.153676f,0.052970f,0.002994f,0.062081f,0.011230f,-0.064832f,0.000447f,-0.021099f,0.118449f,0.034763f,0.017304f,0.153459f,-0.063056f,0.023723f,0.005197f,0.050318f,-0.014629f,-0.032632f,0.090454f,-0.133039f,-0.051467f,-0.140076f,-0.035107f,-0.326146f,0.067927f,-0.012111f,-0.487081f,-0.181923f,-0.059188f,-0.148188f,0.012159f,0.214537f,0.075678f,-0.163708f,0.079143f,0.030282f,-0.098397f,-0.016697f,-0.029556f,-0.046882f,0.022736f,0.054484f,0.002030f,-0.074818f,-0.103937f,-0.152068f,-0.018470f,-0.412866f,0.005835f,-0.029281f,0.003268f,0.082533f,-0.057065f,0.018609f,0.019134f,0.085004f,0.067159f,-0.006619f,-0.032261f,-0.051468f,0.026932f,-0.046353f,0.034759f,-0.020799f,0.058756f,0.176132f,-0.033955f,0.102067f,-0.036451f,0.074557f,0.111234f,-0.046663f,0.143137f,-0.006964f,-0.033807f,0.031196f,-0.134874f,0.134564f,-0.009777f,0.065642f,0.032529f,-0.029636f,-0.101249f,-0.017875f,0.124499f,0.050777f,-0.010549f,-0.026087f,-0.083056f,-0.021409f,-0.082224f,-0.164742f,-0.058245f,-0.070730f,-0.036881f,-0.006433f,-0.056509f,0.068134f,-0.010018f,-0.051378f,-0.033535f,0.000090f,0.002463f,-0.025801f,-0.090166f,-0.012970f,-0.088177f,0.005602f,-0.091497f,-0.145792f,-0.122140f,-0.047928f,-0.021045f,-0.036085f,0.008900f,0.001826f,-0.056590f,0.030083f,0.013202f,-0.035673f,0.080326f,-0.069452f,-0.070796f,0.007216f,0.027136f,-0.023940f,-0.039715f,0.000180f,0.141108f,-0.065845f,-0.041811f,-0.029677f,-0.043481f,-0.046345f,-0.041764f,-0.037093f,-0.137190f,-0.084816f,-0.070312f,-0.072272f,-0.038306f,-0.116276f,-0.045692f,-0.007106f,-0.050663f,-0.000770f,0.046490f,-0.044748f,0.166473f,0.112218f,-0.031318f,0.141613f,0.021569f,-0.009499f,-0.082018f,-0.122427f,-0.073362f,0.033068f,-0.033577f,0.078641f,-0.050738f,0.076559f,-0.058911f,0.017090f,-0.090568f,0.029262f,0.028423f,-0.000414f,0.046032f,0.030893f,-0.013151f,-0.153716f,-0.002641f,-0.064010f,-0.181186f,0.052235f,0.011050f,0.129967f,0.015326f,-0.068272f,0.065867f,0.008191f,0.018297f,-0.025762f,0.009530f,-0.024088f,0.077449f,-0.116549f,0.007036f,-0.033041f,0.043621f,-0.023450f,0.067300f,-0.075195f,-0.007551f,-0.017712f,0.023559f,-0.130370f,-0.031590f,-0.020510f,-0.094765f,0.009754f,0.006881f,0.041864f,0.009127f,-0.061547f,-0.050564f,-0.060539f,0.016038f,-0.040797f,0.010354f,0.036101f,0.067464f,0.048372f,0.010161f,0.071083f,-0.066015f,-0.021000f,0.041934f,-0.138455f,0.023283f,-0.043888f,0.019276f,-0.029634f,-0.026718f,0.060805f,-0.011492f,-0.089171f,0.225681f,-0.040387f,0.038778f,0.029214f,0.121840f,0.042697f,0.027992f,0.121015f,0.201046f,-0.056662f,-0.054626f,0.211079f,0.052627f,-0.011831f,-0.001660f,0.099372f,0.017730f,-0.077025f,-0.050320f,-0.114632f,-0.051023f,-0.043177f,-0.086363f,-0.036250f,-0.113287f,-0.037194f,-0.320802f,-0.008397f,-0.009719f,0.017464f,-0.037143f,0.069426f,-0.040216f,-0.049738f,-0.076314f,-0.003183f,0.002949f,-0.033038f,-0.014297f,-0.049508f,-0.124774f,0.194238f,0.012079f,0.269673f,-0.038776f,-0.023301f,0.014729f,0.112154f,0.174289f,-0.022697f,-0.004993f,0.177334f,0.128218f,-0.003749f,-0.004452f,0.095091f,-0.046880f,0.005549f,-0.017486f,-0.091918f,-0.185361f,0.056399f,0.057584f,-0.024586f,0.242367f,-0.014669f,-0.049413f,-0.053664f,-0.079868f,0.112026f,-0.010245f,-0.006400f,-0.044672f,-0.016302f,0.009280f,-0.114759f,0.040384f,0.110973f,0.011244f,-0.125628f,-0.109811f,-0.125998f,-0.142662f,0.098521f,0.001176f,0.002107f,-0.184133f,0.126413f,0.060809f,-0.013987f,-0.069368f,-0.005924f,-0.109577f,-0.137353f,0.014966f,0.054772f,-0.067548f,-0.033315f,0.094998f,-0.020064f,0.087358f,0.105197f,-0.073656f,-0.018626f,-0.053135f,-0.214073f,0.087490f,-0.018993f,-0.053465f,-0.007135f,-0.077895f,-0.027222f,-0.075490f,-0.176502f,0.030080f,-0.202960f,0.409217f,0.028244f,0.317284f,0.040619f,-0.037007f,-0.011118f,-0.034322f,-0.037747f,-0.029631f,0.018138f,-0.031751f,0.001026f,0.023647f,-0.036633f,-0.068391f,-0.005635f,-0.062824f,-0.054861f,-0.017691f,0.112945f,-0.114421f,0.134941f,0.027025f,-0.123844f,-0.090430f,-0.037418f,-0.011403f,0.168680f,-0.113839f,-0.144341f,-0.137194f,-0.194757f,-0.046252f,-0.000927f,-0.239183f,-0.064866f,0.018709f,-0.003285f,-0.128405f,-0.014219f,-0.123403f,0.113617f,0.037135f,-0.052635f,-0.028911f,0.011899f,0.056278f,-0.047380f,-0.114453f,0.109102f,-0.025128f,-0.147138f,-0.044909f,0.113493f,0.038146f,-0.040492f,0.000632f,-0.004909f,0.138542f,-0.044052f,0.132018f,0.002597f,-0.014026f,-0.084684f,0.237308f,-0.056718f,0.018879f,0.030725f,-0.040691f,-0.131009f,-0.012758f,0.025556f,-0.202505f,-0.012221f,0.224141f,0.001755f,-0.175835f,0.070989f,0.018130f,-0.031404f,-0.030524f,-0.093021f,-0.054207f,-0.023018f,-0.005526f,0.158379f,-0.079409f,-0.242446f,0.040321f,-0.112709f,0.018576f,-0.051681f,0.014644f,0.013243f,0.003983f,-0.004365f,-0.093318f,0.023640f,-0.269492f,0.091045f,-0.074500f,-0.007200f,0.043011f,0.025314f,0.035425f,0.139586f,0.055894f,0.034387f,-0.010156f,-0.068592f,0.031594f,-0.027453f,-0.154092f,-0.127407f,0.000938f,-0.061862f,-0.095046f,0.032906f,0.213992f,-0.269771f,-0.037210f,0.007882f,0.030780f,-0.012677f,0.170193f,-0.236499f,-0.012125f,-0.122917f,-0.036367f,-0.010006f,0.018030f,0.162470f,-0.024067f,-0.020320f,0.008279f,0.205907f,0.110399f,0.017145f,0.055850f,0.047664f,-0.018296f,-0.032105f,0.067742f,0.033719f,-0.044433f,-0.106989f,-0.026673f,-0.209637f,-0.005323f,0.094080f,0.189704f,-0.054844f,-0.096186f,0.001017f,-0.003384f,0.020453f,-0.008181f,-0.019850f,0.141930f,0.154388f,0.051105f,0.002044f,-0.134970f,0.141228f,0.084854f,-0.032248f,0.128943f,0.028196f,-0.159928f,0.116671f,0.086772f,-0.164189f,0.006811f,-0.025545f,-0.017912f,-0.038040f,0.118136f,-0.112329f,-0.029552f,-0.035546f,0.052533f,0.205272f,0.100942f,0.108816f,-0.020780f,0.021399f,0.052001f,-0.093546f,0.197772f,-0.275637f,0.014408f,-0.132502f,-0.189501f,0.013723f,0.098803f,-0.000594f,0.021450f,-0.011362f,-0.013650f,0.006481f,0.109166f,-0.015360f,0.131087f,0.003916f,0.139943f,-0.048809f,0.061631f,-0.033513f,-0.015247f,-0.245469f,-0.026713f,0.011010f,-0.016422f,-0.109928f,0.053835f,0.094223f,-0.138851f,-0.037047f,-0.027104f,-0.096396f,-0.055297f,-0.065742f,0.094568f,0.115046f,0.226595f,-0.024194f,0.080383f,0.006807f,-0.081613f,-0.044119f,0.091287f,-0.018108f,-0.004436f,-0.035225f,-0.101070f,-0.092849f,-0.013284f,0.051216f,0.005396f,-0.026537f,0.041259f,-0.080080f,-0.034892f,0.094640f,-0.113530f,0.092454f,-0.015639f,0.026433f,0.040916f,-0.036510f,0.126451f,0.098754f,-0.052892f,-0.326273f,0.027502f,-0.213584f,-0.145181f,-0.025825f,0.093280f,0.096197f,-0.040415f,0.011688f,0.019219f,0.005210f,0.196364f,-0.051913f,0.004351f,-0.127689f,0.048655f,-0.042595f,0.105909f,0.028713f,-0.002560f,-0.068104f,-0.041025f,-0.082602f,0.083126f,-0.190215f,-0.112193f,0.004286f,-0.008024f,0.047079f,-0.006335f,0.016210f,-0.020045f,-0.136546f,0.015250f,-0.103997f,0.066796f,-0.010806f,0.134901f,0.039848f,-0.096716f,-0.016274f,0.038530f,-0.002061f,-0.007342f,-0.097040f,-0.009846f,0.215266f,-0.024888f,0.135701f,0.004395f,-0.028543f,-0.062438f,-0.072616f,-0.046635f,0.140628f,-0.025030f,-0.019009f,0.033413f,0.094320f,-0.036784f,0.027623f,0.076408f,0.010832f,0.050456f,-0.102281f,-0.006689f,-0.192817f,-0.143957f,-0.023411f,-0.028149f,0.110706f,-0.031456f,0.085036f,-0.033889f,0.023973f,0.150098f,0.010943f,0.028932f,-0.067499f,0.024717f,-0.056183f,-0.009580f,0.010543f,-0.045746f,-0.047328f,0.027718f,0.050780f,0.008882f,0.049173f,0.017574f,-0.015920f,-0.130431f,0.099491f,0.003931f,0.032704f,0.017240f,-0.095102f,-0.007749f,-0.136136f,-0.088378f,-0.026236f,0.131221f,0.031066f,-0.087765f,0.025199f,-0.043638f,-0.036315f,0.021124f,0.043205f,-0.000533f,0.013237f,-0.064155f,0.042705f,0.026286f,0.018735f,0.156162f,-0.073792f,-0.057754f,-0.087801f,-0.074578f,0.000438f,0.137409f,-0.095708f,-0.052981f,0.022946f,0.105064f,0.088187f,0.211215f,0.073747f,-0.016343f,0.005068f,0.083676f,-0.006355f,0.216048f,0.093981f,-0.018894f,0.103000f,0.023013f,-0.053905f,-0.029566f,-0.012127f,0.083582f,0.223153f,-0.001474f,0.055911f,0.012653f,0.023970f,-0.135099f,-0.047757f,-0.032192f,-0.025440f,0.029650f,0.083474f,-0.060249f,0.127422f,-0.067722f,0.042441f,-0.000671f,0.036339f,-0.005455f,0.026107f,-0.169607f,-0.248626f,0.055416f,-0.018299f,-0.188257f,-0.182754f,0.034750f,-0.027566f,0.052566f,-0.000013f,-0.050473f,0.029644f,0.032736f,0.207461f,-0.034135f,-0.060958f,0.034245f,-0.027259f,0.239799f,0.101412f,-0.013485f,-0.057914f,0.015294f,0.144918f,-0.048618f,0.006522f,-0.014332f,0.001857f,-0.042393f,-0.179871f,0.066218f,-0.072229f,-0.027232f,-0.168701f,0.250416f,-0.025875f,-0.113084f,0.053999f,-0.023817f,-0.335115f,0.019274f,-0.011075f,-0.034888f,-0.213086f,0.205015f,0.047096f,-0.150653f,0.056664f,-0.013509f,-0.030687f,0.020057f,-0.096210f,-0.028545f,0.028014f,-0.000955f,0.288185f,-0.070448f,-0.195801f,-0.107997f,0.031415f,0.012235f,-0.050453f,-0.021900f,-0.106462f,0.073436f,-0.247668f,-0.028471f,0.004356f,-0.228029f,-0.063611f,0.036703f,0.013459f,0.172687f,0.018801f,-0.116411f,0.204727f,-0.013249f,-0.021010f,0.003636f,-0.075361f,0.011365f,0.031496f,-0.086931f,-0.083123f,0.024871f,0.236794f,-0.046527f,0.174869f,-0.063473f,-0.191615f,-0.006627f,0.025718f,0.001849f,-0.223994f,-0.054735f,0.067265f,-0.001775f,-0.290280f,0.060681f,-0.016759f,-0.227756f,0.125103f,-0.072956f,-0.168427f,0.033592f,0.078935f,-0.102375f,-0.148033f,0.118452f,-0.090863f,-0.107131f,0.083409f,0.037941f,0.004405f,-0.002340f,-0.019456f,-0.029271f,0.055285f,-0.083673f,0.085353f,-0.066266f,-0.042974f,0.057147f,-0.113812f,-0.004877f,-0.141891f,0.011492f,-0.180288f,-0.190404f,-0.054867f,-0.066901f,0.009136f,-0.193423f,-0.146273f,0.056062f,-0.014784f,0.037864f,-0.010892f,-0.090552f,0.320830f,-0.070243f,0.042990f,-0.031731f,-0.120958f,0.100927f,-0.004277f,-0.172461f,0.005552f,-0.045673f,0.144129f,0.002537f,0.197512f,-0.004984f,-0.307098f,-0.067259f,-0.005317f,0.243756f,-0.316698f,0.180988f,-0.025337f,0.022672f,-0.327969f,0.056727f,-0.022650f,-0.219102f,0.016884f,-0.029030f,0.094965f,0.013054f,0.063070f,-0.072490f,0.075646f,-0.038709f,-0.086544f,0.135449f,0.065735f,-0.039630f,-0.025980f,-0.051854f,-0.212287f,0.002385f,-0.093525f,0.035320f,0.158870f,0.036009f,0.091539f,-0.050400f,-0.019098f,-0.017906f,-0.151685f,-0.051373f,-0.007553f,-0.061811f,-0.107227f,0.137739f,-0.050669f,-0.143754f,-0.002899f,0.038669f,-0.006367f,0.068072f,0.003873f,-0.107221f,0.124952f,0.114427f,0.165365f,-0.021007f,-0.136298f,0.006499f,0.008021f,-0.022276f,0.008401f,-0.043574f,0.001692f,0.021725f,0.154241f,-0.156146f,-0.045124f,-0.009427f,0.007716f,0.018221f,0.153341f,-0.074125f,-0.277793f,-0.033052f,-0.172482f,0.026961f,-0.011510f,-0.071110f,-0.039991f,-0.011957f,0.108833f,0.020225f,0.024831f,0.099078f,0.065850f,0.059357f,-0.102491f,0.079676f,-0.098824f,-0.077029f,-0.020640f,-0.044888f,-0.225346f,0.003959f,-0.017779f,0.015625f,0.024425f,-0.015495f,0.019433f,0.043997f,0.023630f,-0.029600f,-0.173881f,0.012921f,0.186531f,0.024506f,-0.309440f,0.135169f,-0.067322f,0.024419f,-0.082945f,-0.071558f,-0.053337f,0.002558f,0.000708f,0.045059f,0.005352f,-0.017517f,0.033792f,-0.042740f,-0.187584f,-0.066177f,0.013487f,-0.001087f,-0.122580f,-0.043604f,-0.111749f,-0.082743f,0.054792f,-0.188176f,-0.012354f,0.007123f,0.001759f,-0.116239f,0.162727f,-0.035918f,-0.179154f,0.009780f,-0.091562f,0.134807f,-0.022754f,0.042896f,0.026665f,-0.033039f,0.031847f,0.013762f,0.017849f,0.141586f,-0.133379f,0.012920f,-0.146373f,0.003004f,-0.017625f,-0.127452f,-0.005426f,0.020384f,-0.000668f,-0.008459f,-0.058615f,0.004413f,0.043379f,-0.112397f,-0.047481f,-0.050035f,0.110650f,0.023507f,0.003000f,0.056288f,-0.071775f,-0.167792f,-0.115792f,0.149037f,-0.022230f,0.185276f,-0.037526f,-0.073716f,0.026493f,-0.069198f,-0.020144f,-0.072450f,0.024705f,-0.018945f,0.014873f,-0.067830f,-0.061815f,-0.017159f,0.008834f,0.076710f,-0.139933f,-0.081995f,-0.050563f,0.007777f,0.217434f,-0.093943f,0.045644f,0.060346f,0.005870f,-0.301271f,0.022558f,0.048161f,-0.100026f,-0.026993f,-0.176041f,0.061653f,-0.030657f,0.082764f,-0.021659f,0.037235f,0.135908f,-0.002443f,0.002878f,0.129704f,-0.049267f,-0.110048f,0.245269f,-0.043052f,-0.002857f,0.053956f,-0.024448f,-0.020793f,0.089836f,0.025165f,0.074658f,0.056855f,0.216011f,-0.043489f,0.064725f,0.001465f,0.062505f,-0.013719f,-0.219932f,0.054213f,0.197564f,0.188687f,0.039283f,-0.289615f,-0.006698f,-0.024978f,0.022156f,-0.031450f,-0.025066f,-0.026159f,-0.026004f,-0.067697f,-0.150466f,-0.041584f,0.150185f,-0.001081f,-0.059622f,-0.062176f,-0.005289f,-0.028112f,-0.014354f,-0.007584f,0.243604f,-0.082531f,0.119350f,0.011408f,0.125763f,-0.075934f,-0.019323f,0.195538f,-0.249594f,-0.003880f,0.085970f,0.002183f,0.076357f,0.072838f,-0.029453f,-0.023175f,-0.068582f,-0.030751f,-0.021421f,-0.020114f,0.067865f,0.146045f,-0.142789f,0.205226f,0.228083f,-0.238967f,0.048754f,0.093076f,0.015558f,-0.015613f,-0.212869f,-0.053028f,-0.087064f,-0.116908f,0.041352f,-0.022448f,-0.221019f,0.076173f,-0.190613f,-0.015499f,-0.077075f,-0.004822f,0.171193f,0.005204f,-0.340059f,0.108907f,0.001926f,0.016211f,0.014417f,0.021434f,-0.015623f,0.235495f,0.027681f,0.070187f,0.092336f,0.005979f,0.114091f,0.008224f,-0.021327f,-0.038684f,-0.032036f,0.050617f,-0.012105f,0.025199f,0.188056f,0.009578f,0.044735f,0.079084f,-0.125037f,0.098612f,0.004265f,0.016746f,0.016555f,-0.020376f,-0.077621f,-0.021008f,0.016383f,0.167414f,-0.010724f,-0.117508f,-0.068744f,-0.002987f,-0.029922f,-0.016017f,0.029443f,0.061366f,-0.209741f,0.171876f,0.097545f,-0.058301f,0.033625f,-0.021753f,-0.007524f,-0.031864f,-0.143781f,-0.022952f,0.156529f,0.022201f,0.057213f,-0.110942f,-0.000673f,-0.299276f,0.062198f,0.024051f,0.025585f,0.053281f,-0.028776f,-0.051832f,-0.269907f,0.078546f,-0.026509f,0.020460f,-0.147371f,0.054038f,-0.014003f,0.141390f,0.027250f,0.018632f,0.049782f,-0.044586f,-0.029478f,0.003641f,0.021234f,0.086502f,-0.020131f,0.108456f,-0.144929f,0.039554f,0.132193f,0.013359f,0.195870f,0.161673f,0.181430f,-0.066140f,0.020615f,-0.019448f,-0.004131f,-0.058079f,0.184770f,0.003311f,0.058328f,-0.020154f,0.018248f,-0.106249f,-0.239105f,-0.039025f,-0.085374f,-0.008048f,0.045754f,-0.001565f,-0.033784f,-0.071650f,-0.026226f,0.074190f,0.003673f,0.001663f,0.007919f,0.017964f,0.099385f,-0.029417f,-0.036668f,0.137589f,0.019911f,0.083029f,0.141542f,-0.207521f,-0.011557f,-0.029235f,-0.043875f,-0.015905f,-0.293533f,-0.125394f,0.026343f,0.220638f,0.010386f,0.091650f,0.163432f,-0.084682f,-0.033814f,-0.007463f,0.004768f,-0.073324f,0.128296f,-0.043746f,0.087335f,-0.015126f,0.076554f,0.059024f,-0.038005f,0.000216f,0.116576f,0.020960f,-0.048936f,0.009779f,0.185884f,0.024624f,-0.196600f,-0.085632f,0.015416f,0.023499f,-0.022431f,0.108450f,-0.150882f,0.004959f,0.061914f,0.088561f,-0.008625f,-0.018550f,-0.191963f,-0.038916f,-0.022520f,0.003668f,-0.148765f,-0.043186f,0.159928f,-0.111470f,-0.033868f,0.054874f,0.033532f,-0.000623f,-0.004369f,-0.012410f,-0.048792f,-0.044185f,-0.115139f,0.070914f,0.120202f,-0.088242f,0.107237f,-0.014976f,-0.070824f,-0.001751f,-0.138008f,0.037340f,-0.148581f,0.047217f,-0.147815f,0.115535f,-0.013720f,-0.020607f,0.092482f,0.175869f,0.001802f,0.045909f,-0.002829f,0.054615f,-0.104901f,-0.085244f,-0.053603f,0.015682f,0.091263f,-0.015203f,-0.020493f,-0.003975f,-0.111893f,-0.022168f,-0.104144f,0.135032f,-0.147594f,0.225366f,0.094429f,-0.019603f,0.033294f,-0.075022f,0.035462f,0.063575f,-0.209249f,0.009203f,-0.048972f,0.153062f,0.032549f,0.006084f,-0.035518f,-0.002174f,0.006372f,-0.019837f,-0.015958f,0.120225f,0.113011f,0.050996f,0.075244f,-0.288754f,0.021515f,0.033691f,-0.020355f,0.075069f,0.098300f,-0.048679f,0.165452f,0.066288f,0.100259f,-0.082689f,-0.006676f,0.082342f,0.011311f,-0.000712f,0.095438f,0.006880f,-0.000856f,-0.086494f,-0.280359f,-0.174840f,-0.015749f,0.033385f,0.092554f,-0.050085f,-0.013049f,0.024492f,0.010443f,0.125185f,0.094693f,-0.016469f,-0.010312f,0.008275f,0.019000f,-0.036613f,-0.006062f,-0.133248f,-0.196810f,-0.029982f,-0.090833f,0.030064f,-0.097557f,0.038271f,-0.106902f,0.048048f,-0.017013f,-0.026210f,-0.060216f,0.010589f,-0.223587f,-0.014091f,-0.016979f,-0.007256f,0.027506f,0.048088f,0.009329f,-0.093262f,0.025813f,0.008040f,0.117493f,0.069961f,-0.085809f,0.025806f,0.030817f,-0.189032f,-0.024893f,-0.023547f,-0.037234f,-0.021975f,0.143556f,-0.021759f,0.079069f,0.102986f,0.188252f,-0.037462f,-0.078669f,-0.033295f,-0.115488f,-0.029228f,0.054992f,-0.066131f,-0.207306f,0.009810f,-0.145127f,-0.079264f,-0.011526f,0.079261f,0.018739f,-0.064646f,-0.015767f,0.018899f,-0.015982f,0.016159f,-0.071573f,-0.053287f,0.097587f,-0.028546f,0.109963f,-0.007748f,-0.038508f,0.041945f,-0.099379f,0.009920f,0.030211f,0.049014f,0.176443f,0.002170f,0.072176f,0.022092f,0.005003f,-0.040061f,0.051620f,0.004575f,-0.074968f,0.016809f,0.001286f,0.029485f,-0.026462f,0.187717f,0.231729f,-0.021537f,0.091087f,-0.041029f,-0.157328f,-0.104108f,0.049129f,0.041225f,-0.068386f,0.003084f,-0.059493f,-0.088582f,0.015674f,-0.037331f,-0.056195f,-0.052035f,0.251756f,-0.132663f,0.106863f,-0.002626f,0.033775f,0.081052f,-0.031196f,-0.019367f,-0.103874f,-0.031770f,-0.152942f,0.046861f,-0.157698f,-0.184858f,-0.036855f,0.046127f,0.062227f,0.037078f,-0.019679f,0.072001f,0.001836f,0.207115f,-0.202548f,-0.069223f,-0.133542f,0.024618f,-0.071082f,-0.020103f,0.022668f,-0.059949f,-0.019379f,0.008462f,-0.057564f,-0.087525f,-0.099631f,0.008358f,-0.159771f,-0.001898f,-0.041709f,0.066035f,0.076951f,-0.035445f,0.261894f,-0.019874f,0.118116f,0.036824f,-0.008761f,0.135417f,0.115989f,0.005165f,0.055691f,-0.009681f,-0.023353f,-0.332427f,-0.022772f,0.048674f,-0.007805f,-0.161012f,0.035269f,0.046100f,0.013102f,0.124970f,-0.169843f,-0.030773f,0.159083f,0.007363f,0.028866f,-0.077615f,-0.091337f,0.019323f,-0.027681f,-0.027951f,0.023058f,0.063532f,-0.145864f,0.018413f,-0.165616f,-0.122669f,0.023373f,0.181167f,0.137032f,-0.032730f,0.014423f,0.135185f,-0.020934f,0.127041f,0.151058f,0.055576f,0.059556f,-0.011845f,-0.032197f,-0.060579f,-0.011997f,0.122389f,-0.026191f,0.062374f,0.147564f,-0.046263f,-0.146047f,0.050303f,0.035583f,-0.057551f,-0.031597f,-0.032415f,-0.232743f,0.055665f,-0.029023f,-0.032992f,-0.112787f,-0.020552f,-0.027056f,0.028466f,-0.040203f,0.028817f,-0.087792f,-0.032568f,0.077679f,-0.100057f,0.086601f,0.072487f,0.014047f,-0.196291f,0.021128f,-0.092259f,-0.024990f,0.016673f,-0.184047f,0.005809f,0.073307f,0.099982f,0.028447f,0.019917f,0.076124f,-0.188422f,-0.057057f,0.000173f,0.176737f,0.033658f,-0.189506f,-0.186484f,0.024272f,-0.000259f,0.023463f,0.048637f,0.010007f,-0.131374f,-0.035146f,0.033340f,0.000158f,-0.162101f,-0.034331f,0.104675f,0.096390f,-0.058367f,-0.022900f,0.051039f,-0.015641f,0.010751f,-0.064357f,-0.012108f,0.024790f,-0.031029f,0.114869f,0.143675f,-0.011659f,-0.079553f,0.008389f,0.066498f,0.041393f,0.086966f,-0.045226f,-0.026437f,0.094415f,0.027250f,-0.006418f,0.090773f,0.070956f,-0.049427f,-0.149545f,0.005016f,0.212073f,-0.062239f,0.048227f,-0.131607f,-0.012582f,0.039105f,-0.041749f,-0.000065f,-0.020536f,0.054152f,-0.005157f,-0.029918f,-0.067929f,0.169315f,0.044554f,-0.080254f,0.121728f,0.063740f,0.053844f,-0.030753f,0.065147f,-0.004631f,-0.173287f,-0.021108f,0.230362f,0.081509f,-0.007008f,-0.031563f,0.025966f,-0.059324f,0.010558f,-0.067602f,0.033747f,-0.263398f,0.013741f,0.054085f,0.116121f,-0.019949f,0.032950f,-0.054251f,-0.020974f,0.019153f,0.022591f,-0.027130f,-0.019605f,0.012382f,-0.015793f,0.072132f,-0.051478f,-0.050512f,-0.035042f,-0.056218f,0.089467f,0.107015f,0.055121f,-0.045981f,0.098844f,0.079977f,-0.023620f,-0.103769f,0.025343f,-0.048673f,-0.161582f,-0.002476f,-0.082105f,0.042457f,0.087064f,-0.071053f,-0.003737f,0.114833f,-0.084650f,0.054532f,-0.002704f,0.094909f,0.120009f,-0.007352f,-0.092773f,0.147068f,0.029715f,0.053822f,-0.057440f,0.138038f,0.100841f,0.028097f,-0.018140f,-0.063551f,-0.090079f,0.066932f,-0.278434f,-0.039895f,0.024506f,-0.002245f,0.002344f,-0.026917f,-0.009861f,-0.065651f,-0.034218f,-0.012809f,0.029246f,0.051986f,0.000580f,-0.016817f,0.048844f,-0.016687f,-0.035677f,0.046826f,-0.102517f,-0.070267f,-0.083322f,-0.198736f,0.169499f,0.044643f,0.107754f,-0.081527f,0.014299f,0.085770f,-0.017730f,-0.071369f,-0.149954f,-0.015268f,-0.008037f,0.089477f,-0.021292f,-0.347086f,0.146897f,0.006212f,-0.076297f,-0.031180f,0.072352f,0.017376f,-0.024281f,-0.007789f,0.187178f,0.026020f,-0.093705f,-0.023568f,-0.058548f,0.011759f,0.058841f,-0.024654f,0.105709f,0.028060f,0.000438f,-0.046967f,-0.098034f,0.038067f,0.007661f,-0.002834f,0.072244f,-0.022178f,-0.248584f,0.110916f,-0.025028f,-0.139099f,0.023951f,0.045098f,0.100424f,0.046870f,-0.029682f,0.080582f,-0.022485f,-0.035176f,0.085695f,-0.072978f,-0.018345f,-0.035045f,-0.070433f,-0.059658f,0.008672f,0.049373f,-0.057458f,-0.009820f,-0.190810f,-0.036897f,-0.018099f,-0.118241f,0.041388f,-0.044623f,-0.032487f,0.129497f,-0.025709f,0.019564f,-0.224448f,-0.029609f,-0.093273f,-0.061375f,0.005184f,-0.009411f,0.104901f,0.002477f,-0.158977f,0.003356f,-0.082113f,-0.135553f,0.110837f,-0.023459f,0.125207f,0.093158f,-0.031695f,0.002539f,0.013306f,0.032147f,0.041231f,0.015319f,0.087367f,0.107926f,0.042040f,-0.083044f,-0.008899f,0.158671f,0.021606f,-0.011389f,0.076791f,-0.009945f,-0.131448f,0.005404f,0.012590f,-0.208797f,-0.019072f,0.081128f,0.082507f,0.025331f,-0.020401f,0.079724f,-0.015817f,-0.018736f,-0.090949f,-0.029399f,-0.118841f,-0.008673f,-0.087453f,-0.027337f,0.009827f,-0.051882f,-0.193939f,-0.020459f,-0.008572f,-0.063667f,-0.140530f,-0.218502f,0.032947f,-0.004655f,0.026496f,0.119488f,0.049905f,-0.089866f,0.070931f,-0.017677f,-0.152800f,0.060243f,-0.008383f,-0.090360f,0.109930f,-0.011105f,-0.105989f,0.027939f,-0.158302f,-0.047453f,0.101115f,0.142049f,-0.049952f,-0.028025f,-0.028339f,-0.044974f,-0.028900f,-0.084594f,0.120335f,-0.057621f,0.024098f,-0.105451f,-0.064876f,-0.045022f,-0.098084f,0.066907f,-0.008181f,-0.001568f,0.175464f,-0.019320f,-0.162448f,0.128788f,-0.041463f,-0.036404f,-0.025656f,-0.088299f,-0.006662f,0.015972f,-0.055054f,0.113733f,0.003584f,-0.107507f,-0.158302f,-0.046988f,-0.096125f,-0.023337f,-0.050308f,-0.030124f,-0.023285f,-0.075052f,0.017787f,-0.015939f,-0.003383f,-0.044909f,-0.021833f,0.209428f,0.016356f,-0.034384f,-0.025804f,0.051859f,0.139996f,0.233538f,0.010800f,-0.031143f,-0.228241f,-0.126490f,0.016440f,-0.028894f,-0.061173f,-0.018595f,0.177497f,-0.026535f,0.056716f,-0.130295f,0.097327f,0.157572f,-0.094848f,-0.075718f,0.083806f,-0.054308f,0.010715f,0.052540f,0.060647f,-0.006832f,0.027779f,-0.011109f,-0.002018f,0.072458f,-0.098667f,0.025858f,-0.025290f,0.013673f,0.200104f,-0.000618f,0.017730f,-0.083991f,-0.074632f,0.037235f,0.022734f,-0.001504f,-0.009647f,0.035818f,-0.025601f,-0.050204f,0.018951f,0.015309f,-0.068995f,0.020350f,0.089393f,0.014629f,0.056829f,-0.071871f,0.000253f,-0.028546f,0.055597f,-0.066840f,0.061959f,-0.037872f,-0.046255f,0.018675f,-0.143322f,-0.024827f,-0.013055f,0.034593f,-0.108146f,-0.104269f,0.217712f,-0.016085f,0.076514f,0.028813f,-0.013118f,0.129418f,0.040118f,-0.023169f,-0.005261f,-0.005790f,0.003758f,-0.130592f,0.014107f,0.022398f,0.016738f,0.038308f,0.054526f,-0.001867f,-0.003583f,0.014758f,0.052871f,-0.099943f,0.032529f,-0.056683f,0.032200f,-0.140674f,0.030825f,0.093677f,-0.112052f,0.003076f,-0.021545f,-0.026993f,0.009215f,-0.013064f,-0.090922f,0.056716f,-0.030044f,0.039899f,-0.067790f,-0.042367f,-0.030004f,-0.019589f,-0.035211f,0.020876f,-0.075463f,0.028901f,0.000884f,-0.002183f,0.021804f,-0.098067f,0.020580f,0.000776f,0.024452f,-0.097644f,0.048074f,-0.094373f,-0.042069f,-0.113681f,0.007978f,0.067524f,-0.002560f,0.105417f,-0.063752f,0.006003f,0.073708f,-0.010951f,0.055388f,0.045655f,-0.012860f,0.088903f,0.072469f,-0.031213f,0.096311f,-0.021552f,-0.093875f,-0.029619f,-0.000708f,-0.043131f,-0.033121f,0.023120f,0.049665f,-0.039732f,-0.005472f,0.009538f,0.025536f,-0.050343f,-0.048647f,-0.252656f,0.023738f,0.021887f,-0.157590f,0.077921f,-0.009499f,-0.009136f,-0.072734f,-0.016452f,0.017623f,0.051057f,-0.018891f,0.044163f,-0.021514f,-0.034869f,-0.092406f,-0.072151f,-0.002596f,-0.088563f,-0.032442f,0.046983f,0.003119f,-0.022041f,-0.044602f,-0.016937f,-0.028023f,-0.050873f,-0.044832f,-0.049909f,0.003332f,-0.059389f,-0.054433f,-0.065962f,0.015722f,-0.138629f,-0.035496f,0.005266f,-0.017204f,-0.106433f,0.043846f,0.035745f,0.009575f,-0.026450f,0.010684f,0.035907f,-0.007878f,0.002196f,0.026315f,-0.006058f,0.105795f,-0.011948f,-0.037372f,0.050576f,-0.030644f,0.002546f,0.060368f,0.041712f,-0.086155f,0.015311f,-0.071285f,-0.078505f,-0.000446f,-0.035713f,0.048222f,-0.361275f,0.034135f,-0.147330f,-0.063089f,-0.018667f,-0.013706f,-0.038894f,-0.017553f,-0.024623f,0.010992f,0.027499f,0.025427f,-0.072680f,-0.011312f,0.016421f,-0.052500f,-0.155866f,-0.059396f,-0.075424f,-0.007766f,-0.007700f,0.008002f,-0.029542f,-0.079652f,-0.024968f,-0.015320f,-0.004075f,0.014343f,0.041605f,-0.032879f,-0.087318f,-0.151224f,-0.053245f,-0.030949f,-0.148399f,-0.051540f,-0.033752f,0.016629f,-0.108104f,0.043647f,-0.013144f,-0.199304f,-0.024300f,-0.119901f,0.055057f,-0.029946f,0.027381f,0.053971f,-0.006239f,0.083338f,-0.013295f,-0.008165f,0.015117f,0.040166f,-0.010116f,-0.093081f,0.055292f,-0.010942f,-0.030298f,0.015175f,-0.071666f,-0.054447f,-0.002745f,0.014730f,-0.347537f,0.106189f,-0.005041f,0.004976f,0.005368f,-0.055844f,-0.019419f,-0.072128f,-0.028175f,0.013152f,0.007722f,0.055454f,0.002111f,-0.036790f,0.019203f,-0.048769f,-0.160122f,0.014796f,0.010072f,0.005819f,-0.113406f,0.015767f,-0.063877f,-0.032724f,-0.071314f,-0.054806f,-0.069142f,0.011363f,0.065560f,-0.041694f,-0.048069f,-0.066695f,0.009691f,-0.113049f,-0.046726f,0.064001f,-0.067896f,-0.011413f,-0.066461f,0.051971f,0.010590f,-0.062538f,0.018861f,-0.053218f,-0.015755f,-0.019283f,-0.085814f,0.081031f,-0.023958f,0.106535f,-0.006098f,-0.207229f,0.050228f,0.072662f,-0.017791f,-0.087837f,-0.060078f,-0.007099f,0.011035f,-0.003844f,-0.029257f,0.156503f,-0.022598f,-0.044112f,-0.271606f,0.095723f,-0.068962f,0.063728f,-0.035851f,-0.035270f,-0.039039f,-0.005294f,0.001550f,-0.083457f,-0.180160f,0.063745f,-0.009572f,-0.034497f,0.169737f,-0.047897f,-0.029572f,-0.017542f,0.030599f,0.016913f,0.017641f,-0.085215f,-0.035794f,-0.009219f,0.016223f,-0.063466f,-0.034349f,-0.021639f,-0.013539f,0.032107f,-0.054223f,-0.084348f,-0.001284f,0.093608f,-0.182159f,0.215174f,-0.038806f,-0.020593f,-0.113238f,0.041716f,-0.060596f,0.096042f,-0.015996f,-0.157016f,-0.008043f,0.020867f,-0.132326f,0.079688f,0.017163f,0.085478f,-0.032423f,-0.051945f,0.014888f,-0.002893f,-0.004960f,0.000174f,-0.009034f,0.006189f,-0.035474f,-0.007831f,-0.042805f,0.007852f,0.010940f,0.044568f,0.065207f,0.001823f,0.025240f,-0.057935f,-0.013137f,-0.025854f,0.017228f,-0.062164f,0.011573f,0.017462f,-0.058343f,-0.057119f,-0.020002f,0.010481f,-0.087835f,-0.036301f,0.025271f,-0.007498f,-0.022095f,-0.037595f,-0.096954f,0.035855f,0.031369f,-0.020396f,0.009523f,0.007303f,0.014059f,0.013937f,-0.050840f,0.015538f,0.037154f,-0.024686f,-0.000698f,0.030290f,-0.038878f,0.074782f,0.006831f,-0.029662f,0.049931f,0.068531f,0.072011f,0.034663f,-0.028773f,-0.031637f,0.121044f,-0.026407f,-0.009858f,-0.000381f,-0.042399f,-0.013803f,-0.025068f,-0.039295f,-0.071861f,0.022943f,0.078190f,-0.045619f,-0.024166f,-0.019029f,-0.018811f,-0.032606f,0.008936f,0.097402f,0.009335f,-0.096385f,0.049158f,0.041473f,0.071161f,-0.013401f,0.057361f,-0.008549f,0.003190f,0.017372f,0.006625f,-0.011444f,0.044516f,0.087698f,-0.026147f,-0.034501f,-0.041553f,-0.038879f,0.020498f,0.043473f,0.032035f,0.005296f,-0.101855f,0.047945f,0.013468f,0.019663f,0.023224f,0.029262f,0.001149f,0.015444f,-0.049938f,0.011163f,0.017745f,0.020338f,-0.048932f,-0.006979f,-0.041307f,0.018039f,0.009638f,-0.003710f,0.060730f,0.182385f,0.094736f,0.080540f,0.027696f,-0.068897f,0.055799f,0.029330f,-0.022910f,0.124231f,-0.036836f,-0.066052f,-0.030870f,-0.006198f,-0.022954f,0.001907f,-0.045029f,-0.108857f,-0.014510f,0.001962f,-0.037825f,0.020192f,0.005560f,0.039321f,-0.014159f,0.017178f,0.085533f,0.071516f,-0.011592f,-0.050957f,0.034065f,-0.001705f,-0.025817f,-0.027791f,-0.019763f,0.008483f,0.019730f,-0.073330f,0.029740f,-0.034276f,0.012909f,-0.079788f,-0.001808f,-0.016385f,0.031006f,-0.030342f,-0.160232f,0.069120f,-0.028164f,-0.021676f,-0.033771f,-0.052940f,0.009995f,0.021474f,-0.032101f,0.030734f,-0.000902f,0.021987f,-0.017809f,0.065430f,-0.011317f,-0.091820f,-0.018636f,0.027020f,-0.018663f,0.034784f,0.032236f,0.001835f,-0.013879f,-0.131206f,0.109836f,0.012179f,0.017089f,0.023884f,-0.038186f,-0.066965f,-0.018027f,-0.100810f,-0.030688f,-0.031139f,-0.043486f,-0.104824f,0.005036f,-0.030299f,-0.065536f,0.017101f,-0.014350f,-0.068082f,-0.028093f,0.006397f,-0.035968f,-0.024397f,0.009469f,-0.083921f,-0.044674f,-0.031631f,0.016617f,-0.065703f,-0.010745f,0.044704f,0.025267f,-0.111770f,0.082689f,-0.024487f,-0.000450f,-0.108587f,-0.000496f,0.003779f,0.029091f,-0.003488f,0.044088f,0.114697f,0.026214f,0.017774f,0.001148f,-0.027143f,-0.020706f,0.017821f,-0.038259f,-0.016584f,0.024624f,0.031031f,-0.046684f,-0.049291f,-0.087169f,-0.109263f,-0.010347f,0.018058f,-0.087868f,-0.010421f,0.042787f,-0.014228f,-0.030142f,0.001623f,-0.064225f,0.014764f,0.014980f,-0.016417f,-0.022132f,-0.014473f,0.017757f,-0.072269f,0.092933f,0.058005f,-0.087258f,-0.112399f,-0.018145f,-0.013666f,-0.004690f,-0.035019f,0.063397f,-0.001355f,-0.033096f,0.016150f,0.038604f,0.032856f,0.019421f,-0.034638f,-0.016950f,-0.048214f,0.009397f,-0.044071f,0.018061f,-0.036006f,0.052870f,0.007440f,0.000361f,0.016015f,-0.007573f,-0.044639f,-0.040565f,-0.017254f,0.018725f,0.001541f,-0.022943f,0.068817f,-0.013001f,-0.007190f,-0.029562f,-0.026036f,-0.012738f,-0.016314f,-0.018086f,0.085505f,0.030089f,-0.010497f,0.018474f,0.083054f,-0.022764f,0.134462f,-0.017121f,-0.030157f,-0.134333f,-0.001907f,0.031086f,0.017405f,-0.038754f,0.023713f,-0.007140f,-0.011933f,-0.062871f,0.003668f,0.004997f,0.003093f,0.010002f,-0.056603f,-0.011354f,-0.063192f,-0.013374f,0.069168f,0.028564f,-0.021939f,-0.006347f,-0.028608f,-0.012050f,-0.072115f,-0.016145f,-0.002356f,0.020818f,0.069488f,-0.018213f,0.031705f,0.004961f,-0.030498f,0.021663f,-0.028222f,0.012983f,0.019549f,0.079409f,0.064751f,0.022843f,0.007479f,0.078823f,0.021844f,0.021585f,0.032341f,0.002917f,-0.006051f,0.045140f,0.017248f,-0.022862f,-0.011200f,0.007153f,-0.001755f,0.013396f,0.002457f,0.020100f,0.034631f,-0.017943f,-0.056917f,-0.017240f,0.057856f,0.001388f,0.046563f,-0.049766f,-0.016197f,-0.092212f,-0.018725f,0.090086f,0.101641f,-0.008975f,0.022597f,-0.065731f,-0.013976f,-0.079662f,0.046230f,0.020572f,-0.046437f,-0.007534f,0.006732f,0.064425f,-0.038335f,0.044539f,-0.035112f,-0.040598f,-0.001059f,0.022091f,0.012054f,-0.011533f,-0.055951f,-0.024133f,-0.028060f,0.027620f,-0.112602f,-0.023044f,0.044203f,0.103483f,-0.048596f,-0.007717f,0.048552f,0.014238f,-0.024485f,-0.000671f,0.057438f,-0.002088f,-0.004215f,0.172457f,-0.025466f,-0.042915f,-0.030730f,0.001204f,-0.041114f,0.084819f,0.002076f,0.011564f,-0.030814f,-0.040315f,0.020612f,0.023270f,-0.037804f,-0.022747f,0.024605f,0.029930f,-0.020558f,-0.034275f,-0.024765f,0.013956f,-0.023580f,0.031152f,-0.005119f,-0.184805f,-0.008369f,-0.037023f,-0.039394f,-0.032708f,-0.077633f,-0.011893f,-0.030834f,-0.096678f,0.092760f,-0.015873f,0.054120f,0.006065f,0.029346f,0.160232f,-0.193845f,-0.022965f,0.023843f,0.070052f,-0.015436f,-0.060883f,-0.031669f,0.008397f,0.008249f,0.000956f,-0.016177f,0.043992f,-0.069814f,-0.054276f,0.082924f,0.036420f,-0.032684f,-0.005175f,-0.085371f,-0.042027f,0.049133f,0.012316f,0.030610f,-0.172832f,-0.033000f,-0.000305f,-0.005074f,-0.030685f,-0.009225f,-0.044343f,0.008969f,0.012615f,-0.019068f,0.023812f,-0.010359f,-0.043230f,0.008770f,-0.010803f,-0.004369f,0.070739f,0.088682f,-0.011095f,-0.057084f,0.031098f,-0.077576f,-0.059714f,-0.041750f,0.006526f,0.015337f,-0.074611f,-0.061532f,-0.115594f,0.162528f,0.001875f,0.006690f,0.111253f,-0.004508f,-0.023009f,-0.038716f,0.013109f,-0.043485f,-0.030885f,0.017023f,-0.030690f,-0.083656f,-0.032478f,0.135685f,0.021272f,0.029160f,-0.032497f,-0.016412f,-0.054274f,0.038745f,-0.037571f,0.009004f,-0.035866f,-0.051538f,-0.041291f,0.024834f,-0.048189f,-0.065060f,-0.018483f,-0.045038f,0.020282f,-0.110735f,-0.042901f,0.026430f,-0.044914f,-0.018299f,-0.074199f,-0.083433f,-0.041179f,0.018267f,-0.059298f,-0.034025f,0.025776f,0.009426f,0.002665f,-0.028345f,0.000956f,-0.010354f,-0.020701f,-0.026344f,0.010029f,-0.034761f,-0.039915f,-0.030134f,-0.042509f,-0.023214f,-0.000789f,-0.226329f,-0.030240f,0.023825f,0.047080f,-0.003423f,-0.095295f,0.074917f,0.002814f,-0.149718f,0.076386f,-0.005193f,0.099937f,-0.023806f,0.004605f,-0.076322f,0.015672f,0.079857f,0.034121f,0.027414f,-0.012476f,-0.081672f,0.017000f,0.022464f,-0.002136f,0.010268f,-0.126762f,0.000821f,0.014185f,0.109082f,0.039133f,-0.048277f,0.014991f,-0.064017f,-0.033216f,-0.065582f,-0.034372f,0.001995f,-0.006843f,0.077705f,-0.076808f,-0.055182f,0.031607f,-0.007407f,-0.149553f,-0.054095f,-0.026556f,0.010296f,-0.160008f,-0.024246f,0.015860f,0.025698f,0.008076f,0.043258f,-0.016399f,0.000826f,-0.041853f,-0.039816f,-0.025530f,0.048718f,-0.012739f,-0.051095f,-0.023039f,-0.023282f,-0.188017f,-0.040448f,-0.056420f,-0.014663f,-0.077426f,0.020259f,-0.118259f,-0.058249f,-0.031212f,-0.027209f,-0.004807f,0.008441f,-0.009782f,0.045354f,-0.039845f,0.040157f,0.020014f,0.068098f,-0.047919f,0.094765f,0.046392f,-0.186585f,-0.029559f,-0.022680f,-0.039672f,0.004810f,-0.068025f,0.009405f,-0.028411f,0.026143f,0.014419f,0.046834f,-0.008463f,-0.051703f,-0.020002f,-0.031953f,-0.008844f,-0.029724f,0.007928f,0.057608f,-0.101351f,-0.046748f,0.020093f,-0.030481f,-0.049378f,-0.001745f,0.007050f,-0.028122f,-0.161682f,0.003470f,-0.062589f,0.025916f,-0.017445f,-0.031014f,0.010298f,-0.015488f,-0.032669f,-0.034511f,-0.062145f,-0.011009f,-0.025280f,-0.010310f,-0.014968f,0.051154f,-0.070039f,0.023224f,-0.019395f,-0.019980f,-0.102640f,0.007089f,0.016643f,-0.049382f,0.004031f,0.072515f,0.005120f,-0.034019f,0.012208f,-0.068051f,-0.027925f,0.070749f,-0.040983f,0.024029f,-0.075091f,-0.021358f,0.048256f,-0.103050f,0.029441f,-0.024918f,-0.006699f,-0.036041f,-0.177310f,-0.070768f,-0.027837f,-0.105485f,0.012152f,0.016769f,-0.016573f,0.018549f,-0.022184f,-0.042607f,-0.015110f,0.009850f,-0.005609f,0.006285f,0.031733f,-0.093054f,0.039512f,-0.026659f,0.033861f,-0.036567f,0.051787f,-0.027785f,-0.084381f,-0.025508f,0.012963f,0.010290f,-0.040216f,-0.064862f,-0.010077f,0.004055f,-0.031474f,0.025005f,-0.105087f,-0.038122f,0.027701f,0.016354f,-0.032309f,0.016975f,-0.060392f,0.012015f,0.010206f,0.025014f,-0.048256f,-0.038057f,-0.036910f,0.010732f,0.004654f,0.089755f,-0.037208f,0.023436f,0.056869f,-0.085613f,0.023137f,-0.004966f,-0.015887f,0.019115f,0.018813f,-0.047548f,-0.050938f,-0.043666f,-0.053548f,-0.037722f,0.022393f,0.002869f,-0.109569f,-0.098399f,-0.038529f,-0.063126f,-0.172463f,-0.121812f,0.025651f,-0.013608f,-0.007716f,-0.036041f,-0.007208f,0.002877f,-0.022085f,0.055059f,-0.150515f,-0.068836f,0.073436f,0.023018f,0.119928f,0.016865f,-0.012012f,-0.029087f,-0.006083f,0.015384f,0.131872f,-0.024590f,-0.033652f,-0.042718f,-0.038015f,-0.017639f,-0.013345f,0.013719f,-0.049699f,-0.071879f,-0.000617f,0.012431f,-0.012535f,-0.037534f,-0.062402f,-0.009145f,-0.044177f,-0.000185f,-0.122825f,0.060860f,-0.038110f,-0.008961f,-0.022660f,0.059177f,-0.013712f,0.015131f,0.012414f,-0.002227f,0.009723f,0.013553f,-0.017614f,0.079523f,0.146083f,-0.067546f,-0.034536f,-0.011845f,-0.130048f,-0.002666f,0.024879f,-0.019798f,-0.066699f,0.025474f,0.009786f,0.003024f,-0.169186f,0.030187f,-0.007926f,-0.054661f,-0.014589f,-0.082734f,0.015643f,-0.074618f,0.016041f,-0.007729f,-0.029057f,0.007845f,0.045384f,-0.019936f,0.152440f,-0.039385f,-0.058309f,-0.000389f,-0.013975f,0.023250f,0.050536f,-0.018985f,0.003881f,-0.068104f,-0.021303f,0.010048f,-0.033134f,0.002843f,0.002139f,-0.095619f,-0.035136f,0.022571f,0.016312f,0.020574f,0.017590f,-0.080162f,-0.030683f,0.018984f,-0.097519f,-0.100804f,0.008490f,0.094823f,-0.026848f,0.053400f,-0.080443f,-0.050762f,-0.028016f,-0.033840f,-0.029167f,-0.029494f,-0.033609f,0.113953f,0.110006f,-0.009728f,-0.063313f,0.026895f,0.080697f,0.025479f,-0.029857f,0.018003f,-0.060599f,-0.034002f,0.026364f,0.007855f,0.060551f,-0.116471f,-0.035679f,-0.025269f,0.087428f,0.004640f,-0.036173f,0.005253f,0.029308f,-0.031564f,-0.091020f,0.028651f,-0.075937f,-0.041741f,-0.090872f,0.004202f,-0.072318f,-0.016820f,-0.059451f,-0.011962f,-0.016644f,-0.023622f,0.009089f,0.020269f,-0.004869f,-0.051317f,0.002674f,-0.015619f,0.092364f,-0.104300f,0.003708f,-0.059037f,-0.059067f,-0.051284f,-0.037231f,0.084548f,-0.005216f,-0.030228f,0.057573f,0.028767f,-0.057905f,-0.114516f,-0.017194f,-0.118619f,0.060003f,0.019881f,0.023644f,-0.079568f,-0.018320f,0.141849f,0.014555f,0.029515f,-0.018800f,-0.018204f,-0.015447f,0.015459f,0.037967f,0.022572f,-0.028165f,-0.025728f,-0.016043f,0.008520f,0.010371f,0.044270f,0.010263f,-0.026183f,-0.025777f,-0.099149f,0.072152f,-0.056514f,0.021242f,-0.046108f,-0.005965f,0.012699f,0.015577f,-0.051543f,0.013029f,0.000253f,-0.090262f,-0.013402f,-0.050319f,0.014706f,-0.060549f,-0.034351f,-0.012310f,-0.082760f,-0.028577f,-0.001740f,-0.038297f,-0.007966f,-0.045123f,-0.011644f,0.017853f,0.030679f,-0.035028f,-0.050301f,-0.161000f,-0.032674f,-0.010547f,-0.084034f,-0.010473f,0.002768f,0.069105f,-0.012183f,-0.016691f,-0.031321f,-0.040471f,-0.093974f,0.040378f,-0.024034f,-0.013467f,-0.015509f,0.004565f,-0.044793f,-0.021733f,0.076926f,0.006511f,-0.021349f,-0.062266f,-0.074916f,0.082265f,0.007816f,-0.004413f,-0.023864f,-0.006861f,-0.106882f,0.011475f,0.082038f,-0.037531f,0.114481f,-0.048103f,-0.042571f,0.071019f,0.038551f,-0.014395f,0.032197f,-0.007532f,0.026876f,0.108934f,-0.038137f,0.025571f,-0.007324f,0.017263f,-0.041673f,-0.030155f,-0.016434f,-0.022452f,-0.003653f,-0.018057f,0.009203f,-0.042347f,-0.004522f,0.002049f,-0.045553f,0.002044f,0.028086f,-0.060488f,0.052094f,0.019535f,-0.009772f,-0.088468f,-0.012872f,-0.030805f,0.061163f,-0.047530f,0.018373f,0.007920f,-0.049171f,-0.172237f,-0.087760f,-0.010227f,-0.021659f,0.023639f,-0.032966f,0.023185f,-0.075830f,-0.026599f,0.007607f,0.013016f,-0.044145f,-0.001662f,0.031153f,-0.032556f,0.004499f,0.016800f,-0.010074f,-0.017770f,-0.006299f,-0.037159f,-0.145117f,-0.008826f,0.035921f,-0.085435f,-0.043257f,-0.042302f,0.155550f,0.044752f,0.000750f,-0.009482f,0.030017f,0.015172f,-0.050646f,0.067326f,-0.093694f,0.030190f,-0.026908f,-0.105292f,0.072529f,0.009259f,-0.023839f,-0.062055f,-0.026613f,-0.038377f,-0.044051f,0.010986f,-0.033724f,0.002811f,-0.048132f,-0.000855f,-0.039942f,-0.079930f,0.073284f,-0.018227f,-0.006183f,-0.070293f,0.041517f,-0.034792f,0.021748f,-0.019818f,-0.022318f,0.089928f,0.023087f,-0.110112f,0.094524f,-0.008633f,0.046848f,-0.013117f,0.022418f,0.016142f,-0.064889f,0.022139f,0.003472f,-0.041222f,-0.057578f,0.020700f,0.041569f,0.008264f,0.194142f,-0.033286f,-0.019812f,-0.073755f,-0.031715f,-0.048492f,-0.179333f,-0.008695f,0.040630f,0.010998f,-0.108802f,-0.034090f,0.027310f,-0.002026f,0.015045f,-0.039320f,0.014873f,0.028634f,0.091366f,-0.056277f,-0.100975f,0.088876f,-0.031281f,-0.046664f,0.031521f,-0.015252f,-0.031480f,0.102637f,-0.027630f,0.022813f,-0.000177f,0.010768f,0.005776f,0.022439f,0.000648f,-0.019269f,0.018387f,-0.034731f,-0.118352f,-0.027175f,-0.015778f,-0.070102f,-0.151662f,0.046819f,-0.027633f,-0.004378f,-0.041630f,0.134358f,0.025305f,0.029474f,-0.060196f,0.001820f,-0.177529f,-0.027455f,-0.021615f,0.003929f,-0.047336f,0.024216f,0.028201f,0.012246f,0.003648f,0.136519f,0.021593f,-0.066185f,0.146839f,-0.022101f,0.011837f,-0.030518f,0.015863f,0.082078f,-0.141843f,-0.031518f,0.009228f,0.096889f,-0.117884f,-0.000717f,-0.063674f,0.082025f,-0.018973f,0.027404f,-0.044172f,-0.003869f,0.060546f,-0.070803f,-0.018050f,-0.094874f,0.016533f,0.217604f,-0.005928f,-0.005280f,-0.001294f,0.066541f,-0.041214f,0.066565f,-0.185165f,0.003737f,0.036026f,-0.030046f,-0.042539f,0.010380f,-0.008648f,-0.005672f,-0.040955f,-0.015348f,-0.015441f,-0.000498f,-0.048813f,0.023426f,0.087769f,0.000949f,-0.036545f,0.028402f,0.098233f,0.117797f,0.088443f,-0.005661f,-0.145134f,0.026680f,-0.033343f,-0.014337f,-0.017049f,-0.019639f,-0.052815f,-0.003729f,-0.134215f,0.048286f,-0.174171f,-0.122834f,0.045281f,-0.141638f,0.016515f,-0.011037f,-0.029709f,0.045943f,0.007590f,-0.007095f,-0.036077f,0.043785f,-0.168522f,-0.034790f,-0.075007f,0.033877f,0.012887f,0.003293f,-0.038443f,-0.023596f,-0.090394f,-0.026834f,0.087772f,-0.094003f,-0.000906f,0.134538f,0.069086f,-0.026429f,-0.004869f,0.044914f,-0.017183f,0.073899f,0.028681f,-0.019260f,0.162024f,-0.038990f,-0.015592f,0.011573f,0.020693f,-0.030902f,0.050307f,-0.012064f,-0.034879f,0.138233f,0.012849f,-0.001128f,0.114881f,0.013310f,-0.038363f,0.024953f,0.028401f,-0.008458f,0.012013f,0.011226f,-0.094757f,-0.069999f,-0.019294f,-0.022343f,-0.018334f,0.000168f,-0.074278f,-0.009769f,0.004593f,0.065093f,-0.023554f,-0.037622f,0.018996f,-0.094713f,0.013558f,-0.000857f,-0.032241f,-0.006877f,0.002376f,0.024104f,-0.039225f,0.020512f,-0.024502f,0.003705f,-0.056268f,-0.006248f,0.028209f,0.009723f,0.022426f,-0.008037f,-0.000116f,0.014922f,-0.066295f,0.094005f,-0.009984f,0.033796f,0.018798f,0.006456f,0.000710f,0.036010f,0.001659f,0.015610f,-0.043304f,0.005114f,0.088805f,-0.047663f,-0.028708f,0.000429f,-0.027282f,-0.097566f,0.018929f,-0.030375f,0.031075f,-0.052999f,0.016124f,-0.035145f,-0.043378f,-0.050177f,-0.028098f,-0.025052f,0.035195f,0.099703f,-0.018377f,0.028397f,0.059618f,0.047244f,0.000244f,0.047126f,0.004748f,0.028830f,-0.052738f,0.019061f,-0.100582f,-0.007187f,0.083691f,0.022463f,0.041704f,-0.029902f,-0.046978f,-0.033622f,-0.034142f,-0.030032f,0.013413f,-0.005620f,0.040367f,-0.028104f,0.008924f,-0.032197f,0.047597f,-0.011706f,-0.002347f,-0.013631f,0.009835f,-0.024736f,-0.007547f,0.069980f,-0.050795f,-0.096643f,0.024427f,0.077577f,0.049671f,-0.062893f,-0.015284f,0.110811f,0.003763f,0.012622f,-0.200966f,-0.040760f,-0.017499f,0.000652f,0.002937f,-0.021997f,-0.032392f,0.033499f,0.047340f,-0.013229f,0.003696f,-0.044491f,0.017429f,0.028560f,-0.026154f,-0.047561f,-0.022269f,0.043393f,0.066637f,0.040342f,0.117379f,0.013384f,-0.097751f,0.072549f,-0.013392f,-0.129034f,0.058543f,0.017886f,-0.132268f,-0.023557f,0.013997f,-0.105833f,-0.098747f,0.055714f,0.011198f,0.048064f,-0.043795f,-0.063329f,-0.007600f,-0.101651f,0.049836f,0.003145f,0.038315f,0.034674f,0.109257f,-0.021370f,0.096254f,0.052951f,-0.034370f,-0.003632f,0.065067f,0.007846f,0.082113f,0.058148f,-0.070868f,-0.106532f,-0.026727f,0.104271f,-0.000082f,-0.013846f,-0.016705f,-0.034305f,0.022409f,-0.026888f,-0.083227f,0.024512f,-0.030229f,0.023715f,0.021595f,-0.002367f,-0.040784f,0.058493f,0.086803f,0.024115f,-0.084159f,-0.036733f,-0.027759f,-0.068188f,-0.001718f,-0.004935f,-0.031508f,-0.137091f,0.186677f,0.124968f,-0.030297f,-0.021971f,-0.023081f,0.154992f,-0.021562f,-0.138681f,0.074082f,0.022646f,-0.043553f,0.015007f,-0.047127f,-0.073962f,-0.078050f,0.046192f,-0.116446f,-0.068542f,-0.032444f,-0.064987f,-0.041526f,0.034448f,-0.083430f,0.028842f,-0.100624f,0.054578f,0.132398f,-0.101398f,-0.013704f,0.054691f,-0.066591f,0.015338f,-0.064529f,0.000781f,-0.004069f,0.037670f,-0.081228f,0.038741f,0.004282f,-0.030262f,-0.045982f,0.029242f,0.011895f,0.066597f,-0.008005f,0.033344f,0.014600f,-0.012393f,-0.001674f,-0.041381f,0.021196f,-0.017111f,-0.037600f,-0.049295f,-0.002272f,-0.030277f,0.013924f,-0.043901f,0.007007f,-0.082903f,0.083803f,-0.057095f,-0.016551f,-0.134944f,0.110067f,-0.002224f,-0.008706f,-0.032373f,-0.014864f,0.124998f,0.010623f,-0.091447f,0.190550f,-0.038217f,-0.056698f,-0.041260f,-0.119115f,-0.013713f,0.055306f,0.054850f,-0.011923f,-0.025815f,0.013135f,-0.031914f,-0.040631f,0.007786f,-0.054583f,0.003732f,-0.012490f,0.024481f,0.086820f,-0.016949f,-0.032412f,0.186580f,-0.012667f,0.019898f,-0.008769f,0.021539f,-0.023864f,-0.000283f,-0.069600f,-0.038051f,-0.017402f,-0.058307f,-0.045706f,-0.036104f,-0.035036f,-0.014566f,0.013857f,0.095693f,-0.053035f,-0.009038f,-0.092001f,-0.040098f,0.000861f,-0.041253f,-0.037133f,-0.086827f,0.002025f,-0.028598f,-0.031240f,-0.156905f,-0.214048f,0.050537f,-0.008046f,-0.011985f,-0.020395f,-0.183967f,-0.049763f,0.026222f,-0.036824f,0.026257f,-0.010554f,-0.002047f,0.003507f,0.115596f,0.119625f,-0.020390f,0.079872f,-0.000386f,-0.100580f,-0.020772f,0.128089f,-0.100092f,0.176072f,0.023419f,-0.039963f,0.000136f,-0.034119f,0.008959f,0.162295f,-0.005984f,0.089687f,0.007137f,0.038356f,0.067093f,0.024277f,0.101166f,-0.074084f,-0.002491f,0.083988f,-0.007763f,-0.102482f,-0.014072f,-0.026553f,-0.132260f,-0.033275f,0.095031f,0.036020f,-0.010042f,-0.008741f,0.004986f,-0.001145f,0.126629f,-0.154926f,-0.009021f,-0.053707f,-0.012142f,0.024476f,-0.009745f,-0.002702f,-0.058138f,-0.038257f,-0.022509f,-0.036918f,-0.078324f,-0.117421f,0.155951f,-0.072859f,-0.043448f,-0.004313f,-0.009372f,-0.073000f,-0.080007f,0.061683f,0.007459f,-0.127603f,0.017717f,-0.000204f,-0.049926f,0.120398f,0.002755f,0.037723f,-0.002709f,-0.136133f,-0.104537f,-0.030048f,0.071408f,0.191379f,-0.050599f,0.006983f,-0.025467f,0.008981f,-0.018057f,0.062710f,0.023589f,0.103653f,0.081811f,0.010054f,-0.056946f,-0.085694f,-0.000225f,-0.028038f,-0.027558f,0.128043f,-0.038196f,-0.292054f,-0.122517f,-0.091544f,-0.142157f,-0.007158f,0.047314f,0.098587f,-0.087506f,0.010574f,0.113751f,0.017422f,-0.010974f,-0.147833f,0.003513f,-0.003484f,-0.005349f,0.091879f,0.027323f,-0.025714f,0.006222f,-0.004481f,0.019349f,-0.053165f,-0.068279f,-0.068728f,0.048048f,-0.027237f,0.003425f,0.024583f,-0.126246f,0.060800f,-0.044851f,0.047588f,-0.007888f,-0.220253f,0.003536f,0.021641f,0.042007f,0.140969f,0.012986f,-0.025685f,-0.020029f,-0.002174f,-0.037539f,-0.087859f,-0.015696f,-0.060429f,0.032816f,-0.003903f,0.017360f,-0.007562f,0.009049f,0.083396f,-0.009297f,-0.039850f,0.028479f,-0.056830f,-0.046766f,-0.047462f,0.023943f,-0.041154f,0.009679f,-0.024025f,-0.029908f,-0.033983f,0.059979f,-0.049419f,0.025629f,-0.011350f,0.070545f,-0.004334f,-0.079252f,0.020180f,0.079224f,-0.000247f,-0.012111f,-0.074370f,-0.027231f,0.024766f,-0.007432f,-0.006746f,-0.039290f,0.013982f,-0.008382f,0.063391f,-0.030542f,0.032664f,-0.093605f,0.027418f,0.058854f,-0.060931f,-0.058993f,0.017069f,-0.052943f,-0.043673f,0.061891f,-0.016280f,-0.009189f,0.085500f,0.013945f,-0.004031f,0.000486f,-0.063892f,-0.023955f,-0.082053f,-0.006154f,-0.080146f,0.069960f,0.010993f,0.163759f,0.039393f,-0.016655f,-0.044568f,0.019065f,0.019478f,-0.120579f,-0.034586f,-0.019684f,0.048311f,0.077301f,-0.016654f,-0.074353f,0.067187f,0.096874f,0.006987f,-0.030805f,-0.132716f,-0.029670f,0.078762f,-0.064243f,-0.186758f,-0.060511f,-0.025063f,0.058609f,0.096205f,0.006551f,0.018227f,0.008825f,-0.024913f,0.143796f,0.083585f,-0.023787f,0.057334f,-0.037114f,-0.020087f,-0.009410f,-0.039885f,-0.034056f,-0.046681f,-0.012995f,-0.014039f,0.044505f,0.007612f,-0.034872f,-0.021531f,-0.042571f,-0.029187f,-0.246142f,-0.103048f,0.024568f,0.013362f,-0.027165f,0.035544f,-0.014056f,0.029456f,-0.047315f,0.082361f,-0.035641f,0.048471f,-0.029673f,0.003978f,0.060747f,-0.089894f,0.093515f,-0.013237f,-0.014924f,